tried 时 0.000431983
tried 当且仅当 4.64741e-06
tried 则 0.000201854
tried 类定义了 3.98939e-06
tried 如果一个 4.84473e-05
tried 协议 4.22798e-05
tried 迭代 3.44192e-06
userdefined 于 6.69153e-06
thesecond 所指定的 1.56525e-05
x1 1 0.000129688
textuallyrightmost 文本 1.12061e-05
thecorresponding 存放 2.20026e-06
unambiguously 作用域 1.48099e-05
bindings 名称 2.3094e-06
identifiers 名称 2.93591e-06
stringor 字符串或 7.62608e-06
without global 7.66662e-08
impossible 用 3.27871e-05
thefuture future 2.63248e-05
new future 1.82925e-07
argumentlike occurred 2.01456e-05
argumentlike 参数 0.00033642
it 关联到 2.59839e-09
evaluates 会 4.27898e-06
active 重新引发 2.01895e-07
namefrom 从 0.000173543
annotations 如果 9.68094e-06
performed 增强赋值 1.37542e-07
assigned 指定 8.65e-07
assigned 整数 7.27654e-07
rebound 绑定 3.2886e-05
assigns 从左至右 1.48881e-06
the 产生一个 5.11559e-10
and 一个字符串 1.94849e-09
and 转换为 4.0714e-09
evaluates 指定 9.90527e-07
module 想要 7.65427e-09
is 原因 1.9013e-09
thecurrent 每个 5.47561e-06
parents 第一个 1.48754e-06
parents 当前 2.11307e-06
checkswhether 会 0.000189293
spec 信息 8.9881e-07
spec 所使用的 5.93736e-07
on 作 2.00574e-08
the 名称的模块 5.23257e-10
encountered 被调用 5.85123e-07
considered path 2.64272e-07
by 类实例 1.95198e-09
repair 能 2.73137e-05
enclosing 包含 5.05019e-06
also 绑定 2.03353e-08
are 毁 4.48151e-09
support 基于 1.24081e-07
this typex 1.66072e-09
anoperation 运算 3.85971e-06
quoting 邻 2.71924e-06
to 显式 2.06618e-09
digits 至9 5.79905e-08
intended 是为了 3.18834e-07
eight 数 1.38669e-05
and 八 2.79247e-09
used 结构 1.05586e-07
used 段落 1.14578e-07
used 的空白 3.68959e-09
must 也 3.1465e-07
be 会将其 2.68627e-09
anexception 如果在 1.14038e-06
1if 1 3.31201e-05
writing 代码块 5.79484e-08
to 转换 2.30371e-09
to n 6.58164e-09
to 出现的 2.60767e-09
use 我们可以 7.20397e-09
by 所以 4.95826e-09
are 下面的例子 1.71358e-09
when 更新 9.81275e-09
when 包 2.32273e-08
somehow 以 4.66594e-05
unintentionally 目录 5.38093e-05
in 表示 4.59062e-09
modules 模块名 1.29864e-08
the 模块名 4.47718e-10
name dict 4.81122e-08
name 的字典 5.43806e-08
only 类 1.55985e-07
a n 4.71525e-09
method 一个具有 8.014e-09
definition 带参数 1.1545e-07
we 做 2.43959e-07
can 在我们 4.23968e-09
entered 重新 1.19794e-05
just 作用域 1.18381e-07
effect 的局部 3.12347e-06
and 起作用 1.52648e-09
effect 进入 2.32024e-06
left 从 1.01981e-06
mustbe 必须 5.56699e-06
printafter global 3.10268e-05
alongwith 及其 3.06693e-06
supported 日期和时间 3.02231e-08
sets 会 4.7228e-06
from 在命令行 2.85841e-09
previously 也 9.69467e-07
file ifos 3.68895e-09
going dynamics 4.72107e-06
going 浏览器 5.86424e-06
going 你可以在 8.46618e-06
python 其 3.8307e-08
thenthe 需求 3.01683e-05
meetthe 满足 0.000101952
to 二进制 2.09206e-09
appends 快 6.89529e-06
appends 但 3.03536e-05
an 提供了一种 3.33959e-09
or 配置 3.97434e-08
executed 即使 7.22102e-08
errorsthat 错误 3.05757e-05
lines 显示 1.3128e-07
to ieee 2.01771e-09
forcontinuation 输入 2.28341e-05
the 输入 2.08797e-09
set 就 1.22439e-06
into 转化为 2.69075e-08
no 制表符 2.05385e-08
equivalence 转化 1.6614e-05
stringliterals 行 6.53687e-05
verb 是 0.000207875
created 可以用 2.78943e-08
arenot 能 6.24918e-06
printrange10 奇 6.14426e-05
short 写 2.60975e-07
rest 表达式、 6.92112e-07
rest 介绍 1.34233e-06
files 完成 6.22313e-08
task 些 9.53646e-08
on 些 7.00241e-09
and 结果 3.26853e-09
demonstration 示例 1.84491e-05
a 这种 2.28998e-09
anexplicit 指定 3.14907e-05
before 的 3.39713e-06
unpacked 包 8.64058e-06
unpacked 行 1.0002e-05
unpacked 源码 1.29471e-05
unpacked 解压缩 1.07325e-05
if pyargparsetuple 4.33224e-09
more 会 4.76602e-07
say 就 2.38267e-06
say 上 6.69316e-06
say 写 3.97484e-06
say 你必须 6.32277e-07
instructive 帮助 7.25079e-06
order 开发者 3.98893e-08
order 稳定 4.11478e-08
have 稍 1.6042e-08
platformspecific 哪些 9.99585e-07
beassigned 一些 2.2538e-05
pythoninternally 包括 7.33806e-05
pythoninternally 司 0.000918081
pythoninternally 公 0.00263774
pythoninternally 大 0.00490874
pythoninternally 的 0.00374485
pythoninternally python 0.0322421
thatuse 查看 3.62299e-05
book 还是 6.72754e-07
systeminterfaces 接口 8.00682e-05
systeminterfaces 操作系统 2.65545e-05
beginnersguide 指南 5.4444e-06
assign 将 2.42899e-05
theresults 的结果 6.9507e-06
will 您 1.18092e-08
aglobal 全局变量 5.39626e-06
but goto 5.02623e-08
have 用 1.19971e-07
any 如果要 9.59662e-09
you java 1.18412e-08
compiler 是一个 1.02976e-06
dont 内部 2.29581e-07
somehow 时 5.72381e-05
processor 来执行 9.98391e-07
overview 对 4.92414e-06
is gil 2.17573e-09
builtin 原子 1.53577e-07
builtin intlistdict 8.10936e-09
will 5 1.69869e-08
currently 存 4.0414e-07
still classnamespam 7.68598e-08
combination 两个 1.25019e-06
with 转换为 5.26589e-09
allow 有一些 1.07669e-07
interpreter 翻译 1.05915e-07
toremember 了解 4.52993e-05
list 了解 2.29723e-08
from 你想要 3.78779e-09
a 语法 2.02343e-09
where 使得 5.41335e-08
function 进行 5.57741e-08
already mydict 1.20757e-07
first 解释 1.19668e-07
first 就可以 5.54005e-08
first 考虑 1.18489e-07
arrayinitializers 模块 0.000209352
arrayinitializers 然后 2.31963e-05
colors 会 1.89077e-05
compiler 之外 4.51875e-07
also 必须使用 7.34628e-09
to 这样 1.69845e-09
systemsto 系统 3.54944e-05
make 足以 1.08034e-07
packages 运行时 8.25502e-08
listof NULL 0.0013779
thisshould 选项 1.16599e-05
it 重载 1.28069e-08
how 细节 7.42121e-08
how 操作 1.88983e-06
how 上 5.88513e-06
how 替换 2.57948e-07
how 现有 7.09769e-08
be 元数据 4.21097e-09
here 拷贝 2.17606e-07
thepage 描述了 1.16904e-05
asthe 作 2.39645e-05
when 与 4.44781e-08
exist 需要 1.34588e-06
exist 并且 1.98486e-06
is 很大 1.22867e-09
manipulating 地址的 8.3156e-07
ipaddresses ip 3.47755e-05
usingthreads 那么 7.71032e-05
usingthreads 正 2.08808e-05
these 交换 6.24665e-08
these 适当 3.09367e-08
as curses 4.53719e-09
within 之一 7.52603e-08
def cmptokeymycmp 1.9769e-08
a 排序 2.12044e-09
thatbuilds 构建 0.000138443
for 来执行 2.63669e-09
tried NULL 0.00605858
the 一样 2.03579e-09
in 引用 2.45323e-09
structure 对 1.68642e-06
structure 也可以 1.10373e-06
group 也可以 1.02112e-07
structure 感兴趣的 1.4048e-07
searchingthrough 搜索 6.48728e-05
arent 通常不 4.45232e-07
detects 检测 2.90134e-06
same 大致 2.81962e-08
its 它是一个 1.64643e-08
u212a is 5.89626e-05
followed 以及 3.78407e-06
ora 或 0.000351672
opposed 正则表达式 2.88765e-05
its 示例 7.32471e-08
more 终结 2.4561e-08
readers 还 1.53974e-05
reasonable 假定 8.67086e-07
all 不存在 1.56116e-08
at 中我们 1.86373e-08
in 中的任何 1.0908e-09
character 数据库中 2.87549e-08
automata 自动 1.24874e-05
python 业 7.57111e-09
highly 的、 2.76386e-06
intext in 0.00123256
in inpythonutilizing 6.42355e-10
sum 使用内置 2.76846e-07
little 可以让 5.18076e-07
just 通常 5.07186e-07
returned 一个可以 2.43113e-08
language haskellhttpswww 1.2711e-08
how 知道 4.84005e-08
for 目标 2.80971e-09
subject 目标 5.27806e-06
withoutproducing 却 1.3809e-05
instead import 2.78284e-07
to 夹 3.28974e-09
defaults 输出 4.19625e-07
that 发生异常 3.06811e-09
will 子类 6.83307e-09
last 存储在 4.30384e-08
milliseconds hms 8.97202e-05
milliseconds 格式 1.61169e-05
logfile 消息发送 6.26344e-06
ofthe 根 7.81706e-07
arranged 句 6.8863e-06
get 利用 4.68754e-08
full 内容 2.28742e-07
tospecify 你需要 2.3858e-06
0 个 4.62774e-07
then 对 4.70215e-07
is 临时 2.05966e-09
block 所 1.59671e-06
omitted 语句 4.46121e-06
follows 省略 2.04729e-07
follows 示例 2.59243e-05
eat 处 8.80513e-05
but 实 4.48627e-08
logging 的情况下 7.63415e-08
configuration 服务器 1.20936e-07
4 可迭代对象 2.79033e-08
startedfinished 完成 8.11561e-05
callreturn 函数调用 1.35432e-05
in 2 1.09344e-08
bootstrapping 引 6.99013e-06
by 572 5.1543e-09
are adddlldirectory 2.04917e-09
parallel 宏 1.4611e-06
first 的内容 4.20836e-08
importingextension 扩展模块 0.000145655
importingextension 导入 0.000270073
windows 导入 1.24761e-07
aredocstrings 文档字符串 2.48696e-05
locationsincluding 包括 7.43284e-05
4258 42581147147 3.21953e-05
copiesand 效率 1.86149e-05
copiesand 传输 3.12794e-05
whose 这 2.78408e-06
if config 5.67245e-09
embed 必须 6.27101e-06
changed 允许 8.07939e-08
13see 参见 8.56506e-05
0b10101101the the 0.000526608
having 进入 1.26102e-06
both 足以 4.84928e-08
bpo22257 进一步 2.08461e-05
bpo22257 报告 0.00122224
bpo22257 贡献 0.00750777
bpo22257 的一部分 9.72116e-05
were 字母 4.20622e-07
were ascii 1.38403e-06
were 替换 3.36315e-07
setting 做法是 5.92053e-08
sortingthe 所有 2.53016e-05
themes 已 2.35665e-05
themes 自定义 1.23971e-05
threadingmixin 请求 1.97881e-05
can processpoolexecutor 8.91581e-09
contain 是否 1.99783e-06
contain 字节串 4.26381e-07
now 也可以 1.30456e-08
nowused 中 0.000311275
in 代 3.18007e-09
available 子进程 4.73021e-08
available 关 3.78884e-07
available 不必 2.56763e-06
warningsemitted 信息 0.00050054
warningsemitted 警告 0.0022097
warningsemitted 启用 0.000772764
warningsemitted 显式地 6.10284e-05
debuggingpotentially 潜在 0.00011632
debuggingpotentially 调试 0.000148901
assist 调试 3.95034e-06
debuggingpotentially 辅助 0.000112243
interpreter 字符串 3.2426e-06
constant 字符 6.59341e-07
a 不带参数 6.48586e-10
now 上 1.58071e-07
level 可能 1.17246e-07
optimization 可能 2.52743e-06
possibility 指定 1.70961e-05
level 多次 5.37364e-08
possibility 多次 3.10835e-05
possibility 为 0.0158176
possibility 使得 0.000600358
possibility 并 8.93859e-05
can 表达式 2.09175e-08
only 你可以使用 9.52418e-09
nextpython 后 0.000130263
beenremoved 移除 1.69553e-05
used 应 2.60102e-08
methodsthe the 0.000354715
refer 应 5.63168e-07
its 本机 2.26012e-08
and 而无需 1.36744e-09
available 来 2.80234e-07
when 关联 6.94752e-09
oneargument 单 2.14496e-05
int 形式返回 3.39793e-08
fromthe 之外 0.000119824
fromthe 函数 0.00032693
fromthe 内存块的 3.42777e-06
as fatal 3.83784e-09
previous 释放 2.16121e-07
and pyobjectfreevoid 2.17704e-10
is 全部 1.55468e-09
integer 形 6.59094e-08
integer 整 1.03085e-07
invokes 调用 6.02804e-05
build 创建一个 5.44939e-08
of 参数必须是 3.48087e-10
argument 类型 1.74813e-06
argument 旧 2.49127e-07
argument 构 4.33805e-07
parameters 存 1.66287e-07
nested 圆括号 9.67347e-08
maynot 可能 1.25529e-05
result 1 6.47405e-07
pyssizet i2 pyssizet 5.46818e-05
under 头文件 1.19936e-07
either 是一个 2.87899e-07
convert 自动将 1.17042e-07
taken 则返回1 1.15142e-06
in usrlocalbin 1.49285e-09
usrlocalbin 的符号链接 6.76403e-05
in 的符号链接 2.11458e-09
youwish 如果你 1.93395e-05
yourself cpython 1.10154e-06
should 如果你想 1.14213e-08
of pywin 5.91542e-09
thiscontains 包含一个 4.35009e-05
inside 子目录 1.73983e-07
have 缓存​​ 1.7011e-08
specified 如 2.15263e-07
are 能够 9.49027e-09
installation 作 1.01166e-06
in 命令 2.39961e-09
versions ？ 2.08641e-07
all 针对 1.43879e-07
direct 直接使用 2.55506e-07
consistentlyeven 即使 6.72765e-06
dropped 数量的 8.4932e-07
resized 相应的 3.63606e-06
negative 抽取 1.35371e-07
fields 子类 1.08812e-07
callresults 结果 3.44786e-05
can 现在将 6.41857e-09
enough 则会引发 1.20226e-05
pointing 创建一个新的 7.50815e-07
eventctypes 引发一个 4.24116e-06
foreign 引发一个 1.05883e-05
failed 成功 7.83304e-06
instances windows 1.63771e-05
after 知道 2.39106e-08
would 启动 1.26708e-07
instances 一个 1.00498e-06
can 赋值为 6.07854e-09
returns ctypes 5.57998e-08
knowwhat 自己 0.000157489
knowwhat 知道 0.000129764
knowwhat 确保 9.15598e-05
number 要 1.76802e-07
sending 被设为0 1.94778e-07
available 之前的 5.48619e-08
bedirectly 允许 1.94881e-05
in 指令 2.16839e-09
by callmethod 2.68313e-09
method 类的实例 9.75793e-09
method 派生 2.82306e-08
append 或 5.5829e-06
can 一样 1.05558e-07
when 平台上 4.80197e-09
covered 下 4.13932e-05
covered 一 2.91226e-05
covered 前 3.82351e-05
covered 需要 4.61373e-06
guidelines 描述 3.34369e-06
covered 描述 2.06014e-05
covered 虽然 4.58477e-06
covered NULL 0.000684669
thenmultiprocessing multiprocessing 1.24808e-05
nothing 不 4.13212e-06
languageyou 解释器 3.22777e-05
functionand 以及 9.73615e-06
namelookup 名称 3.25813e-05
theinterfaces 的基础 1.74454e-05
preceded 带有 2.78291e-06
efficientapi api 7.65898e-05
efficientapi 高效 4.93895e-05
going NULL 0.00202581
limit 参数为 1.26247e-06
relevant 时 5.16699e-06
relevant 用 2.99939e-06
opened 写入 3.45583e-07
turn 完全 7.53226e-07
may 可通过 1.62338e-08
methods 仍 2.43385e-08
values escaped 3.14846e-08
on 50022 1.01684e-08
iscryptographic 字节数据 1.17332e-05
n numbern 2.15631e-08
because 一些 1.20564e-07
a 组成 1.48581e-09
that 组成 4.81355e-09
are 参数是 3.20714e-09
orstr str 1.83724e-05
derived 从 1.80105e-06
mapping 模块层级 6.78174e-08
seek 和2 1.04529e-06
needed 于 1.82228e-06
methods 如果存在 4.86127e-08
additionally 额外 2.10343e-06
generators 使 1.34523e-06
generators 演示 7.19837e-07
generators 动态 6.73276e-07
shapes 开 3.43376e-06
generators stamp 4.96114e-07
generators 铺 1.17103e-07
as koch 1.44627e-09
contains 目录中 9.70745e-08
created 导入时 2.80509e-08
interval 连续 2.84652e-06
interval 等于 1.40542e-06
screens 注解 0.000155586
screens 形状 0.00140472
screens 的 0.0401429
screens screen 0.185887
screens 添加到 0.00150615
screens 对象 0.131914
actions 上限 8.00653e-07
then 该对象 2.58198e-08
align 对齐方 1.96185e-06
current pensize 2.23565e-08
specified 连 3.86389e-08
pencolor 多个 1.35858e-06
set 些情况下 5.18794e-08
set 这 1.2906e-07
devices devurandom 1.10506e-06
processes 标准输入、 6.16115e-08
stdin 文件描述符0、1 1.57844e-07
processes 但 5.42281e-07
descriptors 子进程 4.0715e-07
and andexcept 5.99722e-09
and following 4.0024e-09
the all 8.74605e-10
if 代码对象 3.02723e-09
to 只 5.43294e-09
reverse 即 9.1639e-07
limitations 特定 8.52577e-07
zipformat zip 1.21688e-05
zipinfo 会通过 1.3262e-06
instances 会通过 3.5617e-08
canhandle 处理 0.000725389
canhandle 它可以 9.55448e-05
was 启动 2.05298e-08
was 解释器 2.41813e-08
through 子集 1.08844e-07
guaranteed func 4.66081e-07
passed 作为参数 7.71657e-08
pythonfatal python 0.000384624
docstrings a 5.23112e-06
value example 6.6831e-08
2 直接 1.94978e-08
example range 1.63052e-08
are perform 7.95552e-09
segments 部分 8.46527e-05
segments 各个 9.06726e-05
segments 文件名 0.000126896
on 分隔符 5.95822e-09
methodsends 客户端 6.68535e-06
sendsdata tcp 4.54101e-05
result 会 4.52619e-07
result 来说 8.7064e-08
anymore 被调用 5.23009e-06
lower 小于 5.03682e-07
lower 或 1.41293e-05
asynchronously 发出 3.37128e-06
between 和1 2.12506e-08
and 的不同 2.46877e-09
translated 写 3.83251e-06
translated 改 4.4965e-06
least 显示 4.86374e-07
significand 之后 7.29091e-05
significand 的末尾 2.2234e-05
significand 有效 0.00101601
number 以2 1.02968e-08
alignment 字段 7.52378e-07
combination 和 1.69592e-05
new 该方法 2.15017e-08
new 注解 3.23921e-07
differentlysee 参见 0.000101025
truecomparisons true 4.58221e-05
zaps 缓冲区 1.87261e-05
up 属性 2.89742e-07
win32service 则会使用 2.11435e-05
log 路径 3.69577e-07
are 则会使用 2.26022e-09
classlevel 被作为 4.1413e-06
relevant NULL 0.000277162
off 算法 4.78015e-07
off 回退 1.8761e-06
such 必要的 3.32832e-08
writing 已 7.38171e-07
and 直到 1.94318e-09
while 行 2.39706e-07
while 发 1.85989e-07
while 同 1.80604e-07
the 实体 8.01797e-10
precreated 预 1.54026e-05
also 但 4.96767e-08
computationaloperations 而 4.1618e-05
extract 目录 7.32335e-07
to 结果 3.01024e-09
they 也可以在 1.74192e-08
with decimalinfinity 2.59785e-09
precision seminumerical 1.82189e-08
can 某些 9.76931e-09
returns 捕获 3.0725e-08
ibm 描述 2.22925e-05
reduced 数 8.87792e-06
representable 例 2.70518e-05
representable 实 1.88993e-06
ofa 上下文 3.94145e-06
isencountered 信号 3.64846e-05
based 件 2.49305e-07
overthe decimal 1.55088e-05
overthe 优点 0.000254241
overthe 下 8.14154e-05
overthe 以 3.11463e-05
overthe 相比 0.000234075
overthe 数据类型 4.84169e-06
overthe float 3.45353e-05
overthe 与 0.00576528
overthe NULL 0.00171121
maximum 的数量 2.18585e-07
work 有 5.01534e-07
that 指定 7.89839e-08
with timeout 7.73494e-09
provided 将 1.52507e-06
torun 准备 1.48868e-05
torun 日程 3.72149e-05
compiled 不支持 1.6119e-07
streamsone 可读 0.000223585
streamsone 一个 0.025567
streamsone 二进制流 0.00314193
streamsone 提供对 1.50984e-05
streamsone NULL 0.00588392
readable 对应于 1.08546e-06
those 继承自 7.84071e-08
used 打开 1.44416e-08
opening 新 2.87291e-06
code 这是 1.94038e-08
locales 的完整 1.01181e-05
locales 日 1.59744e-06
valueerror 会引发 1.64632e-07
exactly 等于246060 6.37565e-08
detail 具体 6.55485e-07
whether 取决于 6.58429e-08
whether 代表 1.7314e-07
whether 完全 1.905e-07
numbers 所有 2.26393e-07
denormalized 浮点数 1.232e-05
denormalized 正 6.35047e-05
satisfies 满足 2.59962e-05
remainder 风格的 1.71608e-06
ceiling 换句话说 1.65848e-06
handled 将根据 1.92059e-07
and 复数的 9.42991e-10
applicationseither 应用程序 1.84073e-05
some 因为 5.05168e-08
awaiting wait 1.1266e-05
recovery 应用 4.81112e-05
recovery 密码 7.45407e-05
recovery 其中包含 3.16454e-05
hardtoguess 其中包含 1.63579e-05
hardtoguess 临时 0.000305922
hardtoguess 的 0.00803298
hardtoguess 测 0.0070034
hardtoguess 猜 0.00279147
hardtoguess 难以 8.18501e-05
hardtoguess NULL 0.00602422
tokens int 2.82849e-06
tokens 指定一个 3.01935e-07
functions 你可以通过 1.34164e-08
provides 后 2.79161e-07
tool 或 1.52817e-05
tool 任务 6.53566e-06
tool 多 3.44678e-06
tool 式 3.40348e-06
tool 作 3.04232e-06
replaced 轻松 5.75035e-07
have 捷 3.20618e-09
may 捷 1.5464e-08
usingthis 该 2.91074e-05
modulesdescribed 命令行接口 7.00601e-05
modulesdescribed 这里 0.000294828
modulesdescribed 目前 8.15738e-05
grgid 为空2 1.00356e-05
many 但是如果 3.64266e-08
is 区别在于 9.00162e-10
operations 的通用 2.94552e-08
oncallables 描述的 1.17296e-05
strings 支持 2.77115e-07
strings 额外 6.80049e-08
which 构造器 9.99001e-09
between 顺序 1.16094e-07
an 那些 8.30973e-09
add 获取 2.05004e-07
add 名 1.28426e-07
counts 设计 4.33939e-07
running 而 2.88564e-07
counts 大于0 6.99403e-07
order 每个元 1.38172e-08
chain to 0.0022534
chain updates 7.82419e-05
chain class 7.09615e-05
chain 它 0.0151539
chain 来实现 1.85294e-05
chain 子类 1.0547e-06
chain 定义一个 6.88133e-06
chain 通过 5.20226e-06
chain 很容易 4.19334e-06
chain 也可以 3.86486e-06
chain 如果需要 6.61907e-07
chain NULL 0.036756
also pop 1.28013e-08
keyparameter key 2.02886e-05
when tzpath 4.95543e-09
in 自动换行 1.58506e-09
the 注解 2.18309e-09
deserializer 限制 4.19678e-06
used 属性 4.22912e-08
validjson json 2.41573e-05
willautomatically 表示 1.32337e-05
instantiated 要 1.90074e-06
longrunning 运行 1.1201e-05
to 复杂 2.6101e-09
adds 复杂 3.98045e-07
there 就 2.5524e-07
because 这样的 4.22719e-06
because 器 1.7849e-06
because 和 5.97219e-06
existing fileconfig 1.89518e-07
linenumber 字符 0.00257787
linenumber 该 0.00139325
linenumber 号 0.00154049
linenumber 行 0.00171485
linenumber 则返回 0.000366861
linenumber 每次 5.98608e-05
forthe 该 5.26435e-06
it 调用 2.65623e-08
frames 定 2.8718e-06
frames 与 8.52799e-06
was 关闭 3.5864e-08
was 打开 1.04306e-07
directly 而 4.07205e-07
settings 取决于 1.2325e-07
sockets accept 4.62282e-07
its 错误 2.13839e-06
its 超时 4.62985e-08
its 如何 3.05008e-07
its 无论 3.70441e-08
objectwhose 其 0.000174216
inheriting 从 4.63528e-05
by 模块 4.50065e-08
callableint asyncqueryonsuccess 5.92145e-06
accidentally 意 5.4698e-05
accidentally 无 5.75886e-05
youpass 你 0.000466007
youpass 可以让 3.79973e-05
checker 检查 7.67225e-06
used 也可以通过 8.1478e-09
no 处理程序 3.11195e-08
to 标记 2.19479e-09
strings 则 8.8585e-07
context 关键字 1.24828e-07
for 管 4.70415e-09
regardless 断 2.21417e-06
regardless 间 1.35549e-06
the 稍后 5.26996e-10
andcreating 创建 6.06427e-05
that 框架 6.25372e-09
in 显示 3.01106e-09
in 每 2.47193e-09
should 并且不 1.73849e-08
mark 前缀 5.09505e-07
valid 适用于 5.60123e-05
valid 保证 7.50517e-07
valid 有关 3.11898e-07
valid 所描述的 9.17405e-08
valid NULL 6.05795e-05
test 起来 1.02729e-07
names 因此 9.01766e-06
names 错误 1.47449e-05
names 测试 5.56999e-07
names 框架 3.36247e-06
will 框架 2.69105e-08
names 引发异常 7.14776e-08
names 方法 7.96414e-07
option unittest 3.30698e-08
names 都 3.38528e-07
collects 后者 2.10107e-06
few 命令行参数 4.94813e-07
few 部分 9.04687e-06
options 长度 1.1959e-07
inclusion paper 1.10392e-06
appends 将 0.000304255
list 是一个包含 1.08164e-08
through 完成 0.000223524
through 你 1.82708e-06
through 引 3.25036e-07
walk 引 1.99504e-05
through NULL 0.000100007
the 假设 6.54526e-10
transmission 传输 5.83432e-06
value 16 3.67077e-08
value line 4.87032e-08
rd 是通过 1.23965e-05
by 很有用 1.2832e-08
by 数据结构 3.42043e-09
displaymatch 显示 9.25327e-05
have 组 3.4356e-08
have 命名 3.8078e-08
was 值 1.31317e-07
give 样式 1.67901e-06
2 如果一个 1.01185e-08
m group 6.88332e-08
rn 因此 7.2962e-06
it 结果 8.86225e-09
hosterrno 主机 3.671e-05
ahistory 主 2.00836e-05
aresupported 大致 5.60917e-06
those 来创建 8.2095e-08
its 制表符 2.29642e-08
specified 可以使用 4.05505e-08
helpful 这样做 3.3874e-06
from 应该 5.66018e-08
setting NULL 6.46508e-05
intraline 外 2.14002e-05
will 按 1.21608e-08
on 格式化 6.42149e-09
followingmethods error 2.79451e-05
see 在 1.10859e-06
see 来 1.44747e-07
get 将 9.5981e-07
here 的常量 8.68494e-08
when 默认 1.67108e-08
are 异常 3.68648e-08
andsome 一些 0.000110252
andsome 和 0.000183769
subclasses repr 2.67337e-07
when 破坏 7.02014e-09
class was 1.86504e-08
functionor 或者 4.23001e-05
command 历史 6.72613e-08
command typing 5.73174e-08
choices 选项 1.1597e-05
under 详细信息请参 8.91747e-08
entered 后 3.6949e-06
in 管理 2.0671e-09
if 查找 1.71157e-08
associating 其 0.000113334
and 栈 1.82415e-09
and 堆 2.33995e-09
array 按 1.48839e-07
array 数据 4.24992e-07
orinteger 形式 8.68972e-05
behaviour 计 2.74221e-07
and 而非 1.85439e-09
support NULL 7.17159e-06
isaccessed 可通过 7.26535e-06
setting 因此 4.41335e-06
really 实际上 1.037e-06
is contextlib 1.83361e-09
at 到 9.70742e-08
with key 5.88248e-09
use 内 4.93404e-08
several 内 9.02559e-07
several 花括号 1.49087e-07
several 种方式来 8.36826e-07
several 多 6.24846e-07
such 并 3.11135e-07
a 函数可以 1.07751e-09
using 编码 1.88248e-08
using 无论 1.66299e-08
quotes 双 1.2247e-06
and 将会引发 1.39587e-09
sorts 此方法会 4.17692e-07
at 中 3.85979e-07
adecimal 十进制 8.26697e-05
sign 符 5.02872e-07
and 或4 9.95209e-10
functions 请参阅 2.63409e-08
priorities 有关 1.98112e-06
is 运行时 2.65588e-09
available 没有 1.01815e-07
used 文本模式 6.47778e-09
an return 3.71597e-08
posterior 概率 7.3683e-05
and listmapround 3.07215e-10
probability 使得 1.09205e-06
statisticsrelated 相关的 0.000137796
statisticsrelated 表示 5.75575e-05
and minitab 1.51319e-09
asan 作 5.8347e-05
theclasses 来 0.000101876
for 其 2.58026e-08
possibility NULL 0.00546803
based 终结器 1.313e-07
weakref 基于 1.10709e-06
never 一 1.46617e-06
beobtained 如果存在 4.22753e-06
usage 解析 2.69499e-07
usage 解析树 1.26417e-07
usage NULL 3.41991e-05
an timeout 7.78759e-09
once 注册一 1.43374e-08
allconcurrent 密集 6.11046e-05
achieve 目标 2.10081e-06
good 堆 2.71373e-07
aheap 堆 1.21104e-05
you 相同 2.8665e-08
of 用于从 4.86479e-10
are 二 9.18629e-09
searched 路径 1.93398e-06
copyingoperation 操作 0.000166549
efficiently 33671 2.07413e-07
and 方式 3.78849e-09
of 参数则 5.85821e-10
unpack10shhb shhb 2.35898e-06
be 想要 3.57463e-09
conversions 执行 1.21664e-06
and 仅仅 2.42486e-09
are 仅仅 1.30324e-08
it 未 7.79934e-09
and 该 1.98924e-08
can 数据 3.33766e-08
a io 2.48465e-09
multiserverqueue 模拟 6.48078e-05
arrival 到达 1.56857e-05
between of 2.54636e-06
sample httpstatistics 3.13289e-07
httpstatistics 替换 0.000102099
can 永远不 1.19628e-08
permutations 大多数 3.9769e-06
shuffled 乱 0.000768176
shuffled 打 0.00243742
shuffled 返回一个新的 0.000385764
computed 可能 1.95606e-06
and 生成器 2.32951e-09
andpackages 和 0.000545824
either 方式 2.9201e-07
either 二进制 2.81807e-07
immediately 返回 2.2682e-06
immediately 方法调用 5.68512e-07
without 一样 1.71665e-07
at 能 6.39524e-08
nestedonly 只有 0.0001116
acquire 线程 8.44522e-06
acquire 会阻塞 2.15481e-06
per 描述 9.86262e-07
for forspecifying 1.2633e-09
different 的优先级 0.00189843
different 相同 0.000615159
different 不 2.49811e-05
different 各 0.00254183
of 结果是 1.24229e-09
with 求值 1.47507e-08
given 所对应 6.88769e-06
also 的形式 2.45711e-07
bindings 存在于 2.80938e-06
unlike 名称 1.53324e-06
as 同时 2.22355e-08
nested 但不会 1.89812e-07
to 参看 1.4689e-08
that 圆括号 2.51907e-08
passes 控制 1.12098e-05
thestack 栈 3.63383e-05
evaluating 左 1.91667e-05
assignment 下方式 1.39224e-06
final 末尾 5.07951e-07
right 的顺序 3.41454e-07
assigns 后者 1.88366e-05
how 根据 1.54509e-07
fooabsolute foo 0.000151595
thistechnique 也可以在 0.000220207
thistechnique 技巧 0.122476
thistechnique 这种 0.073182
statementswithout 不 0.000173114
indicate 向 0.00016909
indicate 了 0.00508612
be 时返回 1.46229e-08
failing 该模块 2.79318e-06
and 如果 3.59454e-08
mostcommon 用方式 5.85517e-05
is 未被 3.52903e-09
assumed 整 1.96132e-05
shoulditerate 迭代 1.10926e-05
meaningrepetition 重复 0.000153808
updatebehaving 的相应 0.000469756
2when 在 0.000313172
approach 实现 1.36311e-06
normal 规范 4.61698e-06
are 时会被 1.11467e-07
return ascii 1.80553e-08
usingascii 字符 3.32585e-05
usingascii ascii 0.000973821
namewhen 同名的 4.44382e-05
finishes 结束 1.32679e-05
executed 随后 5.376e-07
without 未 2.85064e-07
clauses except 1.0349e-06
in 局部变量 3.05127e-09
attached 的情况下 8.21862e-06
exceptionand 有 4.68133e-05
beginwith 以 0.000692539
andnone none 0.00936353
sourcesfrom 导入 2.77132e-05
number 传入的 2.13107e-07
sourcesfrom 可以从 7.45191e-05
seeking 搜索 2.44907e-05
list 你也可以 2.74169e-08
on 的最后一 2.93834e-08
charactern n 0.000240754
charactern 换行符 4.72535e-05
behindthescenesmodification 修改 5.86058e-05
is 会把 4.17908e-09
containtext 文本 2.38255e-05
erased 删除 1.76826e-05
particularly 非常有用 5.42843e-06
use 用这个 5.83714e-08
within 都 5.74438e-07
be 敲 5.34635e-08
again 赋值 5.75297e-07
prompt 那些 1.62172e-06
applicationmust 必须 0.0023817
mainmodules 应用程序 0.00433894
strings 解释器 1.70981e-06
strings 用于确定 1.16437e-06
as 可以通过 4.57155e-09
as 模块名 1.01158e-07
versatile 不 0.000345621
changes 更复杂 1.54785e-07
for 解析 4.1562e-09
by 个参数的 1.35305e-08
we 能 6.20467e-06
left 正常 1.5087e-06
via 从 9.29048e-07
by 这是 7.42617e-09
results 来自 2.23465e-07
previously 以 5.1337e-06
currentdirectory 当前目录 0.0652737
anexcept 捕获 7.45162e-05
exceptions 这里 2.1536e-07
primaryprompt 提示符 3.84563e-05
typically 隐藏 1.17341e-06
python 一个 2.23827e-07
solution 这个问题 9.24967e-06
implementation 二进制浮点 1.19486e-07
2 1357924680 3.81138e-08
stores 但 4.15273e-06
othertasks 后 0.000112741
indicatethis 指 5.76732e-05
completes 前 1.17581e-05
errorsthat 报告 4.57656e-05
classfor 基类 4.93966e-05
orindirectly 直接 3.42627e-05
orindirectly 应该 1.63189e-05
reraise 重新引发 0.0256756
reraise 形式 0.00357705
reraise 更简单 0.000440229
programs 此 1.08663e-05
offending 出现 0.000101691
offending 输出 2.60422e-05
repeats 输出 2.01736e-05
andexceptions 异常 0.000119049
56 true 2.14012e-05
asan 比如 2.61965e-05
be interactive 4.14851e-08
the 我们 5.58501e-09
the 指令 7.55312e-09
arguments 如果没有给 5.00187e-08
and argv 1.11219e-08
valueannotated 标注 8.86281e-05
thefunction 并且不 8.04116e-06
withthe actionvoom 5.37102e-05
printrange10 会出现 0.00221663
atanother 另一个 0.0610565
start 另一个 1.21491e-05
atanother 也可以 0.00861374
start 也可以 2.51345e-05
collection strategy 1.40503e-06
morestraightforward 更 9.1789e-05
twists 变化 0.000123329
usualflow 变化 3.44189e-05
twists 只是 7.5188e-05
usualflow 只是 2.09835e-05
usualflow 程控制 0.000133345
usualflow 流 0.000423368
twists 其他语言 0.00238758
areexplained 解释器 2.34065e-05
may 比如 4.28589e-08
may 编译 1.11385e-07
may 提供 5.04921e-08
at 关键 1.74583e-07
program 写 1.71372e-07
on 简单 1.51423e-07
task 麻 9.33572e-08
writing 麻 1.36079e-07
4note 注意 0.000178662
comparisons 序列 5.56017e-07
and 确定 4.22524e-09
slices 可以用来 1.07553e-05
6 listzipmatrix 6.66921e-08
example 一些 6.53567e-08
example 的引用计数 9.23164e-08
yourcode 在内存中 0.000219131
yourcode 出错 2.1439e-05
will 他 3.65331e-08
have 错误 6.65022e-08
call 传递给 7.58623e-08
if 的地址 3.66598e-08
wehave 需要 0.000100285
inpython 参数列表 3.13186e-06
thepurpose 信息 6.64193e-05
from 可以在 1.63793e-08
callable 可以在 8.4945e-07
directory 里 1.37396e-06
but 简化 9.92398e-08
time 加载 6.82372e-08
reassure 让 0.000159432
importlibrary 库 8.85119e-05
included 包括 2.35346e-06
is 类似于 4.02674e-09
aware 了解 4.68514e-06
available 分发 1.85091e-07
approaches 有两种 1.35265e-06
major 所使用的 3.49676e-05
major 你 2.98019e-05
not 请 7.90034e-08
web 相关信息 1.11267e-06
submitted 通过 1.39857e-05
microsoftfoundation 软 8.33887e-05
windowingbackends 一系列 1.47298e-05
theyre 能够 8.90246e-06
dosomething 因此可以 5.71853e-05
projects 使用了 3.53595e-06
with 许多 4.04721e-08
book 最好 2.52195e-06
as 可以在 3.29459e-09
ive 之前 6.2875e-05
ive 我 3.41414e-05
with 脚本 1.60836e-08
with 能 4.45429e-08
with 又 2.29888e-07
used 最初 6.80716e-08
of 设计 2.62589e-09
orbinary 码 3.48723e-05
orbinary 源码 1.40628e-05
will 策略 3.95781e-08
will 构建 2.19723e-08
interface 对 7.15407e-07
which 不存在 8.21226e-09
generationeasier 生成 9.60225e-05
containsthree 三个 0.000119283
creating 产生 1.48994e-06
reordered 排序 0.000181177
reordered 重新 0.000162321
secondversion 版本 7.06101e-05
from 动态 1.53315e-07
sorted keys 8.28105e-05
thekeys 遍历 0.00200024
examplepython 例如 0.00119605
an ai 3.90622e-08
its 就 1.38611e-07
code 汇编 6.62e-08
with 可用于 3.83127e-09
added 变得 1.5646e-07
than 更容易 2.18258e-07
operator 海 9.23132e-06
but 接近 8.48138e-08
ofpython 可以 4.85497e-06
overview 面 3.4203e-05
overview 全 4.93898e-05
overview 进行 9.87681e-06
overview 宝 1.06877e-05
due 慢30 3.059e-07
that 有一些 7.59971e-09
from 文件 8.61787e-08
so 简 6.07424e-07
more getcount 7.72109e-08
maps schwartz 5.26511e-06
with 操作 3.03265e-08
objects 许多 3.29375e-08
are 列表 2.50936e-08
fasterto 迭代 2.11721e-05
at 且 1.95489e-07
solely 基于 4.70351e-06
idiom 做法 9.41087e-06
onfalsehowever 然而 7.75239e-05
sethere 这里 5.17313e-05
sethere set 3.16614e-05
taxes10e6 e 0.000130273
taxes10e6 10 0.000212626
windows thomasheller 3.66436e-07
your 并 5.43899e-07
importing 同 0.000775602
does 新 2.11757e-07
packagenames 包 8.78234e-05
available 开始 1.74607e-07
linker linkerso 0.000146405
built 的列表 8.4833e-07
willbe be 1.14869e-05
functions getaddrinfo 1.14024e-07
seelicenses 不完整 0.000491425
seelicenses 许可 0.000145747
py3c py 4.10103e-05
be 未 1.4058e-08
returned urllib 8.84067e-08
networks 视为 1.41535e-05
networkscan 网络 0.000307809
exist 版本 8.99154e-06
that 这两个 3.87166e-08
exist 的范围 8.87468e-06
users 寻 3.65439e-08
sockets 销 8.71815e-06
when 套接字 1.03015e-08
these 地 1.01442e-05
nothing 但是如果 8.64615e-07
however 字节 1.45546e-07
before 那 1.19665e-06
students dave 1.5189e-05
keyfunctions 提供了 2.00984e-05
efficientlybecause 因为它 0.00013779
actionis 就是 0.00459013
actionis 动作 0.00276351
what 分隔符 2.53648e-07
betweendelimiters 不仅 2.99778e-05
what 不仅 6.60324e-07
refrom 正则 5.06086e-05
or 组 1.60967e-08
or 引用 2.09722e-08
an 增加了新的 2.27839e-08
escaped 普通 7.35678e-06
ofan 的内容 1.31154e-05
bbackreferences 引用 3.22186e-05
bbackreferences b 0.992365
bbackreferences abc 0.000222046
as 它们将 1.27847e-08
anentire 整 0.000122057
rfc822 822 0.00663455
we 还没有 3.14783e-07
specified 匹配字符 1.78159e-07
specified 按位 2.3121e-07
loops 内部 0.00224503
loops 有 4.79715e-05
loops 于 3.58753e-05
loops 由 4.14947e-05
loop 编译 7.90894e-08
readers 读 4.23509e-05
readers 者 0.00056485
andretry 次 0.000160181
bycomplementing 字符类中 4.34177e-05
executed 然后 2.01317e-07
this 字符串中的 1.16392e-07
this 匹配？ 2.12614e-08
location 0000000000630 1.50431e-06
0x00000000004374e1 location 0.000230782
itsexamples 语言 5.68575e-05
ian 予 0.000265386
based 排序 2.08062e-07
remain 返回 0.000102958
3 可迭代对象 2.60684e-08
rtuple r 7.64786e-05
several 组合 8.83764e-07
call 也可以 4.51808e-08
1n 1 0.00035589
before 为真 2.3516e-07
different 和 5.25451e-06
instead 文本 6.53308e-06
here 效果 8.12691e-07
of 命令 3.72351e-09
are 另外 1.19209e-08
actually 调度 9.47125e-07
oflogger 关联的 2.85605e-05
messagesuch 开发人员 0.000184668
messagesuch 工、 0.000855865
messagesuch 员 4.07689e-05
messagesuch 台 6.0592e-05
logrecord 最终 1.64732e-06
are 记录消息 1.02575e-08
logger 日志记录 4.45568e-07
python simpleloggingconfig 1.91916e-08
isillustrated 示 7.4093e-05
samenamed 同名 0.000187037
your 更多的 4.41311e-07
formatstrings 显示 1.74474e-05
then 消息3 1.09369e-07
change 暂 2.50578e-07
you 的日志记录 2.42819e-06
you 的代码中 7.96303e-07
block 语句 1.41992e-05
you swallow 0.00041972
logging 所需的 2.53289e-07
logat 在 0.00157303
flushed 在 6.42151e-05
whenits memoryhandler 7.37244e-05
use 你可以通过 1.6566e-08
using socketserver 2.52948e-07
attaching 附加 2.27315e-05
on 的另一 3.52109e-08
done 总是 3.80047e-07
levelfiltering 总是 7.70947e-05
levelfiltering 级别 7.75801e-05
done 过滤 5.08265e-07
source 可用的 5.17432e-07
server 示例 4.71194e-05
overrides 计算 9.99814e-06
2020this this 0.000102435
additionalmarkers 来 0.000175203
bcontributed 由 0.00092524
and 由 2.20451e-08
c extensions 1.9403e-07
extensions 扩展模块 1.37237e-07
moving 堆栈 7.50251e-06
can replace 7.2261e-07
verified 也会 0.000219682
public 有 2.61695e-06
exist NULL 0.000179607
the windows 3.43647e-09
annoyance 麻 0.0107292
small 经常 7.25788e-07
initiated 由 0.283759
initiated 工作 0.0099221
initiated NULL 0.0230066
module 通 6.65404e-08
and tkinter 3.06547e-09
uncaught 未 2.05965e-05
method 方式 4.75605e-08
this 最终 2.78167e-08
connectusing 两者 0.000394361
connectusing 使用 0.00349038
connectusing 同时 7.32168e-05
helpful 顺序 4.0406e-06
pythondumprefsenvironment 环境变量 6.03624e-05
helpful 名称 3.91052e-05
and 必须使用 4.06733e-09
match 发生 2.41723e-07
bin173 bin 0.000277021
multiprocessing 处理 5.25822e-07
itcontributed it 0.000558737
thoseenvironment 错误 3.69218e-05
be 不会再 5.20241e-09
closefds 现 2.05446e-05
closefds 这意味着 5.70538e-06
just 调试 7.25712e-07
pythoncallbacks 回调 0.000208375
pythonbinary 改变 2.56429e-05
header 点 2.01638e-06
header 标 2.57989e-05
absolute 计划 2.74818e-06
limitedprecision 精度 2.68526e-05
be 可靠 9.60815e-09
used 可靠 3.63628e-07
waythat 方式 6.90431e-05
while 点 6.36893e-07
error 处理器 3.81642e-06
use 处理7 2.03602e-08
new 兼容性 2.61935e-05
new 会破坏 0.000347189
the e 2.05138e-09
callable 该函数 3.04402e-07
was 用于处理 4.36183e-08
for 了解更多 2.77196e-08
the intel 5.86504e-09
set 跟踪 5.87484e-08
arepermanently 移除 4.29646e-05
arepermanently 地 0.0187652
arepermanently 性 0.0508562
arepermanently 久 0.0985205
arepermanently 永 0.50166
arepermanently 中 0.000338279
arepermanently 箱 0.179581
arepermanently 会 0.00210106
arepermanently 动作 2.49823e-05
now 也 2.92609e-07
old 但 1.44715e-05
andd1 提供了 2.15888e-05
them 持续 2.82631e-06
error 发生了 1.96458e-07
error 条 2.35788e-06
0 成功 9.04245e-08
from 字节码 4.59245e-08
18 pymajorversion 1.33558e-05
instead 查 2.4993e-07
not 查 9.13224e-08
back 恢复 9.47427e-07
to 读取并 1.17283e-08
the pyobjectmalloc 7.52882e-09
previous 指向 4.53175e-07
performed 内存 2.00504e-06
o 然而 2.92617e-07
an 现 1.80419e-08
this 用于 1.10645e-07
thesemantics 语言 2.14706e-05
about 期 5.32307e-07
ternaryfunc pyobject 0.00416527
ternaryfunc NULL 0.180075
and 1 3.65731e-08
pythonwill python 0.000245097
wchart text sizet 0.00149597
wchart text text 6.01782e-05
them 提供了 2.42974e-07
apple tk 4.13624e-06
aquanative tk 3.99764e-05
packages 可以通过 6.67757e-08
can 介绍 9.33717e-08
can 详细 3.15638e-07
and 脚本 3.60259e-09
startreading 开始 4.88598e-05
get 你 5.71947e-07
with 技巧 4.57581e-08
toolsand 和 0.030971
toolsand 调试 3.83754e-05
applicationwithout 应用程序 3.35486e-05
in 附 2.39767e-08
reliable 全局 1.49333e-05
considerchanging 考虑 1.61106e-05
pythonor python 0.000674888
automatically 如果在 2.1934e-07
restrictions 于 1.45835e-05
search 并 7.76431e-06
toactivate 让 0.000402231
necessary 安装包 2.04008e-06
not 更新 1.50534e-08
are 安装程序 2.45042e-08
twice 则 7.63702e-06
introduction 以及 8.23565e-07
relied 非常 7.97381e-05
python2 python 7.91158e-05
versionnormally 通常 3.32889e-05
breaking 带有 8.43657e-06
it 一行的 2.34485e-08
in 字 1.07788e-08
before 自动换行 3.61603e-07
textwrapperinstance textwrapper 0.000693278
scrollbars 直 2.05517e-05
for 数据库中 2.53774e-08
themare 是 0.000172182
themare 都 4.87516e-05
alignment 实体 1.81463e-06
this 不带参数 1.24021e-08
zeroterminated 零 1.12597e-05
fills 将 0.00234956
fills 相同 0.219743
copies count 4.74925e-06
copies 将 7.1576e-05
copies 相同 0.0111993
windows getlasterror 1.16438e-06
exception 外部函数 1.38922e-07
this 是可以 4.38509e-07
aprivate 类的实例 1.18019e-05
so 导致 1.77505e-07
structfrozenstructure 如何使用 0.000177632
would 会打印 1.4685e-06
later 结束 3.45538e-05
statementitself 之前 0.0115056
statementitself 结束 0.0528673
statementitself 语句 0.381528
would 如 2.65088e-07
type 另一个 5.01334e-08
as 传递给 5.31048e-08
whatever 其他 2.78261e-05
formatstring 依赖于 4.69327e-06
accessit reprp 2.44281e-06
accessit 将 0.00077478
accessit 希望 2.3868e-05
functionsexpecting 传递给 4.03935e-05
loaded 中的函数 1.36616e-06
and 浏览器 1.48299e-08
timehiversion timehiversion 0.0402208
itself 方法 1.93627e-06
functions 多次 2.509e-08
this 删除 1.56844e-08
this 信息 1.42319e-08
this 异常处理 2.86871e-08
processes iterinput 5.5342e-06
for 并没有 7.61796e-08
for 类 4.15142e-08
for 代理 5.88337e-08
default spawn 4.07242e-08
object manager 7.04187e-08
further api 4.83824e-06
documentation 关于 1.10174e-06
otherpython 其他 0.000138208
intounicode unicode 0.000155754
intounicode 字节串 3.29317e-05
wire 将其转换 5.22266e-06
shouldtransparently 透明 0.000609369
protocol 场合 4.01098e-06
codecs 下层的 1.98356e-06
subtree 树 8.58917e-06
be 来访问 3.13966e-08
executeand 行 5.3475e-05
obtainits 获取 0.000125227
the roundndigits 7.65411e-08
argument fraction 9.73745e-08
argument 限制 1.37215e-07
saved 至 3.15875e-05
saved 存储 0.000311998
was 用于创建 4.26428e-08
used 解压缩 9.83222e-08
used 则 9.11552e-08
used 数据 3.26035e-06
stick 设 5.1667e-05
being 除了 1.92101e-07
as 设置 1.30016e-08
either 指定 5.36624e-07
assign 在内部 2.22954e-06
opened 表示形式 2.65572e-06
object 提供了 2.28152e-08
should 这通常 1.26705e-07
if 使用 1.12402e-07
value 解 2.52092e-07
writepython 编写 2.21083e-05
certain 可被用于 4.50619e-07
to 随机 7.06884e-09
reenable 重新 0.000573171
10 尝试 1.9641e-07
turns 关闭 0.000301394
turns 时 0.020405
turns 暂 0.00361114
if 能够 2.77405e-08
expose 将 2.25495e-05
has 等效 8.2066e-08
module readmodule 2.63943e-07
assumed 应当为 3.82741e-06
present 并 4.88621e-06
object arg 1.02651e-07
truecolor 颜色 4.97503e-05
used 画笔 9.97678e-08
used 之前的 2.68143e-08
used 恢复 4.82843e-08
used 参数以 1.82785e-08
standardworld 决定 0.000497145
updateusing update 0.000110282
generators 随机数生成器 4.24828e-07
bydefault 继承 5.50447e-06
connected 打开 2.27483e-06
thisguarantee 保证 0.549388
thisguarantee 此 0.0473039
for 得到 8.77189e-09
instead 你可能 4.20052e-08
returned 会 7.31569e-07
defined 它们也 2.66324e-08
among 除 4.46482e-06
extract 如果你想要 3.70709e-07
used 者 4.3268e-07
with 启用 1.76731e-08
also math 3.19653e-08
shown 仍然 5.63909e-07
usedto to 2.43805e-05
protocol 套接字 6.90362e-08
waits 等待直到 6.46542e-06
sendsdata 发送 0.00011989
dont 内 1.74808e-06
hasnt 子进程 3.16732e-06
out 异步 9.11283e-07
is 扩展模块 1.75463e-09
classes 引发的异常 9.38689e-08
passed 发送 1.90449e-07
significand 数字 0.00264648
converts 会 1.0939e-05
integerto 浮点数 1.59792e-05
integerto 整数 5.23431e-05
as 和 1.42072e-07
outputs 以2 9.85103e-06
available 右 3.55669e-05
vertical 制表符 9.06782e-06
vertical 向 4.38047e-05
vertical 纵 6.05768e-05
needed 信息 1.10657e-06
with init 1.20396e-08
notequal 同样 0.000944606
notequal 枚举 0.00177113
notequal true 6.28488e-05
asis 传给 3.66056e-05
will 处理程序 1.3115e-08
modulesupports 在内存中 1.11666e-05
up 被设置为 1.7671e-07
events 器 1.56582e-06
on 在多个 4.51006e-08
its 通常 3.56059e-07
its linux 6.96161e-07
used 你可能 2.86398e-08
specified 器 5.52698e-06
orany 或 0.000285504
offering 涉及 1.11548e-05
also kahan 9.65265e-05
for 相关信息 2.52296e-09
embeds 内容 4.66387e-05
4 安全 4.14867e-07
be 至少有 1.4671e-08
runcaution 警告 1.69326e-05
make 可以通过 1.41854e-06
how 可以通过 8.31127e-08
not 目标 2.18329e-07
directory 目标 9.20356e-05
working 目标 5.64511e-07
current 目标 2.05048e-06
interpreted 目标 1.23974e-06
are 目标 8.08256e-09
relative 目标 0.000819098
raises 级 4.00249e-06
paths posixpathetc 6.66237e-06
flavourscasefolding 转换 4.94799e-05
only 操作 1.04038e-07
your 在 2.1228e-06
occurrence 第一次 8.71863e-07
matching 发出 0.0353513
occurred 舍入 3.05045e-06
after emax 3.46033e-07
have 为零 6.90907e-08
and 此 1.24814e-08
and 方法 2.07615e-08
methods 方 2.32234e-06
supplied 上下文 7.04927e-07
gives 转 1.13652e-05
in decimal 3.8982e-09
quantize 永 0.00011433
quantize 不同 0.00505334
infinity 则返回 1.64205e-06
is 即0 1.03578e-08
representable 因此 0.00281481
representable 精确 1.81558e-06
after 数字 9.69692e-08
confusing 淆 1.41281e-05
combined 能 1.05544e-05
manipulates 操作 2.1852e-05
cast decimal 2.67227e-06
make 要使用 2.84043e-07
hardware 基于 6.12973e-06
offers 以 6.01178e-06
retrieved 框架 2.93992e-06
any 一 3.32757e-07
schedule 将 1.03462e-05
singleprecision 单 6.08885e-05
is 类的实例 1.36338e-09
and 表示形式 1.13825e-08
disallows 的原因 0.000467263
sharing 游 1.41437e-05
disallows 线程 0.000297387
disallows 不允许 0.0355799
are 转换器 2.19725e-08
one 让 4.45545e-08
except 但 3.1552e-07
writer 稿 1.5217e-05
unless closefd 2.52613e-06
respectively 写 9.10262e-07
wont 它 5.47758e-06
code 数组对象 5.87292e-08
in 缓冲区大小 3.93655e-09
characters 数组 1.5198e-07
platformsbecause 因为 0.000533535
platformsbecause 差异 0.00280501
platformsbecause 平台上 0.000240743
tz1 tz 0.00289545
class 的子类 2.31291e-08
between 对象或者 2.07234e-06
between 表示 7.68129e-06
utc 时区 0.00011226
utc 的简单 1.67249e-05
each 得 1.69786e-07
each 里 1.76039e-07
in expx 1.62984e-08
same 的精度 5.264e-07
values 若 1.32439e-05
2e 正 0.000130407
numbers 学习 1.05767e-06
doublequotes 标记 3.95685e-05
tosearch 属性 5.39822e-05
internal semaphore 1.17646e-06
range8note 8 0.000171682
text 随机 1.81743e-07
text 十六进制数 1.11066e-07
functions 提供了一些 6.78721e-08
source 随机性 7.35327e-07
well NULL 4.916e-05
be 相等的 2.30382e-07
defaults 支持 0.000903574
additional 两个方法 2.31778e-07
such ’ 8.93661e-07
which defaultfactory 5.99659e-08
itself 是 3.26016e-06
2unary 单 0.000354886
chain 但 4.49332e-06
features 上下文 1.77426e-07
as baseline 5.15238e-08
same baseline 3.43459e-07
in 上下文 4.34378e-09
has 至少有 8.55128e-08
constructed 基于 4.70543e-07
pythontzpath 部分 7.90214e-06
datetimearithmetic 运算 0.000236499
datetimearithmetic 时间 0.000255474
datetimearithmetic 日期 0.00341082
database 创建一个新的 5.19643e-06
characters separator 8.12288e-07
implemented 序列化 3.33185e-07
numberliteral 字面值 0.000456865
numberliteral 数字 0.00013008
subset 上 7.96318e-05
subset 意义 0.072362
subset 严格 9.19279e-06
configurator 器 0.00125389
to import 9.01339e-09
access 字符串 1.42877e-05
access 码 4.79595e-07
be cfghandlers 5.5508e-08
as 创建 2.74931e-08
name15s name 3.03809e-05
incremental 新增 6.20489e-06
it 对象具有 1.05191e-08
perhaps 最常见的 6.90031e-05
restrictions 是没有 4.45192e-05
is 设置为 2.78637e-09
tagged 组成的 0.00193998
facility 设 1.55966e-06
pass 直接 8.45005e-07
pass 将 0.00463214
or settimeout 1.14892e-07
callingconnect 调用 9.81954e-05
since 03 0.00186331
of 3 1.83579e-08
for 比较 5.87018e-09
time 完成 3.25925e-06
time 手 1.67418e-06
time 放 4.4756e-06
for getaddrinfo 3.37241e-08
where 确定 1.81952e-07
callbacks 加入 1.16654e-06
amount 断 1.4772e-06
pythonsignal 信号处理程序 3.59263e-05
pythonsignal python 0.00178528
pythonsignal 相应的 9.18271e-05
handler machine 5.15239e-06
the 分析 4.24339e-09
string 用 1.75352e-07
would 如下所示 1.05661e-05
would 例子 7.87815e-07
do 组织 3.60538e-07
do 参考 9.75403e-08
been class 3.51147e-07
method 我们 3.07682e-08
setup 我们 1.17124e-06
assertmethods 当 0.000102254
basic 正确 1.13807e-06
basic 执行 5.09448e-05
basic 包含 0.000196592
basic 构建 0.000117328
basic 的 0.0135185
basic 单元 2.52286e-05
basic NULL 0.0022428
wereadded NULL 0.00917375
verify 条件 2.62512e-06
all rest 3.65564e-07
of 在大多数 4.91777e-08
error 产生一个 5.23861e-07
produce badger 1.60461e-05
matches 写 3.79838e-07
anytype 之后 0.000276833
anytype 转换 0.00165301
anytype 任意 0.000516364
anytype 的内容 0.137103
anytype 包含 0.046352
anytype paper 0.272645
constantvalues 数值 2.26061e-05
briefdescription 描述 3.36617e-05
how 命令行 3.18619e-08
how 帮助消息 1.08474e-07
defaultis 默认值 0.000132224
ints 整数 0.000301124
arguments 它需要 7.13631e-07
contain 二进制流 1.07363e-05
contain 被 0.00199861
contain 将 0.000474194
contain 含 0.000114648
contain 包 2.18022e-05
anuntrusted 某个 0.000121953
intimatedetails 细节 2.51964e-05
rd number 0.000118008
currently 一个类似 1.3542e-05
valuedcards 数值 3.01494e-05
groupsthat ak 6.5043e-05
displaymatch 匹配对象 0.000233331
this 正则 6.36075e-08
groups 返回 3.54393e-06
aborterrno errno 8.33019e-05
ahistory 目录 4.05292e-05
nonstring 字符串 3.36337e-06
can 模块定义 6.51046e-08
ending 序列 0.00137975
ending 构成的 0.00616166
strings 结尾 1.75409e-07
sequencesof 结尾 0.238657
ending 为 1.46686e-05
ending 包含一个 8.53047e-06
lines comparea 2.951e-06
then 即 2.5777e-06
then 随 3.26953e-06
differstyle differ 9.09603e-05
so 好处 8.42602e-07
helpful NULL 0.000661101
those 来 1.66544e-06
way 形式 5.36543e-07
intraline 一个包含 9.25395e-06
intraline 行 2.70215e-05
compares numlines 6.33119e-05
beginning 尝试 8.94252e-07
at 至少有200 4.73505e-07
add 的附加 3.33478e-07
add 应当 1.92785e-07
deeper 超出 0.000140667
str 则会在 1.39642e-06
list 并 1.34743e-05
itemsclass 定义了以下 4.91698e-05
added 写入 2.58398e-07
will 写入 5.50214e-08
willby 并 0.00185682
encodingsee 来 0.000126887
on 所使用的 7.90302e-08
nonterminal 终端 9.86896e-05
different libc 5.20712e-07
messages 目 2.55257e-06
oftranslated 翻译 7.91039e-05
following 版更改 1.82699e-06
was 限定名称 1.65277e-07
class 名称 9.47529e-08
was defined 3.30725e-05
was this 4.3025e-06
class this 2.4634e-08
was which 6.58688e-08
class 函数 1.6944e-07
future 所有 3.01698e-07
characters 尾随 5.61672e-08
jugglemultiple 同时 8.53683e-05
domore 完成 1.39128e-05
return 可能是 2.84282e-08
all 将 2.53764e-07
scratch 开始 3.92883e-05
extended 进行 3.12246e-05
they 来创建 9.47778e-08
byparsing 通过 6.31704e-05
codewith 代码 0.000226774
bridge 链接 6.02519e-05
the 7 3.97107e-09
singlecharacter 字符 4.09338e-05
either 字符 1.09887e-06
actually 知 3.24213e-06
those 所 4.93002e-05
those 区分 1.40046e-07
in 进行迭代 6.08193e-09
specified 关键字参数 8.34146e-07
specified 果给出了 1.34454e-06
used 由 2.04515e-07
with 创建一个 1.14804e-08
use 花括号 4.54379e-08
interchangeably 被用来 0.532116
operations 可用于 2.14913e-08
second 即 6.63255e-07
such 集合 7.58763e-08
operations 中 1.47933e-06
that 常 2.95275e-08
compatible 将引发 2.4397e-06
data 256 1.20892e-07
textoriented 256 7.69475e-05
using 声明 4.97282e-08
using 允许 2.7752e-08
builds 构造器 7.48915e-07
operates 此操作 1.13549e-05
partially 部分 1.20335e-05
additional 以下方法 4.42222e-07
true2 2 0.00806745
true2 true 0.991654
true2 eggs 6.31935e-05
operationson 在 0.000152517
there 已经 7.92919e-08
stored 在内部 1.89374e-06
used 码 3.54291e-06
inf 附带 8.35255e-05
toan 其 0.00452799
toan 将 0.000489051
which 部 8.28056e-08
nonboolean 布尔运算 0.000249216
false 作 9.41697e-07
with 被调用时 1.3345e-08
three controller 6.56333e-07
also 请注意 2.02696e-08
note 另 4.21171e-07
defined 都 4.30152e-07
appropriate 浏览器 4.23235e-07
a 尽可能 7.45281e-09
1 尽可能 2.9115e-08
beused be 5.31069e-06
as st 2.58674e-07
terms 的形式 8.40049e-06
variance 方 0.000556789
received sigchld 1.2374e-06
received 进程时 1.23647e-06
number 子进程 2.76303e-08
now 4 5.62969e-07
where 载 2.10868e-07
based 弱引用 6.86086e-07
where NULL 2.16454e-05
be 时被调用 1.11125e-08
calledat 会 0.000248778
application 需要使用 1.64901e-06
python 一起使用 9.18106e-07
python 解析树 1.97066e-05
accessed 安全地 8.73368e-07
be 报告 9.48647e-09
require 指定一个 1.93349e-06
version to 1.58968e-07
write 修复 2.09526e-07
cannot 寻 6.22809e-07
current 说 3.5324e-07
ina 我 3.72373e-06
cells 的两个 1.45152e-05
promoted 级 0.000341173
were 它们的 3.87878e-06
presents 包含了 2.85727e-05
push 将 0.000141662
push item 3.82714e-05
either 是由于 7.08119e-07
result 有 2.32532e-06
return 选择 3.32161e-07
return 将 0.00027794
is 符号 7.12577e-09
usedby 文件格式 0.00258674
usedby 所使用的 0.00238848
usedby 了 0.0023946
identical offset 5.13301e-06
only 15 1.79222e-07
othersources 获取 5.33215e-05
is 项目 2.36732e-08
block 则 7.25678e-06
pvalue observeddiff 1.22572e-05
between difference 5.75972e-07
pvalue as 0.000411282
pvalue extreme 0.000655619
pvalue 示例 0.000221844
pvalue 差异的 0.00151023
pvalue 的作用 0.00103301
pvalue 药 0.000494936
pvalue 察 0.570315
pvalue 观 0.202867
pvalue 来 0.00607496
pvalue 值 0.053929
pvalue p 0.130664
pvalue 使用 0.0265742
pvalue 性 0.000426681
pvalue 著 0.000140915
pvalue 显 0.000100199
pvalue 学 0.000470814
pvalue 统计 0.0024972
pvalue 来确定 0.000255214
areguaranteed 不 0.000114003
is 注意 2.41313e-09
is 函数 2.3939e-08
interoperates 相互 0.000117089
interoperates 能 0.00104227
interoperates random 0.00113419
to 指定了 9.29142e-09
formerly 以 9.02546e-06
isentered 时 0.000800036
wait 参数 9.321e-07
since NULL 3.68106e-05
or 并将其 8.77892e-09
lock 创建新的 6.86565e-07
returnfrom 立即 2.89069e-05
to 也可以 1.26692e-09
associated 与 9.10583e-06
at 线程 2.2653e-07
chunks 的时候 6.79167e-05
inverse 相反 7.20622e-06
otherexception 异常 0.000118072
otherexception 任何其他 7.77784e-05
iny y 0.0611158
iny in 0.938797
this 都支持 3.50689e-07
to 求值 7.31498e-08
shiftexpr aexpr 0.000131176
have 位运算 4.37724e-06
as 除非 7.63329e-08
that 后 9.93405e-08
classes 可通过 1.0346e-07
x1 x 0.000919055
of 根据 5.25854e-09
do 都支持 7.12642e-05
supportsattribute 都支持 0.00162332
datum 数据 0.000575127
datum 相应 0.00110138
either 包含 6.94306e-07
as 作用域中 2.24636e-07
forclause 作用域 0.000242129
reached 元素 1.73158e-05
innermost 代码块 0.000184906
innermost 层 0.00226333
innermost 最 0.0014417
reached 然后 7.3822e-05
nesting 从左至右 0.000117819
nesting 按 0.000740088
casethe 在这种情况下 7.88944e-05
theobjects 标识 3.70899e-05
theobjects 因此 5.93891e-06
point 浮点数、 0.00123937
yields 将返回一个 1.1709e-05
yields 求值 1.36956e-05
numericliterals 数字 0.00369508
them 之前 8.57638e-07
end 并且不 1.99207e-06
bindings 之前 1.94544e-05
unambiguously 确定 0.00140882
is 功能 1.4436e-08
kept 是为了 8.54719e-05
by 仍然 7.05105e-08
appear 必须在 8.14245e-07
next 开始 9.76834e-07
reraises 重新引发 0.000835389
to stopasynciteration 8.21072e-07
ornone 或 0.000328489
expressionthat 表达式 0.000121273
failed 中包含 2.31244e-05
iswritable 写 2.43378e-05
performed 也 1.02574e-06
variables 叠 0.000246166
called 过程 2.20931e-07
called 的引用计数 2.83184e-06
assignment 按 6.31128e-06
assignment 操作 1.21834e-06
enclosed 于 0.00118601
enclosed 可以包含 6.32032e-05
assigns 将 0.0033443
ofnew 一些 0.000585683
packages 之后 2.57005e-07
packages 仍然可 1.62303e-06
running 型提示 0.00446085
withan 可 0.00250912
withan 与 0.0420678
withan 直接 0.00084616
isinvoked 依赖于 0.838274
fooabsolute 绝对 0.00413381
imports 是有效的 3.31255e-06
after 级 2.64908e-06
moreleading 点 7.72209e-05
statementswithout 而 0.00117401
thefully 的完整 0.000151604
based 查找器 1.05593e-05
file 性 1.08559e-06
file 有效 1.7702e-05
file 来确定 2.20297e-07
hashin 来确定 1.69898e-05
byhashing 哈希 0.104321
byhashing 求 0.894394
there 适用 6.03623e-05
there 限制 2.12129e-06
with 有相同的 1.46929e-08
there 有相同的 3.17975e-07
loaders 如果它 9.7518e-06
execmodule 引发 2.0511e-05
you 如何 5.07472e-08
searches import 1.91449e-05
in modulenotfounderror 5.5851e-07
found 搜索 5.41127e-07
module 一个名为 4.00108e-07
kind 是一种 2.80611e-06
are 解析 1.04488e-07
have 环境 1.02292e-07
its 模块中的 5.71921e-08
also 虽然 3.32685e-07
constructed 代码块 2.44105e-07
asynchronousiterator aiter 0.00223118
up 使得 1.62852e-07
controlled 可通过 1.44501e-06
returned 协程对象 2.44371e-07
keys 被替换 0.00164273
indexerror 索引 1.50784e-06
values 索引 8.23511e-08
both 映射 9.18538e-08
those 所需的 1.05031e-05
setting 一个 6.2115e-06
when 一个异常 6.62494e-08
digits 放在 5.54983e-06
within 类定义 1.01676e-07
found html 2.51033e-06
ofreturn return 3.54908e-05
must 层级 1.62737e-07
it 低 8.92357e-09
always 数值 1.81073e-07
will 数值 8.54378e-08
reset 可能导致 1.48062e-05
firstnonblank 非 0.000458118
recognized 也是 7.61222e-06
standardplatform 标准 0.21728
same 类属性 2.02662e-07
be 实例属性 3.90417e-08
classes 没有 1.28269e-07
occurring 会将其 6.33636e-06
occurring 因此如果 1.01192e-06
clauses 未 4.57292e-06
exceptionand 存 7.60166e-05
suitethis suite 0.000981004
true whilestmt 2.58988e-05
between 序列化 9.28665e-07
intext 文本模式 0.000121405
will 方式 8.53476e-06
can 余 4.97503e-07
writing 让你 3.84087e-08
for 字符串 1.87602e-08
end 后面 1.07767e-07
facility 缩进 2.64412e-06
will 要 6.78453e-08
fibonacci 契 0.00033662
prompt 例子中 3.03513e-05
promptappears 那些 0.0064889
applicationmust 应用程序 0.270971
intended main 5.42589e-05
mainmodules main 0.00026581
currentmodule 进行 0.000404244
all 如果没有 4.78486e-05
explicitindex 索引 0.000266564
isexplicitly 子模块 1.57261e-05
when 只有在 3.84778e-09
should 只有在 3.83822e-07
like 使得 8.11149e-08
list complex 4.07032e-05
list compile 2.91024e-05
list classmethod 0.000350648
pythonpath 路径 2.70302e-05
defined 编译器 4.55753e-06
scriptexecutes 执行 0.000127724
amodule 的方式 0.00146379
as 入的模块 1.12412e-06
called 属性 1.66919e-06
creation 除了 4.46434e-07
at 访问 2.84526e-06
one 此方法将 2.1151e-07
class employee 5.49712e-06
exhibit 会显示 0.00230277
changes 顺序 1.54883e-05
than 顺序 5.95034e-08
changes 解析 3.08957e-06
methoddefined 方法 0.0101337
methoddefined 另一 3.92962e-05
becausemethods 方法 0.00806873
proceeds 过程 3.6972e-05
asingle 一个单独的 0.0699163
calledappend append 2.2832e-05
new 获得 6.41079e-07
new 语句 1.16921e-07
thelocal 局部变量 0.000278567
can 赋值 3.55202e-08
wascreated 命名空间 5.10067e-05
when 命名空间 3.68525e-08
isreinstated 在这里 0.000391039
scopethe 重新 0.000217247
entered 的局部 0.000101004
scopethe 的局部 0.35164
isreinstated 起作用 0.00235381
output spam 1.61476e-06
namespaces 空间 4.65429e-05
eliminates 不需要 0.00186996
eliminates 就 0.692875
likepointers 指针 3.62291e-05
implementing 轻松 5.64351e-06
moduleto 模块 0.999338
moduleto doctest 0.000661721
focus 虽然 1.25143e-06
messages 通 9.8703e-07
startupfile 文件 0.000455667
be 直接使用 4.93081e-08
executed 所以 9.50825e-06
when 或 6.88978e-07
pythonstartupto 设置为 0.000172178
unixstyle unix 0.000296707
giving 将 3.47143e-05
you 的特定 3.81856e-06
meetthe 要求 5.98379e-05
2 heapifydata 0.000284148
implementationswith 实现 0.000225311
removed 将自动 7.43833e-06
as 持续 6.05486e-07
formatting 直接 1.5338e-06
objectswhich 出 5.19329e-05
stras 如 0.000364927
createspecific 特定 0.000689041
was 引发了 1.51982e-06
nameof 名称 0.000109135
themessage 上述 0.000500586
programs 会显示 4.92938e-05
offending 语法错误 4.05763e-05
repeats 语法错误 0.000142969
repeats 出现 0.000985803
6since 6 0.000379351
that 舍入 1.93634e-08
that 经过 3.17074e-07
pointarithmetic 标准 0.00016337
expect 值 7.08192e-06
expect 十进制数 3.89561e-06
conflict 与 7.19606e-05
forcontinuation 连续 0.0014048
are 如果没有给 5.79403e-08
and 如果没有给 2.26536e-08
it 中的元 3.33195e-06
items 插入 8.12674e-06
name 一致的 9.7256e-07
use 个空格 3.12213e-06
others 帮助 4.03235e-06
valueannotated 相应 0.00095459
used 关于 6.18007e-07
opening 引号 1.09892e-06
stringdetermines 文档字符串 9.58548e-05
state 声明 7.94044e-07
withthe statea 0.00296951
withthe 关键字参数 2.53608e-05
withthe 来提供 0.000148326
withthe 操作符 0.000531937
withthe 的方式 0.000314016
3yes 的 0.00759467
3yes 33 0.0157111
start 1010030104070 2.25004e-08
negativesometimes 负数 0.00216153
morestraightforward 的做法是 0.005653
morestraightforward 直接 0.00126241
giving 是 5.35123e-05
command c 1.75155e-05
are 代码 1.22807e-07
save 可以为 0.000252427
with 很多 1.01948e-07
which 可变对象 1.23377e-07
compare 被视为 1.23933e-05
3 listzipmatrix 4.20106e-06
before 元素 2.48759e-07
macros 用于 2.01701e-06
afunction 是一个 0.00100538
thatfunctions 这些函数 0.00169771
return 异常 3.67754e-08
uses geoff 5.27642e-05
thedictionary 是作为 0.00016566
should 应用程序 4.08091e-08
argument 必须是一个 4.79878e-07
by 顶 3.91834e-07
returnnone void 6.73658e-05
if 在所有 5.5602e-07
inpython 方法 0.0102877
which 因此 3.94132e-07
file pyssizetclean 4.65128e-07
o3 o 1.69015e-05
demonstratedin 这些 5.00863e-05
contain 模块 9.19313e-06
way 创建 6.58307e-07
way 你 2.58376e-07
donot 并 7.48874e-05
librarymay 库 0.000127889
guide 开发者 4.43369e-06
each 收到 9.93789e-07
good 单词 7.17019e-06
not 返回 9.93663e-08
submitted 错误报告 2.94804e-05
patchesto 给 3.32499e-05
to 稳定 2.75097e-08
byclicking 控件 0.000348156
microsoftfoundation 微 0.00133343
windowingbackends 端 0.0219353
windowingbackends 后 0.00299184
windowingbackends 窗口 0.965509
thanpyside 熟 0.999997
applications 例如 4.76692e-06
have 可能的 3.89931e-06
several 可能的 5.31103e-06
several 有一些 9.28626e-07
calculator 运算 5.95553e-06
arent 作 2.33122e-05
whilelearning 远 0.00228761
whilelearning 长 0.000230005
whilelearning 虽然 0.00470651
books 版 0.000692496
newfeature 描述的 0.000975301
very 第一 0.0109331
that 相关 2.11513e-07
we 系 0.000105152
please 请使用 8.97801e-06
as 页面 1.87386e-07
as 公 4.63535e-06
that 每 8.70866e-08
unixplatforms 直接 9.2961e-05
distribution 源代码 4.64096e-06
on 很大 1.14073e-08
working 很大 0.0145161
working 获得 0.000135973
i 全 1.91059e-06
i 一种 3.42428e-06
created 是什么？ 1.61062e-05
created 理 0.000292955
created 最初 0.00480397
andfind 觉 0.00759926
andfind 感 0.00345348
andfind 并且 0.00403103
there 构建 5.57931e-08
interface 如何在 8.1883e-05
for 成功时返回0 5.50497e-09
extensionsdepending 具体 0.000493352
extensionsdepending 选择 5.27693e-05
extensionsdepending 扩展 0.000193826
line 中添加 3.70026e-06
but 间 5.51241e-07
performance 是一种 1.33272e-06
performance 一份 3.42195e-05
computing 方式是 1.04344e-05
items 的性能 1.37672e-06
referencesto 对 0.00149472
while 相似的 7.33821e-06
it 但也 1.20108e-05
closedat 关闭 0.00143058
rely 可以 6.77139e-05
intoc 成 0.00696726
locallydefined 本地 8.70988e-05
inside 表达式 3.23455e-06
inside 在 2.51543e-05
insertitself 插入 3.38551e-05
added 标准类型 5.51005e-06
dont 限定名称 1.7421e-06
thisexplicitness 种 0.00644321
thisexplicitness 因此这 0.000218068
call 要求 5.24977e-07
will 值8 6.35918e-05
modulewhich 该 0.00102341
modulewhich 模块 0.00419084
from 连接 5.76378e-08
tcp 防止 7.14754e-06
cgi methodpost 4.66581e-05
contains 一个 3.83348e-05
get 展 8.97756e-06
affect appendl 0.000199173
from 看 2.86869e-07
from 角度 1.03007e-06
behaviours 集合 1.12306e-05
mainlogicat 放置 0.00788953
thatfall 都 9.89421e-05
currently 都 0.000395772
currently 应该 3.28771e-06
currently 系统 4.25535e-06
dont 目前 5.03057e-06
written 使用 8.42646e-06
consisting 程序中 0.00124565
belong id 0.000208547
possible 可 2.61682e-05
a 字典中 1.57489e-08
any c 1.19042e-06
attribute 就必须 5.92344e-07
called methx 3.12853e-05
communitysorts 社 0.013512
2this 生成 0.00757736
2this 这样就 0.144691
rows 行 0.000137497
replicating 对 8.71582e-05
replicating 使用 0.00102891
forwarditeration 正 5.64608e-05
makes seq 1.86349e-07
calltuple tuple 1.35667e-05
cheap 简单地 8.24353e-05
aretools 工具 0.154528
aretools 有一些 0.0792508
be 方案 4.38253e-07
making 技巧 7.33826e-05
making 优化 9.65285e-06
making 代码中使用 1.9653e-05
which 您 1.71925e-07
with 之前 1.59526e-08
oneliners 可以用 8.75144e-05
class xdirx 5.03562e-05
class 用户自定义 1.61083e-07
function 需要 2.61393e-07
nonlocalkeyword 操作 0.000386245
do 你可以使用 8.44537e-08
previouslyworking 工作 0.000463973
isdocumented 所 0.000571037
isdocumented 请参阅 0.000219532
windows exe 2.8266e-06
arrayinitializers 内置模块 0.00799605
arrayinitializers 数组 0.00035757
arrayinitializers 组 0.000115355
arrayinitializers 可以使用 0.807975
arrayinitializers 代码 0.00174781
arrayinitializers 字节码 0.00527706
arrayinitializers 用 0.00275068
arrayinitializers NULL 0.0220416
recursively 以获取 0.00140544
recursively 源代码 0.000373192
foruse 可 8.02347e-05
foruse 后 0.0087641
breakpoints 颜色 0.000106025
colors 调试器 0.000452639
which 用于获取 0.000157735
this 使 3.3281e-08
as 吗？ 5.15376e-08
identically 配置 0.000103516
is 足以 3.87109e-07
associates 将 0.000133565
of 每个 1.6031e-08
be 只是 3.96303e-08
name 电子邮件 0.00126307
if 验 8.05531e-06
allof of 8.3008e-05
section NULL 2.88194e-05
comments 2002126 0.000332765
psf 协议 6.31491e-06
thepsf psf 0.00166681
then 来处理 7.99943e-06
porting 包括 1.57256e-06
function 一个 5.09724e-07
arbitrary 传输 7.62369e-05
when 工厂函数 3.85432e-08
when 关 8.12754e-06
when 无 1.03843e-06
when 使用 4.12717e-07
thosebits 那些 0.00153741
number 前导 7.72855e-07
given 考虑 7.8982e-07
wholeworld 特别是 0.00104527
manipulating ip 3.2667e-05
pleaseclose close 5.90107e-05
added 大 1.96345e-07
order 序列 2.17879e-06
exists 要 1.30277e-06
exists 开发者 2.77782e-07
available 的项目 6.97874e-05
python 但 3.14978e-08
keybindings 集 2.26236e-05
keybindings 模块提供了一个 2.64224e-06
using 做 1.08324e-07
using nodelay 1.01714e-06
called 会显 6.56371e-06
over 知 1.75796e-06
over 把 5.51142e-07
students students 0.00686449
keycmptokeyreversenumeric 52413 6.06203e-05
situation 这种情况 7.33181e-05
was 没有 1.59617e-06
there 之前 7.31224e-07
keyfunctions 函数 0.000298775
inthe 装饰 0.000133135
include 要 6.33081e-07
idiom 被称为 1.0147e-06
did 发送 3.70349e-06
did 清楚 2.68618e-05
by 回溯 1.52028e-08
function 像 7.88774e-07
expressions 功能 6.89847e-07
them 不同 1.20579e-06
what 感兴趣 0.00271173
will 的内容 3.88172e-08
instead 记住 4.02117e-06
how 而 3.42078e-07
to 语法 3.04699e-09
would 语法错误 9.90874e-07
rfc822 rfc 0.000979642
an rfc 5.22559e-08
there 正则 1.33779e-07
indicated 结尾 1.39202e-05
has 否则 1.44196e-07
engine 注释 5.14258e-06
put 将 1.69494e-05
including 换行符 1.51127e-06
as 鼓 2.83162e-06
precompiling 正则表达式 5.39642e-05
you 应该使用 7.39279e-07
added 参数并 5.01327e-07
12 pipers 2.61297e-05
by 字符串 2.37635e-08
expressionwhat 正则表达式 2.30416e-05
interface 实际 9.5082e-07
notation 用这种 0.000408578
readers 论 0.0036749
and m 7.10749e-09
regexes 那么 4.60749e-05
by 正则表达式 6.02131e-06
class 来表示 6.38988e-07
indicated 来表示 0.00474729
addresses tex 0.000151164
areessentially 的一种 0.000272517
areessentially 本 8.60922e-05
introduction 说明 2.13178e-06
on 建议 5.0355e-08
ian 建议 0.000273527
ian 给 7.53271e-05
and 住 2.46304e-07
builtin sum 7.17527e-06
had items 2.92674e-06
on 花 9.30337e-09
ia i 6.28765e-05
equivalent f 1.71357e-07
firstposition 位置 2.17922e-05
is 第一个 4.77412e-09
tuple 松 3.74933e-06
produce 输出 1.18507e-06
3 123453123124125134135145234235245345 3.71843e-07
supply 初始 3.15287e-05
values 后 7.35751e-07
condition 选 1.20659e-05
iterable 也可以 1.1192e-07
before 传递 9.30786e-07
thorough 详细 1.72857e-05
here 像这样 8.37004e-06
python3 on 9.90503e-07
goes on 5.95526e-05
one 必须 1.69083e-06
isnt 没有 7.10229e-06
running 选项 3.61003e-07
the on 1.1257e-08
without 非常有用 3.67961e-07
without 的时候 2.5074e-06
method addhandler 1.02707e-05
a json 1.19223e-08
behaviour 会导致 6.6901e-06
separation 势 1.56433e-05
separation 优 0.00640345
separation 20050319153856130 8.98361e-06
configures python 0.000620953
stringshould 格式字符串 8.82699e-05
styled keys 0.00203134
styled dictionary 0.00446678
interface 定义了 8.45694e-07
deconfigure 过滤 1.51955e-05
one 如果没有 2.32269e-08
methods 称为 2.33501e-07
carry 然后 0.000158194
formatstrings 你可以 3.62777e-05
formatstrings 内容 0.000140822
would 输出 1.72056e-06
0 这 2.06998e-06
just 编码 1.84812e-06
are 序列 2.61092e-08
translating 序列 0.000493861
then 到 7.91808e-06
then 应 5.70441e-07
numbers 一系列 6.28852e-07
specificationfor 规范 0.000451334
handler 消息 8.39601e-07
change 消息 6.53808e-07
logat 将 0.00283504
customflushing 刷新 0.0112152
customflushing 自定义 0.0116876
whenits 刷新 0.000621215
whenits 缓冲区 0.000475455
whenits 在 0.00124958
behave 装饰器 3.20937e-06
information 调试 2.10104e-07
individual 日志消息 7.23302e-07
which logrecords 8.11295e-08
code 开发者 2.39618e-07
related reddove 0.000253404
youd 替换 8.93872e-06
look classmethod 7.35207e-05
builtin property 3.40673e-06
property 个 0.000854595
property doc 1.26677e-06
proposed 出 1.2972e-05
of exception 3.65875e-08
meant 相关的 4.86195e-05
change 更 3.29414e-05
change 变 0.00106352
xcontributed 由 0.00134792
xcontributed x 0.998652
support 中删除 6.5715e-05
intel® i 0.00159565
intel® ™ 0.998267
and 它们的 9.76153e-08
those 私有 1.08014e-05
those 个 0.0040208
is pyinterpreterstate 1.02749e-06
member 应当被 3.39168e-05
raised 在 1.814e-05
no popen 1.89659e-07
sets 现在会 4.44424e-06
parallel 对应的 0.100482
like pyargparsetuple 7.33656e-07
bpo35081 中贡献 0.63639
by 三方 8.78644e-09
which 此 6.78865e-08
uncaught 捕获 0.00231314
uncaught 如何处理 0.00143957
tocontrol 以便 4.22544e-05
is 增加了 1.20069e-08
reparse 解析 0.0247656
reparse 重 0.0154665
reparse 类 0.000966876
function memfdcreate 5.16351e-06
using 变得 5.48056e-06
this 问题 2.84486e-08
theunderlying 下层 0.000855533
hellocontributed hello 0.00124208
helpful 很有用 0.000842354
helpful 来说 0.000170989
helpful 保证 3.37126e-05
second 计算 0.0163556
second 同步 0.00031159
369 为4258𝑥≡369 0.00255982
it 随后 7.81357e-07
altered 量 0.000173795
bufferswhere 缓冲区 0.000217886
processesin 进程 2.99057e-05
text 扩展 2.18448e-07
methodsthat 极 0.000491423
helpful 形参 4.91978e-05
keywordarguments 关键字参数 0.000236856
whether 用于 2.85556e-06
build 可以为 2.22706e-06
42 o 7.82409e-06
along 及其他 2.09917e-05
strings pyunicodeasunicodecopy 0.000132061
tocommand command 0.000103102
os2 os 7.27863e-05
thoseenvironment 环境变量 0.00014192
currently pyinitialize 5.20797e-06
installedpythons 所有 0.00029262
produce 来 1.67376e-05
deprecated 之前 4.25384e-07
previously 移除了 4.8525e-05
deprecated 字母 1.80783e-06
deprecated ascii 6.20858e-06
deprecated 替换 1.70986e-07
in re 5.10391e-09
selecting 整数值 1.93029e-05
be 通过 2.8574e-08
any 显式 4.05118e-07
now getnode 3.5276e-06
sortingthe 回溯 0.000605521
beenconverted 已 5.32143e-05
closefds 均为 0.00483596
machines 虚拟 4.88136e-06
no 的正则表达式 1.34958e-06
no 编译 4.77571e-07
functionalityof 结合 4.09355e-05
functionality 了 4.13011e-05
new of 3.64718e-07
normal 通常 0.039852
pythonbinary 监视器 0.00475711
pythonbinary 未 0.669815
with python 2.07434e-07
of 推导式、 5.69406e-09
multiprocessing 多 2.58069e-05
now 通过 1.71689e-07
thecustomization 简化 0.000415182
callback 的绝对 1.31705e-06
server 实例化 5.18933e-07
received 可用性 5.74449e-07
with 代码中使用 1.81271e-08
timing 每次 1.40056e-05
absolute 循环 0.000106335
maintaining 维护 0.000140696
are 存在的 1.45044e-07
used 在没有 2.04802e-06
posixcompliantnor 也不 0.000757613
in posix 5.40943e-08
posixcompliantnor 符合 0.00023012
and 方便地 2.7655e-08
based 的替代 1.15075e-05
while 起作用 8.01825e-06
while 子进程 4.11606e-06
while readline 1.77688e-06
structure 子 5.38967e-07
are 错误 7.50121e-08
those 存 3.03073e-07
affectingextension 扩展模块 0.000118839
affectingextension 影响 0.000280258
affectingextension 同时 0.000157417
usingany 任何 3.3066e-05
has 中 6.39694e-06
this 通常情况下 2.10801e-07
where 不需要 9.12346e-08
2 similarly 6.35601e-06
implemented hodgson 1.09231e-07
is pyaddpendingcall 1.01632e-06
after 出现在 3.31724e-06
patch 由 8.16915e-06
care 应当 1.90857e-05
care 的用户 0.000242144
name 平台 5.37904e-08
created pytypefromspec 2.62289e-06
being 为 3.73825e-05
scopeid 前缀 5.50683e-05
possibility 优化 0.00117138
grammar 在之前版本中 9.35186e-06
past 超出 3.40838e-05
so 功能 9.31997e-08
error 目 5.3764e-06
error 获取 1.97474e-06
execution 除非 9.25494e-07
execution 操 2.54629e-05
however 小于0 1.2593e-05
nonnull format 9.8129e-07
interface 对象 1.67898e-06
section buffer 9.3185e-06
their 它 4.29029e-06
about 它 8.32433e-06
type 它 1.42561e-05
sets cell 9.87789e-07
0 则 1.40389e-06
dereferencing 对 0.000444464
it func 1.06626e-06
given 到 0.00014699
given 提 0.00102771
by 应用程序中 5.02206e-07
size 的长度 8.20086e-06
back 可用来 9.47931e-06
int 正整数 1.91628e-07
pydatetimedatetype 则返回真值 0.00105435
returns pydatetimetimezoneutc 1.69881e-06
invokedusually 发起调用 3.61053e-05
been 一样 9.56907e-06
instead pyobjectcalloc 2.15311e-07
called pyobjectcalloc 3.08479e-07
when 解释器 1.63068e-08
writers 作者 0.000173096
deal 动态 6.34503e-05
appended NULL 0.000768891
true o 5.69794e-07
if 一个异常 2.27237e-06
caller 都 6.28178e-06
one 包 1.32381e-07
continue 因为 7.44388e-06
removed 从 6.03616e-07
deconstruct 类型 0.0499825
deconstruct 旧 0.0541177
deconstruct 析 0.271541
deconstruct 被用来 0.000157204
char format keywords 0.000550492
pyobject kw kw 0.000857275
a 是可变 2.68909e-08
that 地址 2.48738e-08
what 在这种情况下 1.4072e-07
what 列表中 1.24949e-05
successful 代表 9.21481e-05
for 代表 3.64995e-08
represented 如 0.000279914
about 待 6.96914e-06
useful 这些函数 2.85387e-07
operation 这 8.4031e-07
form pysequencegetitem 0.00114786
size 也可以通过 3.67351e-07
pyssizet i pyssizet 9.61317e-05
of 失败时返回 2.10306e-08
described 执行 1.3408e-06
described 还 6.46037e-06
described 之外 1.13789e-05
under 因为 3.6963e-06
under 不可用 1.96186e-05
under 编译 1.78918e-06
under 平台 6.02515e-06
under 使得 1.17879e-06
writers 编写 0.00146417
which 之前 4.83292e-08
which 头文件 7.33623e-07
which 任何 2.10764e-08
which 因此在 1.3234e-05
these 编写 8.07289e-08
from pythonc 1.22748e-05
exceptiontypes 异常 5.79502e-05
positionalonly 位置参数 0.000502697
positionalonly 仅限 0.014993
utf7 7 1.32798e-05
a null 8.08939e-08
where 于所有 5.62312e-06
upconverted 转换为 0.000174889
1 key 0.000173756
1   6.67234e-05
you 并不会 6.09374e-08
1 pyobject 0.00267259
ofset set 0.00298511
than 可通过 1.28296e-06
pyobject kwargs callable 0.0049579
for httpswww 1.09379e-07
startreading 阅读 0.0011388
cpus ppc 0.000180585
that python 4.44072e-07
details 不支持 1.65935e-07
variablecould 示例 0.00016879
set 添加到 1.16956e-08
at 则 1.09483e-06
scriptswith 命令行选项 2.93175e-05
automatically 此操作 1.98258e-06
installation 完成后 1.13077e-05
bigger 安装 3.83435e-06
toactivate 激活 0.0149607
toactivate 管理 0.0035138
paths 这意味着 4.43815e-07
optional 组件 2.16728e-06
necessary 工具 1.31876e-06
and 开发人员 8.7687e-08
will 及 4.97897e-08
course 脚本 5.78889e-06
course 启动 1.42468e-05
course 简单地 0.00019863
when 发起调用 3.57768e-07
virtualenvironment 虚拟环境 0.000140162
as 尚未 7.15016e-07
aperuser 用户 2.74387e-06
be 也可以使用 3.48813e-08
capabilitiescan 信息 8.94072e-05
capabilitiescan 功能 0.00012641
trackers 系统 0.00643772
trackers 平台 7.02211e-05
trackers 基于 0.000153108
evolution 负责 3.21791e-05
installers 安 0.000754632
compound breakonhyphens 9.41816e-05
first 一 4.72918e-07
first 入 5.54421e-07
characters 符 0.00327987
characters 字 0.000648209
corresponds 一 1.04285e-05
hyphensin 包括 2.40755e-05
wraps kwargs 2.25712e-06
scrollbars 通 0.000363864
classdocumentation 类 0.00116397
subscripts 负值 5.92826e-05
fields 在 1.57634e-05
however 必须在 1.06607e-06
initializer 器 0.000339078
initializer 初始化 0.00713003
initializer 浮点数 9.02482e-06
restype 具有 1.18653e-05
part 某 4.83915e-06
descr 来获取 0.000190685
fills 填充 0.00204979
windows formaterrorcode 0.000481765
will 被引发 9.34429e-08
on 这样就 1.46893e-08
argumentsaccept 参数 0.00400287
beaccessed 可 0.000119928
accessing 审计事件 0.00384565
these 类的实例 7.78454e-08
omitted 设置 1.25728e-05
omitted 默认 2.49224e-06
how 平台上 3.72215e-06
of changes 2.12074e-08
known 特性 9.296e-06
fine 但是 1.39621e-05
theobject 本身 0.000546213
theobject 存储 2.54568e-05
edges 的事情 1.15302e-05
sooner 什么 1.55675e-05
sooner 早 0.0387412
sooner 它 0.960819
we indllpythonapi 1.75426e-06
by 指针 1.80119e-07
in 就是 1.05036e-07
members 结构体、 0.000168945
structures 成员的 0.000817045
structures 定义 3.80206e-06
assign 结构体 2.70808e-05
instances 能 7.87554e-07
structuredefined 接收 0.770564
structuredefined 字段 0.076816
crash 会导致 1.71827e-05
when 但是 1.73118e-08
have 是 6.49147e-07
index 022 0.000861471
are c 7.70033e-08
formatstring 尝试 0.000291839
formatstring 格式化字符串 0.0112844
beaccessed reprp 6.68048e-05
mutable 指 2.56948e-05
not 所指向的 1.12162e-05
should 跨 2.31048e-05
which 还需要 1.20985e-06
isdisplayed 显示 0.000235376
each 摘 0.000184645
each 层级的 1.74136e-05
elements 对应的 7.78395e-06
elements 的时候 5.12008e-06
elements 出现 2.01482e-05
fed 用来 0.00060053
then 程序中 0.00171165
a 数字 8.07692e-09
will 并 5.20443e-07
general NULL 0.000154972
eachevent 事件 0.211762
eachevent 每个 0.342766
better 结果 7.89365e-05
better 实际上 2.29661e-06
fashion 这种方式 3.6737e-05
clock 时间 3.30874e-06
isa 精度 0.000234837
profilers 确定性 0.000121966
applications 开销 4.90203e-05
execution 确定性 8.5671e-07
intypical 应用程序中 5.06649e-05
execution 应用程序中 0.00553954
execution 典型 9.25476e-05
acquiredfrom 从 0.000448063
tasks 工作 5.28665e-05
feed 工作 9.13242e-06
tasks 组 2.21959e-06
returned 表达式 1.24766e-07
to args 5.83171e-09
representationof 指涉对象 0.000921701
clause 保护 7.37519e-07
not 已经 1.63213e-08
in 如果指定 6.56175e-08
which 等待 1.42329e-06
covered 说明 0.000588671
hasmethods 具有 0.000803131
mechanisms 用于 7.3878e-06
set 比特位 3.84399e-06
console 终端 5.36955e-06
for 开始 4.07457e-08
deals api 5.51164e-05
further 平台 6.57309e-06
valid 映射 7.42685e-07
mapping 其 7.71587e-06
notclasses 此模块提供了 1.56295e-05
whilepickling 的一种 0.159665
assumes 查询 0.000118286
assumes 目前 9.46199e-05
nameprep 如果有 0.000426477
protocol 任意 2.51364e-06
then 形式 3.58487e-07
then ace 4.4583e-06
objects 接口 6.18704e-07
theinterfaces 接口 0.000504557
theinterfaces 配合 0.00221709
child tag 6.91646e-07
subtree 包括 1.32711e-05
are 是可以 4.67648e-08
reading 交互 0.000152106
desired 发送到 2.55745e-06
writing input 6.40904e-06
writing 如果在 2.35618e-06
that 相应的 1.12554e-07
executeand 执行 0.000118669
such 这些函数 1.23865e-07
offer 提供了 0.0132464
offer 的工具 0.00272548
offer index 0.000569082
offer 可以通过 0.0110078
rounding 只 1.00684e-06
in 此 2.10136e-08
may 供 8.53805e-08
internally 以便 3.86884e-06
that 过滤器链 8.74185e-08
stick 保持 0.00225462
stick 是 0.00720773
stick 最好 0.000264651
compressordecompressor 器 0.000195367
algorithm 此模块提供了 1.06486e-07
used 可以在 2.02466e-07
as 转换为 6.47058e-08
options option 5.81727e-07
were 来读取 2.16465e-05
were 将 3.67716e-06
an 包含一个 2.29203e-07
using 或 2.75545e-07
purposes 通常 3.52219e-06
configparsers 均可 0.718427
configparsers configparser 0.221902
footo foo 2.15337e-05
is 时候 2.39477e-08
methods 建议 3.95909e-07
value 求 6.52674e-05
with interpolation 2.11423e-06
50022 floattopsecretcompressionlevel 0.0873916
above 看到 2.42881e-06
itback 来 0.000154728
files ini 4.14035e-06
which 且 6.66101e-08
parameter 不存在或 3.4137e-06
sources 了解有关 8.02697e-05
has sslcertverificationerror 1.75168e-06
x509 x 0.000195138
support 增加了 1.52874e-06
reenable 以下代码 0.00274428
yourself NULL 0.00665643
when 直接调用 2.11492e-06
syslog 黄 0.000179933
best 精确 3.72254e-05
programsrunning 的其他 0.00116296
loops 按 0.0104502
isused 表 3.36229e-05
your 机器 1.2525e-06
seconds 测量 5.55475e-05
run 语句、 8.00902e-07
time 计算 4.56949e-07
on uri 6.74114e-06
alphabetical 顺序 2.43196e-05
typing 560 1.66144e-07
preserving 插入顺序 3.01606e-06
classes 无法被 1.96477e-06
class function 6.05975e-08
maps 的字典 7.5939e-06
withmodules 模块 0.000428488
preprocess 知道如何 1.60213e-05
duplications 对应的 0.000992691
circle sortinganimate 0.0116521
koch fractalcurves 0.00145053
koch 棵 0.00521742
computations 运算 7.87849e-05
center 表示 0.00311738
case idle 2.35803e-07
in registershape 2.82157e-08
explicitly 具体 4.4728e-06
object 要 3.4426e-07
recenter reset 0.00194501
either 填充 1.22554e-06
else 状态 1.78896e-06
both 填充颜色 5.98272e-06
several 画笔 3.05485e-05
your 平台 9.53452e-08
stdin 标准输出 3.87849e-06
connected 对 3.87995e-05
conversion 系统上 2.05044e-06
if 判断 2.03637e-08
decorator dataclass 1.63929e-05
passparameters 传递给 9.08932e-05
tointeract 用于 0.000113593
as 注释 2.14959e-08
value 索引 1.26625e-08
removed 分隔符 3.2252e-06
make 文件系统 5.40022e-07
compiling 并 6.65119e-06
and 类 2.24911e-08
file 这些 0.000123229
ofposix posix 0.000144652
is 不会执行 2.68536e-07
how 示例 1.21788e-05
a this 4.7948e-09
that with 1.62119e-07
shown 验证 1.86554e-05
butmight 但 0.00012652
with 接收 2.3903e-08
sendsdata 客户端 0.00239477
sendsdata 回显 0.00599119
over 至 0.000315584
returned 尚未 7.31464e-07
passing 给 1.05082e-06
order 各种 9.29474e-08
calls 要求 1.36899e-06
that 数量 2.73393e-06
that 条目 3.52051e-07
2accessing point 0.00162179
arguments 按 1.50552e-07
at 至 4.21897e-07
respectively 设 1.62348e-06
respectively nan 4.73807e-06
and 小数点 2.59239e-09
available 左 0.00101498
as 来自 8.02637e-09
returns 通过调用 1.76219e-07
0name name 0.00282767
breaking 完成 1.3449e-05
allowsyou 允许你 1.83055e-05
in 允许你 7.83617e-09
workingwith 使用 0.000255108
you 少 4.60799e-08
well 禁用 6.28037e-06
well duplicatefreeenum 0.000150671
class orderedenumenum 3.9492e-06
method 则 2.23039e-07
in 优先 3.45229e-08
compared 可 3.27738e-06
theorder 的顺序 0.000194394
compare 将总是 2.98997e-07
though 下 3.48002e-06
programmaticaccess 枚举成员 7.04997e-05
with 给出 6.99241e-08
of 注解 2.86885e-08
beoverridden 重载 0.000225799
chosen 由 8.84964e-05
manipulation 在 0.000149294
will 用来 3.33673e-07
list 传入一个 9.04034e-07
zaps 将 0.00161397
severity 或更高 0.000195859
events 事件—— 3.4615e-06
these 接收 2.09361e-07
these 期望 9.8181e-07
use 配合 9.25656e-06
and 如果在 8.71184e-09
in 一致 3.99726e-07
a 所使用的 3.65728e-08
is 写入 2.3837e-08
essentially 实际上是 0.00011906
open 作 6.10532e-07
ms 格式化 1.28273e-05
support 使用 7.17215e-06
addition 在这个 1.98607e-06
someor 部分 0.000106903
usethe 包 2.17224e-05
everyday 常 2.51065e-05
compute 需要使用 6.17102e-06
numberhas 复数的 0.000186664
cmath 定义 5.01653e-05
two 条 4.37055e-06
polar 坐标 7.12167e-05
platforms 不支持 3.56032e-07
object 用于将 0.000188265
content 嵌入到 8.50107e-06
efficient 如 1.123e-06
repeats 套 0.000127563
repeats 嵌 1.47687e-05
blowup 攻击 2.24847e-05
blowup 炸 0.318264
quadratic 炸 0.0371999
blowup expansion 5.07119e-06
quadratic expansion 0.0017128
blowup quadratic 0.00249911
the 递归 9.96434e-09
if 个模块的 1.4291e-06
the if 9.4966e-08
1 mock 2.44061e-08
when mock 1.54977e-06
them 属性 5.1137e-06
mock 根 3.00016e-05
mock 存 2.67381e-06
mock 灵活的 6.87279e-06
of 单独 2.82815e-07
they 断言 6.62858e-06
class 整 2.58976e-07
time 为当前 6.87959e-07
in 无限 6.73004e-08
runtimeerror 检查 1.56274e-06
runtimeerror 并且 1.70649e-06
runtimeerror 解析 9.2561e-07
relative some 6.06956e-05
at 建 3.68075e-05
at existokfalse 0.000183018
raised 如果文件 2.3912e-06
that 陷 7.4056e-09
how 转换 3.34026e-07
not 正确 1.33548e-07
limited 旧 1.34766e-05
using tarfile 8.61574e-08
ensurestrict 符合 0.000905641
standardscompliance 严格 0.00202598
equality false 1.03891e-05
indeterminatenumbers 确定 4.22669e-05
when 来 3.61384e-08
when 某些 6.846e-09
rounding 发生了 0.000154012
rounding emax 2.82646e-05
clear 计算 4.99422e-06
is 结果值 5.28953e-07
have 必须不为 6.87773e-07
representable 表示形式 7.93343e-06
representable 数字 1.385e-06
representable 的最大 0.0780272
methods 法 3.86751e-06
with 方式是 1.01108e-07
applied 过程 1.72358e-05
applied 应 2.1543e-05
supplied 三种 2.23578e-05
addition 提供的 9.08928e-07
be 操作数 1.07808e-07
gives 第二个操作数 7.06093e-06
quantize 量 0.00397956
and 标准 1.78163e-08
raised 标志 6.33392e-07
raised 运算数 0.000120735
on 排序 8.53359e-09
identical 相同 1.465e-05
with 另一 4.22009e-07
given 则返回 1.034e-07
thetraps decimal 2.97431e-05
decimal1 setcontextmyothercontext 0.00166804
toa 舍入到 0.000317204
constructors 混合 5.56742e-05
constructors 意外 7.2954e-05
isencountered 时 0.00191239
precisionrounding 舍入 0.000394182
precisionrounding 精度、 0.37345
offers 相比 4.95277e-06
functions 基于生成器的协程 2.18078e-05
whether 返回 0.000637998
by 一个异常 3.11733e-08
would 函 2.34897e-07
here 代码段 1.04725e-05
here 上 1.07095e-06
that 秒数 7.88875e-08
with 指定 3.41713e-07
gather 将不会 2.05274e-05
propagating 因此在 0.00102865
in 运行 1.22628e-08
provided 时 1.43533e-05
asyncawait 基于 0.000298275
some 在其他 1.26019e-06
some 对象 7.33806e-07
object 可等待对象 3.7946e-07
object 如果一个 9.40666e-08
faster 时间 8.52376e-07
concurrently async 7.0874e-06
concurrently 协程 1.45452e-05
was xdr 5.56408e-07
was 1014 5.62918e-06
complementary 相应地 0.000641719
packing 将 0.000187984
you 的时候 1.04209e-07
without 不支持 1.68995e-07
betweenthreads 问题 1.29993e-05
efficiently 3 2.23121e-05
timestamp 如果 5.35138e-05
are 使用 2.13744e-07
send 你可以 6.5627e-07
one 能 6.11782e-08
store 器 0.000618504
huge 大量 0.0017058
requiresconversions 转换 3.22772e-05
call 次 1.83898e-06
readable 缓冲区 2.19749e-06
readable bytesio 3.52151e-05
using 有关 1.42913e-07
a 打开的文件 2.45009e-07
operations 版更改 1.7046e-05
categories 具体 5.80861e-06
withvarious 各种 0.00104815
working 工具 2.59858e-06
working 处理 0.000487994
code 有效 8.70621e-07
and 够 4.16539e-07
support 2 1.55439e-06
of 自定义 1.97582e-09
universal utc 2.73548e-05
universal 标准 4.44703e-06
each 几 2.16231e-06
each 欧 7.8013e-05
it 的因此 5.16154e-06
and 到 2.62321e-07
is 一个参数 2.12597e-07
sum 加 0.000271502
way 可移植 9.05647e-06
unmodified 做 1.99302e-05
unmodified 之外 3.85833e-05
shortemptyelementsfalse 88591 0.0404059
prepares data 6.94188e-06
an 文件 1.13316e-07
child pid 5.73062e-07
differentfiles 差异 0.999077
differentfiles 公共 1.09751e-05
used 那些 4.87312e-07
three 出现在 2.0184e-05
lacks 缺少 6.90876e-05
lists 组 1.08925e-05
dir1 dir 0.027612
functions 用于 8.8925e-07
a 引发一个 8.4671e-10
increases 如果在 0.000104496
that 如果在 3.5694e-07
increases semaphore 0.00207057
noop 为空 0.000295817
noop 如果没有 2.04504e-05
recovery 恢复 0.888914
range4generate 猜 0.000768418
change 更新 7.22618e-07
tomake 内 6.82951e-05
tomake 能够 8.65807e-06
well 包含在 1.06998e-05
most 于 6.50043e-06
add notimplemented 0.000138779
from 们 1.37959e-07
passing 代替 4.07245e-06
differentprocess 调用 0.000290278
memberlist 列表 0.997375
summarize 对 0.00075617
two 额外 2.87925e-05
scripts 转换为 7.49483e-07
based 转换为 6.88036e-07
recordedcommands 至 0.00121556
superclass 自定义 7.37704e-06
oncallables 操作 0.000177632
strings userstring 8.96136e-06
need 源代码 0.00237942
or 元素 2.29789e-08
strings 列出了 3.89935e-06
replacing 实例并 5.22425e-06
maps 将 0.000133309
are 命名元组 6.61034e-08
required 指定一个 3.18041e-06
and 字母数字 3.32893e-08
add 通过 6.92079e-07
3setting 设置 0.000375211
active 当前 3.88228e-06
movingaverageiterable n 0.000896908
their 集合 3.46143e-07
same 方法 8.38187e-06
same 这两个 0.00131671
or 减 8.47992e-07
first 每个元 1.39303e-05
they 没有任何 2.46255e-07
similar 有 5.94287e-07
while dictd 4.64123e-08
while NULL 0.000167531
subcontexts 改变 3.53716e-05
subcontexts 于 8.2032e-05
modified 可以被 1.78861e-06
groups chainmap 7.56775e-06
entries 的顺序 2.44565e-05
entries 被添加 4.94089e-05
creating 集合 3.41026e-07
with 实现了 2.09905e-08
protocolsare 操作 0.000543568
protocolsare 有关 0.109752
described 协议 5.76251e-07
anywhere 时区的 0.000482988
bypassing 缓存 6.02231e-05
serialized 基于 3.70702e-06
repris 的 0.00463709
morelikely 是通过 0.918315
morelikely 常见的 0.0293511
deployed 他们 2.08535e-05
manipulated 来 3.82003e-05
and 数据库 6.50213e-09
these 下列 4.38991e-06
not 使用 5.01984e-07
longer json 1.00607e-05
preserving 因此 0.000119407
preserving 顺序 5.21389e-05
thus 也 2.92384e-05
alternate 指向 9.50959e-07
a 处理程序 6.85167e-08
located 实例 1.24258e-05
in 一个带有 9.65557e-08
with 第二个 3.11407e-07
it 匿名 8.74599e-09
because 格式化 9.04223e-06
interpretedas 根据 9.12159e-05
kind 符 3.4353e-05
kind 行 4.33472e-06
resulting 形式 1.97905e-06
kind 形式 5.15867e-05
upwardsfeature 具有 0.0127656
receiving 接受 2.2892e-06
pickling picklebuffer 9.74976e-05
a 图 2.60772e-07
subclass 基于 2.56553e-07
an 下面的 2.25386e-07
private 特殊 4.05915e-06
not persistentload 2.4089e-07
methodson 分别 5.77125e-05
style 数据库 6.39269e-06
style dbm 7.07746e-06
dbm 用于在 3.52543e-05
transform 字 0.000638197
and 也可以 4.03946e-09
transform 将 0.000152165
by 详情 9.89234e-08
2 版协议 4.75899e-05
forpickling 操作 0.000227611
data 默认情况下 1.30559e-08
set 一个简单的 1.38598e-07
initially 行为 7.09456e-06
composed 价 0.00149038
composed 标 0.000604897
tagged 带有一个 0.00122715
tagged 都 0.00100305
msg 部分 2.80138e-06
it 参数是 3.04944e-08
frames 之前 3.91993e-05
frames 写入的 3.74868e-05
valid 应 6.02313e-06
frame 采样 0.000192831
thelatter 后 1.76925e-05
data 准确 2.65255e-08
uses 参见 3.71269e-07
containing 类型提示 6.9382e-08
after 3 0.000279961
inside 干 7.51076e-05
definenew 新 0.000351597
inheriting 时 0.000203645
when 泛型类 2.38305e-07
typewithin 一个 7.14473e-05
parameterized 可以通过 0.000103142
bodyit 省略 2.43869e-05
a 仍然可 3.90102e-08
namein name 0.999964
specified 484、 1.48899e-06
runtime pep 1.935e-05
have 应当 1.18111e-07
invalid 法 9.62169e-06
invalid 非 1.31569e-05
raised 后 2.42537e-07
executor 器不会 0.00028206
highest 最高 8.6812e-05
simply 执行 5.72733e-06
simply 之一 4.03906e-06
amount 管 0.000241599
amount 间 2.2245e-05
amount 内 7.36072e-06
amount 可 3.97111e-06
a 将打印 2.29517e-07
you 类型 2.10737e-07
literal 反斜杠 1.64538e-05
guarantees 所描述的 1.83762e-05
guarantee 才能 3.20359e-05
do 以下方法 5.78191e-07
test 在多个 9.24444e-06
inheriting NULL 0.00453736
oftestcase 的子类 0.000437832
basic 条件 0.00154362
verify assertfalse 0.000283502
names 开头 3.97083e-06
theletters 命名 8.26379e-05
collects 将所有 0.000342334
differently 步骤 0.00237614
stringinstead 还 7.83915e-05
added parser 4.42572e-08
arguments filetype 3.94279e-05
avalue parseargsxx 2.10441e-06
addargument 确定 5.6597e-06
parseargs 对象 1.95025e-05
theobject 对象 0.271857
values 不同的 7.66554e-08
be 一个带有 3.31162e-07
argument 命名 8.83914e-07
appends 将每个 0.004397
like parser 4.21979e-07
like 位置参数 1.39236e-07
program 么 3.57226e-06
how 与 2.56953e-06
invoke 调用 0.0707676
argumentsis 是 0.000633492
is 包 3.29627e-08
successive 每个 4.12959e-06
successive 指明 7.15941e-06
preserve 忘 0.000122873
preserve 备 0.000153339
was 是 4.64089e-07
string 包含 1.00131e-07
string 必须为 2.43949e-08
messageor web 7.27657e-05
messageor 或 0.0780344
messageor 消息 0.920175
messageor 邮件 0.00118577
how NULL 0.00167393
value tokentypethen 5.28623e-08
value column 9.32843e-06
theregular 正则表达式 2.25247e-05
occurrence sub 0.00012528
init 空格符 8.74867e-06
convert 字符串 3.0202e-06
would 你可以使用 1.86393e-06
was 索引 3.68325e-08
value pos 9.36872e-07
contribute 参 4.04337e-05
contribute 匹配对象 0.000542236
in d 2.56466e-07
dropped 重置 8.57616e-05
changederrno errno 0.000535844
implementederrno 未 1.11983e-05
requirederrno errno 0.133031
numbererrno errno 0.000526309
includeerrno 符号 2.41132e-05
from linuxincludeerrno 1.18288e-05
class interactiveconsole 4.91245e-06
and 读取或写入 3.44945e-08
append filename 1.75848e-06
history 操作 1.48823e-06
differentiate 文本 4.49357e-05
to 文本 6.62935e-09
differentiate 检测 4.24634e-05
to 检测 6.26462e-09
completing 有效的 0.0181363
chapter 的其余 2.27423e-07
start 烦 0.00410128
systemsupports 支持 0.0063246
versions 更新 4.18545e-07
nas 作 9.98954e-05
of text 3.06671e-09
filelike 来获取 0.000414602
sequences comparea 6.04142e-08
sometimes 匹配 9.4987e-07
sometimes 距100 4.2603e-05
a08 insert 0.00395157
thesequences 序列 0.0206923
thesequences 两个 0.328091
thesequences 意味着 0.0015635
its 但 2.11679e-07
lines 没有可 2.02598e-05
lines 掉 1.68628e-05
not 为垃圾 4.91432e-07
appears 统计 6.67729e-05
many 发 6.38451e-06
theway 将 0.00178305
theway 修改 3.58665e-05
controlled 由 3.9923e-05
you 可能无法 1.11176e-07
you 则 1.31884e-06
you 信号处理程序 2.22211e-07
accessto 对 0.00875233
intended 客户端 6.65999e-07
followingmethods 方法 0.00173292
object 形式 8.04834e-08
get 静默 4.02622e-06
implemented NULL 7.88556e-05
list 置 1.2342e-07
have 常量 5.13074e-07
servicesrelated 服务 0.000147279
withfeatureversion with 0.000115712
cheader 头文件 0.000998611
which 可能会 1.26178e-08
pythonversions 数值 4.67256e-05
howspecial 添加 0.000115452
object 一些 2.25317e-08
different 还 4.33233e-06
representations 提供 2.71828e-06
different 对象类型的 7.86059e-07
case 值 1.53018e-06
oftranslated 后 0.00604351
your 使用 7.47901e-07
nowbe now 0.000157956
kinds 功能 2.27119e-06
idledialog idle 3.4434e-05
under 阅 0.000275106
execution 完成后 5.73826e-06
blanklinedelimited 分隔 0.000399832
blanklinedelimited 空 0.000142416
documented 标识 2.9848e-06
may 的返回值 2.59439e-06
submessage 消息 0.000247575
return 被解析 5.67502e-07
finds 自定义 3.08995e-06
finds 可以通过 1.24421e-05
thelogic 逻辑 0.00071771
scratch 零 0.000194956
mostemail 大多数 0.000142966
pymessage 消息 0.000324797
present reading 0.000427594
anexecutable an 4.95696e-05
prompt 符 2.39324e-06
prompt 示 6.5228e-06
next 一行的 7.05506e-08
prompt 为 1.65907e-05
changes 更新 8.60022e-08
intended 使 1.25899e-06
textfiles 文本 5.01657e-05
0x7f x 0.000145499
computers 规范 8.60148e-06
computers 打印 3.1965e-06
xoff 3 0.00138015
when 执行 2.44215e-08
tokens 所生成的 4.66057e-05
titlecase letter 0.545628
keeps 保存 0.00215797
namedellipsis 只 7.7568e-05
defines 将 7.51116e-05
thetype 这些方法 8.67706e-05
thetype 结构 3.05878e-05
completed 方法已 0.000528763
then 并返回 3.34669e-07
is 对象 9.21706e-08
updating 对 0.00028328
is 存在于 1.32111e-07
braces 的方式 4.53e-05
set 即 3.24889e-06
either 属于 8.39606e-07
cardinality 即 0.0023026
operations 例如 2.44358e-06
operations 计算 3.96723e-07
operations 类 8.47641e-07
operations 集合 8.57108e-05
produce 对于一个 6.56421e-06
this bytes 1.70429e-08
with 给定 1.03295e-08
decoding 因此 0.000153678
has 码 8.57705e-08
of r 2.80007e-09
bytes 超出127 1.68468e-05
literals 超出127 1.11715e-05
using ascii 4.35797e-07
bstill 同样 0.000151332
bstill b 5.86766e-05
only 提供了一些 2.52466e-07
sequenceof 可变序列 1.67632e-05
effect 期间 1.49522e-05
list NULL 5.89418e-05
side 间接 4.20981e-05
calculating 计算 0.023176
calculating 不 4.8492e-05
that 仅限 3.85271e-07
arguments 仅限 6.22838e-05
sorts 对 0.000206862
builds 构造 0.00010527
instead 类 7.57717e-06
all 结果 1.30968e-07
new NULL 0.000132892
s 被当作0 1.27551e-06
concatenation maxs 0.000113125
concatenation 切片34 0.0125021
thecomparison 比较 0.000120411
property 无法 6.45885e-07
both 容器 2.83217e-05
both 允许 1.23193e-06
type 结构体 7.28602e-06
traversal 度 0.00153214
replace 则将其 1.4967e-05
modulo 数 6.08475e-06
thesyntax 99 0.00024794
represented 所 1.12739e-05
the 03 1.82375e-08
equivalent 字符 1.65936e-06
and 浮点数 2.19474e-08
integers 的子类型 5.55549e-06
a 定义了 1.55339e-08
call 使用 3.54929e-06
useful 只有在 3.4537e-07
occur 窗口 0.00093191
occur 前 9.9789e-06
occur 置 3.55433e-05
thecalling 则 0.000845191
measurements 通过将 6.49362e-05
male size 0.000655907
when 的可能 9.07772e-07
quantile 数 0.000760611
quantile 位 0.0333864
quantile 分 0.148306
be 于给定 1.08249e-06
near 向 5.2522e-05
be 向 7.91029e-07
consist NULL 0.00231031
variance 差 0.00275793
from 这是 4.99152e-08
asan 电子邮件 0.00164023
boththe NULL 0.00288695
stringmanipulation 字符串 0.000750746
stores 并将其 0.000160284
polls 轮询 0.803356
formattermodule 此 0.000192723
formattermodule 很 0.001736
iscontrolled 终结器 0.000149024
iscontrolled 控制 2.42529e-05
iscontrolled 由 0.999771
where 为 3.69906e-05
iscontrolled 可被用来 5.58286e-05
will 终结器 6.99983e-09
needs 完成 4.77456e-07
is 被作为 1.14131e-08
canthen 然后 0.000130834
exists NULL 0.01467
of bz 6.15254e-08
multiplethreads 线程 8.26434e-05
multiplethreads 多个 6.31289e-05
after 删除 9.53663e-07
instead 信号处理程序 5.01383e-07
can 它们也 1.62449e-06
object 带有 1.14147e-08
onlyrequires 内部 0.000130789
security 或256 7.27351e-05
duration 为单位 1.22799e-06
callbacks 时间 2.06257e-06
watch 壮 3.9865e-05
i 认 8.5559e-06
ina 它们 1.22825e-05
that 目标 6.30401e-08
tournaments 溯 1.0853e-05
tree 动 1.46708e-06
tree 运 0.000132396
numbers 下面的 3.61988e-06
a2k2for 2 0.000204969
a2k2for a 0.00151713
a2k1 a 0.00407729
a2k2for 于所有 0.00115541
0 NULL 3.09919e-05
atask 一个 0.00649156
forlarger 更 0.000157961
suitability 更 3.49161e-05
implementation 都有 1.36712e-06
archivecomment 以 0.000520837
modify 添加 7.71354e-07
to 项 6.08545e-09
similar 与 1.73131e-06
functiondescribed 函数 0.000241969
nor 或 0.000176177
by 文件 1.87313e-07
either 提供 4.5334e-07
details 式 0.00135484
details 对齐方 0.000148267
data 存储在 1.89115e-06
block 默认值 4.58822e-06
comparable 没有可 7.73811e-06
are 条目 6.45084e-08
tasks ipc 6.83309e-08
control ipc 3.41322e-07
rounded 必须 1.68054e-06
the 它们的 2.04648e-08
deliveries 模拟 0.00113537
between extreme 0.000764244
the pi 1.35988e-08
it 一个 7.80052e-08
with 设置为 2.53504e-08
held 判断 2.52184e-06
held 执行 2.90238e-05
until 判断 2.71967e-05
will 可 3.46238e-06
will 的返回值 0.000423417
returnfrom 返回 0.000336124
returnfrom 会 0.0026321
is 也可以 3.21397e-09
thiscan 对象 0.000194914
after 自 5.10118e-07
false 获得锁 1.49891e-05
and 让 2.04603e-08
acquiredmultiple 获取 7.7574e-05
acquiredmultiple 多次 0.000361791
not 否则返回 5.20563e-08
forbidden 将被忽略 6.04982e-05
block 线程 1.27536e-06
inthe 在 5.59677e-05
forms 匿名 4.1009e-06
forms 用于创建 4.56406e-06
crather c 0.0027333
havethe 具有 0.000103553
ternary 元 0.0366687
ternary 三 0.0182279
inverse in 4.07636e-06
oldstyle 旧式 0.731542
oldstyle 尝试 8.2402e-05
ifin in 0.00139211
some 进行迭代 1.55399e-05
y 用户自定义 0.00256045
otherstring 任何其他 0.581732
substring 任何其他 0.000989624
theexpression 表达式 0.00241843
theexpression 容器 0.681165
theexpression 这样的 0.0851696
aslist list 2.60544e-05
mustbe 必须为 0.157784
which 必须为 0.000310861
thesecond 第二个 0.00378777
itsinteger 结果是 7.99903e-05
unchanged 值 9.66344e-06
unlessthe 除非 0.00228435
that 转换 8.8219e-06
its 左 5.68571e-05
evaluated 运算符 2.13664e-05
theoperators 运算符 0.00224602
classes 用户自定义 0.000653449
subscription 对 0.00280051
counting 出 6.41745e-06
as 详情 3.82484e-05
as 切片 5.26242e-08
primary expressionlist 0.0154028
8the 开始 0.000303593
typeshould 类型 0.00054199
usualfor for 0.00108425
usualfor 标准 0.000223915
dictdisplay dictcomprehension 0.000469285
dictdisplay keydatumlist 0.316395
pairsenclosed 起来 0.00376656
dictdisplay 括 0.0019356
dictdisplay 花括号 6.31248e-05
from 推导式 1.61485e-06
evaluated 从左至右 0.000800674
from 构建 1.50219e-07
supplied 时 0.00524535
list 来指定 0.000113837
list 一系列 1.42473e-06
specifiedby 一系列 0.000360616
specifiedby 通过 0.985865
specifiedby 其内容 0.000252215
being 其内容 0.000505799
specifiedby listdisplay 0.0135224
either async 1.95293e-06
comprehensionin 额外的 1.76753e-05
comprehensionin 可能包含 3.91298e-06
comprehensionin 也 1.59994e-05
comprehensionin 加上 4.82767e-05
comprehensionin 构建 0.00236993
comprehensionin 在 0.997532
as 因为它们 4.17315e-06
evaluated 条件 9.34059e-06
forclause for 0.809174
reached 代码块 0.000330565
nesting 代码块 0.00144715
consists 一个单独 1.49611e-05
consists 结构 0.0664079
consists 推导式 4.50887e-06
listed 显式地 3.48659e-07
listed 一种 0.0387983
or 列表、 6.00582e-09
parenthesized 圆括号 0.000316522
sameoccurrence 发生 0.013756
either 求值 4.86938e-06
literals 复数的 4.24952e-05
floating 浮点数、 0.00487945
floating 整数、 1.11131e-05
stringbytes 字节串、 0.99933
stringbytes 字符串、 0.000621556
stringbytes 类型的对象 4.8465e-05
given 类型的对象 1.29024e-05
floating imagnumber 1.03182e-07
numericliterals 字面值 0.120156
transformed 后 0.0055121
transformed 转换 0.447504
identifier 出现在 0.000215139
identifier 形式 0.000248394
identifier 文本 0.00145614
itraises 将引发 0.455237
foratoms 的句法 1
semantics 并且没有 0.0141141
should 作用域 0.000178083
preexisting 之前 0.00124787
names 语句中 1.75056e-05
names global 0.0044963
outside 绑定 1.24066e-05
notaffect 影响 0.999019
notaffect 并不会 0.000981332
as 语句 1.88729e-06
does 所有的 4.14305e-06
does 要求 7.84249e-07
does 强制 3.17631e-06
or 出现于 4.75859e-05
or 得 0.000265227
or 形参 0.000476278
formalparameters 正式 1
without 全局变量 0.000180565
without 到 1.0796e-06
impossible 可能不 0.000604371
entirecurrent 当前 0.0132907
statementwill 就会 0.036556
statementwill 语句 0.818397
that compile 5.4957e-09
not 知 9.9969e-08
statementcontains 包含 0.783896
statementcontains 语句 0.216104
absoluteimportdivision division 0.999377
stillrecognized 仍然 0.00143204
can 出现在 1.72974e-05
use 它允许 9.0494e-05
versionsof 版本 0.000106152
directive 针对 0.00459079
next 真正 0.000545134
nested 出现于 0.00796585
break 终结 0.0555082
nonein 制 0.40354
nonein 抑 0.000302579
nonein none 0.596157
insidean 挥 0.0131585
insidean 发 0.00212969
works 隐式地 0.00478965
works 的机制 0.0175465
insidean 被引发 0.981368
insidean 异常处理器 0.00328087
raise occurred 6.88901e-06
raise exceptionfoo 5.39178e-05
inone 像这样 0.974504
was 激活 4.23605e-06
expressionssection 一节 0.00456418
expressionssection 表达式 0.000123718
omit 圆括号 1.71501e-05
statementindicates 异步生成器 0.00109545
statementindicates 表示 0.0296659
statementindicates 语句 0.969239
ornone none 0.0405595
involved 基本 3.77118e-06
involved 相应的 0.000319742
involved 删除 0.135763
as 临时 1.51719e-08
placeholder 适合 2.42625e-06
as 适合 4.46402e-07
when 生成器 1.49248e-08
when 优化 3.78182e-07
when 如果在 0.000360554
assertionsinto 断言 0.889654
expressiontarget 最后 0.110761
expressiontarget 但 8.3133e-05
expressiontarget 则 0.000769483
expressiontarget 目标 0.00764917
performsthe 执行 0.0102679
whereapplicable 如果 0.0037275
whereapplicable 标注 0.297077
performsthe 标注 0.514543
performsthe 对 0.00604438
performsthe 会 0.00057525
performsthe 带 6.3268e-05
present 带 0.000409412
at 自动创建 1.56811e-06
modulebody 体 0.625088
modulebody 模块 0.374577
annotations 模块属性 0.000629366
performed 运算 0.000613755
performed 情况 9.98419e-05
exception 语句中 3.63555e-06
exception 单个 2.88708e-07
threesymbols 符号 0.984881
threesymbols 三种 0.0151192
either 替换 2.43606e-07
that 索引号 6.25085e-07
asked 把 0.00248418
asked 列 0.0130368
already 已经被 7.2776e-08
rebound 如果该 0.0710859
respectively 所 0.0115351
enclosed 圆括号 0.150382
mustultimately 最终 0.276759
mustultimately 必须 0.000691648
by 一行的 0.000135622
asingle 一 0.000551924
asingle 单 0.33721
asingle 也可能 2.92412e-06
ofnew 新 0.000156478
also 增加 3.19437e-06
several 的一些 0.00893966
also 弃用 0.000136602
loaders 交 0.000793491
loaders 移 9.03097e-06
loaders 任 0.000247561
of spec 5.43986e-06
packages 撰写 0.00614864
packages 规格说明 6.78718e-05
module main 9.09142e-06
imported 可以作为 0.0112251
as zip 1.67153e-06
isinvoked 所 0.152973
isinvoked 解释器 0.0075209
usable 表达式 0.000177993
after 当前 7.84896e-07
moreleading 或更多 0.0142861
thenreplacing 导入系统 5.77122e-05
statementswithout 语句 0.88726
newlogging 日志 0.000130077
thementirely 默认 0.000104149
for 移除 3.88791e-08
preference 选择 2.67758e-05
allow 路径条目查找器 5.46998e-08
deprecatedas 因为它 0.170746
deprecatedas 已弃用 0.000253003
on 已弃用 0.000322112
pathhook 钩子 0.744465
pathhook 路径 0.00977716
arenever 的 0.00656152
pathfinders 路径 0.999985
pathfinders 路径条目查找器 1.47801e-05
themethods 保持 0.00350129
implementone 实现 0.00742894
implementone 可能会 0.000372415
previouslypython python 0.276207
previouslypython 之前 0.641957
previouslypython 此 0.0818193
filesvalidation 有效 0.112444
filesvalidation 文件 0.000257012
simplyassumes 定 0.00115663
simplyassumes 认 0.99801
exists 就 1.1233e-06
checkswhether 检查 0.390855
loaders 该方法 4.85481e-05
either modulerepr 1.57055e-05
calling modulerepr 3.42546e-05
spec 会 3.46709e-05
spec 规格 0.00044003
craft 作 9.39819e-05
from 尝试 2.22765e-05
has 显式 4.2216e-08
has 自身 5.77219e-05
only 所 7.61372e-05
modules 它 2.99434e-06
modules 任何 0.00235891
modules 必须 8.01724e-08
there 仍然 3.6127e-05
does 导入 0.000655681
loader 导入 1.52848e-05
does 加载器 8.86335e-06
itself 导入机制 2.23135e-05
loadingby 通过 0.000823108
module 内置模块 3.53832e-05
portion 部分 0.000131256
at 的一部分 3.33303e-08
before 此 2.86114e-05
ofimport 有两种 1.27541e-05
ofimport 导入 3.40764e-05
ones 扩展 5.23322e-06
whenloading 加载 0.0134846
locatable 位 0.00399295
locatable 定 0.0175829
mayname 由 1
an import 7.41443e-08
firstone 第一个 0.000805924
pythonsimport 导入 3.69873e-05
reference 某个 0.000146311
keep 还 1.18125e-05
toresult 导致 0.000382904
toresult 导入模块 1.5813e-05
missingpython python 0.00307599
one 还是 3.44456e-07
during 的部分 0.000539985
parent 的可迭代 0.0120657
on 的可迭代 0.00017403
on 文件中、 1.70065e-07
mayreside 可能 3.98993e-05
mayreside 部分 8.41676e-05
objects 被执行 0.00080841
objects 隐式地 3.84736e-08
attributeaccess 访问 0.92339
attributeaccess 属性 0.0762517
like 文件系统 1.01973e-07
analogy 这种 0.0830119
thisconvenient 这种 0.000603365
and 对象类型 1.88759e-07
pythonimplements 实现 0.00350495
pythonimplements python 0.0116401
iffound 找到 0.948287
iffound 如果 0.0517128
binds 绑定到 1.29151e-05
binds 搜索 0.000172875
binds 将 0.328908
for 名称的模块 6.09419e-07
binds 指定 5.8735e-06
next 本 3.85961e-07
version 可能在 0.000688064
theexceptional 异常 0.999804
theexceptional 有关 3.40899e-05
thefailing 失败 0.000168172
happened 问题 3.16564e-05
isspecified 则 0.000516869
isspecified 命名空间 0.563074
have 完整 2.26406e-06
globalnamespace 全局 0.999648
within 类 2.78972e-05
form 的 0.00212565
afteras 之后 0.000166699
containssome 某些 0.443644
containssome 包含 0.000809839
modulemain 即 1
acommand 选项 0.0691903
acommand c 6.38891e-05
acommand 通过 0.930746
file 标准输入 5.8667e-07
file 作 4.31101e-07
interactively 命令 1.74462e-05
interactively 每条 0.0825955
interactively 输入 6.5762e-06
overall 个 0.00137758
overall 整 0.193024
assumed 操作数 0.0295516
assumed 相同类型 0.000272432
opposite 效果 0.335396
have 相反 9.74207e-08
opposite 成 9.85928e-06
have 成 8.57098e-08
opposite 造 0.00602554
have 造 4.62564e-05
will 其他方法 6.68043e-06
contextnew context 0.00201488
object 可迭代对象 1.87262e-05
they 过程 1.59201e-07
they 处理 6.58416e-07
they 会 5.85166e-06
up generatorexit 0.00072942
up 此方法会 1.8693e-07
are iterator 0.000346253
are generator 2.42995e-06
returned 即 0.00122067
false 否则返回 1.67387e-06
false 的成员 0.00215618
raised 待 1.69329e-05
exclusively 是通过 0.000244315
through 迭代 4.29816e-05
itshould 搜索 0.000424061
itshould 应 0.349706
itshould 则 0.0164418
both 建议 3.48514e-06
pythonstandard 那样 0.000250768
pythonstandard 列表对象 0.000217277
pythonstandard 标准 0.988314
translates 可以被 4.89529e-05
class 基于 0.00125398
calledon 基于 0.00190146
w3cs c 0.000223316
w3cs w 0.999777
butextracting 序列 0.298404
butextracting 某些 0.648722
butextracting 操作 0.00356018
2when 2 0.999687
no 通常 3.67286e-07
when 通常 6.53782e-07
no 一个异常 4.01333e-07
overloading 的方式 0.0157508
overloading 重载 0.147003
bydefining 定义 0.0118604
referencemanual 手册 0.00393568
referencemanual 参考 0.00147383
programmers 了如何 0.0102272
otherwise 意义 9.12296e-06
otherwise 重要 2.40616e-07
otherwise 有 3.07464e-06
otherwise 器 0.000601859
otherwise 词法分析 2.7467e-06
otherwise 含义 1.14555e-07
otherwise 符 1.96424e-06
3 o 0.000149511
leading 额外的 0.00675295
each 甚至 0.00265289
quoting 其 0.00361601
help 出现 1.53646e-06
help 以避免 3.59375e-05
context 重写 2.77623e-05
context 以 6.67824e-06
context 会 7.11341e-06
context 中 8.47515e-07
context 类定义 0.00215202
this 类定义 1.15352e-07
likely 名称 3.06502e-05
likely 还 1.80932e-05
systemdefined 定义 0.13336
systemdefined 系统 0.357643
andtrailing 结尾 0.000147916
be 标识符 2.77065e-08
likewiseall otheridcontinue 1
decimal nd 2.46238e-07
numbers 字母数字 0.00490782
letter 字母数字 0.0376278
within u 4.5749e-05
changes 加入 1.00025e-05
earlier 除外 0.000161749
terminatorsdiscussed 终止 0.0021395
other 讨论 6.49194e-06
arepopped 生成一个 0.999693
arepopped 弹出 0.000291082
must 应当 0.00248239
larger 层级 3.35993e-06
larger 新 0.0392801
always 层级 6.45504e-05
will 层级 2.6808e-05
of unix 2.69195e-09
because unix 5.02487e-06
on 制表符 6.72492e-08
on 中如果 6.21619e-07
then 空白字符 5.81969e-06
firstnonblank 空白字符 0.390407
firstnonblank 首 0.355992
by 一致 7.49083e-06
by 规则 3.68569e-05
replaced 从左至右 0.0100541
areallowed 也 5.82149e-05
blank 后续 0.000507771
continued 隐式 0.227799
matchesthe 匹配 0.390866
matchesthe 并且 0.597452
ncharacter n 0.979369
ncharacter 即 0.0206314
final 最后一个 0.0148898
implicitterminator 最后一个 3.54587e-05
equallyregardless 无论 0.0481242
used 均可 1.95982e-05
forms 均可 0.00132682
form macintosh 1.15076e-07
endofline 序列 0.000358849
endofline 行 0.612949
nonesee 另请参阅 0.575871
nonesee none 0.422744
suite2is suite 1
overasynchronous 异步 0.000477963
param2 param 0.171208
coroutine 内部 0.000432974
at 执行 3.45149e-06
at suitepython 0.00054647
classes 构建 4.22146e-05
attributes 默认值 1.1827e-06
hides 隐藏 0.211947
weredefined 所定义的 0.837202
executed 类 5.00696e-05
listinherit 列表 1
listusually 通常 0.0981141
listusually 列表 0.0821317
standardtype 标准类型层级结构 0.989543
defines 就是 0.0199029
were 嵌套 1.86246e-07
than 如果有 0.00167905
than none 8.35263e-05
than hitexcept 5.47633e-06
targetthe 带有一个 0.000949056
statementwas 语句 5.1501e-05
a 的值会 5.10173e-09
frame 直到 8.15951e-07
frame 活 9.85528e-05
frame 存 0.033132
frame 保持 1.46e-06
form 它们会 8.948e-05
attached 信息 0.00055232
inner 则 0.000732048
inner 处理器 0.0124818
1if 如果在 7.73091e-06
expressionless 表达式 4.29316e-05
exception 子句 6.43483e-05
statementexecuted 执行时 0.999898
statementexecuted 语句 0.000102203
loopwithout 循环 7.9308e-05
suite 发生 5.56149e-06
suite 时就 0.0155405
tested 时就 8.53117e-05
clause 如果存在 5.00369e-07
suite 则 2.0766e-05
suite 为假值 0.000374261
belong printy 0.549346
belong 属于 0.0127201
clauseconsists 子句 5.56355e-05
those 包含 9.04987e-06
blankline 带有一个 0.999841
newlinenote newline 0.00021373
statementthis statement 0.969672
formswith 形式 0.996131
passed 可通过 2.60778e-06
andnone 以及 0.775929
except 只有 9.19343e-06
have 很有用 5.59499e-07
have 说明 3.5719e-05
have 加 3.0904e-06
have 完整的 9.18438e-06
have 但 5.66582e-06
completepython 解释器 0.000267514
have 解释器 0.000379817
completepython 语言 5.23088e-05
have 语言 7.40411e-05
have 定 8.74418e-05
have 规 0.0014787
from 导入 4.09889e-07
from 标准输入 1.32132e-06
sourcesfrom 源 0.0264396
which 是一种 4.08383e-07
dictionariesbut 但是 0.0352246
dictionariesbut 字典 0.00124311
writing file 0.000723139
simplyserializes 只是 1
dataor 发送到 0.810175
populardata 数据 0.615468
populardata 行 0.00153984
populardata 流 0.3829
populardata 称为 1.58605e-05
2 例外 0.000697572
when 文本模式 9.48656e-08
when 的字节数 0.000211948
number 二进制模式 1.22313e-07
before 15 0.00417163
fileobject 你 0.0193278
by 系统 6.16901e-08
tryfinallyblocks 简短 0.00348857
corruptbinary 二进制数据 0.000162599
fine 修改 2.01011e-05
line 结束 2.26028e-06
line 特定的 0.00280991
platformspecific 出现的 1.12212e-05
file 进行编码 0.0007159
file 方式 7.53084e-05
you 读取或写入 3.06459e-08
you 这意味着 4.47803e-08
ropens 打开 8.43095e-05
will 其中包含 2.11884e-07
done 简单地 1.3425e-05
beformatted 最好 0.827055
could 最好 7.45553e-06
objects 传递给 9.85091e-07
arereplaced 替换为 1
andr r 0.70777
andr 还有 0.29223
after 可以让 5.35408e-05
after 一个整数 3.86032e-05
places 位 0.264846
places 三 2.52444e-05
places 舍入到 0.000320378
writing 表达式 0.00514775
present 显示 0.00284724
end 是 4.38647e-05
end 取消 0.00611944
will 的话 5.84559e-08
test 条件 3.26761e-07
fibonacci series 0.142112
fibonacci 如下所示 0.000437331
series 初始 0.00011536
fibonacci 初始 3.29192e-05
within 井 0.00146927
and 下面的例子 1.47112e-07
currentmodule 导入 0.189588
currentmodule 当前 0.00118797
currentmodule 是基于 0.116521
importname import 0.0004147
soundpackage 子模块 2.32031e-05
structured 构造 0.0642351
importstatements 语句 0.814938
importstatements import 0.182972
importstatements 之前的 6.15183e-05
supportit 列表 0.000662872
they 有必要 2.60966e-07
they 没 2.27651e-07
they 中导入 0.000216963
they 认 0.00681019
