55 22456 2.14278e-06
728 22456 2.13552e-06
208 22456 1.38438e-06
4303 22456 3.36078e-06
469 22456 4.80158e-06
318 22456 1.15517e-06
2679 22456 2.55845e-07
134 4039 2.25827e-07
474 27500 7.86701e-07
259 27474 1.03019e-07
78 27454 1.18104e-07
4661 438 7.03155e-07
5828 27352 3.79895e-07
2374 5200 1.04591e-07
2374 4393 2.47567e-07
5289 27343 2.35313e-07
3536 392 3.03166e-07
28 7605 2.25098e-07
854 27328 1.57499e-07
854 51 1.89595e-06
7252 7232 4.72728e-06
360 7232 6.88856e-07
2065 171 5.36411e-07
107 554 1.18606e-07
10457 3036 6.41136e-07
85 27258 1.48674e-07
308 5261 3.37433e-07
20000 3163 3.42789e-07
385 3169 1.08281e-07
1020 3169 1.14883e-07
2876 11950 4.01891e-07
20523 11549 3.83657e-07
7674 18 7.38926e-07
2069 23 5.80719e-07
1095 23 2.33351e-07
385 554 1.04669e-07
818 91 1.88604e-07
5189 26 4.66192e-07
1318 2303 1.22654e-07
1676 7199 1.71169e-07
484 7199 1.13221e-07
107 27062 1.88549e-07
2027 3068 1.32542e-07
1240 3068 4.29627e-07
613 220 1.01826e-07
16929 18 6.80241e-07
1793 1686 1.93601e-07
824 2028 1.01268e-07
5068 11 2.54264e-07
278 26913 1.27926e-07
1202 20126 1.68321e-07
2876 200 2.2966e-07
3339 6 1.26694e-06
243 280 4.19922e-07
21188 150 2.15892e-06
1111 26751 1.59496e-07
13520 4916 1.79527e-06
5345 37 2.50957e-07
3183 2534 2.182e-06
1817 1519 5.66804e-07
471 3507 1.06724e-07
3977 23 2.37788e-06
1841 151 1.05087e-06
2938 151 4.82061e-06
13153 151 1.70754e-06
511 139 2.87981e-07
7720 140 8.83116e-07
1755 7539 1.68241e-07
259 22110 1.03758e-07
10449 572 2.75827e-07
109 37 1.33925e-07
691 37 1.76943e-07
3892 37 1.10854e-06
2646 690 3.02665e-07
2918 11 2.18759e-07
7379 6 4.30608e-07
3646 170 1.56219e-07
507 170 1.2642e-07
633 15020 1.19658e-07
791 5972 2.95585e-07
1343 97 1.03397e-07
20876 1093 1.10048e-06
20876 18 1.16408e-06
4109 742 3.16101e-07
2076 742 5.75288e-07
205 271 1.03927e-07
691 40 1.16821e-07
7677 269 1.36316e-06
12816 2907 2.78591e-06
4397 1870 3.45262e-07
13127 346 6.06057e-07
520 4225 2.002e-06
5828 30 4.03908e-07
12126 1613 2.85749e-05
1954 23 9.09894e-07
724 1613 3.53777e-06
85 3116 1.07579e-07
447 1356 1.01658e-07
3536 25888 9.08995e-07
3756 25847 1.71356e-07
9801 314 3.47182e-07
107 1395 3.45139e-07
5668 8 2.98283e-07
511 550 2.21411e-07
20763 129 3.34458e-06
20753 2243 5.0303e-05
3255 2243 1.56209e-06
2682 2243 7.51726e-06
303 32 1.48273e-07
7622 25635 7.53402e-07
669 25634 1.35194e-06
785 37 1.77871e-07
1310 7253 8.62393e-07
711 7253 4.92737e-07
4569 27 2.63873e-07
2852 216 3.61572e-07
645 298 1.64996e-07
1814 25506 1.01675e-07
2109 182 1.34471e-07
4730 37 9.14926e-07
2534 25402 1.00607e-07
2534 18 1.29257e-07
783 321 5.07399e-06
7805 967 8.46415e-07
204 361 2.68998e-07
9429 11298 2.79192e-06
214 25364 1.69576e-07
33 25359 1.19931e-07
760 251 1.82394e-07
278 2245 2.01968e-07
2494 25300 1.92841e-06
20 7064 1.49667e-07
20582 5857 9.82363e-06
3737 5857 3.46411e-07
37 657 1.86275e-07
2772 1296 4.06598e-07
2772 220 5.37047e-07
168 23 1.08238e-07
268 13802 1.53186e-07
1221 40 1.5602e-07
385 25160 1.07039e-07
21 607 1.04238e-07
507 10904 2.93446e-07
214 10904 2.72211e-07
774 10904 2.53009e-06
3176 10904 3.12038e-06
14730 34 5.00958e-07
107 122 2.16829e-07
783 2231 1.59565e-07
399 2231 1.35921e-07
20 2231 3.82113e-07
5086 2231 2.89887e-07
3209 11490 1.54779e-07
1613 960 3.71975e-07
2579 960 5.50542e-07
1050 428 7.55508e-07
6817 1808 5.5561e-07
1060 24727 1.29985e-07
1114 24686 1.35903e-07
19446 24686 7.43886e-05
9532 24686 5.69936e-05
1069 24686 1.24293e-05
21 24686 1.19063e-07
19 24686 4.29857e-06
4329 24675 1.88282e-07
593 7002 3.29504e-07
644 24590 1.25319e-07
970 24590 1.98573e-07
1629 24544 1.97415e-07
165 5696 2.84216e-07
1855 24459 2.12627e-07
4211 148 2.46483e-07
3360 24448 2.74004e-07
12440 452 5.89765e-06
28 428 1.07111e-07
4917 307 2.40123e-07
4488 35 6.24851e-07
195 2759 1.90198e-07
643 427 1.34487e-07
55 15020 1.36127e-07
3641 14 4.37009e-07
4 5569 1.07916e-07
10432 26 9.10058e-07
333 696 1.87013e-06
20098 696 1.48123e-06
826 148 1.12922e-07
800 242 1.97922e-07
20026 409 3.28473e-06
1312 2082 1.25853e-07
1095 44 1.10168e-07
1611 357 2.07166e-07
6010 2883 1.33265e-06
51 23812 3.08443e-07
51 873 1.9059e-07
7468 8 3.16213e-07
1589 40 1.01465e-07
777 112 1.49265e-07
468 198 1.78111e-07
8354 396 1.37592e-06
2837 989 7.90438e-07
4071 989 1.11933e-06
1865 989 9.92633e-07
147 23613 1.29891e-07
304 23613 1.04266e-07
107 5234 1.14095e-07
5160 2759 4.21382e-07
4744 200 4.32611e-07
1968 37 1.54032e-07
969 23532 1.38484e-07
2914 1746 1.43795e-06
4259 650 2.05897e-07
0 23481 1.6259e-07
3552 19040 1.1016e-07
5125 171 6.76332e-07
267 1226 5.08053e-07
467 1226 1.07814e-06
399 1226 2.26499e-06
1082 1226 7.28434e-07
6981 1226 4.1115e-07
2189 140 3.69164e-07
2181 2008 3.84782e-07
4275 23110 4.4916e-07
613 3531 2.66707e-07
44 170 1.07968e-07
345 666 1.12504e-07
328 666 1.56407e-07
9368 26 7.28055e-07
8167 3363 1.07603e-06
12970 23034 8.63015e-07
782 23018 1.49013e-06
377 23018 1.68147e-07
1657 4 9.53433e-07
4383 4 6.29586e-07
5200 126 1.70474e-07
289 649 3.36271e-07
19323 1858 4.5768e-06
1674 40 1.07187e-07
1029 22801 3.06349e-07
3641 17 5.03239e-07
0 22456 1.10935e-06
40 18 2.45051e-07
1623 97 1.08877e-07
4 1886 1.32244e-07
521 1886 1.4399e-06
521 1344 1.96495e-07
535 1886 1.20956e-06
2421 22638 1.9318e-07
2370 2922 3.85356e-07
2883 6386 1.02043e-07
678 366 7.9813e-07
7291 24 5.01439e-07
832 22565 1.25807e-07
68 2074 3.56211e-07
356 3102 5.50859e-07
3746 22532 1.90653e-07
268 24 1.01095e-07
3504 122 6.26809e-07
2712 7011 1.82559e-07
1896 9089 2.43877e-07
2476 296 2.79964e-07
2642 42 1.21051e-06
4623 97 7.43762e-07
8582 1721 7.4353e-07
585 22386 2.36955e-07
3842 32 1.25384e-06
5322 6324 1.77486e-06
873 22260 2.80533e-06
19064 97 4.8179e-06
2569 3844 5.77812e-07
4066 3933 8.16046e-07
1126 30 3.6096e-07
8988 551 9.37169e-07
18953 2480 1.65454e-06
3457 1226 3.12413e-07
2228 17 1.11915e-07
2228 8274 6.7897e-07
2715 21948 5.57595e-07
764 541 1.56199e-07
11290 37 2.23759e-06
2302 922 1.28149e-07
5390 179 5.48551e-07
5127 148 3.01448e-07
1844 566 2.83549e-07
8694 2612 4.53526e-05
79 2612 1.05348e-07
3804 21657 1.1821e-06
2455 456 4.89081e-07
4561 2165 5.22065e-07
2658 1063 1.0233e-06
2215 1306 2.93818e-07
5782 10709 4.08969e-07
408 933 5.42661e-07
4 266 1.75642e-07
1678 26 6.65709e-07
27 305 4.12361e-07
506 777 2.65983e-07
1870 1974 8.12049e-07
268 1974 6.52381e-06
285 21494 1.57589e-06
347 452 2.32924e-07
370 1857 3.06122e-07
241 705 2.78164e-07
2541 700 2.13971e-07
37 21031 2.30603e-07
4057 10154 9.53434e-07
393 97 1.02643e-07
485 1137 1.8439e-06
17476 11 2.81986e-06
17653 6 1.15861e-06
2079 3764 1.97355e-07
163 989 2.06495e-07
282 20374 6.12474e-07
770 20374 4.12963e-07
770 1447 3.07734e-07
2234 20296 2.36218e-07
1114 20249 1.8429e-07
17595 20165 1.55266e-05
1618 20102 7.56069e-07
111 20102 3.67359e-07
38 208 1.95062e-07
11347 34 5.86886e-07
447 9677 6.10349e-07
410 342 1.14624e-07
238 19838 1.04085e-07
127 19830 3.496e-07
724 2896 9.527e-07
2914 903 7.19651e-07
4627 19555 7.46377e-07
3071 19555 1.23673e-05
94 19555 6.13073e-05
498 19555 1.1036e-06
5260 1472 1.27574e-06
2083 1472 1.37234e-06
1082 1472 4.33515e-07
8579 765 1.28607e-06
331 19260 1.12451e-07
166 5174 3.04856e-07
3420 5174 4.61269e-07
616 19002 2.19271e-07
5171 346 8.19323e-07
199 1701 8.50826e-07
1835 1701 6.16433e-07
521 347 1.12897e-07
89 18796 1.02017e-07
632 97 5.67897e-07
1609 119 1.01162e-07
3007 119 2.48614e-06
500 119 2.31662e-05
2027 18724 5.08219e-07
2184 18724 4.64118e-06
1066 18724 2.39934e-06
3495 18724 3.96198e-07
1812 18723 2.25966e-06
2689 18723 5.8923e-07
2689 2737 2.14891e-07
3760 18723 1.99875e-06
998 2883 1.11208e-06
140 2271 1.33437e-07
4209 40 2.13969e-07
399 347 1.53807e-07
570 372 1.01359e-07
570 724 1.82439e-07
385 2917 2.87748e-07
421 372 2.72538e-07
421 2917 5.38867e-06
18 2917 4.44673e-05
777 2917 4.27721e-05
164 2917 6.17373e-07
3227 346 1.31274e-07
3335 271 1.63348e-07
110 17793 1.78145e-07
2611 17781 1.69539e-07
1034 151 1.18596e-07
127 17749 3.21603e-07
1034 3541 1.28011e-07
1900 24 5.73621e-07
5547 23 7.40993e-07
46 119 1.24283e-07
512 170 1.2066e-06
405 17533 2.24545e-07
2983 783 9.8439e-07
5160 1742 2.12151e-05
183 1742 1.96786e-06
8770 1742 3.11034e-06
15449 126 4.61431e-06
310 807 2.79237e-07
15421 23 1.29767e-06
2542 26 3.68495e-07
555 847 3.98831e-07
3015 847 3.46548e-07
302 17212 1.37027e-07
249 826 1.11853e-07
7590 21 4.07017e-07
231 143 1.4476e-06
5327 143 2.75614e-06
4706 143 8.57011e-06
800 995 1.9202e-07
4709 9178 3.49664e-07
570 15332 1.02117e-07
259 557 2.27426e-07
13899 16869 5.48776e-07
6272 3239 3.0989e-07
195 606 1.93114e-07
2907 3869 2.56335e-06
14711 1528 1.53324e-06
14521 97 1.11969e-05
7128 16342 2.13233e-06
7128 97 1.13286e-06
1326 16331 1.02639e-07
3364 4843 1.39799e-07
8140 270 2.56572e-07
14425 21 1.90214e-05
6905 16191 1.08597e-06
2377 658 3.26322e-07
14400 428 9.61371e-06
173 330 2.08075e-07
781 6 3.40689e-07
613 5637 1.69655e-07
3703 97 1.14636e-07
13994 706 1.42919e-06
2055 296 1.9129e-06
982 6067 3.40084e-07
645 15987 3.00628e-07
6378 5509 4.85866e-07
4654 10756 4.05621e-07
14159 913 4.76406e-07
5127 1571 2.98523e-07
168 15750 1.02233e-07
7273 346 3.30309e-07
311 3917 3.38802e-06
3881 2155 2.04077e-07
7080 15672 3.89422e-07
7080 12152 3.92885e-06
387 4459 1.68259e-06
1770 224 7.66535e-06
3457 406 2.50389e-07
2751 323 1.87066e-07
16 224 1.27157e-07
13950 346 6.01559e-07
9416 190 1.97494e-07
5355 15487 6.41273e-07
3457 15487 5.28382e-07
2769 15487 1.94756e-07
200 328 3.02515e-07
13835 3280 3.29952e-06
5110 119 3.68362e-07
410 15212 1.30709e-07
7756 97 3.78227e-07
13691 11 1.83489e-06
2015 269 2.02415e-07
2989 269 1.0439e-06
356 1492 1.36721e-07
40 346 1.25745e-06
2190 170 3.52835e-07
307 5556 9.82132e-07
437 5556 7.38139e-07
1045 5556 3.21772e-06
345 5556 1.67902e-07
187 9766 1.73754e-07
187 5556 1.39571e-06
2711 5556 1.0289e-06
0 5556 2.67171e-07
1820 14998 4.22682e-07
139 3010 1.08443e-07
3368 14842 1.03927e-07
68 10427 1.25829e-07
2374 14800 1.01845e-07
1592 14762 6.51026e-07
747 7738 1.84232e-07
1061 14641 1.52787e-07
1967 14641 1.12145e-06
0 2243 7.81925e-07
3179 1397 1.45457e-06
55 3241 1.4202e-07
28 3241 1.32713e-07
169 653 1.2824e-07
32 288 1.90167e-07
1912 292 1.33478e-07
483 297 3.4602e-07
13170 209 4.80179e-06
13125 220 1.09181e-05
1012 14115 6.81262e-07
12856 579 5.38925e-06
1060 831 1.16479e-07
3854 40 4.23329e-07
3854 179 4.3031e-07
8484 6 4.83556e-07
984 13941 1.80382e-07
85 4662 1.13064e-07
1970 1711 5.23664e-07
1344 2337 8.30532e-07
134 1593 1.86693e-07
141 297 8.20713e-07
1888 11873 3.74274e-07
1235 855 3.981e-07
4920 855 1.34206e-06
4978 855 6.9736e-07
439 9707 7.58092e-07
12446 855 9.24949e-06
12657 855 4.3665e-06
12641 126 3.47776e-06
3793 974 6.01454e-07
8526 251 8.86521e-07
3908 1142 4.87968e-07
1349 1142 1.62162e-07
801 13678 3.89988e-07
1356 13678 2.98115e-05
21 13678 2.50714e-06
9370 13678 0.00455188
1798 13678 1.47526e-05
172 13678 4.98433e-05
1699 5454 1.53554e-06
4302 266 2.94162e-07
1877 12616 1.33153e-06
12464 581 2.20171e-06
11658 330 1.25741e-06
319 13542 1.23272e-07
12425 321 9.56717e-06
38 321 1.22681e-07
12415 2336 1.29827e-06
12377 2986 4.40726e-06
12376 5239 8.67546e-06
711 2986 1.14428e-07
1609 2560 1.23098e-07
12316 23 3.57478e-05
3698 23 4.77143e-07
921 18 1.53649e-07
2431 34 2.05203e-07
306 37 1.8758e-07
2000 2104 4.04723e-07
246 7997 1.55268e-07
2363 1942 2.25229e-07
4530 10555 5.40671e-07
4530 224 3.94885e-07
443 13199 3.49439e-07
705 13199 6.92589e-07
2751 538 1.72256e-07
3368 538 1.00319e-07
4842 3610 6.35427e-07
5080 4171 2.66812e-07
1217 419 3.9054e-07
19 13126 3.14942e-07
910 7764 1.01427e-07
1441 196 9.13998e-07
283 344 1.65866e-07
1030 340 1.90436e-07
10720 6 4.49809e-06
1063 13058 3.98254e-07
3413 13058 4.75795e-06
4193 13058 1.292e-06
4784 220 4.12741e-07
2011 12979 2.37532e-07
4040 12977 4.10527e-07
107 557 1.00961e-07
3456 557 3.13387e-07
1793 12950 5.33388e-07
1705 2217 3.57005e-07
356 2217 2.53079e-07
719 4641 4.43655e-07
1275 507 4.80593e-07
6722 23 7.00744e-07
20 7832 2.05492e-07
296 7832 3.98609e-07
2109 582 1.02403e-07
733 12667 2.80734e-07
4458 12667 3.46337e-07
1510 12667 4.83578e-06
9748 328 1.0982e-06
1911 1526 1.02743e-07
25 2082 1.07381e-07
3338 51 7.18894e-07
801 51 1.32178e-06
238 12439 1.68579e-07
363 12436 1.04063e-07
549 12357 1.12591e-07
256 520 1.08006e-07
2323 12331 5.00838e-07
762 1058 1.35026e-07
2323 6 2.2225e-07
3351 12284 6.04845e-07
0 3241 2.8121e-07
2462 5837 2.89722e-07
2230 5837 1.49244e-06
5033 124 6.591e-07
166 572 3.52619e-07
342 23 2.36382e-07
214 470 1.0278e-07
626 470 3.42443e-07
420 470 4.84542e-07
3865 18 2.97814e-07
2722 11888 4.12166e-07
711 200 1.20812e-07
330 11709 1.10739e-07
791 2101 1.14304e-07
168 37 1.13749e-07
10847 468 6.76963e-07
10539 44 7.06546e-07
10842 3808 1.28926e-06
428 346 1.39651e-07
1006 190 3.00138e-07
187 11386 1.03702e-07
471 4026 2.03652e-07
1360 1273 5.05466e-06
347 1273 2.37507e-07
1823 11190 1.01387e-07
400 11111 1.49623e-07
81 2087 4.42503e-07
1117 2202 3.51087e-07
5546 2202 8.89484e-05
307 2202 6.90138e-07
633 2202 1.26841e-07
1577 2202 3.75344e-05
1893 2202 1.82676e-07
1004 2202 1.13596e-06
44 2202 2.81923e-05
0 2202 2.38562e-07
5848 562 7.41003e-07
515 896 1.08302e-07
385 179 5.02711e-07
354 44 2.24395e-07
165 560 1.00929e-07
3043 10952 9.898e-07
8259 10952 2.47435e-06
2320 1624 2.16411e-07
3096 10773 8.17422e-06
16 10773 8.66719e-06
7510 10773 0.000114868
3632 10773 6.52356e-07
0 10773 1.01304e-07
1998 1542 7.66045e-07
2105 1015 2.902e-07
788 151 1.43733e-07
58 5170 1.01217e-07
579 88 1.14419e-07
2980 10365 4.15266e-06
6657 10365 6.74347e-07
690 733 3.42053e-07
9822 358 4.8673e-06
112 4014 2.82236e-07
594 166 1.65897e-07
264 166 2.45012e-07
32 166 2.11604e-07
331 771 1.02302e-07
472 10148 1.59057e-07
377 10148 6.04396e-07
669 10143 5.89223e-07
4690 3847 9.85253e-07
4636 10068 2.64687e-07
4664 3166 1.04854e-06
9647 23 4.68409e-07
2851 10022 1.02938e-07
638 416 1.24929e-07
516 9921 1.38004e-06
3300 9907 6.84661e-07
2034 9907 2.65193e-06
2273 9907 1.33695e-06
2273 9858 3.52363e-07
1678 9858 9.58516e-06
21 9858 5.4318e-07
3976 9858 0.000219431
9497 9858 0.000320696
9496 9858 4.70165e-06
0 9858 1.50427e-07
981 813 2.78754e-07
2560 813 3.83527e-07
2499 633 3.9386e-07
110 669 2.14449e-07
356 3362 3.84895e-07
1598 3362 1.6733e-06
73 3362 5.97445e-07
671 3362 1.20228e-06
613 3362 2.00712e-07
3790 4030 1.42103e-06
7277 428 9.0598e-07
7277 292 3.11513e-06
458 9712 1.06681e-07
3763 9693 8.79512e-07
4270 9693 1.23373e-06
4512 9693 3.4135e-07
9314 9635 5.00416e-06
8630 77 3.53993e-07
223 26 4.92368e-07
2530 1494 7.9197e-07
1742 9529 3.18531e-07
316 1515 1.22272e-07
1888 1515 3.88538e-07
2460 74 1.85518e-07
1185 507 1.98153e-07
533 27 5.19794e-07
402 1856 1.89746e-07
1196 1856 2.02428e-07
6045 978 2.70043e-07
330 1092 1.01408e-07
6807 978 4.89647e-06
9057 960 4.25198e-06
807 9182 5.57845e-05
9034 9182 0.00107693
598 9182 3.48831e-06
26 9182 0.00022428
1129 9182 5.6676e-06
5127 9182 3.29933e-07
3371 9182 7.28583e-06
144 9182 2.3477e-07
9030 9182 3.60737e-06
521 9182 8.06008e-07
2572 9182 4.79505e-07
0 9182 1.8327e-05
2335 200 5.27693e-07
2544 9102 1.18967e-07
8924 170 5.56875e-07
3765 97 5.94427e-07
801 18 1.11734e-07
2091 8873 1.26298e-07
256 151 1.10892e-07
6717 8869 1.71877e-07
1343 8718 1.02813e-07
200 5912 1.09001e-07
1364 7849 1.11393e-07
1044 37 5.72684e-07
1044 1939 5.69485e-07
783 113 5.96486e-07
143 831 8.57629e-06
2326 831 1.46526e-06
25 831 3.37645e-07
8680 3617 2.90516e-06
140 8506 2.44952e-06
458 8506 8.58812e-07
2029 8506 4.95058e-06
214 8506 1.1198e-06
388 8506 8.32755e-07
1203 8506 6.585e-07
458 3680 1.10071e-07
302 171 1.07328e-07
380 5269 4.4184e-07
44 5269 2.73418e-07
3050 538 2.57516e-07
788 538 8.37536e-07
330 245 1.38683e-07
594 5152 1.65927e-07
5461 6016 1.30508e-06
1814 24 3.87662e-06
390 24 4.23021e-07
52 24 1.19094e-06
4192 24 4.4535e-07
303 8266 1.10006e-07
85 8175 1.082e-07
147 11 1.18835e-07
8344 8157 6.1585e-06
1037 8124 2.80143e-06
383 8124 1.49169e-06
499 8121 6.49422e-07
4066 8121 2.10634e-06
563 5667 1.59013e-07
4898 151 5.02774e-07
3494 361 1.03415e-07
3211 37 1.05129e-07
208 1515 2.67824e-07
3250 281 6.72399e-07
8063 17 2.69351e-06
1772 3696 2.22572e-06
1424 3696 7.23861e-07
7553 18 5.27002e-07
23 7776 1.63755e-07
1591 179 2.86028e-07
2109 97 1.10706e-07
1801 97 3.31078e-07
6900 270 3.68842e-07
4389 2162 2.69354e-07
683 713 5.52673e-05
1369 713 1.48107e-06
975 713 1.8465e-07
2233 713 4.47277e-07
0 713 1.81887e-07
2512 1146 6.47444e-07
681 1712 1.07367e-05
1814 1712 1.29578e-05
1427 1712 5.38655e-07
1591 1712 1.73174e-05
1591 148 1.21479e-06
4182 1712 4.27818e-07
293 1712 1.73595e-07
7741 2406 1.87391e-07
332 1712 1.98332e-07
4861 5756 4.02247e-07
5669 115 8.14196e-07
1063 115 2.77192e-06
572 1744 2.27341e-07
7637 7292 3.20783e-06
165 7253 8.59076e-07
4621 873 4.03822e-07
37 3610 0.000178451
499 3610 4.7671e-07
485 3610 9.79376e-07
485 4950 1.92603e-06
0 3610 3.38395e-07
3347 18 2.57847e-07
111 4683 1.52758e-07
7067 196 1.95232e-06
2903 196 4.35751e-07
2629 6966 1.56575e-07
497 11 1.03239e-06
3315 11 5.84775e-07
2109 6870 1.17325e-07
1498 428 1.3031e-07
1244 428 3.11879e-07
235 538 1.07171e-07
6565 6818 7.05655e-07
469 344 1.73843e-07
1643 1896 2.78893e-07
681 3231 1.08126e-07
168 171 1.11804e-07
2064 6726 4.66148e-07
3485 6457 2.94341e-07
678 6341 8.59549e-07
3302 1015 3.16004e-07
204 24 3.08559e-07
2498 330 1.23714e-07
708 4173 5.51363e-07
707 8 8.97199e-07
0 765 1.5262e-07
435 6121 1.50805e-06
1184 148 3.27852e-07
3410 220 1.24233e-07
4179 5981 1.15408e-07
253 199 1.9743e-07
46 199 1.35108e-07
165 1063 1.18257e-07
3245 2008 5.22142e-07
688 170 1.11235e-07
314 6 2.01874e-07
1060 5097 1.04996e-06
25 5097 1.02413e-07
2067 3644 2.32105e-07
6145 170 1.9159e-06
891 228 2.20654e-07
286 5248 1.1125e-07
2656 2405 3.2261e-07
1723 2405 2.16761e-07
3552 914 3.82831e-07
5326 3239 8.64035e-07
110 4225 1.97395e-07
247 97 2.31403e-07
2042 34 3.78044e-07
303 4835 1.0027e-07
5112 23 2.71831e-07
2461 23 2.14581e-07
1184 1548 2.67874e-07
102 1548 1.3175e-07
1048 4769 5.56313e-07
1420 2934 7.9449e-07
4491 23 2.35181e-07
0 280 1.23089e-07
1912 4550 1.78299e-07
681 765 1.54625e-06
639 544 6.54892e-07
5028 26 7.24345e-07
463 42 1.01694e-07
2544 44 1.11296e-07
201 690 3.71705e-07
201 422 6.32333e-07
4825 422 9.46584e-07
3636 422 1.06263e-05
73 422 3.94263e-07
164 124 1.22736e-07
4206 40 5.62828e-07
149 432 1.31004e-07
4192 432 3.5937e-07
1851 4217 7.64262e-07
3868 23 6.40032e-07
4676 2284 2.35625e-07
89 42 1.07463e-07
4484 3962 2.1283e-06
4322 3828 4.03124e-07
4417 23 2.96608e-06
978 633 1.11858e-07
975 2131 1.08138e-07
4259 26 2.99765e-07
327 119 1.3007e-07
786 151 3.99723e-07
1557 27 3.36063e-07
1101 3525 1.58075e-06
3942 23 1.83122e-06
777 900 2.35981e-07
3814 3360 1.60846e-06
1343 3360 1.12985e-07
3838 23 9.01968e-06
613 3293 1.0333e-07
46 3283 1.47183e-07
303 17 1.97316e-07
0 2917 1.03019e-06
3317 2087 7.67696e-07
243 2785 1.19615e-07
437 756 1.57077e-07
141 2791 1.85879e-07
2006 1884 2.43431e-07
3219 1884 1.12174e-06
0 1884 1.8688e-07
354 27 1.55883e-07
3057 301 1.69265e-06
1601 2431 1.21274e-06
2228 2107 1.28065e-07
2461 78 2.95378e-07
2461 2259 2.0528e-07
1105 35 1.01746e-07
989 21 7.82152e-07
2467 6 6.49247e-07
762 2006 1.66398e-07
467 1814 1.05516e-07
2209 1812 2.02448e-06
787 23 1.63638e-07
607 21 6.84998e-07
1927 1580 1.17626e-06
818 140 1.95861e-07
108 1506 1.06351e-07
794 23 8.02994e-07
794 6 1.63746e-06
322 171 1.01788e-07
458 23 2.55545e-07
102 346 1.02728e-07
1584 40 1.04524e-07
1391 1194 2.75915e-07
1476 1191 7.98234e-07
129 507 8.96301e-07
1425 965 6.76439e-06
1082 1143 2.56808e-07
1163 346 1.92383e-06
1162 940 1.89969e-07
1143 935 4.04968e-05
1142 935 3.67132e-05
1150 935 3.21106e-06
570 885 1.89298e-07
22 23 2.61991e-07
25 665 1.55561e-07
787 606 2.93807e-07
785 606 4.89109e-07
298 258 1.20439e-07
526 258 2.33089e-06
40 392 2.76559e-07
278 42 1.20648e-07
433 383 3.09431e-07
244 260 7.70355e-07
339 260 3.39508e-06
187 184 1.07106e-07
124 17 5.78671e-06
4321 225 0.0325806
1105 225 0.000568103
139 225 4.85346e-06
4677 225 0.0168861
9758 21 8.40981e-07
4320 44 6.29301e-07
8667 524 0.000496604
3915 200 4.31007e-06
2385 5200 1.98487e-06
2374 7649 1.79896e-07
1182 126 5.94094e-07
13739 9178 1.23499e-06
4815 37 9.99104e-06
4709 179 2.75236e-06
198 2292 1.689e-06
5112 27243 9.92092e-07
3600 25373 5.32583e-06
4625 3109 1.00624e-05
1946 384 4.68127e-07
1662 3130 8.27798e-07
4861 11549 2.25368e-06
329 1226 4.65413e-07
4112 27114 3.3011e-07
10847 27100 6.98155e-06
5705 27100 0.00129435
1221 27100 0.000176537
139 27098 1.96414e-07
1852 1461 4.04338e-05
70 1461 0.000298804
729 140 1.74811e-06
2439 18520 4.62925e-07
308 23 2.37539e-07
4827 1544 2.36565e-05
2857 26 1.56836e-06
3015 3509 6.61921e-06
2679 26823 2.20419e-07
537 26816 3.52654e-07
619 26810 1.42019e-05
253 26777 1.64734e-07
284 1241 1.07256e-07
1541 1059 7.15571e-06
12905 6 3.15121e-05
2083 322 2.19992e-07
140 26576 1.08358e-07
2083 26576 9.18267e-06
11108 26547 2.08354e-06
3488 7852 3.5236e-07
340 298 2.64102e-06
322 392 2.85051e-07
8049 10546 5.39786e-07
5846 97 7.15176e-07
370 3012 9.89219e-07
515 25481 1.21882e-07
633 26457 1.46624e-07
606 23671 3.51194e-05
770 26403 1.60868e-07
4681 328 6.81867e-06
10536 26403 5.94776e-06
2421 2333 8.89768e-07
4649 873 7.79879e-07
14067 220 9.0142e-06
691 26361 1.20426e-06
5328 26361 1.17255e-06
540 26340 1.75978e-07
12885 26 3.3018e-06
78 26336 1.17694e-07
2182 26331 1.88918e-07
2719 7203 1.99994e-06
1328 690 1.06271e-05
332 649 2.85183e-07
2118 140 4.687e-05
3595 391 2.92658e-07
533 3312 2.74836e-06
447 26266 7.41972e-06
2851 26265 1.84597e-05
3368 1515 2.11658e-06
6563 1515 2.88275e-05
397 126 1.66559e-07
20876 126 4.86496e-05
139 26082 1.68749e-07
13145 265 1.19776e-05
2006 17 1.14e-07
20834 11 3.7012e-05
278 1870 3.27926e-06
1578 3116 2.37818e-06
85 120 1.26132e-07
579 11 1.70705e-07
1181 3082 1.92068e-07
633 550 3.62283e-07
10901 25732 0.00118426
1006 25703 9.22087e-07
4270 1450 1.01382e-06
6962 25701 1.41946e-06
5363 916 2.14998e-06
16 32 3.70148e-07
10929 2136 5.95509e-06
9723 352 2.97506e-06
20722 344 3.33957e-05
711 2628 2.41525e-07
110 25552 3.92474e-07
406 25530 4.04855e-07
1045 10971 9.55181e-07
3071 25506 8.33722e-07
3432 25503 1.92281e-07
283 25498 3.7905e-07
707 25498 2.35384e-07
10457 25492 0.000486839
1048 25492 4.01596e-06
15339 25492 8.34727e-06
182 1627 1.51865e-06
1204 25465 3.15283e-06
2302 25465 1.60826e-07
2302 975 2.26751e-07
314 25463 1.15559e-07
363 11073 1.76699e-07
2381 3293 4.08836e-07
12078 140 2.72766e-05
53 18 6.31355e-07
7756 18 2.28353e-06
4675 395 2.07255e-06
5670 23 3.4892e-06
7490 25376 6.05604e-07
6900 13747 1.83824e-06
20619 600 0.000951749
3967 25300 3.47852e-05
646 25291 0.000122623
646 2322 2.17983e-05
521 25291 2.3066e-05
521 2322 6.01292e-05
20586 1756 4.96414e-05
151 25287 1.01056e-07
1368 25273 5.91124e-06
1368 25272 1.65791e-06
4737 25273 2.53033e-06
4737 25272 7.09673e-07
5234 25272 3.02801e-05
1624 25272 4.20606e-06
9043 25273 0.000269747
3368 25266 2.47595e-07
2381 292 3.59736e-07
1969 292 3.77106e-07
971 292 1.01713e-07
7748 42 3.3073e-06
20 1657 3.04713e-07
3779 220 6.02171e-06
2760 1296 3.71504e-06
2760 572 6.04536e-06
346 25206 3.47675e-07
992 3803 1.29064e-07
571 23 2.70812e-07
4348 18411 3.92207e-06
20549 703 1.85524e-05
1060 340 2.64829e-07
14984 340 4.99894e-06
1866 22963 3.88216e-05
4856 22963 4.93759e-06
86 148 3.08324e-06
1814 428 1.49141e-07
1008 263 3.4754e-07
7097 34 6.55141e-06
345 25071 1.43006e-07
5079 6786 1.11037e-06
2027 25056 1.96362e-07
1631 8 3.66264e-07
1631 556 8.79223e-07
4106 710 4.02547e-06
587 452 2.1564e-06
2445 394 2.53552e-07
441 24922 1.79382e-06
1587 24921 1.67194e-07
1114 1008 6.3263e-07
790 26 3.9768e-07
51 4836 1.50351e-06
8930 119 1.11331e-06
4820 3392 9.92811e-07
1240 24901 1.3782e-06
499 24901 1.41083e-07
47 238 9.98126e-07
7889 5190 2.27609e-06
144 4649 1.63754e-07
80 24784 1.38211e-05
1216 24775 4.84654e-07
781 5633 1.14047e-06
8595 24728 3.34938e-06
642 749 1.21651e-06
1509 44 8.30743e-07
1233 7002 1.6012e-06
1631 126 1.4147e-07
604 24610 3.02367e-07
2694 24610 5.12461e-07
2120 44 1.98833e-07
278 44 4.02141e-07
2754 44 1.51572e-05
2581 151 2.17266e-06
6045 21 7.50552e-07
100 24559 7.0898e-07
774 24559 4.17145e-07
1628 148 1.63458e-06
1029 148 2.02135e-07
4 543 1.26504e-07
2476 74 2.58903e-07
10 24477 2.49986e-07
1677 24474 1.30579e-06
1049 67 2.1627e-06
1674 24470 1.30267e-06
520 24470 1.85539e-06
352 24456 1.28079e-07
4978 8 5.33294e-06
4942 1376 0.000258456
3014 24426 2.74419e-05
153 24410 1.18694e-06
14170 27 6.51584e-06
783 24 3.55749e-07
20182 88 4.64532e-05
184 44 1.38934e-07
3813 725 4.34182e-06
4581 284 3.62988e-06
8609 3083 0.000103521
6682 452 2.36949e-06
355 8452 1.44988e-07
436 5569 2.49407e-05
3843 5569 3.30136e-05
468 5569 7.03167e-07
5559 5569 8.57273e-05
20106 2943 2.43206e-05
1611 179 4.27038e-07
157 8 1.53726e-07
1850 50 5.46934e-06
20023 122 4.13796e-05
19315 4354 3.66774e-05
467 44 1.66627e-07
1509 141 3.41174e-07
1084 6 1.90443e-07
2679 23864 1.87911e-07
177 42 9.45534e-07
243 11142 1.25029e-07
4805 7370 5.84637e-05
1681 23753 9.24421e-07
4270 23734 9.82706e-07
722 23734 1.62974e-07
3657 23727 7.63768e-07
1926 23727 1.23536e-06
19871 1447 0.000149134
164 1763 1.75334e-07
420 762 0.000303729
58 590 1.34306e-07
507 23482 3.88586e-07
736 119 3.50084e-07
19720 15706 0.00128328
2598 1555 6.21372e-07
952 7287 3.5864e-07
8172 633 1.28315e-05
5196 23166 3.67613e-05
14329 23166 5.23327e-06
105 23118 1.3059e-07
322 140 2.12487e-07
6441 551 5.52643e-07
6742 11633 8.8396e-06
1593 23060 7.07741e-07
352 666 7.61916e-07
4331 179 3.8072e-06
1272 666 2.19588e-05
2763 1663 7.85969e-07
3144 6016 1.45436e-05
3048 170 1.47971e-07
358 4 1.53552e-05
8630 3010 1.50327e-06
1857 583 1.73263e-07
575 607 1.06945e-05
16265 3447 1.75104e-05
779 22858 2.66976e-07
2489 22846 1.12506e-06
2231 22755 4.66605e-05
7595 22755 6.70589e-05
4784 809 1.0086e-06
7400 22708 1.21589e-06
7400 809 7.39971e-06
1288 22678 3.55439e-07
1498 216 1.93618e-07
1623 216 2.2241e-07
15931 27 3.42045e-06
5150 6149 2.04245e-06
163 11641 4.14666e-07
1623 22631 2.20141e-07
1054 22631 0.00264646
4580 22631 5.45539e-06
541 126 1.70792e-06
3015 22614 1.28396e-06
3788 22612 0.000111507
9128 1870 5.01183e-06
12066 330 7.45426e-06
3584 330 1.93478e-06
643 1317 0.000407544
515 1317 1.90592e-06
134 1317 1.11565e-06
14 1317 7.28388e-07
1969 488 1.71986e-07
4782 7011 2.85303e-06
36 7011 9.62234e-06
450 22455 3.89616e-07
5201 22406 1.82355e-06
304 298 1.38321e-07
5656 150 2.5218e-05
19134 150 2.76396e-05
19101 1684 6.75597e-05
14628 22317 2.55781e-05
3208 22247 1.89597e-07
1378 22218 1.15954e-05
1674 2087 1.6678e-07
298 9460 1.03893e-06
2541 343 5.05633e-07
3277 22101 1.31501e-07
2510 422 2.24447e-06
521 263 2.28935e-07
259 22014 2.04459e-07
656 607 3.19812e-06
25 225 4.30782e-07
78 541 9.09483e-06
2738 2008 3.48995e-06
3703 21 3.05049e-07
625 6 8.42516e-07
2687 308 2.32961e-06
510 21871 1.32014e-06
2997 21865 4.6691e-06
18916 21865 0.000476067
6042 21865 1.41733e-06
1897 21865 2.24692e-06
434 5945 4.66792e-07
18855 6 4.63971e-06
6564 2398 3.80542e-07
18901 32 4.44963e-05
4391 21739 2.03088e-06
6127 21720 1.02631e-05
4412 1763 4.86927e-06
2109 17157 1.6492e-07
18794 266 4.4857e-05
6354 466 1.62405e-06
6546 35 0.000120125
10382 35 0.000126061
506 305 4.27483e-06
18296 35 0.166112
1280 1857 2.28524e-06
253 21555 2.46264e-07
253 5931 1.52651e-07
8701 21549 1.19182e-05
2499 690 7.8678e-07
6442 432 1.38476e-05
424 3014 2.36031e-06
11983 220 1.89034e-05
489 2154 6.45468e-07
489 21501 3.60658e-07
455 21501 3.26177e-07
6576 2154 4.08597e-06
6949 87 4.41386e-06
268 2506 1.57588e-05
588 7988 6.24775e-07
802 21051 1.1557e-07
46 21033 2.83822e-07
14 20950 8.39463e-07
14 23 1.03306e-07
120 1507 1.08566e-05
282 157 1.94412e-07
1672 13607 2.08639e-06
8893 346 6.64046e-05
1863 20628 1.58768e-06
515 1480 1.29393e-07
0 666 1.60987e-07
1770 18 1.17875e-07
2760 20573 0.00272681
2643 924 2.66342e-06
14 20555 0.000140701
1097 20555 6.58739e-05
0 20555 5.25651e-07
3409 91 1.15735e-06
2111 23 2.53783e-07
322 15306 1.33049e-07
787 269 2.93114e-07
434 150 1.33931e-06
4839 20231 5.44791e-06
504 20231 6.74566e-07
1182 20231 2.8096e-07
1185 4173 2.10955e-07
2309 20040 4.71e-07
2374 4173 5.54906e-07
4744 23 1.73173e-06
372 3246 6.15245e-07
4434 19829 5.50775e-05
443 1487 1.25989e-07
939 19656 5.99489e-06
1814 19575 1.02667e-07
3359 140 5.70101e-07
395 13451 1.37623e-07
524 13451 1.56763e-07
2689 30 1.55901e-06
1621 19115 8.20395e-07
534 19038 5.14369e-07
1258 144 6.82018e-07
730 144 3.33872e-05
2688 3850 6.40477e-06
4334 18785 4.62256e-07
3486 140 2.1058e-06
3486 151 2.80479e-05
787 18771 2.67703e-07
1258 470 6.79604e-07
5541 927 2.27025e-05
16538 690 2.22406e-05
1818 51 0.00129279
2615 51 0.044981
3657 18 2.42439e-07
1036 556 4.9011e-07
6439 538 2.96111e-06
5101 17 1.81391e-05
14517 18 1.90616e-05
502 321 9.02825e-07
2611 17976 7.87301e-07
358 17976 9.09387e-05
334 17976 0.000277406
5058 17976 0.0115541
1809 17976 0.0840468
89 17976 2.4294e-07
11835 17976 0.0263257
107 17976 2.09172e-06
7595 17976 9.45106e-07
511 347 5.72359e-07
711 4812 2.48982e-06
779 17796 4.18299e-07
2872 176 2.46117e-05
740 927 3.72509e-06
1714 927 1.66357e-05
387 933 8.89855e-07
3215 8 1.64309e-06
15585 1122 3.66726e-05
2318 541 1.17137e-05
2318 238 2.30753e-05
647 3170 3.51868e-06
5497 37 1.32954e-05
15413 18 1.63126e-05
1879 807 3.65951e-07
1829 3163 8.1202e-07
1681 2795 1.7662e-06
395 27 1.11924e-07
531 150 9.30987e-07
3208 6311 5.10826e-07
543 3 2.64364e-06
14130 16996 0.000112326
0 16996 2.39245e-05
259 23 2.91446e-07
19 16818 1.1321e-07
13896 16639 0.00010671
192 16639 3.66444e-07
779 176 3.64799e-07
5730 2940 1.06079e-06
5730 16394 9.349e-07
397 650 1.58982e-07
3737 346 2.18411e-06
4518 346 7.38328e-06
2120 23 1.22012e-07
736 16351 3.13379e-07
499 1063 3.8364e-07
5705 44 4.74096e-06
25 16288 1.50788e-05
2689 16288 8.69139e-07
2851 16272 2.42652e-07
6603 97 1.79834e-05
3414 11066 1.06121e-06
1865 16223 4.64787e-07
19 16221 1.10965e-07
1755 740 5.00132e-07
134 4081 3.25679e-07
164 1989 8.22025e-07
441 16124 1.04687e-06
13573 1437 8.07877e-06
3646 238 1.90184e-07
11344 6 1.4584e-06
208 2304 1.17065e-07
68 632 1.53359e-07
59 16043 2.07694e-06
19 16034 1.30446e-07
1126 16019 1.54988e-07
747 3042 2.79586e-07
5388 171 5.32477e-06
1287 97 9.08372e-07
3765 607 5.65536e-06
14268 15916 8.38873e-06
2486 15850 9.31761e-07
8582 17 1.29161e-05
33 15836 1.46882e-07
332 15836 1.93528e-07
3865 1526 1.06201e-06
4209 150 1.69711e-06
477 15728 1.32359e-07
165 15716 7.33998e-07
1105 15716 0.000599972
1458 8532 1.97345e-06
165 8532 5.03583e-07
1105 8532 0.000688655
14030 1447 5.92356e-05
11349 1424 2.39472e-06
1166 150 0.000142514
2015 15681 3.09989e-07
574 50 1.23948e-06
1526 15544 1.10652e-06
10362 323 2.14394e-05
3488 4275 1.67751e-05
604 15520 4.12713e-05
3488 15520 0.000406933
506 15520 0.000778798
173 323 1.14955e-07
646 905 3.877e-07
1008 126 1.74929e-06
1059 527 1.45506e-06
2199 12591 3.32413e-07
13922 15435 3.11914e-06
165 15435 5.07589e-07
2524 15435 7.61908e-07
1008 15429 1.84856e-07
5255 4512 4.71951e-06
3255 23 2.20993e-06
13807 15280 0.0401086
293 33 1.39417e-07
421 633 5.64693e-07
2182 150 3.92106e-07
2027 150 1.75368e-07
7959 150 6.21547e-06
13706 2986 0.000395878
1028 17 2.05265e-05
205 17 2.38298e-07
12367 17 9.98134e-06
7888 194 1.04568e-06
3515 426 2.60678e-06
1061 3632 2.90849e-07
769 22 5.20985e-06
1059 14845 2.85942e-07
3767 14793 1.04564e-06
1835 14793 7.67973e-07
13488 8669 2.4787e-05
8634 14787 3.80029e-06
2575 283 8.42849e-05
5084 3238 2.47116e-06
2261 14692 5.76639e-07
4727 140 4.85727e-06
214 14610 1.72619e-07
402 14602 2.42862e-07
13331 18 0.000995045
1115 143 9.44975e-07
2091 143 7.02796e-07
300 5155 7.27616e-06
1958 5155 5.65774e-05
6622 538 1.51637e-06
3176 151 2.21969e-06
208 151 1.14482e-07
102 151 7.21957e-06
373 14492 2.9346e-07
1811 1557 3.29071e-07
462 126 1.04913e-07
385 606 2.41132e-07
422 5696 2.67606e-06
1571 653 3.50399e-06
779 426 3.20357e-07
7016 270 3.02425e-06
504 34 1.23648e-07
438 196 5.36304e-06
680 14289 2.08587e-07
6721 5323 1.40865e-06
972 37 9.61606e-07
520 14084 1.25516e-06
309 888 2.04467e-07
3050 2563 1.94026e-05
55 2563 0.000134067
6354 2563 0.00134317
781 34 8.65586e-07
165 5900 1.09745e-07
1564 253 2.86034e-06
12775 91 0.000312175
6712 3509 9.51161e-06
164 145 3.89719e-07
5082 426 3.91869e-06
2095 13624 7.04163e-07
9375 151 7.69544e-06
5110 151 5.77195e-07
647 151 1.48973e-06
1242 151 1.69186e-06
4716 13602 1.74735e-06
2975 13577 3.67202e-06
966 855 1.32007e-06
5731 2993 5.24257e-07
788 1905 2.10255e-07
1369 13437 0.0121728
182 13437 6.91066e-05
1330 17 8.54913e-07
8717 541 5.13575e-07
107 551 1.43638e-07
3030 96 6.9985e-07
1279 1512 5.9059e-07
6566 2101 4.55656e-07
36 151 4.60333e-06
1066 44 5.57288e-07
1296 200 4.62339e-07
482 5573 3.12931e-07
807 9670 1.66323e-07
3048 283 1.09075e-07
622 7510 4.61771e-06
155 12977 4.87738e-07
201 427 8.68642e-07
1609 8401 1.23769e-07
1583 531 1.50494e-06
282 26 2.07944e-07
1735 637 1.11868e-06
155 419 4.09645e-07
1567 12667 5.09509e-06
107 10182 1.14339e-07
472 12663 1.25986e-07
1020 12663 1.93713e-07
25 126 1.36e-07
9748 6166 1.70934e-05
3612 119 0.000180154
204 4697 1.34706e-06
1852 4697 1.72852e-06
3864 4697 4.37091e-05
2027 1593 3.85777e-07
6573 44 5.23911e-07
315 12438 1.44879e-05
6447 12438 3.95121e-05
363 12438 2.04279e-07
2974 6286 1.37555e-06
3494 148 1.89982e-07
1866 12268 2.64106e-06
369 520 1.6609e-06
2326 2253 7.32069e-07
7604 220 7.4501e-06
1126 24 9.9793e-07
2217 24 6.36071e-06
8717 151 1.15257e-06
2326 330 9.35698e-06
356 12202 1.20519e-07
1858 3062 2.38413e-06
11318 200 0.07958
7889 17 8.88981e-07
2215 12014 4.57626e-07
1015 700 1.73527e-06
696 140 4.82314e-06
2184 11915 1.61086e-07
397 1746 3.71895e-06
397 1226 2.84493e-07
2228 238 2.87829e-06
2228 710 0.00014772
2228 709 2.39833e-07
2228 581 3.51191e-06
2228 558 2.43769e-07
2228 6 1.58954e-07
2228 735 0.000344985
280 736 6.73349e-06
11012 5638 0.000215506
109 11735 2.62618e-07
467 271 1.39683e-07
253 1763 1.51023e-07
3120 976 9.86329e-07
719 1702 0.0672973
1136 2667 1.07852e-06
10531 406 1.05689e-05
4342 428 1.11561e-06
182 23 1.16795e-07
293 23 1.21805e-07
1243 297 2.36724e-05
1823 853 1.39903e-07
99 1692 3.65715e-06
1117 97 1.71988e-07
1809 11154 9.75151e-05
263 11154 0.000262357
388 1031 5.51487e-07
5269 26 3.68255e-05
681 1273 0.000214904
1533 1273 6.44562e-07
1567 406 1.99668e-07
8639 6122 4.52784e-06
278 1179 6.58531e-07
467 11197 1.11763e-07
1117 9421 1.29958e-07
6462 1746 2.58675e-06
243 6327 1.35662e-07
633 1780 1.07918e-07
1591 1365 1.5715e-06
437 307 3.33045e-07
165 7896 1.12253e-07
405 10908 7.61403e-07
2015 26 2.36453e-07
1571 23 2.51288e-06
4620 10880 3.04022e-05
7643 7594 2.07653e-05
244 10880 1.52758e-06
2089 10880 0.0015784
10298 6 3.3129e-06
441 104 3.36542e-07
711 187 1.12546e-07
10288 62 4.14173e-05
10261 549 5.54933e-05
20 1903 2.72236e-07
26 7057 1.21973e-07
10135 88 6.86848e-06
8441 97 2.95256e-06
2472 125 2.5617e-07
638 10425 1.62002e-06
6723 10425 4.07223e-05
2190 10425 4.30159e-06
8936 10324 0.000483003
2413 228 3.35308e-07
4962 507 4.6867e-05
1343 507 4.17337e-06
8885 10268 0.000100847
7676 10268 6.1976e-05
2755 393 8.05852e-07
4106 393 7.95745e-07
1297 97 2.0374e-05
4325 366 2.11089e-05
430 209 0.000378724
377 10090 2.87221e-07
3966 771 8.86848e-06
3211 10032 1.12782e-07
256 9986 2.61096e-07
712 542 1.70673e-05
1833 9890 5.11045e-07
972 160 1.17819e-06
2984 160 1.80002e-06
2180 633 2.18225e-06
9490 87 1.75632e-05
0 1793 1.51881e-07
1100 140 4.66083e-05
316 922 0.00013442
1779 3819 2.86715e-06
9151 124 0.000132728
9123 74 1.16131e-05
33 33 1.35587e-07
405 9280 8.35597e-07
711 9182 1.82439e-07
1823 3503 1.66801e-07
8998 126 4.12987e-05
8998 366 5.50915e-05
1823 97 2.27832e-07
696 253 6.70608e-06
243 4153 1.06567e-07
1063 9080 2.16589e-07
1111 9015 7.3705e-07
522 9015 4.78606e-07
8256 9015 5.68695e-05
3881 2359 1.73476e-05
5248 125 3.90209e-05
5483 244 9.74947e-07
3226 8878 2.30232e-06
1567 8878 2.43059e-07
399 1719 2.15375e-06
3040 1719 0.0255297
5055 1719 8.58511e-06
2326 8774 4.05113e-06
764 37 1.22369e-07
998 462 4.79646e-06
100 462 1.0619e-06
8707 140 1.62208e-05
23 126 1.72614e-07
914 8689 1.86164e-07
8679 2705 2.95046e-06
4016 171 1.9906e-06
7892 884 4.05674e-05
2441 4081 8.92298e-05
362 26 4.21554e-07
3880 8392 0.000127506
373 5880 1.86972e-07
283 4767 5.98956e-07
165 4767 0.000173517
8425 216 0.000102957
302 8277 1.26119e-07
1907 537 0.0883357
614 21 1.42158e-07
1719 17 1.46137e-07
37 394 1.01439e-05
2652 394 1.48693e-05
368 394 4.28885e-05
8172 17 2.57463e-05
571 112 3.9381e-07
2504 2421 6.67261e-07
1772 2288 1.45049e-06
3084 7840 1.70182e-06
19 7840 5.21812e-07
4654 7840 1.5914e-06
6106 2616 0.000170075
1495 18 1.31344e-06
28 233 1.88065e-07
3355 323 8.1667e-05
713 323 1.16309e-06
2725 49 4.53716e-06
1622 49 3.86176e-07
598 403 3.20739e-07
53 269 2.27548e-07
53 7487 7.61674e-07
154 7538 1.03655e-07
3375 254 2.05819e-06
108 254 1.15166e-05
1202 254 8.88837e-05
1029 254 5.0281e-05
21 254 0.000119914
2638 254 8.77415e-05
0 254 7.34664e-06
0 7520 1.35044e-07
487 7481 2.20155e-07
6521 296 7.04738e-05
7455 21 7.02818e-05
7674 927 1.76588e-05
7671 841 0.000121219
20 829 2.50853e-07
733 4080 2.07789e-06
109 4080 9.43813e-06
1068 4080 3.25421e-06
163 4080 0.00130841
1202 4080 0.000154822
7637 4080 0.182135
1531 7278 1.8225e-07
187 7191 1.7404e-07
3267 1226 1.09063e-07
7546 1226 1.88509e-06
1767 7171 1.34323e-06
1020 7159 2.17237e-06
7541 395 4.92826e-05
7510 1701 4.53716e-05
180 1701 0.000139694
165 1701 1.33664e-05
2216 1701 0.000233277
507 1701 3.41244e-06
2322 7060 4.75813e-07
267 7051 1.01458e-06
2802 6966 1.72237e-06
7371 242 0.000143694
1531 6884 2.17063e-07
2632 6883 4.63289e-06
3747 6870 3.01763e-06
1288 150 2.32926e-06
298 3421 1.91876e-07
7082 6708 4.73285e-07
791 6457 2.16853e-07
998 6440 1.07016e-07
6555 346 1.19656e-05
992 6284 8.23667e-05
4733 6284 0.00512801
6906 1515 1.39589e-06
6906 6288 0.0077853
18 6284 1.1218e-07
6905 6284 7.54315e-06
6904 182 0.000616641
2000 266 1.05723e-05
54 266 5.3639e-05
3762 6179 3.73283e-06
3319 50 2.62094e-05
0 4173 1.32535e-07
46 1015 2.46186e-07
1048 1726 7.10312e-07
4963 6121 7.99372e-07
214 6121 1.65203e-07
6776 1413 0.000140577
309 3932 2.35999e-07
6746 42 0.000215281
3310 1856 4.08379e-06
1365 1856 2.60095e-07
3962 6059 1.87788e-05
5675 784 1.81397e-05
164 873 1.06891e-05
1963 5845 5.98943e-06
169 725 1.49387e-06
169 148 1.11252e-06
164 5779 8.67098e-07
46 5780 2.26501e-07
1240 220 3.94682e-06
2303 5612 8.70677e-07
6112 225 3.57455e-05
1709 3275 4.51231e-06
6010 5393 6.7191e-06
394 477 1.33592e-06
5792 538 1.23421e-05
2374 228 2.50076e-07
2901 538 0.00102905
802 538 1.45381e-05
802 228 1.14732e-07
5415 538 9.10887e-07
183 228 1.44615e-07
331 587 1.2407e-07
4479 125 8.99391e-07
1182 5027 9.49867e-07
37 5011 1.7961e-07
542 322 1.24219e-06
165 296 1.00402e-07
736 4818 4.349e-07
468 2669 2.94819e-06
3302 468 1.03134e-06
144 4932 1.11114e-07
546 4821 1.36311e-07
3139 1322 1.45845e-06
776 18 2.04049e-07
140 4764 1.72109e-07
140 606 5.06901e-07
1525 308 8.28128e-06
27 1015 1.12422e-05
3089 1015 1.03668e-06
4543 97 3.8014e-06
1035 330 2.2621e-06
605 330 3.93793e-05
14 151 1.48821e-07
249 44 2.57515e-07
4825 690 3.10215e-06
1843 4362 0.0159963
184 1494 1.05938e-07
2000 970 7.3858e-07
1177 124 1.46354e-07
89 1494 2.67928e-07
72 179 6.75254e-07
1768 1100 1.99141e-06
2967 86 1.09914e-05
2967 4236 5.36354e-06
4742 432 6.80591e-07
410 432 1.30224e-07
2460 4158 3.23227e-07
4695 4170 9.97585e-07
1063 4163 1.49165e-07
1978 3819 2.08396e-06
393 4107 1.10991e-05
363 4107 0.00360955
4610 4107 7.71845e-06
253 4077 1.02447e-07
454 113 3.74816e-07
422 1510 6.70012e-06
100 151 3.68464e-05
3445 3875 3.5702e-05
303 3831 2.14685e-05
165 3831 7.12634e-07
1130 74 1.93541e-06
4300 3802 1.57202e-05
613 174 5.52671e-07
684 44 2.23353e-06
4267 1052 5.68913e-05
212 200 1.28546e-07
2645 178 1.41366e-05
332 96 2.39229e-07
3255 2079 6.70034e-07
2730 40 2.12341e-06
2730 333 1.24988e-06
952 2906 1.32368e-07
3220 126 4.78476e-05
3915 3424 3.24444e-06
1243 3373 1.10959e-05
3492 1469 5.22869e-06
3109 1469 5.22476e-06
1609 328 1.30973e-07
847 347 8.73774e-07
3383 112 1.92931e-06
3269 2087 4.54632e-06
0 112 1.57831e-07
3379 140 9.742e-07
107 2903 1.25958e-07
3282 1967 9.82092e-06
3244 32 0.000125215
3219 32 0.00268766
1656 2710 2.40081e-06
3071 140 5.42382e-07
2560 1495 2.71165e-06
807 312 2.77794e-07
2908 135 1.15842e-06
2763 332 1.54772e-05
2382 581 2.39915e-06
2694 2326 4.75328e-07
2580 2203 5.88929e-06
280 2214 2.8767e-06
525 1472 6.45136e-06
2576 2126 2.38906e-06
165 2065 2.81823e-07
557 2065 2.748e-06
2321 606 6.55478e-06
515 557 1.08721e-06
592 322 3.14109e-06
165 322 0.000180707
2085 26 7.67715e-07
2012 1654 6.18677e-05
1240 1654 2.65702e-05
70 1654 2.19856e-06
1989 1633 2.98067e-06
1941 271 3.81154e-06
402 1513 1.89238e-07
76 26 3.30065e-06
208 305 1.0731e-06
1454 1148 2.22095e-06
1470 507 2.60518e-05
838 1148 1.25599e-06
1473 1148 0.000356385
268 1148 3.64324e-07
1440 1148 7.46309e-05
1439 1148 6.23918e-05
1434 1148 0.00026904
1433 1148 0.103338
1432 1148 0.00735168
46 1148 5.07259e-06
235 1148 3.20383e-05
1431 1148 0.000473512
504 1148 8.08358e-06
334 1148 1.07878e-06
1430 1148 5.10661e-06
1429 1148 5.44669e-06
1247 1148 1.50546e-05
1246 1148 4.68083e-05
1428 1148 7.70724e-06
139 1098 1.47572e-07
346 26 1.9723e-07
183 26 1.41147e-07
1110 906 1.36236e-05
278 906 6.54154e-06
960 906 5.19862e-05
1107 37 2.87262e-06
633 839 1.78598e-07
55 616 3.08856e-07
360 336 1.05092e-07
0 537 3.79304e-07
612 216 5.82738e-07
611 235 9.6019e-06
297 450 5.49726e-07
521 37 1.30564e-07
44 415 3.87386e-07
244 42 5.42069e-07
391 2729 8.95688e-06
641 3399 5.73142e-06
314 27524 2.38789e-07
2039 27524 2.32016e-06
3634 27512 0.000260716
873 27512 0.00168514
4350 150 9.11783e-05
4320 37 9.75578e-06
21363 27497 0.000209337
4868 428 0.000309222
648 126 3.16471e-06
110 179 8.00709e-07
1912 637 5.78744e-07
258 27474 7.28113e-07
329 21 9.01822e-07
4350 49 0.00251109
4350 27459 8.74446e-05
102 27440 4.66602e-06
620 27440 8.89292e-05
1202 606 4.82019e-07
6694 126 2.843e-05
5828 27404 5.68117e-06
1025 1401 9.59082e-07
10449 27403 6.78863e-06
4830 27403 4.84725e-05
350 27403 1.41148e-05
304 1401 7.06253e-06
20523 3639 9.07083e-05
1184 3639 0.000102879
1762 26898 2.65395e-06
721 8518 5.40844e-06
681 8518 1.86239e-07
11706 533 0.109111
5032 2733 2.61117e-05
4320 2733 5.98862e-06
1567 27384 1.14552e-05
604 176 5.43814e-07
6900 181 2.12713e-05
604 5200 1.66806e-06
571 27352 1.32118e-05
677 26 5.21066e-07
1817 1375 0.00012182
482 11 3.78192e-06
513 4180 9.1347e-07
736 1005 9.49971e-07
10457 27277 9.44329e-05
6410 37 0.000930784
356 27263 1.44469e-07
3227 27242 5.3279e-07
7393 4459 1.80951e-05
20 27222 2.41528e-07
511 3163 1.13813e-07
3905 423 0.00289735
1607 272 1.3969e-06
14984 272 8.46422e-05
1184 3109 7.60242e-06
467 3109 2.66833e-07
134 8852 6.87089e-06
7471 8852 2.19082e-05
165 11549 5.74831e-06
1060 13940 8.24477e-06
733 650 4.53758e-07
7927 650 2.83372e-05
8381 1092 0.286881
584 15655 4.79382e-06
44 15655 5.45351e-05
283 15655 8.38139e-06
2199 27123 0.0154255
4286 27114 3.33933e-05
1188 1953 9.66026e-06
280 406 1.54116e-05
1258 27108 4.96845e-07
330 27098 3.85778e-06
2980 27087 2.9949e-06
21252 2087 7.49686e-05
334 129 4.57791e-06
1510 129 0.000222909
1428 129 1.10962e-05
1428 27069 9.22598e-07
2962 27068 0.0121724
3941 27068 0.153061
3307 113 0.00251095
2091 113 8.1705e-06
11305 44 1.59843e-05
11305 113 6.61355e-05
7661 676 1.44947e-05
624 702 9.00216e-07
52 35 3.43319e-07
764 9056 5.34421e-07
907 97 0.000598433
2421 1003 7.34814e-07
5056 91 2.36611e-05
6025 417 2.18295e-06
2006 6 1.41504e-06
3573 428 1.13353e-06
1658 24 9.67694e-07
2711 200 5.71411e-06
10449 4153 2.7642e-07
4092 26860 0.000154649
777 520 2.93549e-07
1912 6037 4.12378e-07
8154 551 3.32477e-06
14301 4144 0.0685966
1630 867 2.98325e-07
1630 209 4.00837e-07
1830 903 1.75454e-07
1280 1015 3.60973e-05
16 765 2.88717e-07
2409 170 5.27347e-06
4455 2534 2.50587e-05
5071 649 5.61192e-07
2158 1003 3.97701e-06
1557 26652 1.60755e-07
6613 139 1.35911e-06
1813 171 5.06599e-07
1531 53 3.06591e-07
1531 148 1.56456e-06
3296 354 2.22286e-05
71 26624 2.20057e-06
3852 7099 2.09108e-06
1955 26575 0.000948628
9873 366 6.09516e-06
5610 140 5.40423e-06
327 637 1.55569e-07
7720 3393 6.31371e-06
8643 3393 8.96273e-07
322 10546 6.3056e-07
800 25481 8.55605e-07
7803 26466 2.5096e-05
21016 146 0.00526136
5483 507 3.57485e-06
786 22260 1.04634e-05
787 148 0.00012005
5661 346 2.78285e-05
18843 572 8.53161e-07
998 17 1.46395e-07
7394 181 1.15074e-06
3253 5880 7.52821e-07
200 148 3.52125e-07
20948 26105 0.00156672
3640 3312 0.000137165
533 26271 0.000162422
2851 26266 0.00135696
2895 1519 2.10107e-05
2895 26265 1.19805e-06
468 26264 7.5772e-07
692 296 0.000647318
1630 26235 1.36929e-06
11231 26234 7.05399e-07
4210 170 3.50039e-07
4210 270 6.97995e-06
777 31 3.21085e-07
4148 873 0.000623437
3223 873 0.000914962
3873 873 0.0190418
762 26137 1.70903e-07
7413 96 2.81796e-05
108 22353 5.55205e-07
1038 14967 5.76548e-05
20885 126 0.0027031
256 272 1.55468e-06
1811 1918 4.53751e-07
780 42 6.13087e-06
6383 104 8.90111e-06
20851 228 0.00188607
5339 26022 0.000100038
1185 265 3.39201e-05
1185 284 2.33399e-07
2006 265 4.29479e-06
293 25998 6.31001e-06
2661 25998 7.10295e-07
293 25997 3.98132e-06
1607 289 3.39089e-06
3417 7316 0.0418993
1826 25948 8.27464e-07
90 51 8.85939e-06
506 51 3.34763e-07
5846 25930 1.74065e-06
3595 346 4.39404e-07
5076 25917 8.53226e-07
5076 170 1.23514e-06
6927 25912 1.49024e-05
520 25911 3.41236e-06
12126 4225 0.000263324
12126 25911 0.0861633
1954 25912 0.000107644
4994 131 8.86519e-06
1223 14701 8.34419e-06
1825 11383 0.000145376
783 11383 0.0148284
5373 25879 2.23825e-07
3790 300 1.99005e-05
147 25849 0.0010992
7989 25849 3.42749e-05
2711 5148 3.85173e-07
3409 3275 1.46257e-06
157 25735 3.25153e-07
982 140 6.48405e-06
2918 298 1.50679e-05
356 170 1.18793e-06
362 25725 8.7146e-07
2008 25717 4.13439e-07
165 561 3.93117e-07
3372 35 0.000201503
564 25634 1.98372e-07
20723 344 0.248974
284 25584 5.77726e-07
4571 1728 4.10237e-05
2872 126 9.7065e-05
283 2927 9.41552e-07
1712 8720 4.82491e-07
173 25514 1.23128e-06
246 25504 1.82577e-06
4567 538 6.67609e-05
2374 25478 1.39425e-07
3298 8358 2.34044e-05
5339 1627 0.000190801
2045 25465 3.85271e-06
2045 975 2.47071e-05
1204 975 5.56281e-05
851 25439 2.91429e-07
1136 179 5.36365e-07
97 179 3.46439e-05
1955 25425 1.27721e-07
235 5257 1.40132e-07
4474 5257 2.93881e-06
44 5589 6.66333e-07
3908 25402 3.71374e-05
4675 6 1.31039e-05
4675 23 1.35032e-05
12805 171 0.00252211
1701 1398 3.67741e-05
3855 742 4.66946e-05
5648 690 0.000310043
3209 2378 2.28674e-06
620 25376 7.92054e-06
769 151 9.69539e-06
4739 5170 6.33805e-07
2234 25367 2.05934e-06
4742 252 2.09943e-06
20617 600 0.0526198
1035 600 4.16106e-06
5038 600 0.000262835
6924 600 0.000725073
1038 600 9.43115e-05
21 25318 5.45375e-07
2924 25318 0.00143763
20592 2322 3.55262e-06
3078 25292 1.08115e-05
10304 25287 0.000147107
283 25287 3.5084e-06
33 561 6.71448e-07
1840 2405 4.14495e-06
546 6 6.4893e-07
636 3304 0.000129569
91 44 7.15544e-06
4888 74 1.04533e-05
1885 2103 1.86151e-05
20549 343 0.00440021
1025 607 3.15021e-07
531 1715 2.72399e-07
195 6925 4.2804e-05
2573 25127 3.09084e-05
314 322 1.12835e-07
20524 368 0.0110797
4298 4504 2.93456e-05
2851 270 1.45651e-07
1228 143 2.21207e-05
5350 11 3.3495e-05
13906 25086 1.82631e-06
1321 34 5.20485e-05
293 6786 9.33395e-05
681 74 2.87257e-06
14971 129 8.43414e-05
3016 16893 2.08778e-07
9 25028 1.45505e-07
147 1701 4.87501e-07
23 1726 3.45874e-07
499 1726 1.45231e-07
164 10717 1.29219e-07
1587 24927 2.74602e-07
1613 3624 7.11933e-06
1792 393 2.02149e-05
5638 78 1.95111e-05
298 238 1.39359e-07
13560 4649 7.01861e-06
236 24804 2.24174e-07
2579 37 8.13537e-06
4180 24798 3.65118e-06
1051 24784 4.55013e-05
1898 24775 0.000355482
110 24775 1.33137e-05
2104 24775 0.00961787
20345 24762 0.234708
153 490 8.60833e-07
1205 428 8.4757e-05
1205 422 2.07512e-05
1611 422 2.69533e-06
1111 24730 5.69368e-07
613 2922 7.15499e-07
7179 24723 4.8022e-05
1159 24723 3.11505e-07
2711 24723 1.235e-05
1972 24481 3.03118e-05
1742 24692 3.788e-05
7440 2281 0.0818461
266 179 5.62139e-06
4492 1870 0.000744082
1151 1925 1.65103e-05
4030 126 1.87748e-05
9532 126 0.00074309
1801 179 3.05845e-06
283 24605 6.62481e-07
103 1019 3.24762e-06
9368 220 2.04137e-06
9368 709 0.0591022
90 709 8.85779e-05
3843 721 1.19356e-05
2617 721 1.45302e-05
19336 251 0.000509022
1616 251 0.000974584
2581 251 0.031412
6893 2228 0.000636582
3831 2228 0.000321439
328 2228 1.0754e-05
1029 113 1.09994e-07
7557 543 0.000993636
14714 17 2.29239e-06
112 24486 2.88079e-06
592 24486 1.93157e-07
3135 24486 4.13351e-07
5714 1671 0.000116152
1424 452 5.05322e-06
6025 674 1.63762e-06
3816 674 7.30311e-05
2671 3258 9.66054e-06
10290 1398 2.43527e-05
4 24398 2.05881e-06
6124 470 0.000137814
5175 171 0.00272745
3050 24371 1.59988e-05
355 585 9.73879e-07
565 24355 2.35395e-05
245 24349 1.63262e-06
3227 658 9.47002e-07
253 658 4.4248e-07
1701 24328 7.84836e-07
4277 725 0.00101937
5792 427 1.25522e-05
1374 24277 0.000102607
3363 24277 1.89068e-05
564 263 1.99507e-06
20147 148 0.123438
458 24207 9.87099e-07
147 24207 1.81039e-06
1597 8 6.22207e-07
8339 3567 2.27178e-05
20121 1748 0.000704643
16 974 3.38823e-06
3712 1063 0.000165831
20100 2828 0.00562285
2492 8 8.55303e-06
1341 8 9.92227e-05
1177 12283 2.29347e-07
5601 24061 7.59393e-05
332 24046 4.55131e-07
332 242 6.66592e-05
707 242 2.64956e-06
969 242 1.45656e-06
4512 427 8.6301e-06
504 16 9.32373e-07
5672 19496 0.00015127
3105 23982 1.35212e-06
584 741 5.38642e-06
4916 40 4.11316e-06
1840 307 6.09344e-07
7412 746 1.60914e-05
20012 272 0.0102861
5654 23922 0.00217555
10 23894 1.51349e-05
4984 23894 0.00395935
214 10876 2.69902e-07
4 22079 1.12117e-07
504 22079 8.1324e-07
377 23865 4.63914e-07
1073 2036 5.22193e-07
1232 23849 3.01443e-07
8085 8555 1.03791e-05
29 23827 0.000373997
1611 23827 0.000685023
150 140 3.84204e-05
5705 893 0.000122835
703 893 9.69469e-06
5543 893 5.75699e-05
4211 74 2.5061e-06
604 44 1.68493e-07
760 23757 1.4913e-06
19922 228 0.051832
3161 228 9.75317e-06
345 198 9.53187e-07
467 23644 7.39693e-07
3335 49 9.59948e-07
1097 23625 2.67649e-06
27 23623 1.85456e-06
978 23623 1.89229e-06
11512 1447 3.83462e-05
5791 23613 0.000513967
2472 23613 2.01612e-06
1498 23613 4.97634e-07
2498 23613 0.00540987
546 23613 2.62489e-06
3215 23613 9.69135e-05
28 23613 2.79317e-06
0 23613 5.13235e-07
2905 540 0.00137806
103 540 4.60432e-05
584 23589 1.50926e-07
110 23589 3.60794e-05
2095 5163 1.5305e-05
5681 5234 0.000134064
7660 74 0.0305473
1235 150 6.86743e-07
5853 126 8.26196e-06
2852 21403 1.19251e-06
2914 26 0.00021174
165 23513 2.03767e-07
1318 21 1.21291e-06
4737 140 2.21763e-06
2985 742 0.0262785
3249 34 0.000427974
129 6933 5.15331e-07
0 2495 2.33824e-07
19475 1706 0.013522
318 11744 4.24515e-07
11007 23151 3.01893e-05
1067 266 0.000131236
1114 16569 1.82289e-07
16 198 3.9243e-07
111 492 5.72282e-05
348 170 3.20144e-06
3007 170 0.000352884
383 170 2.28026e-05
504 170 4.41218e-07
533 23047 6.21547e-05
4478 328 3.53266e-05
1865 524 5.55573e-06
2179 23038 6.37962e-05
12970 3363 1.76128e-05
3483 23013 5.96992e-07
1069 725 8.51347e-07
992 960 2.82903e-06
200 1987 1.64165e-07
1613 1987 3.96711e-07
1698 119 0.00201488
711 32 2.15423e-07
1626 5173 7.46599e-07
4155 5173 4.46241e-07
4397 432 9.88366e-07
19342 432 0.000835249
12595 272 0.000539511
1525 1075 8.33551e-06
1761 1075 1.33226e-06
19331 3447 0.079136
19319 22881 1.51866e-05
6377 515 1.38451e-05
327 538 5.27409e-06
604 113 1.47657e-06
183 22858 2.86304e-07
5030 273 0.000156228
200 2479 1.44791e-07
3998 7370 2.10123e-06
155 1700 8.21964e-07
14725 1700 4.76944e-05
5015 11 9.45149e-07
1046 198 1.09152e-05
677 2753 3.58208e-07
263 176 1.36958e-06
6597 809 0.0371411
163 148 1.0764e-06
9055 541 6.28214e-05
330 1226 2.1115e-07
1589 37 1.65799e-07
2045 323 8.13728e-06
115 22612 2.35213e-06
115 27 1.12071e-06
1288 113 7.83793e-07
6906 5157 3.41793e-06
457 253 1.00517e-06
2071 6863 5.60411e-07
165 1053 2.3976e-07
5328 1211 3.48716e-06
10451 126 0.00113484
3746 22544 2.91508e-07
3281 35 9.75279e-05
6379 725 3.97484e-05
19178 2180 0.000642811
998 11 1.10739e-07
3746 22490 1.65305e-07
5061 543 2.25132e-06
19161 3256 0.010796
1523 7011 0.000363096
2299 23 2.64786e-07
782 22367 1.48387e-06
3746 11 0.000181
4449 228 2.26798e-05
4449 5157 0.00112544
19133 3208 0.0054095
2592 22368 1.89684e-05
1283 22368 7.60941e-07
8 632 1.18663e-06
5064 220 1.80225e-06
5064 22218 3.18695e-06
236 22218 4.46268e-07
19037 23 0.00146815
7548 696 8.73742e-05
2822 1471 1.39942e-06
2866 220 2.85407e-06
884 22172 3.05881e-07
1426 571 1.28978e-07
1144 22117 1.04391e-07
1676 26 5.56513e-07
18989 990 0.000800918
2302 841 1.81962e-07
18981 343 0.000389471
726 5545 1.02049e-05
110 209 1.37965e-06
1102 413 1.91124e-05
521 2097 1.60451e-07
3108 607 4.10062e-06
4518 6794 9.31155e-07
3374 2008 5.80627e-05
836 3295 2.1247e-07
836 1448 6.18678e-06
447 104 5.7918e-06
327 1239 7.65061e-07
3552 1092 1.71339e-07
836 18 9.14637e-07
2719 392 3.04868e-06
391 392 7.15194e-06
18863 269 0.00436758
6717 40 9.70525e-07
4076 2934 7.04835e-06
3380 10714 4.10815e-06
2778 10714 0.000784765
18906 10714 1.65146e-05
19 8023 3.46081e-07
1847 21776 1.58866e-06
4942 21774 5.80133e-05
4134 21774 0.000135071
3416 543 2.69176e-06
6576 21758 1.21902e-06
692 104 2.40081e-07
2465 297 3.07679e-06
304 10132 5.73065e-06
2749 17157 7.60368e-07
2215 17157 3.27164e-06
2302 323 9.18999e-07
38 933 1.33877e-06
149 30 1.81688e-06
992 6 2.49152e-07
992 21627 1.89422e-06
463 266 7.48282e-06
1034 266 1.15252e-06
1216 771 2.8761e-06
1541 21622 1.22476e-05
1655 2616 7.91839e-07
1655 466 4.35854e-07
165 21555 7.76998e-07
8257 21551 0.00010375
3420 21551 2.4522e-05
8257 21549 4.10829e-05
549 21549 4.37818e-06
253 21549 5.32841e-07
5029 4228 1.05368e-06
2689 47 1.08672e-06
2891 6112 1.95512e-06
11558 74 2.74955e-05
1613 88 5.09523e-06
18734 638 0.00597553
1082 12466 9.61648e-07
3873 41 0.000249543
8807 696 5.18553e-05
408 3372 4.88994e-05
5607 3372 1.24092e-06
1712 12542 7.20393e-07
2410 21 5.80985e-06
3814 2176 7.40641e-06
151 466 1.47808e-05
321 466 0.00263984
14 20876 1.28971e-06
258 20876 0.00162056
5650 280 0.00259463
884 20653 2.15749e-06
16028 20653 0.110681
525 23 9.3848e-06
14048 1015 3.84975e-05
408 1015 0.000904032
17537 26 0.0024354
5019 8508 0.000144489
253 278 1.04185e-06
7891 361 2.48401e-06
4776 1395 7.65187e-06
228 3764 0.0204916
14730 31 1.24706e-05
15776 20554 0.00193713
8148 11 1.20174e-05
182 74 1.44473e-07
1006 15306 5.19995e-05
4052 15306 0.000179787
2207 20452 6.0843e-07
1227 26 1.27429e-06
2006 20379 0.000196533
417 20379 0.000166644
205 20379 1.60572e-06
17734 198 0.0027867
3813 432 0.000225025
582 150 4.93103e-07
6651 4538 0.000200634
3648 20206 2.21409e-05
497 4173 0.000137109
3456 4173 1.29627e-05
1369 4173 4.44214e-06
588 970 0.013694
275 970 0.000867441
17592 20160 0.00660648
340 171 8.87167e-05
551 4296 8.46559e-06
549 20105 3.44071e-07
1822 20097 2.9492e-07
3135 160 3.07855e-07
2768 20020 7.76023e-06
237 4173 1.21548e-06
1035 13614 6.06289e-06
531 166 9.54652e-07
636 826 1.47803e-05
3016 1171 6.18493e-07
5704 4608 4.1753e-05
17230 1515 0.029426
3530 19726 5.03253e-07
979 19724 1.88238e-07
2309 19575 2.48618e-06
15668 242 3.3157e-05
331 19525 5.70424e-07
46 841 9.71146e-07
604 688 3.14227e-07
5399 550 0.000231146
5260 688 8.0911e-06
2083 688 9.08424e-06
1082 688 3.25237e-07
3745 97 3.79022e-07
5298 5175 2.35243e-05
144 140 2.46394e-07
5345 307 3.07722e-06
16911 347 0.00201484
5015 19260 2.04285e-05
166 19239 1.72963e-07
5016 13451 0.000522638
5352 4016 4.58252e-06
7264 361 4.62287e-05
1969 361 1.7871e-06
2458 19119 2.05674e-05
70 670 4.90555e-06
129 51 7.3544e-07
1126 1059 0.0155361
3441 19038 0.00036701
322 19038 0.0077217
19 44 1.85657e-07
16692 21 7.32384e-05
73 1487 1.21365e-05
144 347 3.21518e-07
587 18906 7.79788e-06
8691 2789 3.91785e-05
3490 2506 1.1264e-06
976 1469 5.24836e-07
5543 44 3.28673e-06
1203 6106 4.44546e-06
562 3850 3.81259e-05
2497 2067 1.31746e-05
4874 6 2.3431e-05
689 151 0.000135404
4195 18761 4.24527e-05
398 97 7.37686e-06
5620 18761 1.00915e-05
2693 23 9.69669e-06
3370 2087 4.39929e-05
1954 470 0.000150585
1609 470 5.72598e-06
3771 470 5.05609e-06
1198 1886 3.1785e-07
1814 6 6.7321e-07
800 1015 2.24347e-07
282 18728 9.22655e-07
1936 18728 2.25093e-06
1182 18728 8.14779e-07
343 18719 1.60803e-07
89 253 2.45761e-06
4070 150 5.48078e-05
1825 112 3.74781e-07
14655 344 0.0027846
16244 244 7.51119e-06
16126 26 0.00722677
213 406 6.39908e-05
14 3618 1.9912e-07
1365 748 1.84051e-06
2037 748 0.000183694
349 742 3.42588e-07
16032 251 0.000497364
18 1557 2.04224e-06
4389 17999 1.33141e-06
703 2917 0.000174061
13318 2751 2.12357e-05
3962 7718 5.18996e-06
677 50 1.61873e-07
1709 927 2.86157e-05
402 927 3.48312e-06
648 1308 2.26259e-06
735 1308 0.000300875
4611 583 0.000876981
128 15499 3.36345e-07
172 543 1.93464e-07
1878 2495 0.000139138
26 451 8.27487e-07
26 3 1.37806e-06
26 905 1.0432e-05
13965 1395 2.12591e-06
208 933 9.56024e-07
4 15497 5.11592e-07
5080 171 5.50298e-05
463 524 9.76773e-05
2046 524 0.00689285
2655 11 6.86879e-05
1104 988 5.35108e-05
2599 3170 6.60104e-05
2312 783 6.56088e-06
415 17431 6.07552e-05
15486 190 0.000414872
465 17423 3.34815e-07
40 403 2.26603e-05
15417 541 1.51368e-05
15417 272 2.53557e-05
3368 170 1.7307e-07
7401 9676 1.80397e-05
4978 1124 9.84736e-06
0 8942 2.41737e-07
3016 146 7.34945e-07
2409 34 0.000186125
332 592 2.84033e-07
507 104 2.22209e-07
638 1103 1.49673e-06
85 1728 1.0821e-07
231 17199 8.44021e-05
5327 17199 0.0012209
7628 17199 0.0382876
1843 17199 4.54684e-06
5603 17192 3.49312e-05
10212 17196 6.11078e-05
4283 40 1.87284e-05
3734 179 7.64364e-07
1762 809 4.68818e-07
4683 809 5.13408e-05
264 10980 1.02037e-05
264 17 2.29029e-06
173 711 2.31421e-05
544 3 6.31148e-05
2573 1085 1.07001e-06
38 534 1.95435e-07
15016 1408 0.173508
4898 988 4.63415e-06
13899 16864 1.91426e-06
14703 21 9.66075e-06
108 154 3.23903e-07
2712 154 4.99409e-06
5160 154 2.68179e-05
638 3239 1.87265e-06
2066 3239 5.43113e-05
1969 3239 1.16543e-06
349 3239 4.76565e-06
777 3239 1.25169e-06
680 9676 6.34947e-05
604 74 3.18042e-07
6272 74 3.31508e-05
343 74 1.26986e-07
7647 74 0.000944234
680 4 1.98471e-07
4554 8 0.00118238
314 16775 1.36582e-07
1031 5332 0.000138439
1207 5332 0.00619348
776 16691 1.10179e-07
8823 40 1.96532e-06
2470 112 9.43215e-05
1095 16647 9.76042e-07
2544 333 0.00142698
313 333 0.000285142
523 35 2.67968e-06
14130 333 0.0185596
722 16538 7.26645e-06
1912 284 1.08863e-05
5894 16514 0.000118187
4401 17 1.78938e-05
48 16351 2.44602e-05
14518 13491 0.00162935
19 179 3.59258e-07
2320 230 3.5904e-07
268 16242 1.63352e-07
1798 321 1.32727e-07
208 42 6.75401e-07
2856 16235 6.05302e-07
4695 740 7.12866e-06
5663 5637 7.29216e-05
3451 1824 1.30612e-07
2904 16124 0.00016873
247 16124 1.06467e-05
524 5638 4.86642e-07
5424 142 1.27931e-05
29 1437 4.17785e-07
2997 23 2.37581e-05
2192 148 1.78976e-06
2120 6342 6.26241e-07
2751 6342 3.0478e-06
8085 6342 0.000157576
465 170 1.89856e-05
9349 25691 1.81354e-06
5673 126 0.000101139
2020 16042 1.33367e-07
4746 140 9.17385e-06
2027 16022 2.53579e-07
677 16022 3.84006e-07
969 16008 3.78017e-05
349 16008 7.8259e-07
243 16008 1.19444e-06
5358 16007 3.9053e-06
1436 12134 0.00118256
14309 9706 0.00153751
437 989 3.822e-07
418 989 2.60862e-06
4322 125 0.00670464
1287 125 0.0013995
437 4049 2.2256e-07
1114 15921 1.54344e-07
3344 5936 7.12162e-07
3409 15850 8.97611e-06
205 15843 4.12622e-07
4788 15802 1.84058e-05
253 1571 5.57694e-07
513 583 6.74923e-06
2326 4658 3.67853e-05
965 4658 0.00139393
472 4658 1.47286e-06
1122 15668 2.17178e-07
490 103 2.04154e-05
3275 15733 1.61553e-05
1856 15716 2.65541e-05
14077 1447 0.196071
2438 148 9.54644e-06
4984 220 3.15446e-06
360 15679 7.05889e-06
584 15434 4.40034e-07
8522 6666 0.00358984
2015 4 6.9551e-07
462 777 9.10598e-07
688 777 1.87421e-07
2190 1226 3.23421e-05
2805 21 6.81938e-06
2479 2013 2.5129e-06
698 15581 4.81246e-07
39 2902 5.42048e-05
1958 2902 1.34376e-06
11614 15558 2.17757e-06
2493 15551 5.18808e-07
6726 15551 0.00350443
26 15551 0.00130837
13974 1870 0.000111722
5373 11 4.07196e-06
2231 97 1.0646e-05
13964 971 0.00349203
4285 2266 0.00217429
113 2266 6.67499e-07
4556 5696 1.62522e-05
278 224 5.7969e-07
1796 15511 0.0122333
1911 15511 0.000512197
4076 8988 2.43614e-06
698 170 2.00439e-07
33 428 2.08563e-07
13952 1332 0.112228
1840 6 2.09569e-07
309 12591 7.51645e-06
13930 12591 0.00234445
13922 15434 0.000130892
406 3177 9.3895e-06
8964 238 0.00154587
3152 270 0.000802143
8654 74 0.000126163
2109 15313 1.96568e-07
10479 393 0.0131457
7708 393 0.000826501
228 874 2.58154e-05
391 874 1.4197e-05
1204 874 6.95487e-05
1586 15299 8.1044e-06
5672 266 0.0412954
1567 40 2.84422e-07
164 148 1.34161e-06
0 2086 5.18948e-07
714 15243 0.00132269
1318 15243 0.00200243
168 2246 1.77387e-05
639 2246 2.32244e-06
3304 4670 1.10693e-05
522 7921 1.82103e-07
4334 3106 1.86919e-05
13727 12176 7.02259e-05
3306 490 0.000232956
13727 1308 1.21477e-05
2655 15204 2.21051e-06
2655 1308 0.0392739
528 1308 0.000729042
85 15141 2.13562e-07
1097 1312 5.02592e-05
1097 4694 7.20063e-07
1498 1312 1.34538e-06
3227 551 1.40767e-07
3472 37 4.31149e-07
13663 15057 1.41505e-05
2665 4448 5.21868e-06
454 238 2.81185e-07
6956 97 3.5154e-05
320 74 2.14384e-05
8 5556 6.81845e-05
1122 3592 7.85729e-06
531 105 3.8393e-07
5292 321 0.000236292
2303 4678 2.60527e-06
736 17 1.29612e-06
1061 10719 5.02568e-07
349 3632 1.56039e-06
1830 713 6.09463e-07
303 1711 1.19358e-06
3165 14822 3.0907e-06
2592 14818 0.0139923
2301 2099 7.58144e-05
4512 2099 3.17669e-05
4679 14777 1.77066e-05
1068 283 4.98306e-06
1048 266 9.67309e-07
1384 266 0.000228568
644 141 3.94953e-06
644 14762 2.18942e-06
4560 14762 8.2737e-05
11480 2685 3.69538e-06
1114 14692 2.64742e-07
1166 6 1.32205e-05
5375 678 0.000420916
6561 469 3.20814e-06
162 572 5.69449e-05
1755 572 7.65909e-06
4654 179 5.39901e-06
108 14610 4.19456e-07
2573 124 7.50883e-07
779 4210 0.00141685
67 4210 0.00110271
4657 4210 0.000108075
397 4210 0.00155204
306 1010 2.6011e-07
182 97 2.47425e-07
2038 292 8.19018e-07
2207 367 1.1212e-06
10096 179 1.71926e-05
209 14492 2.10269e-05
33 14492 3.09542e-06
1233 14492 7.40453e-06
2326 14466 1.25864e-06
3165 792 4.16762e-07
1631 151 3.34648e-06
1095 126 1.4961e-06
3527 1744 1.21509e-06
6118 1472 0.000279027
165 1472 1.94558e-07
6905 27 2.15058e-05
356 432 2.04215e-07
1126 6367 6.1639e-07
4506 14393 0.0629341
3396 14393 0.00485964
4112 14389 1.40055e-07
4048 26 6.30684e-06
5064 297 3.56481e-06
3941 196 0.00416553
13171 44 0.000766687
13133 14296 0.190996
538 1838 1.47372e-05
46 14303 4.22543e-07
3399 657 0.000290001
177 74 9.60626e-07
10943 197 0.000389307
4747 10 0.000111536
12910 253 0.00036632
258 13867 3.29548e-07
1227 280 1.08106e-05
2296 14084 1.7361e-05
0 4843 3.18266e-06
2875 170 0.000288596
11394 8384 0.00182513
1533 2119 3.29377e-05
4060 14039 5.56592e-05
1184 1317 0.00324079
6 9551 7.02933e-07
1899 1763 1.08583e-05
3903 329 0.000126543
12832 1090 4.46829e-05
588 394 1.25109e-06
5470 220 0.00482542
1185 13957 3.25713e-07
5047 1417 1.28045e-06
4818 8626 3.29025e-06
2741 637 4.89588e-05
923 228 3.7127e-07
2076 4354 1.79322e-06
147 13914 3.89403e-07
6880 13839 3.29898e-06
228 13810 7.21349e-06
12663 12429 0.020143
12639 13770 0.000362739
12638 13770 0.000652369
1111 11178 2.93211e-06
1343 5220 7.30131e-05
5611 401 3.8916e-07
12518 97 0.000105814
112 1945 3.60151e-06
200 426 1.12446e-06
11187 13654 0.000220872
1856 606 3.62053e-06
288 1440 8.41464e-07
12471 903 0.000128246
9375 422 0.000258611
349 1763 2.36164e-07
5151 5239 1.18428e-05
4 1905 3.03741e-07
2033 1520 3.4657e-06
670 34 3.63915e-06
1721 5499 3.86636e-05
1008 13306 1.08676e-06
531 11582 4.16549e-07
2071 126 5.11782e-07
1630 196 1.28961e-07
4784 1728 9.75447e-06
797 1746 2.92002e-06
164 13231 2.12654e-07
205 23 1.67999e-07
9 129 0.000446902
398 13160 2.62317e-06
7486 26 0.000954741
268 1226 8.31234e-06
802 40 1.35993e-07
505 179 1.12267e-06
1500 5573 1.70315e-05
711 13002 2.29597e-07
1796 44 8.25522e-07
2011 12977 1.5906e-05
6503 12977 8.12445e-05
300 1075 0.00052575
5673 551 9.95188e-06
236 420 5.32225e-07
3217 960 5.29681e-07
564 377 2.57137e-06
1794 179 0.000158142
1661 179 4.27395e-06
4130 12683 2.25446e-05
1184 395 8.66413e-07
300 42 2.59213e-06
373 1903 4.52686e-07
4388 1903 2.51018e-06
4340 23 1.40478e-06
3600 119 0.0162801
1181 126 2.07533e-07
3274 190 3.91229e-06
914 12598 8.02519e-06
37 3042 3.54272e-07
6839 12585 4.15211e-07
6839 97 2.35097e-06
504 12541 3.30521e-07
138 35 8.68429e-07
3118 1793 1.57538e-05
11603 1793 0.00642507
11602 228 0.00406493
208 269 2.57385e-07
2466 97 1.03574e-05
584 3779 2.43654e-07
1662 1364 7.54116e-06
4477 2103 1.24367e-06
307 660 2.79864e-07
11563 12432 6.41534e-06
665 44 2.66913e-06
801 21 1.45275e-06
5125 9517 4.34538e-06
14 875 6.88607e-07
253 4946 7.22505e-07
1586 148 8.7526e-06
496 873 3.00013e-05
165 12357 7.86674e-07
8612 12352 0.000142876
11516 2253 0.000279976
1796 4 1.21733e-06
7609 4 2.99709e-05
4560 690 0.000505573
1755 23 1.26656e-06
1867 97 8.56598e-05
1240 40 5.33122e-06
169 26 1.7656e-06
8034 4005 5.56848e-05
613 2592 2.02248e-07
3410 6471 1.29195e-06
504 280 1.90159e-06
2268 373 1.42938e-05
1063 12139 1.30481e-06
507 11553 4.0324e-07
72 7501 1.35832e-06
3282 3385 1.23301e-05
9647 12084 1.32967e-05
113 3889 7.54325e-07
1714 158 3.08772e-05
5366 12044 2.02543e-05
2320 1790 7.24041e-07
6296 426 0.032855
11270 64 3.79547e-05
173 311 1.56823e-07
3167 975 5.87861e-05
202 975 1.0209e-05
9506 11994 5.50231e-06
11268 11994 0.233651
11268 4130 0.0627602
11250 11994 3.72297e-06
11250 4130 0.00288968
11247 11994 0.0036694
416 18 2.15896e-06
11198 34 0.000936438
861 18 5.01858e-06
4055 333 3.54618e-07
4055 170 4.55489e-05
256 176 1.89223e-06
2455 3582 4.54738e-05
800 3582 1.30934e-06
6551 3582 3.97746e-05
501 21 7.27527e-05
4067 468 0.000112703
3015 228 3.29093e-06
3418 394 2.78351e-05
548 97 2.19468e-05
563 360 2.13834e-07
328 360 1.24932e-07
2006 360 1.27412e-07
2156 735 0.000108882
3882 42 0.000478135
11057 42 0.0832102
2035 278 2.92869e-05
9334 179 1.61829e-06
109 1226 6.44974e-07
3375 238 4.04939e-06
5327 1718 7.65647e-06
2300 432 1.53805e-06
5620 11529 9.85115e-06
5055 11530 2.98385e-05
234 2722 7.58849e-07
571 11507 3.80347e-07
46 170 1.06051e-07
428 170 1.45318e-07
740 1010 0.00048989
10531 1010 0.000119874
588 601 8.43242e-07
4375 26 0.000341929
10804 428 2.1594e-05
1571 1273 4.17259e-06
1567 1273 1.10494e-07
1171 1273 0.0426169
93 297 1.53633e-05
2671 44 8.79962e-06
1607 4781 7.00812e-06
1034 4781 2.2438e-06
1315 853 3.3396e-05
649 373 2.03515e-06
4301 140 1.5752e-05
10624 1692 1.00982e-05
551 11154 0.000224151
1955 23 4.93944e-07
3129 278 1.53237e-06
10661 278 0.00157731
1674 220 1.47786e-07
1105 1633 1.06815e-06
2661 44 2.62344e-05
388 524 2.36672e-07
1117 11166 1.72864e-07
10560 11171 0.0266695
3939 11156 1.09574e-05
3851 2542 4.07283e-05
6633 2542 0.000102633
55 11111 7.92738e-07
1136 11090 9.13471e-07
10503 11090 0.0153613
1577 1780 3.50074e-06
10360 633 0.0013386
298 166 6.09686e-05
2409 11 3.55304e-06
4720 323 2.57204e-06
10361 2008 0.000134917
399 2008 1.6453e-07
381 179 7.7574e-06
385 44 2.40614e-06
371 10959 9.32447e-06
7647 4457 0.000116266
1364 97 3.26155e-07
55 560 1.81683e-06
243 1324 2.29241e-05
2713 416 2.80484e-05
172 416 1.64779e-07
10357 426 1.78288e-05
469 426 2.25317e-06
522 1045 1.7104e-07
2892 1305 1.11086e-06
1606 1305 2.04949e-06
1961 538 2.96786e-05
10325 538 0.00210181
4770 10244 0.000185265
165 1522 9.34221e-07
391 35 1.35222e-06
2320 392 7.73786e-07
582 598 2.13847e-07
614 1812 1.31114e-07
308 7919 4.97235e-07
504 6 2.70513e-07
2749 3274 3.77485e-07
278 104 1.49562e-07
2326 218 0.000201304
142 10779 4.99651e-05
109 10778 1.96666e-07
450 263 3.15387e-06
549 1542 3.63172e-07
4648 1542 0.000102171
975 432 8.38257e-07
7110 40 0.000139613
394 1494 7.67358e-06
112 5676 1.34096e-06
3217 10681 9.89698e-06
29 709 1.01569e-06
443 709 7.54503e-05
1510 88 8.48505e-06
4261 23 0.000225716
393 280 9.21731e-07
3420 21 2.61995e-07
9808 5792 5.75583e-06
1955 5792 1.34917e-07
1548 393 2.6773e-05
9765 393 0.00370273
3925 171 0.000901616
463 23 3.60282e-06
7699 26 0.000100781
1124 3844 4.15897e-05
4196 1726 0.000121494
4397 6069 1.23832e-06
5160 6069 5.26232e-06
6784 10041 0.00576287
1716 10029 1.72421e-07
157 27 2.42331e-07
3475 2685 1.43522e-06
6723 9987 0.0309615
1743 9987 7.25585e-07
533 151 1.87941e-05
213 1052 9.20821e-05
1730 9959 6.15689e-06
1498 1717 7.19522e-06
5114 9957 0.000235261
531 633 1.94311e-06
7080 40 1.36084e-07
1755 9928 2.47399e-06
1755 179 1.71218e-05
712 9928 0.000251235
1074 580 8.57448e-05
692 580 2.49588e-06
647 9907 0.0400582
9497 9905 6.72465e-05
3646 466 7.02516e-07
201 9871 1.5454e-06
781 9871 4.50921e-07
5499 1793 2.94369e-05
134 310 2.70413e-06
5102 1856 0.00245483
6596 8 1.3289e-05
876 420 1.21695e-05
302 9714 3.36665e-07
1084 9638 0.00384565
4 9617 1.61048e-06
1888 158 0.000224277
1095 1766 4.84257e-07
1095 2087 6.57583e-07
300 9557 8.2542e-06
3420 8766 2.71927e-07
467 9529 3.77622e-07
8982 1515 0.000249598
103 972 0.00281365
1025 216 1.66736e-07
4306 1515 5.11095e-05
4647 5686 1.90617e-05
165 4354 9.52946e-07
8978 6 1.06786e-05
2560 1360 9.3369e-06
5257 23 1.52637e-05
144 1856 3.6124e-07
462 9364 7.99217e-07
484 3036 8.46999e-07
691 9316 1.18572e-06
1177 451 4.03173e-07
293 366 3.96989e-06
4331 366 0.0316805
476 216 3.89693e-05
9057 989 0.00478471
3075 468 4.18696e-06
515 671 1.1679e-07
9025 470 8.71636e-06
0 470 1.13975e-06
534 9187 1.10021e-06
134 9187 3.55368e-07
419 4164 1.56336e-06
8393 3421 2.46068e-05
1662 717 4.08245e-05
1671 717 0.000292418
1177 67 2.82864e-07
446 44 1.01491e-06
467 9145 1.74548e-06
975 9145 0.000996873
318 154 3.00988e-07
8915 6265 0.000192534
1974 9115 2.62745e-06
243 4933 1.9899e-07
21 9104 2.3018e-07
2629 9071 0.0126539
2835 9071 0.0011069
2858 9070 4.77828e-07
46 4235 1.97751e-07
1596 23 4.35476e-07
1002 4 4.1233e-05
504 238 4.25879e-07
6717 495 1.49386e-05
681 8626 9.1044e-06
1185 8626 6.97573e-06
511 7306 3.07815e-06
1879 1800 2.93415e-07
3494 40 3.20501e-06
254 6389 3.91178e-07
4364 97 5.17288e-05
2747 44 1.30299e-05
8641 171 1.98607e-06
3410 831 1.15691e-05
329 8627 9.92429e-07
4322 417 9.38188e-06
214 417 2.54062e-07
1048 136 7.47311e-07
1048 417 8.7126e-06
1122 8598 3.6022e-05
2993 6150 3.87309e-07
8613 8454 0.000771636
2648 40 6.05389e-05
243 1660 1.76635e-07
545 27 8.25276e-06
1895 6222 9.4539e-07
8590 238 0.000182603
2308 8476 9.1321e-07
1596 459 4.39633e-06
8584 459 1.0314e-05
4110 8471 0.000103076
1287 2076 2.2684e-05
521 23 3.6482e-07
165 2076 2.46978e-07
7606 11 1.28857e-05
8565 344 0.00416988
467 8451 1.55189e-07
1148 86 1.62927e-07
5964 321 7.30259e-06
700 602 5.04927e-07
6734 8393 0.000104014
730 8393 9.17731e-06
4682 8392 0.000278625
332 8392 6.62744e-06
1063 1687 3.38186e-07
8484 171 4.61652e-06
604 5269 4.80138e-06
8459 5269 9.45872e-05
1034 713 2.45918e-06
1220 4575 0.00119259
110 8327 2.78957e-07
697 86 5.62724e-07
238 368 1.89687e-07
8297 956 5.68513e-07
614 406 6.17763e-05
3496 658 0.00045079
58 8217 1.14333e-07
55 8175 2.43978e-07
8349 170 7.58764e-05
16 8170 1.85911e-07
397 4490 3.17797e-06
1870 8159 1.07126e-06
7927 40 2.71689e-05
914 8090 0.00473233
8291 330 0.000436098
839 4131 2.04177e-06
1365 428 5.65679e-07
93 734 3.29562e-06
71 734 2.97517e-06
110 278 1.94789e-07
8116 2434 0.00245462
3017 7874 1.54658e-06
108 3670 4.58022e-07
289 3670 3.07627e-06
8063 2288 0.00100823
1424 2288 1.1604e-05
201 2288 1.69476e-06
584 2288 2.48271e-07
7247 40 0.00020552
231 35 2.4971e-07
7268 3666 3.63445e-05
2233 1385 2.21279e-05
440 1432 1.38579e-05
1978 49 9.70159e-06
7604 1146 0.000125489
0 8175 2.00663e-07
2413 7526 2.14845e-06
487 254 0.00156832
7751 7481 0.00211604
6939 1712 3.25694e-05
1244 7472 1.18234e-06
6842 5756 0.00012234
2516 7437 0.00140493
2712 7414 7.70061e-07
3218 725 2.43198e-07
7681 395 0.00272285
7667 4553 7.54389e-06
571 7151 6.68495e-07
172 5550 2.78166e-07
172 2902 0.000800546
1128 209 4.38409e-07
4364 140 6.22116e-05
1244 143 7.08616e-06
7387 7253 0.00302463
3218 31 1.20729e-06
1031 31 9.57952e-07
7566 1657 4.63305e-05
44 1226 7.37608e-07
302 2849 0.00148486
33 7150 4.0748e-07
507 26 6.67771e-07
1318 6960 1.23086e-07
2017 6960 8.06148e-07
2861 2843 0.000538828
3770 2843 0.000179314
33 538 1.97021e-07
1202 233 3.39894e-07
170 233 4.1404e-07
4151 7017 4.67791e-06
356 7017 8.6025e-05
1655 7017 0.0064226
3781 7017 0.000111413
0 1226 1.36993e-05
7428 196 5.06071e-05
5696 196 0.000388281
3746 6951 4.19814e-07
5244 976 0.000226764
219 3270 2.27936e-05
998 3869 9.01475e-07
3335 323 7.90039e-06
1630 538 2.92605e-07
7347 196 9.96558e-05
43 6849 7.07093e-06
3747 6849 0.000213355
3195 97 1.1874e-05
305 5509 3.27074e-05
7082 6662 1.15828e-06
322 6586 1.32152e-07
7082 6544 0.00101422
7082 6533 1.1621e-06
2085 6519 9.09624e-07
7083 8 0.0148124
7045 228 0.00505642
2040 23 2.05612e-05
2048 1492 1.06032e-06
467 2212 1.61123e-07
78 6387 1.77482e-07
78 37 2.23223e-07
2883 6387 2.7999e-07
2883 37 3.5215e-07
351 6361 0.000149025
6944 2919 1.72015e-06
2761 2322 0.161889
316 6330 3.51809e-06
3646 706 4.30057e-07
613 6301 2.95675e-07
192 21 4.81034e-07
3275 4800 0.000296215
6904 790 4.98211e-06
1033 1084 2.84805e-07
6895 1084 0.00310406
6885 6252 0.000164661
992 6226 0.00025532
1312 6226 0.00607243
1791 6226 0.000123572
711 24 2.85262e-07
1717 182 0.000705581
1704 182 0.000160165
6813 238 0.000186262
1246 6113 2.99692e-05
626 77 9.73248e-06
165 6060 1.30016e-06
540 6060 3.07063e-07
14 6037 4.38891e-07
640 35 8.80001e-06
208 35 1.41643e-06
3084 35 1.17259e-05
4 5998 1.35035e-05
2011 1519 5.3158e-07
293 5981 6.69173e-07
1048 426 6.46833e-07
6593 1063 4.39467e-05
0 244 3.9286e-07
1421 873 4.33677e-06
3033 428 4.39337e-06
1477 5672 1.16041e-06
505 5634 2.0318e-07
6272 5607 4.42638e-05
2928 74 2.37571e-07
1531 5605 5.06364e-07
1666 5526 3.52094e-07
1060 426 1.87243e-07
2712 225 7.13767e-06
971 2275 1.81035e-07
4291 225 1.24525e-05
235 401 2.62194e-07
110 5393 3.36614e-05
504 1763 1.01593e-07
843 5312 6.07016e-07
677 4491 2.64795e-07
5611 5197 2.19093e-07
5691 3239 0.00177705
5663 1308 7.39685e-05
3909 5139 1.22906e-05
694 5139 1.93305e-06
721 5090 1.73257e-06
661 292 5.22623e-05
1655 4971 9.50824e-07
5109 322 8.98903e-05
3420 3403 3.15118e-07
397 3403 1.86485e-06
3609 4962 1.15548e-05
477 4818 2.56827e-06
1162 4935 1.25515e-06
1655 4925 2.17828e-07
5431 145 0.00428011
589 4885 1.74088e-07
4322 3312 1.03555e-06
4391 3312 6.16987e-06
5388 1005 9.87991e-07
18 3312 3.64757e-07
3646 265 1.66375e-07
1235 1519 3.90789e-07
78 4809 1.71308e-07
258 4752 2.43258e-07
1541 4364 1.84956e-06
2088 4364 3.23918e-07
614 4710 3.11188e-07
108 170 1.16637e-07
4490 813 0.000145309
5134 4598 0.115128
2594 4586 0.000168743
306 4559 2.98496e-07
165 1388 2.9473e-06
5036 4476 5.50254e-06
1841 4476 4.58857e-07
5021 1478 0.000913847
227 266 1.98931e-06
172 26 3.8896e-07
4 4417 2.13176e-06
2385 26 3.75759e-05
1038 4301 4.56154e-06
2000 321 2.39653e-05
274 606 2.42872e-06
2000 4312 1.12367e-05
153 1494 1.44543e-06
588 1494 8.82218e-07
205 1494 3.14159e-07
1177 1494 0.000164609
4529 841 2.47945e-05
226 150 3.63205e-07
1854 44 3.25722e-07
681 4246 9.9533e-06
100 253 6.0461e-07
3277 21 3.10475e-07
4743 189 0.00434061
4743 2752 0.000873097
2083 432 3.44101e-06
315 4218 4.13349e-06
1054 4218 2.36888e-07
2180 271 6.39194e-06
4642 4184 4.41453e-06
2683 1613 1.26657e-05
0 873 1.27545e-06
4696 3606 0.000152847
588 3321 0.000666034
139 3321 1.74853e-07
1207 179 2.70612e-05
1207 395 0.000921698
4 2284 2.8695e-06
1995 4158 5.81872e-05
205 541 2.67013e-06
168 296 5.61071e-07
0 51 4.98959e-06
4612 3140 0.000240193
4597 2716 0.00224269
4593 2716 0.247853
1719 4083 3.71544e-07
379 3372 1.58177e-07
4542 903 0.000127069
410 903 1.35811e-06
4556 905 0.000130484
1347 4048 0.000205234
4158 2301 7.53751e-05
471 3119 2.21376e-07
4486 3966 6.09875e-05
27 711 6.69245e-07
1907 18 3.95149e-05
140 571 8.42337e-07
472 23 1.13758e-06
4324 816 3.14833e-05
3416 40 1.59621e-06
504 263 6.6423e-07
4210 1085 3.02145e-06
2104 1252 0.000366169
1045 1252 3.33893e-06
1421 1252 8.95454e-05
208 3660 7.97529e-07
3995 3367 0.000109629
1983 3522 1.13334e-05
3950 170 0.000216776
471 3400 5.0858e-07
987 3400 4.02756e-05
1194 3400 0.000229616
3886 140 0.000569392
1852 3387 2.47288e-06
1852 140 1.62533e-05
0 3378 3.40295e-07
1138 3373 9.70975e-05
579 8 5.25257e-07
2985 3293 4.09572e-05
0 3278 2.41412e-07
998 3237 7.66069e-07
612 2628 0.000117045
2999 2605 0.0873039
182 2944 2.00293e-07
651 2944 1.24921e-05
3317 2908 7.23924e-06
198 2908 1.47269e-07
14 2908 0.000649082
18 112 4.02471e-06
3381 2908 1.53682e-06
3317 148 7.99258e-07
37 518 3.4957e-07
3351 26 5.07219e-06
304 2834 5.9371e-07
0 1987 2.50453e-05
3162 21 3.29731e-05
244 1091 4.12711e-07
319 1091 4.95033e-07
2182 406 3.3609e-06
3084 541 9.39953e-06
3030 346 0.000261246
747 426 1.49938e-07
643 2558 1.51507e-07
2970 812 0.0059107
635 436 8.72701e-07
522 2421 3.97683e-07
2781 2354 0.000144366
1266 721 4.37313e-05
536 2326 4.99891e-07
2228 179 1.07809e-06
2650 2211 8.95677e-06
2641 1861 1.82978e-06
2408 1861 0.000250994
545 771 1.33254e-05
393 2173 1.30735e-07
910 2173 8.00378e-07
910 2172 2.26972e-06
2470 2173 4.90686e-05
0 933 5.6346e-07
16 2153 5.59557e-06
151 2120 1.63271e-06
151 2049 1.9301e-07
2473 352 2.12747e-05
633 1965 5.60317e-07
1666 471 2.21073e-07
2375 37 2.36523e-07
44 671 2.42967e-07
183 1837 1.77866e-07
356 898 1.16357e-06
157 11 7.29894e-07
971 606 3.14729e-07
671 230 0.0014101
1877 230 0.00152385
1844 86 6.01796e-05
1767 305 4.76233e-06
1717 1410 9.46038e-05
1661 6 9.00578e-07
1608 1312 3.08564e-06
1608 1307 1.88726e-05
447 1269 2.30778e-07
525 18 4.29105e-06
1391 1193 4.83813e-06
1473 507 0.13827
1345 18 6.09608e-06
16 171 1.26346e-07
362 44 1.17356e-06
670 439 3.83993e-06
108 439 1.21533e-06
670 262 0.000245349
584 148 1.25858e-05
661 148 0.0410948
298 450 3.07484e-07
107 450 2.20956e-06
521 26 3.46266e-07
172 418 2.32548e-07
11 406 1.6997e-06
341 174 0.000265793
441 23 1.56357e-06
402 364 2.85464e-07
421 364 7.6331e-06
389 238 1.75381e-06
386 337 4.49965e-06
244 305 7.31553e-07
253 273 3.84971e-07
8641 4045 9.85087e-06
6622 4045 5.22068e-06
1840 27541 2.71284e-06
1122 27540 2.72295e-07
423 23749 0.000703036
1516 23749 0.000524215
873 3399 2.28318e-07
3401 17200 0.0615391
309 17200 8.59321e-07
873 27520 2.04763e-06
4543 416 0.000489991
3161 3157 0.0356301
2039 27514 0.0148248
2039 6848 0.000453414
3227 19973 1.69617e-05
4542 19973 0.0227757
143 19973 0.00174934
1231 27510 1.48861e-07
170 1356 0.0123894
170 74 0.0105353
2747 27500 5.8577e-05
9758 27494 3.81501e-06
235 958 1.79022e-07
648 26253 3.90542e-05
109 179 0.000148291
3600 24 0.00144304
3577 576 5.90656e-06
3577 27483 4.27455e-06
3161 637 0.0105359
4 8164 2.7348e-05
1712 2025 5.30492e-07
7606 126 0.0043797
1187 126 2.25968e-06
21006 4882 0.163825
736 27457 3.0797e-06
231 27452 6.27835e-07
190 27449 2.22793e-06
1955 27449 1.13634e-06
21351 27367 0.000361161
21350 27367 0.243497
2512 27433 7.17219e-05
12065 27367 0.000297928
4825 27367 6.07259e-06
4831 8 6.52312e-05
20523 576 0.00178774
1029 8 8.91516e-07
55 853 0.00014609
1210 873 0.00357897
1216 873 2.57897e-05
1216 27423 1.51981e-05
144 27423 0.00449547
3349 27423 3.18887e-05
3349 1557 0.00464725
21334 27423 0.00940329
2892 606 3.04677e-06
1688 27416 1.17286e-06
3783 27416 1.18284e-06
511 27416 1.49067e-07
2121 27416 4.69075e-06
1029 27416 3.05574e-05
253 27416 0.00079539
2703 126 0.000557495
487 576 3.04632e-06
190 27404 0.00121568
10449 1401 0.000161513
10449 3639 0.000517284
6903 3348 0.000137701
1841 3348 0.0131444
4831 3348 2.67737e-06
3495 3152 3.45435e-07
2617 3152 0.023934
4889 216 1.79398e-06
4709 6810 0.000153828
372 27392 7.66974e-05
4320 606 1.3257e-05
9647 2752 0.000276764
11706 532 0.12695
10120 532 8.26095e-05
5488 27387 0.490701
3645 27387 4.69542e-05
4803 27387 3.17304e-06
4803 524 0.00024807
21342 532 5.36902e-06
3226 27384 0.00100461
110 26574 7.45495e-05
109 26574 0.012622
213 4447 0.000399248
1048 4447 5.76204e-05
78 4447 0.000254173
1768 27373 0.00935747
21271 27362 0.0541433
2226 1362 0.0464213
5828 270 0.00200026
604 7951 3.55731e-05
744 1712 0.000149106
3536 1712 0.0226305
2876 3050 3.38233e-06
1936 27344 0.0275594
523 27344 8.72304e-05
506 126 1.25366e-05
1795 590 4.14802e-05
564 590 2.49833e-06
1956 590 2.17179e-05
13152 216 0.00775321
2755 216 0.0079225
237 216 0.00381073
16525 27337 0.0737684
3360 392 0.00108334
463 392 4.32815e-07
2740 7605 0.000131325
484 27334 1.71023e-05
1800 27327 0.00265043
506 27327 0.00262261
3223 179 5.68863e-07
1525 238 5.82925e-06
1202 27323 0.00528516
506 27323 0.000804976
8086 27314 0.124523
482 27313 5.64101e-05
213 346 0.00117125
10849 690 0.00617822
352 27309 1.83571e-07
2055 10363 0.000420812
2574 1005 0.00318086
13152 9178 0.0471173
3504 2159 0.0475925
218 27293 0.0092232
10446 27293 6.80041e-05
606 27293 0.00225818
10542 27291 0.00142092
626 27291 1.57826e-05
4297 1612 0.0179907
1892 1612 0.0718993
2438 27291 0.0390427
13470 27291 0.000225454
7252 731 0.000229574
21312 731 0.00898396
3374 27283 0.0427811
2904 538 0.000175739
7909 27275 3.30119e-05
3227 27275 1.61506e-07
4709 1535 2.97571e-06
8120 27266 0.000120976
1343 27266 0.000108221
506 27266 0.00325252
606 27263 5.55184e-05
292 1527 6.08951e-07
4654 1527 7.42972e-05
2182 1527 0.0124367
1678 126 1.65832e-06
2487 2168 4.16126e-07
2487 126 3.57812e-05
22 170 5.3797e-07
703 170 2.06423e-05
1755 170 0.0168001
4067 27233 0.0344662
2668 27228 0.00194451
711 27228 1.72209e-07
208 27228 7.33185e-07
2228 27228 4.67088e-05
108 27211 4.07983e-05
308 27227 3.9505e-06
7490 27227 0.00556852
7490 27211 0.0160351
4 27211 8.74925e-06
107 27211 7.76127e-07
2090 27211 1.76413e-06
2090 145 0.000431381
494 42 6.48135e-05
1175 27223 0.0187431
147 27223 0.000639639
5054 5261 0.0019787
1111 3163 0.000185843
2314 3163 3.63461e-05
744 1424 5.78483e-05
2183 1424 2.17165e-06
2085 27204 0.0185585
1315 27204 0.000989647
1082 606 4.22806e-07
4601 179 0.000102446
1761 4564 0.000416806
4031 4564 0.00301502
1786 396 3.90218e-07
4163 11950 0.00373039
27 1903 0.0010137
4709 8852 0.0347514
434 27180 0.00351785
447 27180 2.76011e-06
5388 11 0.0370986
437 7316 8.56073e-06
405 7316 0.0222291
3070 7316 8.03166e-07
58 13940 7.32595e-07
456 200 6.93041e-05
3191 422 0.0454077
3411 200 0.00662469
1478 676 0.000869045
2589 676 4.08536e-06
478 676 0.000156107
3543 21 0.00304212
69 650 0.0241541
20318 650 0.000761787
2895 91 0.000106463
7908 764 0.0484671
2363 126 5.22004e-05
27 27123 0.000293499
3368 27123 3.38301e-05
3227 3971 9.68025e-06
484 406 2.19601e-06
7484 27108 0.00134813
778 27099 6.97149e-06
506 27098 0.00294774
2536 21457 1.35687e-07
688 27097 2.71444e-07
2611 17 2.78267e-06
592 5061 1.27291e-06
21262 357 3.3488e-07
2489 27093 0.00233318
6073 27093 3.28854e-06
6073 220 0.0168712
2195 27092 0.0215051
762 27092 6.79261e-05
21 27091 9.67813e-07
762 27090 0.00811248
21262 27090 1.72227e-06
209 9519 0.000173745
284 27085 1.46381e-05
2928 27085 4.43345e-06
19 27076 0.000166
604 27076 0.00455299
182 27076 0.000187661
1510 27074 0.000515225
157 27074 1.20784e-07
380 27073 1.41783e-05
1266 27073 0.0455991
783 1987 2.97412e-07
563 27062 0.00272986
3338 676 3.25885e-05
21260 606 0.00109035
21260 412 0.00297092
107 3068 9.15771e-07
3742 3068 0.00136914
613 27054 2.43538e-07
309 8 0.00023054
5345 253 4.72951e-07
4287 253 0.00109737
27 271 9.59255e-05
26 1093 1.36422e-06
343 1093 0.00444216
447 1093 1.97497e-07
482 113 0.000294669
770 590 0.00111401
770 698 2.82091e-06
817 590 5.916e-05
8699 33 7.09717e-05
144 27040 1.67699e-06
5791 91 0.0041849
1063 11079 3.84436e-06
498 42 3.69605e-07
182 607 1.40494e-05
4820 27017 9.9308e-07
770 27017 2.41209e-07
3135 6101 2.31265e-07
2445 27011 0.000103003
987 27007 1.72844e-05
380 27007 0.000111383
14 27006 0.000649251
764 27 2.22175e-07
1676 6932 1.15602e-05
770 26999 1.13845e-07
2322 73 0.00046886
2712 662 1.6642e-06
574 26992 4.54733e-06
2365 26992 4.18267e-07
19 26990 7.57994e-07
593 104 5.7984e-06
4937 2882 0.00273504
20189 2016 0.13622
20189 220 0.124573
21247 220 0.000365206
570 26973 2.63035e-07
1063 26973 6.735e-07
4997 141 0.0239895
4297 141 3.52024e-06
780 26957 0.0051819
256 26957 0.000255777
797 31 9.20828e-07
1221 26947 0.0023933
1221 26950 7.55331e-06
4555 23 3.62949e-05
284 26937 5.30099e-06
19 26937 3.15019e-06
2426 26935 0.0134964
308 26935 6.9357e-05
5002 13814 3.13363e-06
2421 13814 1.39818e-05
165 13814 0.00114649
16929 17 0.000279153
385 13814 1.29136e-07
1283 1005 4.28968e-07
3792 312 0.060775
314 26921 0.00310132
975 26921 3.11946e-07
1816 26914 4.47326e-06
582 4114 1.27812e-06
208 10577 1.21605e-06
5076 10577 0.0171289
4272 428 2.90801e-05
3414 26897 0.0231606
205 649 6.5604e-06
21 1408 3.15193e-05
733 26884 1.81925e-06
428 26878 0.00157853
1202 26878 1.29667e-06
2000 26875 0.0308317
3552 26873 0.000366123
1840 26873 1.10249e-07
144 26873 0.00437604
9612 129 5.31903e-05
613 129 9.24012e-07
3703 5150 7.15763e-07
8515 5150 0.0443347
2534 5150 2.01708e-07
408 2226 3.31183e-05
3015 2226 0.0245199
4301 3509 0.0448797
4604 3509 0.0010639
2738 13798 0.0554091
641 428 1.37642e-06
565 13798 3.93159e-07
565 428 5.56765e-07
64 13798 0.00232271
64 428 0.00290462
8117 148 0.00185249
2130 26867 1.11799e-05
2541 426 0.000423628
1607 468 8.32869e-07
443 468 5.66823e-07
107 468 1.35135e-06
6409 520 0.0239954
4676 520 9.11017e-07
2538 6 0.0372901
4117 6 0.000274782
2000 551 0.00282331
389 174 9.23432e-06
4836 174 0.0334549
544 278 0.000195191
2629 11214 2.76887e-05
2679 3610 5.9041e-05
2421 8373 2.01845e-05
1034 8373 0.00688772
208 8373 8.91971e-05
5064 903 1.12061e-05
1241 26814 1.58044e-05
8981 26814 1.44144e-05
1955 26814 0.0057942
419 7708 1.56253e-06
243 228 0.00921947
243 26792 1.34687e-05
1840 26783 3.24092e-07
2855 26783 0.0231872
992 26781 0.00150036
428 26781 0.00858922
467 26781 1.07131e-05
393 26777 0.00224558
1126 361 1.0034e-06
1126 170 7.6625e-06
2409 361 7.44649e-06
1038 26766 0.000240763
5125 26766 0.00308317
113 12458 3.52488e-05
6550 26760 7.60187e-05
1622 26760 1.05554e-05
6892 4111 0.110808
3040 324 3.5775e-05
4314 324 2.23474e-06
515 324 9.65415e-07
2326 324 0.00061391
3758 324 4.84695e-05
5202 324 1.26343e-06
4322 324 3.68743e-06
3016 343 0.000497137
1688 3909 0.00580377
2773 393 0.0251827
303 4916 3.18842e-05
1204 1978 4.15753e-06
2880 1978 0.000397079
9222 281 0.000478543
633 281 1.8272e-06
107 281 1.56131e-06
89 281 1.34189e-07
5071 281 0.0163653
5071 150 8.82099e-06
2374 4162 9.37865e-07
2712 4162 1.72734e-06
113 26695 0.00016323
969 26695 0.000677802
6906 26694 5.21352e-06
4926 140 1.40132e-06
21103 26688 0.332422
4400 3821 1.19556e-05
5257 771 0.056979
5257 4593 0.0569785
7376 649 0.000214632
2504 265 3.87006e-05
4349 1340 0.000357833
4639 26655 0.000170835
6549 355 0.00011415
4613 26639 0.0478858
2506 26639 9.06293e-06
1365 139 0.0056222
6613 943 3.28204e-06
58 943 0.00277787
6613 53 0.000362043
6613 148 0.00162616
2008 21 1.93433e-07
2008 831 3.98674e-06
204 220 4.24748e-06
695 220 0.000667447
5266 266 0.000108496
5266 26624 0.0175598
5684 26624 0.0153157
1867 11 0.00058545
682 11 0.0020164
20523 4030 0.0286684
511 26617 2.1045e-07
3656 6103 0.000286272
1871 5628 0.0379663
1033 26585 0.00186521
328 26585 0.00220638
691 26582 0.00490664
2000 26582 0.000261509
674 384 0.0340078
674 26580 1.03476e-06
4192 26579 0.000864281
4506 151 0.00226752
4506 4045 0.00398398
5314 1408 3.47892e-06
992 23422 3.99594e-06
214 23422 0.00369323
2329 26572 0.0189523
606 26572 0.000859781
7803 26566 0.0383186
1583 26565 4.1206e-06
12401 26559 0.0199843
643 5302 0.000379076
108 42 3.9231e-06
21045 42 0.248455
1029 637 5.48392e-05
1767 219 2.09476e-06
5363 26546 0.00553251
2558 26536 0.0262291
205 298 6.16472e-06
1084 26525 0.00385675
1126 26523 0.00131684
1084 26523 0.000602953
5089 26521 0.039319
2231 1388 0.0205691
432 1472 4.68436e-07
4679 284 0.0290881
606 284 9.7552e-05
21040 284 0.00113847
4682 26513 3.83506e-05
506 26507 1.32472e-07
262 40 3.99728e-06
342 4575 1.23584e-06
3295 4575 0.000562627
800 4575 0.0189147
209 4575 1.33771e-06
4615 1408 0.00075142
2027 3012 1.98492e-05
208 4306 3.62495e-06
5541 4306 0.00089318
1755 22110 4.41855e-07
3227 26476 4.74746e-07
16569 1424 0.000316921
5193 26468 0.0623105
506 26468 1.93531e-07
562 26467 4.14113e-07
372 68 3.31376e-06
5190 68 0.0595264
5190 3780 4.45265e-05
141 4448 1.10644e-06
208 68 1.51097e-06
207 68 0.000955711
21013 23982 0.249319
274 23982 0.00012027
16569 26432 6.55916e-07
1202 1015 4.35439e-06
4682 26423 0.0527329
6295 26422 9.99176e-06
3633 26418 0.0605955
1048 26416 0.0140948
1912 419 9.15788e-06
68 23671 0.00372679
433 187 2.7792e-05
497 428 9.29996e-06
8 428 0.000217059
1124 428 1.60232e-05
1783 428 0.000162204
711 428 9.44548e-06
3368 6436 3.11806e-06
3368 428 0.00119251
3208 6436 9.14542e-07
3208 428 0.0003487
380 428 0.000301326
1573 428 0.0379856
770 8 3.11077e-06
9612 8 0.00016546
225 26403 0.000506467
6025 74 1.67763e-05
698 26397 0.000101388
3655 26397 2.4396e-06
955 572 0.000560333
4737 26393 0.0202458
6561 26389 0.0220888
102 26386 0.00183764
214 26386 4.38765e-06
1624 26386 0.00298673
2465 26386 4.82796e-07
4315 344 0.0339567
786 170 1.20821e-05
4451 170 0.0809813
3207 328 7.82714e-06
1941 607 0.0521944
499 26354 7.34176e-05
969 11 9.07257e-07
7489 26345 7.505e-05
167 26341 2.30353e-06
540 15581 6.88675e-07
3488 1671 1.0347e-05
1237 1671 0.039834
3892 1808 6.62703e-06
211 129 0.162267
787 129 0.00049477
2040 35 2.42574e-06
524 35 6.00768e-07
788 26332 9.91016e-07
2273 148 1.28528e-05
8085 2154 6.74528e-05
1233 26308 0.0273267
1233 474 1.4387e-05
1008 141 1.48165e-05
6598 26301 0.0418025
3277 26291 0.00670151
4938 26291 0.0128388
4066 406 0.0021804
4376 406 0.000707437
987 6309 0.0168095
1516 6309 1.06816e-05
3939 6309 0.000244009
3227 572 0.0033467
2109 145 0.00083824
33 181 4.79307e-06
4051 181 0.0294046
4910 148 2.26938e-06
487 1146 6.47898e-07
17302 26105 0.165357
3355 26105 0.000119733
726 2463 5.06169e-05
726 26105 4.37757e-06
6816 649 0.0551446
7379 23 9.74325e-05
770 26264 0.000727964
484 26264 5.74537e-06
4504 26264 0.00615183
764 26260 8.5009e-07
11231 26255 1.02802e-06
1995 4901 0.0225434
506 26247 0.00261325
764 26247 0.000423949
5110 26247 1.66074e-06
1084 26238 2.21096e-06
568 468 4.43708e-06
2451 468 4.4236e-06
2368 468 0.00843185
1266 468 0.0421057
6916 26 1.06335e-05
770 26100 3.69231e-05
2598 26237 0.00140096
5345 26234 0.0018634
5345 2302 5.21082e-07
797 26231 2.18587e-06
488 26230 0.00429651
3426 26230 0.00857631
507 484 0.00431072
253 484 1.71297e-07
2374 26226 4.13494e-05
507 14921 3.90048e-07
3025 14921 0.00231359
370 50 0.00766799
153 26213 6.94267e-07
112 26212 0.00125298
488 26212 4.25919e-05
7267 11139 0.00271952
500 31 0.00121866
7401 31 7.76036e-05
3844 31 0.0597657
1995 26188 7.12273e-06
3873 26182 1.54775e-06
147 26182 0.00109992
346 26180 1.17904e-06
874 26180 0.00432905
3446 26138 0.000195897
688 26137 4.09163e-07
7413 2883 0.00206997
971 26127 1.93297e-07
306 26127 0.0066127
1060 22353 1.61855e-05
1038 6367 0.00181418
2120 6367 0.00609068
154 3971 9.73248e-07
8652 26121 0.00310451
5670 26121 0.00343853
397 119 7.12524e-05
973 4368 0.0339504
4109 272 8.86217e-05
17480 888 5.02036e-05
20866 888 0.498314
22 6105 5.30994e-07
16693 6105 0.0344967
1589 26079 0.00662245
59 26066 0.000153971
5078 272 1.03279e-06
1955 2053 1.47496e-06
4364 426 0.000238657
777 26048 0.00258634
346 22775 5.88379e-06
577 22775 0.0401319
3338 191 7.15115e-06
256 1983 3.03047e-05
2212 26039 0.0197983
474 26028 1.09688e-06
205 26028 0.00195162
5339 26019 5.06894e-05
5731 26022 0.0173797
5731 1003 4.77557e-06
1185 26018 0.000147865
2006 26018 0.000102821
13145 284 0.0170592
145 26008 0.000142508
5071 6302 2.89387e-06
5075 224 0.0369956
434 25998 8.9293e-06
3426 25998 0.0284394
638 25997 1.61086e-05
3432 25990 3.79533e-06
331 25972 0.00357136
1178 25971 0.0587169
1318 25971 1.39921e-06
3225 25970 4.79488e-05
360 25963 0.00218034
2711 2907 0.0155464
2711 143 2.91482e-06
12816 143 0.0752951
1049 25942 0.018608
1049 468 0.000130525
541 25942 0.000249314
3783 269 0.00047667
5071 573 0.0117002
182 573 0.000660074
18 573 4.02345e-05
2374 25917 9.13136e-06
1952 4225 1.08597e-05
520 607 6.47985e-05
5828 607 0.0278386
12126 607 0.000166785
724 607 0.000108964
2443 5656 0.0757677
249 25909 3.17611e-07
2651 150 0.110513
612 25906 0.0226482
3881 150 3.30297e-05
2017 297 0.000238959
5072 25900 0.00335055
5071 31 3.63762e-07
3536 25895 1.80715e-05
253 25895 2.50798e-07
20820 6867 2.51726e-06
534 6867 0.0137639
288 6867 6.4151e-07
212 25891 0.00446484
4994 25891 6.85e-05
2876 25883 0.000300084
488 25883 0.00604781
1223 25882 0.000695868
2374 25882 0.000602729
5828 25882 0.0232699
5486 170 7.12128e-06
1587 25867 0.00400015
408 25867 4.1361e-06
38 25867 4.92047e-07
16 74 1.44553e-06
2253 6800 0.000149823
2534 25864 8.90493e-05
484 25864 0.00754057
1821 1285 0.0546227
507 25859 1.66861e-06
10525 11437 0.000731957
20811 11437 0.498008
1852 25848 4.92073e-07
1995 25845 0.00190327
2643 25843 0.0291759
1063 647 6.23043e-07
13729 1093 4.94345e-05
13729 25840 0.00177237
11380 1093 0.00559334
2778 1840 0.0033094
380 1840 5.94734e-07
1043 1840 0.0244617
1618 1840 0.0154633
1364 1840 2.21284e-06
4920 1840 0.00353449
711 5148 0.00396601
9801 25822 1.28617e-06
122 25807 0.0249318
521 4827 1.01119e-05
2719 4827 0.000197619
7633 4827 1.35049e-05
471 142 0.00734427
584 142 1.4643e-07
1084 7364 0.00401267
2100 24148 0.000483062
799 21957 5.07355e-07
72 21957 0.0144231
6657 21957 0.0132257
8001 21957 0.000480767
6462 25789 0.0470705
380 25789 5.83163e-05
437 25789 8.65814e-07
1147 25789 1.6943e-05
20779 13984 0.249318
2465 25758 0.0270604
2465 200 0.000117808
1045 550 0.00437765
1616 25757 0.0340107
358 25757 3.01148e-05
5515 25740 0.0777624
826 25740 8.5007e-06
3335 25732 0.00185664
10901 432 4.49836e-06
982 392 0.00417164
770 298 1.43357e-05
362 1763 2.48219e-05
7016 5150 0.0387904
1203 5150 2.29198e-06
55 5150 2.08768e-07
971 524 6.95372e-07
362 1752 5.75894e-06
1814 25700 0.00547226
20739 25691 0.000496485
1326 25452 1.10099e-07
507 25678 0.00426228
11384 25671 2.2379e-05
4657 2243 2.65009e-05
780 2243 0.00416459
816 25670 0.0166886
5706 35 0.0435833
4565 8608 0.000433611
209 916 0.00664548
5548 916 0.00410684
614 25646 1.4476e-07
19 25646 0.000132582
1364 25646 0.00342733
8353 646 0.000226701
2851 25641 0.00853905
49 25638 0.0554143
68 4786 2.09468e-06
2498 8040 1.26337e-07
2851 148 4.98099e-07
1317 346 0.00181129
1111 346 0.0014126
20728 343 6.98046e-06
20724 933 0.000145399
20722 689 0.00386415
20722 343 0.248143
1675 1274 0.0369421
5674 25608 0.0310815
511 25235 5.29131e-07
2911 25235 8.47393e-05
1322 25596 3.03031e-06
2704 25596 0.0387958
2042 25596 1.59433e-06
330 7253 8.78876e-07
1666 7253 0.00757759
1084 7253 0.000122716
7762 1218 0.0997601
545 3881 0.0268438
711 25585 0.00108738
1084 25585 0.00284954
3370 25584 0.000576678
1122 25584 0.00513174
513 429 0.000288029
2445 129 6.22256e-07
6961 2980 0.020641
6842 24712 0.0110339
242 181 0.000665362
182 181 0.00234931
7557 25555 2.15641e-05
588 25553 1.6894e-05
1598 5030 2.57026e-06
1618 179 6.77355e-07
8068 13891 1.73328e-05
264 25548 9.63337e-05
884 25548 8.48473e-05
331 25547 5.23997e-06
157 25547 1.40028e-05
380 414 9.53248e-06
6069 10365 2.20639e-05
1869 211 0.040922
3814 25544 1.92878e-06
3429 25544 5.39904e-07
443 4494 4.11554e-06
1309 25534 0.00533356
1309 2950 0.00393003
2742 25534 0.000208983
2742 2950 0.000153989
9194 25534 0.0059013
9194 2950 0.0358118
2120 25533 1.22604e-06
406 8720 5.42105e-06
40 8720 7.39786e-05
0 8720 5.9703e-06
3376 53 3.21903e-06
2192 53 0.000545344
1330 53 0.0265401
582 25525 1.44955e-05
1761 3784 0.000148807
3376 238 2.90852e-05
593 238 0.00016087
3416 238 2.2373e-06
387 1085 5.62982e-07
1597 25518 2.25779e-07
310 1085 0.00287434
134 1085 0.00474479
4 1085 0.00158372
6737 595 0.031035
377 25514 1.99648e-05
984 25514 0.00754673
604 1308 1.9531e-06
9521 1308 0.00486779
4997 10971 4.41657e-06
3488 10971 0.00413954
6687 10971 0.000815408
113 1519 9.63864e-07
1244 1271 4.52916e-06
6906 1271 0.00061538
1060 1254 3.21067e-07
4069 1254 0.000349703
1126 25497 5.86362e-05
109 13813 0.0116853
200 13813 6.82826e-06
1694 25488 0.000418898
2231 2611 0.020319
20683 2611 0.0103703
2461 25482 5.26773e-07
7633 1218 8.35525e-05
2374 2667 2.77192e-07
4994 25474 0.0211156
3355 583 0.00161147
5339 583 0.0380427
3246 927 0.0757408
8131 470 0.0584992
542 470 3.70669e-06
2492 2285 0.0338839
454 2285 5.45695e-06
533 2285 2.9316e-06
2712 403 5.1957e-05
53 403 0.00674299
785 27 8.54485e-05
1366 3204 0.0248603
1899 25425 7.42479e-05
107 5589 0.00344443
464 140 0.00249882
1240 27 8.16527e-05
2432 355 4.4187e-05
2109 296 1.2747e-06
2109 15304 1.87299e-07
5674 368 0.00248164
1221 25410 0.0152913
1833 126 4.8028e-06
236 7153 1.26895e-07
195 323 1.46724e-05
1623 323 1.84046e-07
2294 4156 0.0214711
5601 428 0.000405593
2326 16185 0.000165219
1631 428 3.63246e-07
2037 428 1.37701e-05
2037 2036 2.97587e-06
3790 2378 0.00103834
1059 893 3.58078e-06
1031 25375 0.0018744
16 25375 2.37553e-07
6958 25373 0.00205185
3227 25373 4.49368e-06
4970 13747 9.03735e-05
2189 22672 2.64467e-05
769 22672 0.00013462
4456 5170 0.0199338
44 25369 3.45124e-05
1034 25361 4.09879e-07
137 25596 5.19488e-07
4742 8518 3.20604e-05
2234 25357 0.0233474
13695 531 1.72705e-05
85 531 0.00233424
2207 25341 0.0154315
6924 6359 0.0144348
6587 2245 3.73331e-05
3931 4185 0.00547371
2390 4185 0.0572534
468 4185 2.18436e-06
399 4185 1.59795e-07
2498 930 2.92567e-07
16569 25319 1.6743e-06
33 25318 0.000161842
20602 343 0.00102833
2421 150 6.84348e-07
562 25316 0.0122514
5126 8051 6.47973e-07
1231 97 2.4326e-07
538 148 6.73424e-06
2298 148 0.00299958
20598 148 0.0112442
183 25304 0.00094781
172 25304 5.04461e-05
20592 643 0.00188055
1030 25294 0.0188489
20590 25297 6.84157e-06
11763 541 0.142566
3370 24942 0.00201015
17263 17 0.166867
2487 7064 5.69058e-05
2231 905 0.0153192
1368 2013 0.000184445
4737 2013 3.16781e-05
4912 416 8.13371e-05
6620 23 0.00290966
1683 5857 0.000422001
1719 5857 2.30299e-06
736 5857 1.4955e-06
1063 14961 5.76154e-07
1063 5857 0.000509178
293 25266 0.00018022
1283 15249 0.000939559
26 15249 0.000164945
504 15249 0.000588055
8938 893 0.057698
198 2405 7.9505e-05
565 3932 0.000198111
2302 1283 0.000824185
2534 1283 0.00202174
7280 32 0.000185121
3315 23 0.000585954
31 3562 2.64149e-05
37 3562 7.96673e-06
2008 3562 1.10037e-05
3208 25224 5.13723e-06
2760 25222 0.0538758
143 25222 1.8105e-05
143 6230 3.79112e-05
236 25222 1.72826e-05
1060 428 0.000331391
680 428 0.00216469
4058 428 0.0171153
3908 25211 0.000249456
2858 74 7.09031e-05
847 25206 8.85472e-06
992 355 2.48375e-06
646 27 2.95947e-05
2754 3779 0.0342671
790 25193 6.54404e-05
268 4177 2.47469e-05
1683 4177 0.0195092
1060 4177 3.20294e-05
1025 717 1.30491e-05
537 717 2.23826e-07
2671 3109 6.92685e-05
2671 25179 0.00288091
28 25179 1.80225e-06
604 25179 0.00677116
20548 25171 0.0158831
173 807 0.00547572
1928 690 4.45012e-06
698 2403 5.5952e-05
1701 690 0.000767099
1185 25155 5.80236e-06
1020 25153 0.000608562
638 25153 0.00680328
6909 196 0.00334539
99 874 0.000195853
1758 874 1.89899e-06
2568 451 0.000513095
2837 451 0.0229668
3420 451 7.77878e-07
2630 451 9.86015e-06
10157 989 0.156396
1701 74 0.000282495
200 74 1.26467e-07
454 3301 1.42644e-06
4211 18913 2.44186e-06
4211 3301 0.0119774
4518 3301 5.75816e-06
236 4226 2.31376e-07
4048 4226 0.0254735
4048 12529 0.00273008
343 4226 1.60226e-06
5373 25131 7.23035e-05
8823 25131 0.0033833
195 8 0.00386337
5373 1469 0.0100672
5022 25123 0.000959924
3655 4504 7.95984e-05
3250 4504 9.39499e-05
1060 25113 3.74821e-06
2928 148 0.000412849
4856 148 0.0248468
1029 1092 0.000232252
46 1092 3.90335e-05
791 25102 5.3729e-07
304 11 7.74465e-07
3016 11 8.76817e-07
718 220 6.69813e-06
1791 428 4.45627e-05
21 32 1.29785e-05
4759 32 7.30517e-06
1326 428 3.7774e-07
4544 2154 0.00241234
594 15947 1.67435e-06
3823 15947 0.000626192
8823 25077 2.68986e-06
246 12780 1.356e-06
1185 428 4.20098e-06
6263 428 1.34349e-05
5569 428 0.0878871
14730 428 2.40072e-06
3744 799 3.8343e-06
5544 1870 0.0608119
105 25058 1.1742e-06
2027 12295 7.33304e-06
1020 25049 3.5814e-06
895 16683 2.78099e-07
278 25043 9.48386e-06
6117 25032 4.72862e-05
3703 25032 1.99516e-05
1969 25032 1.47462e-05
5541 1593 0.0175442
2722 1593 1.46903e-05
5553 122 0.00017155
4937 271 1.34176e-06
4937 23275 0.0777457
1283 23275 5.32446e-05
2479 23275 1.40706e-05
5101 3 1.3559e-06
713 25017 8.16445e-06
346 25017 3.61224e-07
7754 25015 0.000183731
11381 537 0.0107163
5189 292 0.00118023
