1 1 100 1 1
1 2 100 1 1
1 3 100 1 1
1 4 100 1 1
1 5 100 1 1
1 6 100 1 1
1 7 100 1 1
1 8 100 1 1
1 9 100 1 1
1 10 100 1 1
1 11 100 1 1
1 12 100 1 1
1 14 100 1 1
1 17 100 1 1
1 19 100 1 1
1 0 100 2 0.972888
2 0 100 2 0.0271118
1 1 100 2 0.866031
2 1 100 2 0.133969
1 2 100 2 0.0321964
2 2 100 2 0.967804
1 3 100 2 0.063792
2 3 100 2 0.936208
1 4 100 2 0.0784772
2 4 100 2 0.921523
1 5 100 2 0.148379
2 5 100 2 0.851621
1 6 100 2 0.00823752
2 6 100 2 0.991762
1 7 100 2 0.387038
2 7 100 2 0.612961
1 8 100 2 0.224433
2 8 100 2 0.775567
1 9 100 2 0.425991
2 9 100 2 0.574009
1 10 100 2 0.00773493
2 10 100 2 0.992265
1 11 100 2 0.046301
2 11 100 2 0.953699
1 12 100 2 3.92102e-05
2 12 100 2 0.999961
1 14 100 2 0.0543137
2 14 100 2 0.945686
1 15 100 2 0.135156
2 15 100 2 0.864844
1 16 100 2 0.000650281
2 16 100 2 0.99935
1 17 100 2 8.61448e-06
2 17 100 2 0.999991
1 21 100 2 0.917042
2 21 100 2 0.0829584
1 36 100 2 1
1 37 100 2 1
1 41 100 2 1
1 44 100 2 1
2 46 100 2 1
1 47 100 2 1
1 0 100 3 0.616608
2 0 100 3 0.356792
3 0 100 3 0.0265993
1 1 100 3 0.644216
2 1 100 3 0.24973
3 1 100 3 0.106054
1 2 100 3 0.0303307
2 2 100 3 0.625326
3 2 100 3 0.344343
1 3 100 3 0.0237055
2 3 100 3 0.137639
3 3 100 3 0.838655
1 4 100 3 0.0293781
2 4 100 3 0.182286
3 4 100 3 0.788336
1 5 100 3 0.0701792
2 5 100 3 0.226281
3 5 100 3 0.70354
1 6 100 3 0.146299
2 6 100 3 0.123771
3 6 100 3 0.72993
1 7 100 3 0.127176
2 7 100 3 0.260299
3 7 100 3 0.612526
1 8 100 3 0.126005
2 8 100 3 0.506996
3 8 100 3 0.366999
1 9 100 3 0.00383383
2 9 100 3 0.0683404
3 9 100 3 0.927826
1 10 100 3 0.100283
2 10 100 3 0.37335
3 10 100 3 0.526368
1 11 100 3 0.000415223
2 11 100 3 0.527144
3 11 100 3 0.47244
1 12 100 3 5.6267e-05
2 12 100 3 0.013102
3 12 100 3 0.986842
1 13 100 3 0.000397228
2 13 100 3 0.998726
3 13 100 3 0.000876845
2 14 100 3 0.0216767
3 14 100 3 0.978323
2 15 100 3 1.23241e-05
3 15 100 3 0.999988
1 0 100 4 0.16172
2 0 100 4 0.44989
3 0 100 4 0.368771
4 0 100 4 0.019619
1 1 100 4 0.346679
2 1 100 4 0.228336
3 1 100 4 0.211833
4 1 100 4 0.213152
1 2 100 4 0.0268356
2 2 100 4 0.556762
3 2 100 4 0.273553
4 2 100 4 0.142849
1 3 100 4 0.0607149
2 3 100 4 0.127457
3 3 100 4 0.514264
4 3 100 4 0.297563
1 4 100 4 0.0484698
2 4 100 4 0.0905618
3 4 100 4 0.190729
4 4 100 4 0.670239
1 5 100 4 0.0647519
2 5 100 4 0.142872
3 5 100 4 0.161015
4 5 100 4 0.631361
1 6 100 4 0.0174407
2 6 100 4 0.0927602
3 6 100 4 0.213477
4 6 100 4 0.676322
1 7 100 4 0.0640434
2 7 100 4 0.116096
3 7 100 4 0.310763
4 7 100 4 0.509098
1 8 100 4 0.00534707
2 8 100 4 0.0992809
3 8 100 4 0.00500468
4 8 100 4 0.890367
1 9 100 4 0.225476
2 9 100 4 0.325918
3 9 100 4 0.245728
4 9 100 4 0.202878
1 10 100 4 6.22769e-05
2 10 100 4 3.97527e-06
3 10 100 4 0.170344
4 10 100 4 0.829589
1 11 100 4 0.213614
2 11 100 4 0.207264
3 11 100 4 0.160959
4 11 100 4 0.418163
1 12 100 4 0.0130466
2 12 100 4 0.250755
3 12 100 4 0.0203529
4 12 100 4 0.715846
1 13 100 4 0.00030939
2 13 100 4 1.82121e-05
3 13 100 4 0.451069
4 13 100 4 0.548603
2 14 100 4 0.335428
3 14 100 4 0.329204
4 14 100 4 0.335368
2 15 100 4 0.134389
3 15 100 4 0.451227
4 15 100 4 0.414384
2 16 100 4 1
2 20 100 4 1
1 21 100 4 0.999966
3 21 100 4 3.36947e-05
1 22 100 4 0.238692
2 22 100 4 2.99256e-06
3 22 100 4 0.38069
4 22 100 4 0.380615
2 23 100 4 0.904511
4 23 100 4 0.0954892
1 0 100 5 0.12791
2 0 100 5 0.232246
3 0 100 5 0.373709
4 0 100 5 0.258615
5 0 100 5 0.00751995
1 1 100 5 0.687171
2 1 100 5 0.174229
3 1 100 5 0.0533774
4 1 100 5 0.0464849
5 1 100 5 0.0387377
1 2 100 5 0.034274
2 2 100 5 0.490138
3 2 100 5 0.269093
4 2 100 5 0.123557
5 2 100 5 0.0829381
1 3 100 5 0.0227539
2 3 100 5 0.166007
3 3 100 5 0.392442
4 3 100 5 0.258578
5 3 100 5 0.16022
1 4 100 5 0.036195
2 4 100 5 0.0536019
3 4 100 5 0.190876
4 4 100 5 0.454399
5 4 100 5 0.264928
1 5 100 5 0.0217419
2 5 100 5 0.0387971
3 5 100 5 0.075916
4 5 100 5 0.316538
5 5 100 5 0.547007
1 6 100 5 0.0249747
2 6 100 5 0.058582
3 6 100 5 0.0629037
4 6 100 5 0.0823685
5 6 100 5 0.771171
1 7 100 5 0.0653407
2 7 100 5 0.0682248
3 7 100 5 0.155685
4 7 100 5 0.135945
5 7 100 5 0.574804
1 8 100 5 0.0271027
2 8 100 5 0.124855
3 8 100 5 0.222425
4 8 100 5 0.199749
5 8 100 5 0.425867
1 9 100 5 0.0249549
2 9 100 5 0.00317731
3 9 100 5 0.0721159
4 9 100 5 0.151288
5 9 100 5 0.748464
1 10 100 5 2.94944e-07
2 10 100 5 4.45018e-05
3 10 100 5 0.0120649
4 10 100 5 0.00424106
5 10 100 5 0.983649
2 11 100 5 0.221768
3 11 100 5 0.315464
4 11 100 5 0.459466
5 11 100 5 0.00330285
3 12 100 5 0.00424161
4 12 100 5 0.270397
5 12 100 5 0.725361
1 13 100 5 0.000454536
2 13 100 5 0.0142633
3 13 100 5 0.00313535
4 13 100 5 0.0015478
5 13 100 5 0.980599
1 14 100 5 0.147159
2 14 100 5 3.26078e-05
3 14 100 5 0.00142814
4 14 100 5 0.000127519
5 14 100 5 0.851253
2 15 100 5 0.999923
4 15 100 5 9.27824e-06
5 15 100 5 6.73338e-05
3 16 100 5 1
1 17 100 5 3.47175e-06
3 17 100 5 5.06631e-05
4 17 100 5 7.93076e-06
5 17 100 5 0.999938
1 19 100 5 0.000811047
2 19 100 5 0.132848
3 19 100 5 0.393926
4 19 100 5 0.275072
5 19 100 5 0.197343
1 21 100 5 0.000284031
2 21 100 5 0.998367
3 21 100 5 0.000229098
5 21 100 5 0.00112027
2 23 100 5 0.24381
3 23 100 5 0.252064
4 23 100 5 0.252065
5 23 100 5 0.252061
1 0 100 6 0.0943171
2 0 100 6 0.180724
3 0 100 6 0.243297
4 0 100 6 0.249835
5 0 100 6 0.226276
6 0 100 6 0.00555074
1 1 100 6 0.632876
2 1 100 6 0.245441
3 1 100 6 0.0417193
4 1 100 6 0.0274354
5 1 100 6 0.0293429
6 1 100 6 0.0231859
1 2 100 6 0.0355938
2 2 100 6 0.391834
3 2 100 6 0.365178
4 2 100 6 0.10454
5 2 100 6 0.0571008
6 2 100 6 0.045753
1 3 100 6 0.0114714
2 3 100 6 0.114032
3 3 100 6 0.252302
4 3 100 6 0.366776
5 3 100 6 0.143356
6 3 100 6 0.112063
1 4 100 6 0.0100753
2 4 100 6 0.0456151
3 4 100 6 0.176143
4 4 100 6 0.301119
5 4 100 6 0.279603
6 4 100 6 0.187444
1 5 100 6 0.028207
2 5 100 6 0.0281261
3 5 100 6 0.0746379
4 5 100 6 0.168144
5 5 100 6 0.465985
6 5 100 6 0.2349
1 6 100 6 0.013563
2 6 100 6 0.0454962
3 6 100 6 0.0519416
4 6 100 6 0.0841722
5 6 100 6 0.181732
6 6 100 6 0.623095
1 7 100 6 0.0151062
2 7 100 6 0.0458313
3 7 100 6 0.120277
4 7 100 6 0.0913315
5 7 100 6 0.147525
6 7 100 6 0.579929
1 8 100 6 0.0250836
2 8 100 6 0.0601312
3 8 100 6 0.128136
4 8 100 6 0.117669
5 8 100 6 0.17887
6 8 100 6 0.490109
1 9 100 6 0.0790015
2 9 100 6 0.0258667
3 9 100 6 0.142235
4 9 100 6 0.187057
5 9 100 6 0.239884
6 9 100 6 0.325956
1 10 100 6 0.0307826
2 10 100 6 0.134356
3 10 100 6 0.175095
4 10 100 6 0.120316
5 10 100 6 0.123776
6 10 100 6 0.415674
1 11 100 6 5.24609e-05
2 11 100 6 0.146026
3 11 100 6 0.167522
4 11 100 6 0.000356562
5 11 100 6 0.150012
6 11 100 6 0.536031
1 12 100 6 7.51033e-05
2 12 100 6 0.0010365
3 12 100 6 0.267059
4 12 100 6 0.538754
5 12 100 6 0.000953842
6 12 100 6 0.192121
2 13 100 6 0.000114273
3 13 100 6 0.000220042
4 13 100 6 0.304379
5 13 100 6 0.32496
6 13 100 6 0.370327
2 14 100 6 0.00137106
3 14 100 6 0.0130073
4 14 100 6 0.145759
5 14 100 6 0.00251998
6 14 100 6 0.837343
2 15 100 6 0.0144286
4 15 100 6 0.985571
3 16 100 6 0.000153375
5 16 100 6 0.999847
3 17 100 6 0.000922417
4 17 100 6 0.500051
5 17 100 6 3.39502e-05
6 17 100 6 0.498992
2 18 100 6 0.000128754
3 18 100 6 8.97098e-06
4 18 100 6 0.182649
5 18 100 6 0.328175
6 18 100 6 0.489038
6 20 100 6 1
5 21 100 6 0.975549
6 21 100 6 0.0244506
6 22 100 6 1
6 23 100 6 1
1 0 100 7 0.111826
2 0 100 7 0.116293
3 0 100 7 0.193011
4 0 100 7 0.155461
5 0 100 7 0.226486
6 0 100 7 0.186913
7 0 100 7 0.0100088
1 1 100 7 0.622024
2 1 100 7 0.163803
3 1 100 7 0.063044
4 1 100 7 0.0474313
5 1 100 7 0.0405906
6 1 100 7 0.0292979
7 1 100 7 0.0338089
1 2 100 7 0.0413952
2 2 100 7 0.432256
3 2 100 7 0.216142
4 2 100 7 0.126917
5 2 100 7 0.0814367
6 2 100 7 0.0629586
7 2 100 7 0.0388954
1 3 100 7 0.0230355
2 3 100 7 0.146831
3 3 100 7 0.271678
4 3 100 7 0.16798
5 3 100 7 0.144706
6 3 100 7 0.116429
7 3 100 7 0.12934
1 4 100 7 0.011499
2 4 100 7 0.0506565
3 4 100 7 0.1764
4 4 100 7 0.2726
5 4 100 7 0.168834
6 4 100 7 0.155784
7 4 100 7 0.164227
1 5 100 7 0.0138206
2 5 100 7 0.0530067
3 5 100 7 0.0862302
4 5 100 7 0.207514
5 5 100 7 0.264925
6 5 100 7 0.200769
7 5 100 7 0.173735
1 6 100 7 0.0206143
2 6 100 7 0.047564
3 6 100 7 0.0631122
4 6 100 7 0.102019
5 6 100 7 0.200761
6 6 100 7 0.303644
7 6 100 7 0.262286
1 7 100 7 0.015917
2 7 100 7 0.0437423
3 7 100 7 0.0717874
4 7 100 7 0.103343
5 7 100 7 0.118081
6 7 100 7 0.259201
7 7 100 7 0.387928
1 8 100 7 0.0163681
2 8 100 7 0.0388021
3 8 100 7 0.0905037
4 8 100 7 0.110419
5 8 100 7 0.100931
6 8 100 7 0.135885
7 8 100 7 0.507091
1 9 100 7 0.023175
2 9 100 7 0.0885471
3 9 100 7 0.0920765
4 9 100 7 0.111119
5 9 100 7 0.137625
6 9 100 7 0.217129
7 9 100 7 0.330329
1 10 100 7 0.0164815
2 10 100 7 0.0699354
3 10 100 7 0.0830674
4 10 100 7 0.196638
5 10 100 7 0.0999601
6 10 100 7 0.161114
7 10 100 7 0.372803
1 11 100 7 0.0038215
2 11 100 7 0.079022
3 11 100 7 0.0104555
4 11 100 7 0.0829155
5 11 100 7 0.172373
6 11 100 7 0.186736
7 11 100 7 0.464677
1 12 100 7 0.0157194
2 12 100 7 0.156634
3 12 100 7 0.384177
4 12 100 7 0.0632052
5 12 100 7 0.000574684
6 12 100 7 0.170963
7 12 100 7 0.208727
1 13 100 7 0.114964
2 13 100 7 5.92476e-05
3 13 100 7 0.111545
4 13 100 7 0.133655
5 13 100 7 0.110311
6 13 100 7 0.123279
7 13 100 7 0.406187
1 14 100 7 2.6673e-05
2 14 100 7 0.172579
3 14 100 7 6.45814e-05
4 14 100 7 1.39143e-06
5 14 100 7 0.00328158
6 14 100 7 0.400369
7 14 100 7 0.423677
1 15 100 7 0.245769
2 15 100 7 0.233788
3 15 100 7 0.245407
4 15 100 7 0.254092
5 15 100 7 0.0209337
7 15 100 7 1.01031e-05
1 16 100 7 0.000408236
2 16 100 7 0.00238174
3 16 100 7 0.20883
4 16 100 7 0.000220078
5 16 100 7 1.88794e-05
6 16 100 7 0.788141
2 17 100 7 0.000698711
3 17 100 7 0.000207196
4 17 100 7 0.274341
5 17 100 7 0.274315
6 17 100 7 1.11186e-05
7 17 100 7 0.450427
2 18 100 7 0.00155813
3 18 100 7 0.000357155
6 18 100 7 0.998085
1 19 100 7 0.999831
2 19 100 7 4.26576e-05
3 19 100 7 6.79032e-05
4 19 100 7 7.82352e-06
6 19 100 7 5.04113e-05
2 20 100 7 0.0548659
3 20 100 7 0.119117
6 20 100 7 0.826017
2 21 100 7 0.999995
3 21 100 7 2.61969e-06
7 21 100 7 1.91504e-06
3 24 100 7 2.09972e-05
6 24 100 7 0.999979
3 26 100 7 1
5 27 100 7 1
6 29 100 7 1
1 0 100 8 0.0828849
2 0 100 8 0.104878
3 0 100 8 0.188273
4 0 100 8 0.126821
5 0 100 8 0.16106
6 0 100 8 0.171689
7 0 100 8 0.162157
8 0 100 8 0.00223738
1 1 100 8 0.594269
2 1 100 8 0.172123
3 1 100 8 0.0674445
4 1 100 8 0.0445872
5 1 100 8 0.0350279
6 1 100 8 0.0309168
7 1 100 8 0.0287309
8 1 100 8 0.026901
1 2 100 8 0.0604608
2 2 100 8 0.41038
3 2 100 8 0.2138
4 2 100 8 0.0893368
5 2 100 8 0.0707212
6 2 100 8 0.0619473
7 2 100 8 0.0541972
8 2 100 8 0.039156
1 3 100 8 0.0233864
2 3 100 8 0.158425
3 3 100 8 0.243608
4 3 100 8 0.198004
5 3 100 8 0.120433
6 3 100 8 0.0863647
7 3 100 8 0.0712197
8 3 100 8 0.09856
1 4 100 8 0.0166933
2 4 100 8 0.0388185
3 4 100 8 0.164145
4 4 100 8 0.254076
5 4 100 8 0.184295
6 4 100 8 0.118772
7 4 100 8 0.107579
8 4 100 8 0.115622
1 5 100 8 0.0132303
2 5 100 8 0.0278756
3 5 100 8 0.0576606
4 5 100 8 0.184607
5 5 100 8 0.219478
6 5 100 8 0.203348
7 5 100 8 0.150747
8 5 100 8 0.143054
1 6 100 8 0.00893749
2 6 100 8 0.030869
3 6 100 8 0.0432362
4 6 100 8 0.0985666
5 6 100 8 0.201343
6 6 100 8 0.232297
7 6 100 8 0.204565
8 6 100 8 0.180186
1 7 100 8 0.0180886
2 7 100 8 0.0296383
3 7 100 8 0.0491734
4 7 100 8 0.0750298
5 7 100 8 0.100924
6 7 100 8 0.228973
7 7 100 8 0.226401
8 7 100 8 0.271772
1 8 100 8 0.0163589
2 8 100 8 0.0426117
3 8 100 8 0.0441451
4 8 100 8 0.0715599
5 8 100 8 0.0746291
6 8 100 8 0.105227
7 8 100 8 0.318434
8 8 100 8 0.327034
1 9 100 8 0.00383956
2 9 100 8 0.0125395
3 9 100 8 0.0490459
4 9 100 8 0.0813357
5 9 100 8 0.0978234
6 9 100 8 0.0785971
7 9 100 8 0.133587
8 9 100 8 0.543232
1 10 100 8 0.0331325
2 10 100 8 0.0152682
3 10 100 8 0.0558421
4 10 100 8 0.07157
5 10 100 8 0.134741
6 10 100 8 0.10672
7 10 100 8 0.203009
8 10 100 8 0.379717
1 11 100 8 0.069836
2 11 100 8 0.0348399
3 11 100 8 0.000157074
4 11 100 8 0.0843743
5 11 100 8 0.0684775
6 11 100 8 0.144352
7 11 100 8 0.216062
8 11 100 8 0.381901
1 12 100 8 0.000155858
2 12 100 8 0.0479822
3 12 100 8 0.107735
4 12 100 8 0.00447916
5 12 100 8 0.107433
6 12 100 8 0.139028
7 12 100 8 0.0745782
8 12 100 8 0.51861
1 13 100 8 0.0705729
2 13 100 8 0.0571807
3 13 100 8 0.187693
4 13 100 8 0.0421068
5 13 100 8 0.0581587
6 13 100 8 0.119396
7 13 100 8 0.103826
8 13 100 8 0.361065
1 14 100 8 0.000954081
2 14 100 8 0.000195907
3 14 100 8 0.000151015
4 14 100 8 0.992372
5 14 100 8 0.000110975
6 14 100 8 0.00612508
7 14 100 8 9.06601e-05
2 15 100 8 7.80817e-06
3 15 100 8 0.000437686
4 15 100 8 6.59974e-05
6 15 100 8 0.496495
7 15 100 8 0.498533
8 15 100 8 0.00446074
1 16 100 8 3.48425e-06
2 16 100 8 1.24536e-06
4 16 100 8 4.17794e-05
5 16 100 8 0.00874471
7 16 100 8 3.15109e-06
8 16 100 8 0.991206
4 18 100 8 1
1 0 100 9 0.0798793
2 0 100 9 0.0803953
3 0 100 9 0.151844
4 0 100 9 0.116139
5 0 100 9 0.131928
6 0 100 9 0.156866
7 0 100 9 0.154229
8 0 100 9 0.124971
9 0 100 9 0.00374786
1 1 100 9 0.585819
2 1 100 9 0.17367
3 1 100 9 0.0614596
4 1 100 9 0.050291
5 1 100 9 0.0334502
6 1 100 9 0.0235603
7 1 100 9 0.0244451
8 1 100 9 0.0237616
9 1 100 9 0.0235432
1 2 100 9 0.0436531
2 2 100 9 0.43959
3 2 100 9 0.206594
4 2 100 9 0.098155
5 2 100 9 0.0640195
6 2 100 9 0.0454961
7 2 100 9 0.0513068
8 2 100 9 0.025776
9 2 100 9 0.0254098
1 3 100 9 0.0191865
2 3 100 9 0.132011
3 3 100 9 0.240975
4 3 100 9 0.193453
5 3 100 9 0.115479
6 3 100 9 0.0838433
7 3 100 9 0.0884292
8 3 100 9 0.0801243
9 3 100 9 0.046499
1 4 100 9 0.0121368
2 4 100 9 0.0348223
3 4 100 9 0.149151
4 4 100 9 0.191762
5 4 100 9 0.164131
6 4 100 9 0.133158
7 4 100 9 0.0930211
8 4 100 9 0.0997102
9 4 100 9 0.122107
1 5 100 9 0.0139646
2 5 100 9 0.0427872
3 5 100 9 0.0555174
4 5 100 9 0.150178
5 5 100 9 0.184389
6 5 100 9 0.158813
7 5 100 9 0.132908
8 5 100 9 0.129972
9 5 100 9 0.131471
1 6 100 9 0.00965009
2 6 100 9 0.0304279
3 6 100 9 0.0633497
4 6 100 9 0.0826746
5 6 100 9 0.160751
6 6 100 9 0.18571
7 6 100 9 0.161866
8 6 100 9 0.139702
9 6 100 9 0.165869
1 7 100 9 0.00957556
2 7 100 9 0.0247973
3 7 100 9 0.0514814
4 7 100 9 0.0922272
5 7 100 9 0.105843
6 7 100 9 0.178119
7 7 100 9 0.180521
8 7 100 9 0.180841
9 7 100 9 0.176594
1 8 100 9 0.0082219
2 8 100 9 0.0295251
3 8 100 9 0.0455123
4 8 100 9 0.082685
5 8 100 9 0.0947219
6 8 100 9 0.100467
7 8 100 9 0.210716
8 8 100 9 0.212097
9 8 100 9 0.216054
1 9 100 9 0.00622843
2 9 100 9 0.0119429
3 9 100 9 0.0370089
4 9 100 9 0.0716199
5 9 100 9 0.109378
6 9 100 9 0.0825919
7 9 100 9 0.106306
8 9 100 9 0.24132
9 9 100 9 0.333604
1 10 100 9 0.000234311
2 10 100 9 0.0456217
3 10 100 9 0.0279714
4 10 100 9 0.0288867
5 10 100 9 0.0492126
6 10 100 9 0.105679
7 10 100 9 0.0823329
8 10 100 9 0.181358
9 10 100 9 0.478703
1 11 100 9 2.7121e-05
2 11 100 9 0.0523969
3 11 100 9 0.0378306
4 11 100 9 0.0989983
5 11 100 9 0.0914985
6 11 100 9 0.0522594
7 11 100 9 0.0992124
8 11 100 9 0.112281
9 11 100 9 0.455495
1 12 100 9 0.00197176
2 12 100 9 0.0343731
3 12 100 9 0.0932534
4 12 100 9 0.0961132
5 12 100 9 0.0879237
6 12 100 9 0.159432
7 12 100 9 0.0837564
8 12 100 9 0.182864
9 12 100 9 0.260313
1 13 100 9 0.000314543
2 13 100 9 9.1099e-05
3 13 100 9 0.127628
4 13 100 9 0.00213427
5 13 100 9 0.0602046
6 13 100 9 0.0989063
7 13 100 9 0.000209751
8 13 100 9 0.00766802
9 13 100 9 0.702844
1 14 100 9 7.3196e-05
2 14 100 9 0.137022
3 14 100 9 0.131817
4 14 100 9 0.000859531
5 14 100 9 0.143977
6 14 100 9 0.137239
7 14 100 9 0.274072
8 14 100 9 0.149803
9 14 100 9 0.0251386
3 15 100 9 2.84459e-06
6 15 100 9 0.0156392
7 15 100 9 0.258157
8 15 100 9 0.158103
9 15 100 9 0.568098
2 16 100 9 8.57458e-06
3 16 100 9 1.61716e-05
6 16 100 9 0.499979
7 16 100 9 1.67962e-05
8 16 100 9 0.49998
3 17 100 9 6.34684e-06
4 17 100 9 2.43981e-06
6 17 100 9 5.46992e-07
7 17 100 9 0.631089
8 17 100 9 0.102051
9 17 100 9 0.266851
7 18 100 9 1.58774e-05
8 18 100 9 0.997456
9 18 100 9 0.00252775
4 20 100 9 0.00637953
9 20 100 9 0.99362
1 0 100 10 0.0708165
2 0 100 10 0.0793592
3 0 100 10 0.125202
4 0 100 10 0.0896914
5 0 100 10 0.138029
6 0 100 10 0.1311
7 0 100 10 0.110889
8 0 100 10 0.151753
9 0 100 10 0.100271
10 0 100 10 0.00288884
1 1 100 10 0.566629
2 1 100 10 0.188809
3 1 100 10 0.0564682
4 1 100 10 0.0660641
5 1 100 10 0.0268752
6 1 100 10 0.0301233
7 1 100 10 0.025167
8 1 100 10 0.0196278
9 1 100 10 0.0103895
10 1 100 10 0.00984699
1 2 100 10 0.0269225
2 2 100 10 0.4002
3 2 100 10 0.226852
4 2 100 10 0.104884
5 2 100 10 0.0532117
6 2 100 10 0.0496429
7 2 100 10 0.0570223
8 2 100 10 0.0245364
9 2 100 10 0.0254294
10 2 100 10 0.0312987
1 3 100 10 0.0175475
2 3 100 10 0.111256
3 3 100 10 0.255902
4 3 100 10 0.188882
5 3 100 10 0.0980479
6 3 100 10 0.0746505
7 3 100 10 0.0714461
8 3 100 10 0.0798189
9 3 100 10 0.0512441
10 3 100 10 0.0512047
1 4 100 10 0.0156408
2 4 100 10 0.0396697
3 4 100 10 0.117607
4 4 100 10 0.202746
5 4 100 10 0.154541
6 4 100 10 0.108825
7 4 100 10 0.0949831
8 4 100 10 0.0934133
9 4 100 10 0.0953647
10 4 100 10 0.0772096
1 5 100 10 0.0140401
2 5 100 10 0.0309804
3 5 100 10 0.0482888
4 5 100 10 0.119635
5 5 100 10 0.203628
6 5 100 10 0.135377
7 5 100 10 0.125339
8 5 100 10 0.106005
9 5 100 10 0.120166
10 5 100 10 0.0965408
1 6 100 10 0.0166492
2 6 100 10 0.0206245
3 6 100 10 0.0483583
4 6 100 10 0.0744948
5 6 100 10 0.123951
6 6 100 10 0.176504
7 6 100 10 0.156241
8 6 100 10 0.103622
9 6 100 10 0.132341
10 6 100 10 0.147213
1 7 100 10 0.00942547
2 7 100 10 0.023482
3 7 100 10 0.0310619
4 7 100 10 0.0640629
5 7 100 10 0.0688917
6 7 100 10 0.163336
7 7 100 10 0.172719
8 7 100 10 0.15022
9 7 100 10 0.150049
10 7 100 10 0.166752
1 8 100 10 0.018331
2 8 100 10 0.0329441
3 8 100 10 0.0401289
4 8 100 10 0.0652184
5 8 100 10 0.0780455
6 8 100 10 0.0945206
7 8 100 10 0.162947
8 8 100 10 0.174545
9 8 100 10 0.138006
10 8 100 10 0.195313
1 9 100 10 0.00755862
2 9 100 10 0.0236112
3 9 100 10 0.0477939
4 9 100 10 0.03576
5 9 100 10 0.0753176
6 9 100 10 0.0713053
7 9 100 10 0.0978353
8 9 100 10 0.195522
9 9 100 10 0.238047
10 9 100 10 0.207249
1 10 100 10 0.00254202
2 10 100 10 0.0171246
3 10 100 10 0.0292184
4 10 100 10 0.0495177
5 10 100 10 0.0783647
6 10 100 10 0.0634097
7 10 100 10 0.0751614
8 10 100 10 0.087921
9 10 100 10 0.251564
10 10 100 10 0.345177
1 11 100 10 0.00431989
2 11 100 10 0.00900962
3 11 100 10 0.0305547
4 11 100 10 0.0383633
5 11 100 10 0.0550398
6 11 100 10 0.0947441
7 11 100 10 0.109696
8 11 100 10 0.0780854
9 11 100 10 0.137638
10 11 100 10 0.442549
1 12 100 10 0.0235023
2 12 100 10 0.0490895
3 12 100 10 0.045209
4 12 100 10 0.0802496
5 12 100 10 0.0628052
6 12 100 10 0.0664566
7 12 100 10 0.0468084
8 12 100 10 0.139936
9 12 100 10 0.131703
10 12 100 10 0.35424
1 13 100 10 0.0331632
2 13 100 10 0.0708936
3 13 100 10 0.0288193
4 13 100 10 0.100492
5 13 100 10 0.133226
6 13 100 10 0.0250969
7 13 100 10 0.0691812
8 13 100 10 0.0320573
9 13 100 10 0.184323
10 13 100 10 0.322748
1 14 100 10 9.65921e-05
2 14 100 10 0.0354807
3 14 100 10 1.80118e-05
4 14 100 10 0.000338227
5 14 100 10 0.0740545
6 14 100 10 0.181431
7 14 100 10 0.18598
8 14 100 10 0.0264204
9 14 100 10 0.0523621
10 14 100 10 0.443819
1 15 100 10 0.0356507
2 15 100 10 0.00584486
3 15 100 10 0.0915257
4 15 100 10 0.129837
5 15 100 10 0.135935
6 15 100 10 0.0524491
7 15 100 10 0.180497
8 15 100 10 0.0912483
9 15 100 10 0.0928279
10 15 100 10 0.184184
1 16 100 10 5.0066e-05
2 16 100 10 0.0920452
3 16 100 10 0.0226946
4 16 100 10 0.0020451
6 16 100 10 9.76276e-06
7 16 100 10 0.199152
8 16 100 10 0.0949829
9 16 100 10 0.320839
10 16 100 10 0.268181
1 17 100 10 7.33181e-05
2 17 100 10 0.00102185
3 17 100 10 3.2006e-06
4 17 100 10 0.00177263
5 17 100 10 1.48189e-05
6 17 100 10 3.9836e-05
7 17 100 10 0.000482092
8 17 100 10 0.342352
9 17 100 10 0.327635
10 17 100 10 0.326605
1 18 100 10 3.3306e-06
2 18 100 10 5.75857e-05
4 18 100 10 0.413421
5 18 100 10 0.000145659
7 18 100 10 0.000233581
8 18 100 10 2.18693e-05
9 18 100 10 0.119027
10 18 100 10 0.467089
5 19 100 10 0.000165491
8 19 100 10 0.991368
9 19 100 10 5.43185e-05
10 19 100 10 0.00841231
9 20 100 10 1
1 22 100 10 1.53493e-06
3 22 100 10 0.999993
9 22 100 10 5.21799e-06
8 23 100 10 0.910507
9 23 100 10 0.0894928
2 24 100 10 2.78197e-06
3 24 100 10 0.0200143
4 24 100 10 0.0620136
5 24 100 10 0.223937
6 24 100 10 0.224247
7 24 100 10 0.222903
8 24 100 10 8.75832e-07
9 24 100 10 0.0226345
10 24 100 10 0.224247
1 0 100 11 0.077758
2 0 100 11 0.0737514
3 0 100 11 0.0938854
4 0 100 11 0.0999538
5 0 100 11 0.1038
6 0 100 11 0.10576
7 0 100 11 0.103902
8 0 100 11 0.112028
9 0 100 11 0.120278
10 0 100 11 0.107143
11 0 100 11 0.00173973
1 1 100 11 0.557068
2 1 100 11 0.179839
3 1 100 11 0.0457004
4 1 100 11 0.0379636
5 1 100 11 0.0390458
6 1 100 11 0.0357813
7 1 100 11 0.0305305
8 1 100 11 0.0278315
9 1 100 11 0.0205302
10 1 100 11 0.0136187
11 1 100 11 0.0120912
1 2 100 11 0.0239024
2 2 100 11 0.375334
3 2 100 11 0.247346
4 2 100 11 0.105319
5 2 100 11 0.0499586
6 2 100 11 0.0434382
7 2 100 11 0.0376263
8 2 100 11 0.0337997
9 2 100 11 0.0314969
10 2 100 11 0.029781
11 2 100 11 0.0219976
1 3 100 11 0.0172905
2 3 100 11 0.0865837
3 3 100 11 0.252328
4 3 100 11 0.205848
5 3 100 11 0.127269
6 3 100 11 0.06736
7 3 100 11 0.061611
8 3 100 11 0.0514208
9 3 100 11 0.0416967
10 3 100 11 0.0488563
11 3 100 11 0.0397352
1 4 100 11 0.00748197
2 4 100 11 0.0429553
3 4 100 11 0.100458
4 4 100 11 0.198763
5 4 100 11 0.170586
6 4 100 11 0.125332
7 4 100 11 0.0835076
8 4 100 11 0.0548349
9 4 100 11 0.0736697
10 4 100 11 0.0605992
11 4 100 11 0.0818126
1 5 100 11 0.0122814
2 5 100 11 0.0455822
3 5 100 11 0.0508831
4 5 100 11 0.0896829
5 5 100 11 0.17779
6 5 100 11 0.141484
7 5 100 11 0.1234
8 5 100 11 0.122658
9 5 100 11 0.0821653
10 5 100 11 0.0779229
11 5 100 11 0.0761503
1 6 100 11 0.00790739
2 6 100 11 0.0271694
3 6 100 11 0.0528005
4 6 100 11 0.0637156
5 6 100 11 0.112501
6 6 100 11 0.18391
7 6 100 11 0.138764
8 6 100 11 0.117561
9 6 100 11 0.0978862
10 6 100 11 0.0931772
11 6 100 11 0.104608
1 7 100 11 0.0110597
2 7 100 11 0.0163648
3 7 100 11 0.0324391
4 7 100 11 0.0556522
5 7 100 11 0.0709034
6 7 100 11 0.109383
7 7 100 11 0.18977
8 7 100 11 0.133448
9 7 100 11 0.144639
10 7 100 11 0.11025
11 7 100 11 0.126091
1 8 100 11 0.0061905
2 8 100 11 0.0231008
3 8 100 11 0.0462736
4 8 100 11 0.047288
5 8 100 11 0.0591196
6 8 100 11 0.0915332
7 8 100 11 0.11621
8 8 100 11 0.191848
9 8 100 11 0.131844
10 8 100 11 0.147226
11 8 100 11 0.139366
1 9 100 11 0.00604118
2 9 100 11 0.0163173
3 9 100 11 0.0261248
4 9 100 11 0.0569053
5 9 100 11 0.0608042
6 9 100 11 0.0768015
7 9 100 11 0.0833452
8 9 100 11 0.117248
9 9 100 11 0.189978
10 9 100 11 0.155273
11 9 100 11 0.211162
1 10 100 11 0.00759129
2 10 100 11 0.02193
3 10 100 11 0.0363589
4 10 100 11 0.049747
5 10 100 11 0.0532665
6 10 100 11 0.0795555
7 10 100 11 0.0857983
8 10 100 11 0.102322
9 10 100 11 0.138704
10 10 100 11 0.217816
11 10 100 11 0.206911
1 11 100 11 0.00920303
2 11 100 11 0.00682802
3 11 100 11 0.0189156
4 11 100 11 0.0395651
5 11 100 11 0.0669416
6 11 100 11 0.0377609
7 11 100 11 0.0913741
8 11 100 11 0.0909868
9 11 100 11 0.131066
10 11 100 11 0.203595
11 11 100 11 0.303763
1 12 100 11 0.00513822
2 12 100 11 0.000498196
3 12 100 11 0.0338529
4 12 100 11 0.0580942
5 12 100 11 0.0439589
6 12 100 11 0.0793331
7 12 100 11 0.0900431
8 12 100 11 0.0930067
9 12 100 11 0.0860167
10 12 100 11 0.0989522
11 12 100 11 0.411106
1 13 100 11 0.0088374
2 13 100 11 0.0396911
3 13 100 11 0.0269618
4 13 100 11 0.0410456
5 13 100 11 0.0835097
6 13 100 11 0.101399
7 13 100 11 0.1067
8 13 100 11 0.0932563
9 13 100 11 0.130742
10 13 100 11 0.145062
11 13 100 11 0.222795
1 14 100 11 0.0277347
2 14 100 11 0.0300856
3 14 100 11 0.0551426
4 14 100 11 0.0905694
5 14 100 11 0.0207043
6 14 100 11 0.0320887
7 14 100 11 0.0800388
8 14 100 11 0.113904
9 14 100 11 0.099232
10 14 100 11 0.159404
11 14 100 11 0.291096
1 15 100 11 2.52839e-05
2 15 100 11 0.0162723
3 15 100 11 0.000727046
4 15 100 11 0.0770216
5 15 100 11 0.0729192
6 15 100 11 0.115139
7 15 100 11 0.0850332
8 15 100 11 0.15135
9 15 100 11 0.0311589
10 15 100 11 0.204098
11 15 100 11 0.246256
1 16 100 11 0.00368034
2 16 100 11 0.0345616
3 16 100 11 0.0365601
4 16 100 11 0.0693049
5 16 100 11 0.069162
6 16 100 11 0.0345416
7 16 100 11 0.0611923
8 16 100 11 0.138868
9 16 100 11 0.143375
10 16 100 11 0.0799976
11 16 100 11 0.328757
1 17 100 11 1.4466e-06
2 17 100 11 6.74583e-06
3 17 100 11 9.77258e-07
4 17 100 11 5.92264e-05
5 17 100 11 0.155382
6 17 100 11 0.0875295
7 17 100 11 0.0439482
8 17 100 11 0.154236
9 17 100 11 0.0861542
10 17 100 11 0.255317
11 17 100 11 0.217365
1 18 100 11 3.77413e-05
2 18 100 11 4.77215e-06
3 18 100 11 0.000753091
4 18 100 11 1.33809e-06
5 18 100 11 6.42834e-05
6 18 100 11 0.0583432
7 18 100 11 0.0992444
8 18 100 11 0.148463
9 18 100 11 0.00184349
10 18 100 11 0.0940828
11 18 100 11 0.597162
1 19 100 11 3.18477e-06
2 19 100 11 3.2189e-06
6 19 100 11 0.229637
9 19 100 11 3.51351e-07
10 19 100 11 0.03817
11 19 100 11 0.732187
2 20 100 11 1.9561e-05
3 20 100 11 9.10968e-05
5 20 100 11 1.71441e-05
6 20 100 11 0.00213415
7 20 100 11 1.11295e-05
8 20 100 11 5.65528e-05
11 20 100 11 0.99767
2 21 100 11 1.48419e-05
6 21 100 11 0.999985
7 22 100 11 2.46971e-06
8 22 100 11 0.000369139
9 22 100 11 0.352006
10 22 100 11 0.352009
11 22 100 11 0.295613
1 0 100 12 0.0707332
2 0 100 12 0.0720313
3 0 100 12 0.0860176
4 0 100 12 0.0898869
5 0 100 12 0.102728
6 0 100 12 0.0957265
7 0 100 12 0.0891916
8 0 100 12 0.0906784
9 0 100 12 0.092679
10 0 100 12 0.113997
11 0 100 12 0.0944762
12 0 100 12 0.00185433
1 1 100 12 0.593138
2 1 100 12 0.164827
3 1 100 12 0.0580752
4 1 100 12 0.0350562
5 1 100 12 0.0444105
6 1 100 12 0.024865
7 1 100 12 0.0204568
8 1 100 12 0.0146698
9 1 100 12 0.019415
10 1 100 12 0.0124366
11 1 100 12 0.00730526
12 1 100 12 0.00534498
1 2 100 12 0.0399347
2 2 100 12 0.401058
3 2 100 12 0.207934
4 2 100 12 0.110277
5 2 100 12 0.0584361
6 2 100 12 0.0526264
7 2 100 12 0.0301564
8 2 100 12 0.032501
9 2 100 12 0.0196855
10 2 100 12 0.0139115
11 2 100 12 0.0174169
12 2 100 12 0.0160626
1 3 100 12 0.0204962
2 3 100 12 0.121577
3 3 100 12 0.287112
4 3 100 12 0.175479
5 3 100 12 0.120714
6 3 100 12 0.067375
7 3 100 12 0.0543166
8 3 100 12 0.0323964
9 3 100 12 0.0426766
10 3 100 12 0.0257971
11 3 100 12 0.0226271
12 3 100 12 0.0294331
1 4 100 12 0.0169475
2 4 100 12 0.0363731
3 4 100 12 0.120343
4 4 100 12 0.238295
5 4 100 12 0.131473
6 4 100 12 0.116328
7 4 100 12 0.0934943
8 4 100 12 0.0636753
9 4 100 12 0.0538724
10 4 100 12 0.0499807
11 4 100 12 0.0386466
12 4 100 12 0.0405715
1 5 100 12 0.0105871
2 5 100 12 0.0295873
3 5 100 12 0.0509291
4 5 100 12 0.112956
5 5 100 12 0.193844
6 5 100 12 0.175311
7 5 100 12 0.0999881
8 5 100 12 0.0904132
9 5 100 12 0.0680589
10 5 100 12 0.0549587
11 5 100 12 0.0521647
12 5 100 12 0.061202
1 6 100 12 0.00828017
2 6 100 12 0.0249039
3 6 100 12 0.0312005
4 6 100 12 0.0518167
5 6 100 12 0.109791
6 6 100 12 0.173886
7 6 100 12 0.148268
8 6 100 12 0.119828
9 6 100 12 0.0955597
10 6 100 12 0.0798704
11 6 100 12 0.0808253
12 6 100 12 0.0757695
1 7 100 12 0.00551055
2 7 100 12 0.0189671
3 7 100 12 0.0292422
4 7 100 12 0.0345618
5 7 100 12 0.0569461
6 7 100 12 0.103208
7 7 100 12 0.192606
8 7 100 12 0.137693
9 7 100 12 0.129373
10 7 100 12 0.102784
11 7 100 12 0.0962059
12 7 100 12 0.0929013
1 8 100 12 0.00306846
2 8 100 12 0.0125065
3 8 100 12 0.0229957
4 8 100 12 0.0292703
5 8 100 12 0.0345122
6 8 100 12 0.0591253
7 8 100 12 0.117531
8 8 100 12 0.191047
9 8 100 12 0.146419
10 8 100 12 0.11688
11 8 100 12 0.13815
12 8 100 12 0.128495
1 9 100 12 0.00674212
2 9 100 12 0.00700014
3 9 100 12 0.0259143
4 9 100 12 0.0378716
5 9 100 12 0.0366057
6 9 100 12 0.0434614
7 9 100 12 0.0666001
8 9 100 12 0.118978
9 9 100 12 0.173801
10 9 100 12 0.169316
11 9 100 12 0.130085
12 9 100 12 0.183624
1 10 100 12 0.00609167
2 10 100 12 0.0207425
3 10 100 12 0.0287584
4 10 100 12 0.0418051
5 10 100 12 0.0512026
6 10 100 12 0.0513919
7 10 100 12 0.0684646
8 10 100 12 0.0823248
9 10 100 12 0.135009
10 10 100 12 0.170629
11 10 100 12 0.153017
12 10 100 12 0.190564
1 11 100 12 0.00215064
2 11 100 12 0.00864723
3 11 100 12 0.0147069
4 11 100 12 0.0389345
5 11 100 12 0.0467061
6 11 100 12 0.0345297
7 11 100 12 0.0503011
8 11 100 12 0.0809204
9 11 100 12 0.0953862
10 11 100 12 0.166228
11 11 100 12 0.245898
12 11 100 12 0.215591
1 12 100 12 0.00946769
2 12 100 12 0.00948968
3 12 100 12 0.0246848
4 12 100 12 0.0105133
5 12 100 12 0.0483151
6 12 100 12 0.0591107
7 12 100 12 0.0381587
8 12 100 12 0.0549667
9 12 100 12 0.0852633
10 12 100 12 0.0976972
11 12 100 12 0.214774
12 12 100 12 0.347559
1 13 100 12 0.00217781
2 13 100 12 0.00525204
3 13 100 12 0.0207825
4 13 100 12 0.0446711
5 13 100 12 0.0443268
6 13 100 12 0.0734957
7 13 100 12 0.050355
8 13 100 12 0.0824697
9 13 100 12 0.068192
10 13 100 12 0.133413
11 13 100 12 0.123922
12 13 100 12 0.350943
1 14 100 12 4.25846e-05
2 14 100 12 0.0120271
3 14 100 12 0.00324822
4 14 100 12 0.0158207
5 14 100 12 0.0310722
6 14 100 12 0.0553462
7 14 100 12 0.116719
8 14 100 12 0.0862829
9 14 100 12 0.0963588
10 14 100 12 0.146761
11 14 100 12 0.165634
12 14 100 12 0.270687
1 15 100 12 0.00049049
2 15 100 12 0.00040629
3 15 100 12 0.0196237
4 15 100 12 0.0405967
5 15 100 12 0.0288192
6 15 100 12 0.00637054
7 15 100 12 0.0438655
8 15 100 12 0.0598131
9 15 100 12 0.0741484
10 15 100 12 0.111944
11 15 100 12 0.211848
12 15 100 12 0.402075
1 16 100 12 0.0301641
2 16 100 12 0.000342844
3 16 100 12 0.0109985
4 16 100 12 0.0288119
5 16 100 12 0.0914224
6 16 100 12 0.0301104
7 16 100 12 0.0276268
8 16 100 12 0.0753163
9 16 100 12 0.215066
10 16 100 12 0.188249
11 16 100 12 0.0628818
12 16 100 12 0.23901
1 17 100 12 0.0497894
2 17 100 12 0.000860415
3 17 100 12 0.0059813
4 17 100 12 0.00851808
5 17 100 12 0.0056403
6 17 100 12 0.0678406
7 17 100 12 0.108936
8 17 100 12 0.158063
9 17 100 12 0.0940411
10 17 100 12 0.000684243
11 17 100 12 0.288233
12 17 100 12 0.211413
1 18 100 12 2.34644e-06
3 18 100 12 3.8539e-05
5 18 100 12 0.00326353
6 18 100 12 0.0965646
7 18 100 12 0.198186
8 18 100 12 0.100258
9 18 100 12 3.11761e-06
10 18 100 12 0.200681
11 18 100 12 0.200445
12 18 100 12 0.200557
1 19 100 12 3.44883e-06
3 19 100 12 1.19022e-05
5 19 100 12 1.58975e-07
6 19 100 12 8.95109e-05
7 19 100 12 0.0121474
8 19 100 12 0.133036
9 19 100 12 0.137688
10 19 100 12 0.0139239
11 19 100 12 0.0157449
12 19 100 12 0.687355
1 20 100 12 0.000102049
2 20 100 12 1.54255e-06
3 20 100 12 0.0282408
5 20 100 12 4.76042e-05
6 20 100 12 8.04983e-06
7 20 100 12 0.971238
8 20 100 12 0.000144802
9 20 100 12 1.64975e-05
10 20 100 12 1.7673e-05
12 20 100 12 0.000182598
4 21 100 12 0.555479
5 21 100 12 0.44252
6 21 100 12 9.15256e-07
9 21 100 12 0.000545363
10 21 100 12 0.00145486
1 0 100 13 0.058367
2 0 100 13 0.0641958
3 0 100 13 0.0753669
4 0 100 13 0.0868712
5 0 100 13 0.0878744
6 0 100 13 0.0895313
7 0 100 13 0.0898173
8 0 100 13 0.0813334
9 0 100 13 0.0923086
10 0 100 13 0.0965933
11 0 100 13 0.09353
12 0 100 13 0.0825644
13 0 100 13 0.00164624
1 1 100 13 0.587922
2 1 100 13 0.177956
3 1 100 13 0.0469988
4 1 100 13 0.0380417
5 1 100 13 0.0305954
6 1 100 13 0.0232014
7 1 100 13 0.0202055
8 1 100 13 0.0196773
9 1 100 13 0.0144008
10 1 100 13 0.0123126
11 1 100 13 0.0102385
12 1 100 13 0.0126087
13 1 100 13 0.00584144
1 2 100 13 0.0338922
2 2 100 13 0.391136
3 2 100 13 0.228639
4 2 100 13 0.0997466
5 2 100 13 0.0693592
6 2 100 13 0.0450827
7 2 100 13 0.0262337
8 2 100 13 0.0262949
9 2 100 13 0.0145458
10 2 100 13 0.0219358
11 2 100 13 0.0202523
12 2 100 13 0.00988346
13 2 100 13 0.0129986
1 3 100 13 0.0204972
2 3 100 13 0.13265
3 3 100 13 0.272027
4 3 100 13 0.191646
5 3 100 13 0.0943026
6 3 100 13 0.0656622
7 3 100 13 0.0596298
8 3 100 13 0.0506626
9 3 100 13 0.0271723
10 3 100 13 0.0190611
11 3 100 13 0.032331
12 3 100 13 0.0194819
13 3 100 13 0.0148759
1 4 100 13 0.00344869
2 4 100 13 0.0328293
3 4 100 13 0.126624
4 4 100 13 0.218888
5 4 100 13 0.166534
6 4 100 13 0.115492
7 4 100 13 0.0857947
8 4 100 13 0.0563978
9 4 100 13 0.0501275
10 4 100 13 0.0476679
11 4 100 13 0.032697
12 4 100 13 0.0299448
13 4 100 13 0.0335545
1 5 100 13 0.0123035
2 5 100 13 0.0207221
3 5 100 13 0.0413528
4 5 100 13 0.101066
5 5 100 13 0.187858
6 5 100 13 0.144807
7 5 100 13 0.136466
8 5 100 13 0.0932089
9 5 100 13 0.0578974
10 5 100 13 0.0573122
11 5 100 13 0.0457749
12 5 100 13 0.0540958
13 5 100 13 0.0471353
1 6 100 13 0.00823392
2 6 100 13 0.0266662
3 6 100 13 0.035182
4 6 100 13 0.0543573
5 6 100 13 0.109212
6 6 100 13 0.171023
7 6 100 13 0.103246
8 6 100 13 0.112887
9 6 100 13 0.104216
10 6 100 13 0.0724881
11 6 100 13 0.0615513
12 6 100 13 0.0717439
13 6 100 13 0.0691929
1 7 100 13 0.00622349
2 7 100 13 0.0163828
3 7 100 13 0.0325386
4 7 100 13 0.0463934
5 7 100 13 0.0606295
6 7 100 13 0.107899
7 7 100 13 0.157706
8 7 100 13 0.117956
9 7 100 13 0.106648
10 7 100 13 0.103306
11 7 100 13 0.103165
12 7 100 13 0.0571779
13 7 100 13 0.0839733
1 8 100 13 0.00673403
2 8 100 13 0.0147301
3 8 100 13 0.0302554
4 8 100 13 0.0196728
5 8 100 13 0.03161
6 8 100 13 0.0560815
7 8 100 13 0.113659
8 8 100 13 0.143439
9 8 100 13 0.138448
10 8 100 13 0.122606
11 8 100 13 0.109998
12 8 100 13 0.108794
13 8 100 13 0.103972
1 9 100 13 0.00258989
2 9 100 13 0.00525149
3 9 100 13 0.0203836
4 9 100 13 0.0290387
5 9 100 13 0.028853
6 9 100 13 0.0532039
7 9 100 13 0.0645441
8 9 100 13 0.144813
9 9 100 13 0.145283
10 9 100 13 0.124328
11 9 100 13 0.121624
12 9 100 13 0.1251
13 9 100 13 0.134988
1 10 100 13 0.000211207
2 10 100 13 0.00296016
3 10 100 13 0.0229954
4 10 100 13 0.0332274
5 10 100 13 0.0331202
6 10 100 13 0.0242873
7 10 100 13 0.0502501
8 10 100 13 0.0686292
9 10 100 13 0.144187
10 10 100 13 0.159584
11 10 100 13 0.142173
12 10 100 13 0.152459
13 10 100 13 0.165916
1 11 100 13 0.00381684
2 11 100 13 0.00945148
3 11 100 13 0.0135549
4 11 100 13 0.021718
5 11 100 13 0.0512113
6 11 100 13 0.0396625
7 11 100 13 0.054301
8 11 100 13 0.063558
9 11 100 13 0.077165
10 11 100 13 0.133752
11 11 100 13 0.165828
12 11 100 13 0.167865
13 11 100 13 0.198116
1 12 100 13 0.00478928
2 12 100 13 0.00719722
3 12 100 13 0.0309632
4 12 100 13 0.0164177
5 12 100 13 0.0320603
6 12 100 13 0.0502775
7 12 100 13 0.0400392
8 12 100 13 0.0603005
9 12 100 13 0.09537
10 12 100 13 0.100462
11 12 100 13 0.16579
12 12 100 13 0.181682
13 12 100 13 0.214651
1 13 100 13 1.95793e-06
2 13 100 13 0.00813612
3 13 100 13 0.0113467
4 13 100 13 0.0425379
5 13 100 13 0.0388294
6 13 100 13 0.036128
7 13 100 13 0.0469988
8 13 100 13 0.0677661
9 13 100 13 0.0831201
10 13 100 13 0.0917202
11 13 100 13 0.109483
12 13 100 13 0.205219
13 13 100 13 0.258713
1 14 100 13 0.00945752
2 14 100 13 0.00483041
3 14 100 13 0.0143253
4 14 100 13 0.0177698
5 14 100 13 0.0452677
6 14 100 13 0.0550601
7 14 100 13 0.057919
8 14 100 13 0.0442961
9 14 100 13 0.0642327
10 14 100 13 0.103077
11 14 100 13 0.0899069
12 14 100 13 0.141323
13 14 100 13 0.352534
1 15 100 13 0.000253496
2 15 100 13 0.0134417
3 15 100 13 0.0315424
4 15 100 13 0.0303262
5 15 100 13 0.0443825
6 15 100 13 0.0638755
7 15 100 13 0.0681086
8 15 100 13 0.0878354
9 15 100 13 0.0565261
10 15 100 13 0.0672356
11 15 100 13 0.0650156
12 15 100 13 0.168996
13 15 100 13 0.302461
1 16 100 13 0.00922344
2 16 100 13 0.0210195
3 16 100 13 0.00821743
4 16 100 13 0.028413
5 16 100 13 0.0307343
6 16 100 13 0.0696698
7 16 100 13 0.0697762
8 16 100 13 0.0670515
9 16 100 13 0.0621366
10 16 100 13 0.0945105
11 16 100 13 0.160442
12 16 100 13 0.118536
13 16 100 13 0.260269
1 17 100 13 0.0638621
2 17 100 13 0.0329151
3 17 100 13 0.00330231
4 17 100 13 0.0400069
5 17 100 13 0.0364461
6 17 100 13 0.0334098
7 17 100 13 0.0626699
8 17 100 13 0.0503204
9 17 100 13 0.00178022
10 17 100 13 0.169673
11 17 100 13 0.0192088
12 17 100 13 0.0999076
13 17 100 13 0.386497
1 18 100 13 1.3749e-06
2 18 100 13 0.0149996
3 18 100 13 0.0901773
4 18 100 13 0.050989
5 18 100 13 0.0157369
6 18 100 13 0.0999018
7 18 100 13 0.129194
8 18 100 13 0.0894378
9 18 100 13 0.128434
10 18 100 13 0.0665748
11 18 100 13 0.117774
12 18 100 13 0.0638915
13 18 100 13 0.132888
1 19 100 13 1.8469e-05
2 19 100 13 8.61179e-06
3 19 100 13 1.60415e-05
4 19 100 13 0.167384
5 19 100 13 0.0487599
6 19 100 13 0.0810649
7 19 100 13 0.0479421
8 19 100 13 0.0807444
9 19 100 13 0.0461488
10 19 100 13 0.0958188
11 19 100 13 0.066234
12 19 100 13 0.126111
13 19 100 13 0.239749
2 20 100 13 9.86839e-05
3 20 100 13 1.07408e-06
4 20 100 13 6.71169e-05
5 20 100 13 9.54832e-05
6 20 100 13 0.000474541
7 20 100 13 1.41771e-06
8 20 100 13 0.0021533
9 20 100 13 4.93503e-06
10 20 100 13 9.31444e-06
11 20 100 13 0.343649
12 20 100 13 0.322087
13 20 100 13 0.331358
2 21 100 13 3.36284e-06
5 21 100 13 1.19894e-05
6 21 100 13 0.000796117
7 21 100 13 0.621459
8 21 100 13 1.00338e-05
10 21 100 13 0.000725709
12 21 100 13 0.240576
13 21 100 13 0.136418
5 22 100 13 0.00988887
8 22 100 13 0.000168122
10 22 100 13 0.000627177
12 22 100 13 0.989316
3 23 100 13 6.58046e-05
7 23 100 13 0.000316767
10 23 100 13 9.42238e-07
11 23 100 13 0.357899
13 23 100 13 0.641718
2 24 100 13 0.293112
8 24 100 13 0.00476827
10 24 100 13 0.493163
12 24 100 13 0.208315
13 24 100 13 0.000641541
5 25 100 13 7.97695e-06
6 25 100 13 0.327627
8 25 100 13 0.0028404
10 25 100 13 0.0384364
12 25 100 13 0.631088
2 26 100 13 2.72162e-05
5 26 100 13 0.881302
13 26 100 13 0.118671
2 27 100 13 1
2 28 100 13 0.982781
13 28 100 13 0.0172193
2 29 100 13 1
3 30 100 13 0.998455
5 30 100 13 1.48781e-05
13 30 100 13 0.00153057
13 31 100 13 1
3 32 100 13 0.999761
4 32 100 13 4.48362e-05
12 32 100 13 3.56853e-06
13 32 100 13 0.000190532
2 34 100 13 1
3 36 100 13 1
9 37 100 13 1
2 38 100 13 0.916013
9 38 100 13 0.0839869
3 39 100 13 0.00829469
4 39 100 13 0.181502
5 39 100 13 4.83744e-05
6 39 100 13 0.181119
7 39 100 13 0.17435
8 39 100 13 0.0614328
9 39 100 13 4.40075e-07
10 39 100 13 0.178429
11 39 100 13 0.17841
12 39 100 13 0.0180031
13 39 100 13 0.0184112
2 40 100 13 0.0778223
5 40 100 13 0.0298631
9 40 100 13 0.892315
2 41 100 13 0.0307234
9 41 100 13 0.0994198
12 41 100 13 0.869857
13 42 100 13 1
2 44 100 13 0.980659
5 44 100 13 0.0193413
2 45 100 13 0.253712
5 45 100 13 0.746288
2 46 100 13 0.00600491
12 46 100 13 0.993995
5 47 100 13 0.98674
9 47 100 13 0.01326
7 48 100 13 1
7 49 100 13 1
3 52 100 13 1
2 54 100 13 1
2 55 100 13 0.00271121
7 55 100 13 0.984639
12 55 100 13 0.0126495
2 56 100 13 1
2 58 100 13 0.0103148
9 58 100 13 0.0313831
10 58 100 13 0.958302
2 59 100 13 0.0263954
5 59 100 13 0.898242
9 59 100 13 0.0753631
9 61 100 13 1
1 0 100 14 0.0678763
2 0 100 14 0.0685639
3 0 100 14 0.0727854
4 0 100 14 0.075062
5 0 100 14 0.0796634
6 0 100 14 0.0859911
7 0 100 14 0.0715729
8 0 100 14 0.0730355
9 0 100 14 0.0794431
10 0 100 14 0.0759729
11 0 100 14 0.0805888
12 0 100 14 0.0911503
13 0 100 14 0.0754733
14 0 100 14 0.002821
1 1 100 14 0.540485
2 1 100 14 0.166212
3 1 100 14 0.0457949
4 1 100 14 0.035056
5 1 100 14 0.0440386
6 1 100 14 0.0234326
7 1 100 14 0.0142923
8 1 100 14 0.0212239
9 1 100 14 0.0199676
10 1 100 14 0.0205815
11 1 100 14 0.0185458
12 1 100 14 0.0175628
13 1 100 14 0.0192797
14 1 100 14 0.0135272
1 2 100 14 0.025903
2 2 100 14 0.358725
3 2 100 14 0.236678
4 2 100 14 0.124902
5 2 100 14 0.0544569
6 2 100 14 0.0465693
7 2 100 14 0.0484237
8 2 100 14 0.0229905
9 2 100 14 0.018914
10 2 100 14 0.0109176
11 2 100 14 0.0149562
12 2 100 14 0.0198022
13 2 100 14 0.00999325
14 2 100 14 0.00676843
1 3 100 14 0.0123318
2 3 100 14 0.110083
3 3 100 14 0.248605
4 3 100 14 0.1936
5 3 100 14 0.120195
6 3 100 14 0.0803568
7 3 100 14 0.056315
8 3 100 14 0.045234
9 3 100 14 0.0300453
10 3 100 14 0.0229
11 3 100 14 0.0246405
12 3 100 14 0.0253059
13 3 100 14 0.0198346
14 3 100 14 0.0105537
1 4 100 14 0.0254024
2 4 100 14 0.0413562
3 4 100 14 0.105553
4 4 100 14 0.227128
5 4 100 14 0.160802
6 4 100 14 0.116851
7 4 100 14 0.0936077
8 4 100 14 0.0496519
9 4 100 14 0.0478034
10 4 100 14 0.031223
11 4 100 14 0.0195123
12 4 100 14 0.0227189
13 4 100 14 0.0315998
14 4 100 14 0.02679
1 5 100 14 0.0135377
2 5 100 14 0.0259495
3 5 100 14 0.0461246
4 5 100 14 0.104435
5 5 100 14 0.188841
6 5 100 14 0.159016
7 5 100 14 0.112802
8 5 100 14 0.108796
9 5 100 14 0.0497994
10 5 100 14 0.053032
11 5 100 14 0.037976
12 5 100 14 0.0326994
13 5 100 14 0.0268286
14 5 100 14 0.040162
1 6 100 14 0.00263506
2 6 100 14 0.0164424
3 6 100 14 0.0315954
4 6 100 14 0.0342654
5 6 100 14 0.114125
6 6 100 14 0.167584
7 6 100 14 0.132906
8 6 100 14 0.117821
9 6 100 14 0.0901184
10 6 100 14 0.0786581
11 6 100 14 0.0732118
12 6 100 14 0.0475837
13 6 100 14 0.0422828
14 6 100 14 0.0507714
1 7 100 14 0.0143522
2 7 100 14 0.0174115
3 7 100 14 0.0286473
4 7 100 14 0.0343555
5 7 100 14 0.0366918
6 7 100 14 0.0930514
7 7 100 14 0.149592
8 7 100 14 0.133079
9 7 100 14 0.125267
10 7 100 14 0.0984454
11 7 100 14 0.0858081
12 7 100 14 0.0633121
13 7 100 14 0.0553602
14 7 100 14 0.0646265
1 8 100 14 0.0120017
2 8 100 14 0.0124393
3 8 100 14 0.0248612
4 8 100 14 0.0324725
5 8 100 14 0.030802
6 8 100 14 0.0528404
7 8 100 14 0.117481
8 8 100 14 0.144048
9 8 100 14 0.11539
10 8 100 14 0.114167
11 8 100 14 0.106261
12 8 100 14 0.0824906
13 8 100 14 0.0791601
14 8 100 14 0.075584
1 9 100 14 0.00927353
2 9 100 14 0.0164938
3 9 100 14 0.0276192
4 9 100 14 0.0162123
5 9 100 14 0.0316431
6 9 100 14 0.0318555
7 9 100 14 0.0617344
8 9 100 14 0.11106
9 9 100 14 0.14477
10 9 100 14 0.101377
11 9 100 14 0.127476
12 9 100 14 0.104606
13 9 100 14 0.10191
14 9 100 14 0.113968
1 10 100 14 0.00154799
2 10 100 14 0.0140453
3 10 100 14 0.0239304
4 10 100 14 0.0222115
5 10 100 14 0.0181599
6 10 100 14 0.0286315
7 10 100 14 0.0459297
8 10 100 14 0.06126
9 10 100 14 0.11124
10 10 100 14 0.146688
11 10 100 14 0.116266
12 10 100 14 0.136457
13 10 100 14 0.122359
14 10 100 14 0.151274
1 11 100 14 0.00517284
2 11 100 14 0.0167618
3 11 100 14 0.0329688
4 11 100 14 0.0280218
5 11 100 14 0.0287769
6 11 100 14 0.0277656
7 11 100 14 0.0400185
8 11 100 14 0.0453511
9 11 100 14 0.0781983
10 11 100 14 0.140161
11 11 100 14 0.144549
12 11 100 14 0.124595
13 11 100 14 0.14101
14 11 100 14 0.146648
1 12 100 14 0.00131656
2 12 100 14 0.00494297
3 12 100 14 0.0106239
4 12 100 14 0.0209592
5 12 100 14 0.0264115
6 12 100 14 0.0199205
7 12 100 14 0.0285741
8 12 100 14 0.0377981
9 12 100 14 0.0758831
10 12 100 14 0.118513
11 12 100 14 0.157125
12 12 100 14 0.169217
13 12 100 14 0.138452
14 12 100 14 0.190264
1 13 100 14 0.00632224
2 13 100 14 0.00313842
3 13 100 14 0.00661122
4 13 100 14 0.0154345
5 13 100 14 0.0220168
6 13 100 14 0.0345036
7 13 100 14 0.0345533
8 13 100 14 0.0416688
9 13 100 14 0.0496291
10 13 100 14 0.0756537
11 13 100 14 0.0768944
12 13 100 14 0.198082
13 13 100 14 0.239939
14 13 100 14 0.195553
1 14 100 14 0.0118743
2 14 100 14 4.8441e-06
3 14 100 14 0.00810285
4 14 100 14 0.0163045
5 14 100 14 0.0163574
6 14 100 14 0.0249727
7 14 100 14 0.0308988
8 14 100 14 0.0495241
9 14 100 14 0.0758987
10 14 100 14 0.0546951
11 14 100 14 0.0796507
12 14 100 14 0.0819653
13 14 100 14 0.226013
14 14 100 14 0.323738
1 15 100 14 1.53581e-06
2 15 100 14 2.4009e-06
3 15 100 14 0.0171402
4 15 100 14 0.0183148
5 15 100 14 0.0275282
6 15 100 14 0.034584
7 15 100 14 0.0169033
8 15 100 14 0.0365843
9 15 100 14 0.0231414
10 15 100 14 0.0617595
11 15 100 14 0.109621
12 15 100 14 0.102516
13 15 100 14 0.170519
14 15 100 14 0.381385
1 16 100 14 0.00162603
2 16 100 14 0.013834
3 16 100 14 0.0201674
4 16 100 14 0.0142482
5 16 100 14 0.0324826
6 16 100 14 0.0165188
7 16 100 14 0.0457309
8 16 100 14 0.00601965
9 16 100 14 0.0668219
10 16 100 14 0.0639244
11 16 100 14 0.0806139
12 16 100 14 0.185206
13 16 100 14 0.160345
14 16 100 14 0.292461
1 17 100 14 0.000119353
2 17 100 14 0.00204504
3 17 100 14 0.0103187
4 17 100 14 0.0340113
5 17 100 14 0.01716
6 17 100 14 0.0328498
7 17 100 14 0.0630417
8 17 100 14 0.0831658
9 17 100 14 0.0548958
10 17 100 14 0.115551
11 17 100 14 0.0537438
12 17 100 14 0.0780946
13 17 100 14 0.17729
14 17 100 14 0.277713
1 18 100 14 7.07171e-06
2 18 100 14 8.08834e-06
3 18 100 14 0.0295041
4 18 100 14 0.00646548
5 18 100 14 0.0642312
6 18 100 14 0.0324244
7 18 100 14 0.0400535
8 18 100 14 0.0674226
9 18 100 14 0.0807973
10 18 100 14 0.0697851
11 18 100 14 0.0910819
12 18 100 14 0.0108976
13 18 100 14 0.169865
14 18 100 14 0.337457
2 19 100 14 0.0235674
3 19 100 14 0.0405394
4 19 100 14 0.0861405
5 19 100 14 0.0879709
6 19 100 14 0.0801065
7 19 100 14 0.0169988
8 19 100 14 0.0452329
9 19 100 14 0.0125861
10 19 100 14 0.10346
11 19 100 14 0.0904137
12 19 100 14 0.134361
13 19 100 14 0.0927251
14 19 100 14 0.185898
2 20 100 14 2.24911e-06
3 20 100 14 3.63536e-07
4 20 100 14 5.82911e-06
5 20 100 14 0.0659134
6 20 100 14 0.0183225
7 20 100 14 0.127896
8 20 100 14 0.173783
9 20 100 14 0.156576
10 20 100 14 0.238224
11 20 100 14 0.080255
12 20 100 14 0.000659729
13 20 100 14 0.00935246
14 20 100 14 0.129009
2 21 100 14 0.0491846
5 21 100 14 2.22031e-05
6 21 100 14 0.000129316
7 21 100 14 9.14664e-06
8 21 100 14 0.00210314
9 21 100 14 0.60838
10 21 100 14 0.337507
11 21 100 14 0.00252414
12 21 100 14 1.94006e-06
13 21 100 14 2.74848e-06
14 21 100 14 0.000136084
2 22 100 14 0.00859696
4 22 100 14 0.900888
6 22 100 14 0.0409449
10 22 100 14 0.0495697
2 23 100 14 0.0154219
3 23 100 14 0.10869
6 23 100 14 0.00327874
7 23 100 14 0.0854347
9 23 100 14 0.000875591
10 23 100 14 0.237537
11 23 100 14 0.0868854
12 23 100 14 0.450719
13 23 100 14 0.0111576
10 24 100 14 0.0572968
13 24 100 14 0.942703
1 0 100 15 0.0522125
2 0 100 15 0.060894
3 0 100 15 0.0683337
4 0 100 15 0.0693521
5 0 100 15 0.0738883
6 0 100 15 0.0696066
7 0 100 15 0.0807516
8 0 100 15 0.0661035
9 0 100 15 0.0665991
10 0 100 15 0.0779403
11 0 100 15 0.0699466
12 0 100 15 0.0616023
13 0 100 15 0.111364
14 0 100 15 0.0705339
15 0 100 15 0.000871788
1 1 100 15 0.575829
2 1 100 15 0.166727
3 1 100 15 0.0538027
4 1 100 15 0.0357403
5 1 100 15 0.0312917
6 1 100 15 0.034084
7 1 100 15 0.0125042
8 1 100 15 0.016937
9 1 100 15 0.00952758
10 1 100 15 0.0130734
11 1 100 15 0.0144272
12 1 100 15 0.0117045
13 1 100 15 0.00874289
14 1 100 15 0.00830041
15 1 100 15 0.00730792
1 2 100 15 0.03384
2 2 100 15 0.399788
3 2 100 15 0.230253
4 2 100 15 0.105483
5 2 100 15 0.0625882
6 2 100 15 0.0467098
7 2 100 15 0.0362338
8 2 100 15 0.0308283
9 2 100 15 0.00811832
10 2 100 15 0.0120464
11 2 100 15 0.00868144
12 2 100 15 0.00831154
13 2 100 15 0.00616448
14 2 100 15 0.00491977
15 2 100 15 0.00603356
1 3 100 15 0.00613297
2 3 100 15 0.0984386
3 3 100 15 0.273745
4 3 100 15 0.206122
5 3 100 15 0.124491
6 3 100 15 0.0683695
7 3 100 15 0.0545691
8 3 100 15 0.0350527
9 3 100 15 0.0228578
10 3 100 15 0.022246
11 3 100 15 0.0188851
12 3 100 15 0.0196691
13 3 100 15 0.0118106
14 3 100 15 0.0196986
15 3 100 15 0.0179114
1 4 100 15 0.00524934
2 4 100 15 0.0148138
3 4 100 15 0.079098
4 4 100 15 0.224915
5 4 100 15 0.175322
6 4 100 15 0.140076
7 4 100 15 0.0637176
8 4 100 15 0.0575631
9 4 100 15 0.0626567
10 4 100 15 0.048389
11 4 100 15 0.0324903
12 4 100 15 0.026011
13 4 100 15 0.0200217
14 4 100 15 0.0242076
15 4 100 15 0.0254691
1 5 100 15 0.00843889
2 5 100 15 0.0205731
3 5 100 15 0.0466104
4 5 100 15 0.0830128
5 5 100 15 0.182769
6 5 100 15 0.154356
7 5 100 15 0.12409
8 5 100 15 0.116937
9 5 100 15 0.0624944
10 5 100 15 0.0415232
11 5 100 15 0.0390774
12 5 100 15 0.0369674
13 5 100 15 0.0248563
14 5 100 15 0.0264519
15 5 100 15 0.0318418
1 6 100 15 0.00672595
2 6 100 15 0.0303553
3 6 100 15 0.0347372
4 6 100 15 0.0512794
5 6 100 15 0.0919407
6 6 100 15 0.164223
7 6 100 15 0.145516
8 6 100 15 0.109832
9 6 100 15 0.106357
10 6 100 15 0.0716514
11 6 100 15 0.0489958
12 6 100 15 0.0450708
13 6 100 15 0.0332741
14 6 100 15 0.0330009
15 6 100 15 0.027041
1 7 100 15 0.00553474
2 7 100 15 0.0112212
3 7 100 15 0.0304941
4 7 100 15 0.0368238
5 7 100 15 0.0589558
6 7 100 15 0.0933196
7 7 100 15 0.143249
8 7 100 15 0.126007
9 7 100 15 0.112449
10 7 100 15 0.0906551
11 7 100 15 0.0767386
12 7 100 15 0.0624903
13 7 100 15 0.0485745
14 7 100 15 0.0452895
15 7 100 15 0.0581984
1 8 100 15 0.0108154
2 8 100 15 0.0110196
3 8 100 15 0.019077
4 8 100 15 0.0329486
5 8 100 15 0.038619
6 8 100 15 0.0568332
7 8 100 15 0.101993
8 8 100 15 0.136477
9 8 100 15 0.125463
10 8 100 15 0.110635
11 8 100 15 0.0996229
12 8 100 15 0.0928368
13 8 100 15 0.0626141
14 8 100 15 0.04363
15 8 100 15 0.057416
1 9 100 15 0.00297581
2 9 100 15 0.0101005
3 9 100 15 0.0185051
4 9 100 15 0.0226916
5 9 100 15 0.0246725
6 9 100 15 0.0248274
7 9 100 15 0.0606195
8 9 100 15 0.107866
9 9 100 15 0.143908
10 9 100 15 0.12176
11 9 100 15 0.107789
12 9 100 15 0.0987779
13 9 100 15 0.10226
14 9 100 15 0.0794269
15 9 100 15 0.0738202
1 10 100 15 0.0032414
2 10 100 15 0.0126639
3 10 100 15 0.0159541
4 10 100 15 0.0233182
5 10 100 15 0.0298461
6 10 100 15 0.0233792
7 10 100 15 0.042147
8 10 100 15 0.0572124
9 10 100 15 0.121736
10 10 100 15 0.114336
11 10 100 15 0.107586
12 10 100 15 0.124519
13 10 100 15 0.103733
14 10 100 15 0.114337
15 10 100 15 0.10599
1 11 100 15 0.00880697
2 11 100 15 0.0117056
3 11 100 15 0.00835866
4 11 100 15 0.0120709
5 11 100 15 0.0198311
6 11 100 15 0.0483932
7 11 100 15 0.0337594
8 11 100 15 0.0542106
9 11 100 15 0.0722825
10 11 100 15 0.119109
11 11 100 15 0.140289
12 11 100 15 0.116002
13 11 100 15 0.096104
14 11 100 15 0.134181
15 11 100 15 0.124896
1 12 100 15 0.00178891
2 12 100 15 0.0128583
3 12 100 15 0.0174389
4 12 100 15 0.00553937
5 12 100 15 0.0143166
6 12 100 15 0.0150538
7 12 100 15 0.0336704
8 12 100 15 0.0430673
9 12 100 15 0.0518319
10 12 100 15 0.0812923
11 12 100 15 0.143143
12 12 100 15 0.151706
13 12 100 15 0.120404
14 12 100 15 0.121164
15 12 100 15 0.186724
1 13 100 15 0.00248325
2 13 100 15 0.015698
3 13 100 15 0.0160899
4 13 100 15 0.0230191
5 13 100 15 0.0218083
6 13 100 15 0.0284079
7 13 100 15 0.023571
8 13 100 15 0.0378152
9 13 100 15 0.0257147
10 13 100 15 0.0768902
11 13 100 15 0.0861928
12 13 100 15 0.1427
13 13 100 15 0.138723
14 13 100 15 0.185723
15 13 100 15 0.175165
1 14 100 15 0.011359
2 14 100 15 0.0172315
3 14 100 15 0.0254481
4 14 100 15 0.051048
5 14 100 15 0.0163296
6 14 100 15 0.0255026
7 14 100 15 0.0392399
8 14 100 15 0.0315132
9 14 100 15 0.0539236
10 14 100 15 0.0399362
11 14 100 15 0.0621392
12 14 100 15 0.0869097
13 14 100 15 0.164274
14 14 100 15 0.174926
15 14 100 15 0.200219
1 15 100 15 0.00340818
2 15 100 15 0.0040803
3 15 100 15 0.0107744
4 15 100 15 0.00855102
5 15 100 15 0.0449709
6 15 100 15 0.0239927
7 15 100 15 0.0393551
8 15 100 15 0.0378782
9 15 100 15 0.0265164
10 15 100 15 0.0526321
11 15 100 15 0.0743759
12 15 100 15 0.0972695
13 15 100 15 0.0903705
14 15 100 15 0.180827
15 15 100 15 0.304998
1 16 100 15 0.00649261
2 16 100 15 7.97664e-06
3 16 100 15 0.0192224
4 16 100 15 0.0198592
5 16 100 15 0.0264567
6 16 100 15 0.0212151
7 16 100 15 0.0345765
8 16 100 15 0.0479658
9 16 100 15 0.0352682
10 16 100 15 0.0606125
11 16 100 15 0.0997545
12 16 100 15 0.0861476
13 16 100 15 0.0888331
14 16 100 15 0.138552
15 16 100 15 0.315036
1 17 100 15 1.77603e-06
2 17 100 15 1.89417e-05
3 17 100 15 0.00714249
4 17 100 15 0.0175153
5 17 100 15 0.00152888
6 17 100 15 0.0128565
7 17 100 15 0.0173017
8 17 100 15 0.0399157
9 17 100 15 0.0920457
10 17 100 15 0.0502467
11 17 100 15 0.141039
12 17 100 15 0.166117
13 17 100 15 0.0628181
14 17 100 15 0.134769
15 17 100 15 0.256683
1 18 100 15 1.4226e-07
2 18 100 15 0.000154443
3 18 100 15 0.0287592
4 18 100 15 0.000699257
5 18 100 15 0.0302471
6 18 100 15 0.0281197
7 18 100 15 0.0300524
8 18 100 15 0.00579867
9 18 100 15 0.120918
10 18 100 15 0.0117273
11 18 100 15 0.0404032
12 18 100 15 0.133855
13 18 100 15 0.147867
14 18 100 15 0.0947021
15 18 100 15 0.326697
1 19 100 15 0.0230306
2 19 100 15 0.0281232
3 19 100 15 0.000323681
4 19 100 15 0.00389419
5 19 100 15 0.00603821
6 19 100 15 0.0311031
7 19 100 15 0.0333104
8 19 100 15 0.0339295
9 19 100 15 0.0715639
10 19 100 15 0.0598013
11 19 100 15 0.057981
12 19 100 15 0.134395
13 19 100 15 0.196506
14 19 100 15 0.112362
15 19 100 15 0.207637
1 20 100 15 0.000112574
2 20 100 15 1.07625e-06
3 20 100 15 3.37345e-07
4 20 100 15 5.02983e-06
5 20 100 15 4.93031e-06
6 20 100 15 0.0546913
7 20 100 15 0.0570907
8 20 100 15 6.27716e-05
9 20 100 15 3.01166e-06
10 20 100 15 0.0460655
11 20 100 15 0.0014058
12 20 100 15 0.101139
13 20 100 15 0.0706092
14 20 100 15 0.537441
15 20 100 15 0.131368
1 21 100 15 6.6992e-07
2 21 100 15 2.40497e-06
4 21 100 15 0.000510243
5 21 100 15 0.107663
6 21 100 15 0.0239765
7 21 100 15 6.27084e-06
8 21 100 15 0.0614675
9 21 100 15 0.0141708
10 21 100 15 0.0617678
11 21 100 15 0.000101954
12 21 100 15 0.00129229
13 21 100 15 0.0621903
14 21 100 15 0.0619832
15 21 100 15 0.604867
3 22 100 15 0.105237
4 22 100 15 1.82521e-06
5 22 100 15 1.75003e-07
6 22 100 15 9.3937e-06
7 22 100 15 1.17749e-05
9 22 100 15 3.7295e-05
10 22 100 15 1.27867e-05
11 22 100 15 1.9874e-06
12 22 100 15 0.29672
13 22 100 15 0.291244
14 22 100 15 0.153211
15 22 100 15 0.153513
1 23 100 15 3.35631e-05
2 23 100 15 0.125904
3 23 100 15 0.0296688
4 23 100 15 0.0139221
5 23 100 15 0.0467096
6 23 100 15 1.61746e-05
7 23 100 15 3.55806e-05
8 23 100 15 0.0290085
9 23 100 15 0.125873
10 23 100 15 2.62547e-05
11 23 100 15 0.0308242
12 23 100 15 0.0163947
13 23 100 15 3.57846e-05
14 23 100 15 0.287788
15 23 100 15 0.29376
3 24 100 15 1.53982e-05
5 24 100 15 9.75828e-07
6 24 100 15 5.95858e-07
7 24 100 15 0.303918
9 24 100 15 1.65957e-05
10 24 100 15 1.10133e-05
11 24 100 15 3.75059e-06
12 24 100 15 0.380838
13 24 100 15 0.301914
14 24 100 15 2.23656e-05
15 24 100 15 0.0132591
6 25 100 15 5.78145e-07
11 25 100 15 5.39604e-07
14 25 100 15 0.502456
15 25 100 15 0.497543
1 26 100 15 0.0002616
6 26 100 15 1.79861e-05
7 26 100 15 1.26296e-05
10 26 100 15 1.26296e-05
12 26 100 15 0.00565363
13 26 100 15 0.000110077
15 26 100 15 0.993931
12 27 100 15 1
1 28 100 15 0.190726
4 28 100 15 0.000134914
7 28 100 15 0.269713
10 28 100 15 0.269713
13 28 100 15 0.269713
9 29 100 15 1
7 30 100 15 0.053644
9 30 100 15 0.839068
10 30 100 15 0.053644
13 30 100 15 0.053644
3 31 100 15 0.999441
4 31 100 15 0.000313775
6 31 100 15 1.85434e-05
7 31 100 15 7.55993e-05
10 31 100 15 7.55993e-05
13 31 100 15 7.55993e-05
4 32 100 15 1
3 35 100 15 0.0709286
4 35 100 15 0.929071
4 36 100 15 1
9 37 100 15 1
4 38 100 15 0.527775
6 38 100 15 0.472225
12 39 100 15 1
6 40 100 15 1
1 0 100 16 0.0536059
2 0 100 16 0.0529072
3 0 100 16 0.0672753
4 0 100 16 0.0650994
5 0 100 16 0.0744176
6 0 100 16 0.0633691
7 0 100 16 0.0644802
8 0 100 16 0.0727848
9 0 100 16 0.0755861
10 0 100 16 0.0627112
11 0 100 16 0.0698108
12 0 100 16 0.0591748
13 0 100 16 0.0669877
14 0 100 16 0.0878432
15 0 100 16 0.0615402
16 0 100 16 0.00240654
1 1 100 16 0.559757
2 1 100 16 0.172346
3 1 100 16 0.0598849
4 1 100 16 0.0400551
5 1 100 16 0.0311162
6 1 100 16 0.0150189
7 1 100 16 0.0192362
8 1 100 16 0.0140302
9 1 100 16 0.0129367
10 1 100 16 0.0151741
11 1 100 16 0.00697259
12 1 100 16 0.0162979
13 1 100 16 0.00997782
14 1 100 16 0.0100466
15 1 100 16 0.00802235
16 1 100 16 0.00912738
1 2 100 16 0.0310019
2 2 100 16 0.377839
3 2 100 16 0.221201
4 2 100 16 0.10523
5 2 100 16 0.0576566
6 2 100 16 0.0442512
7 2 100 16 0.0293931
8 2 100 16 0.0220176
9 2 100 16 0.016952
10 2 100 16 0.013987
11 2 100 16 0.0149532
12 2 100 16 0.0192326
13 2 100 16 0.0128711
14 2 100 16 0.0114446
15 2 100 16 0.00937054
16 2 100 16 0.0125982
1 3 100 16 0.00762928
2 3 100 16 0.0794132
3 3 100 16 0.288629
4 3 100 16 0.196117
5 3 100 16 0.114286
6 3 100 16 0.096639
7 3 100 16 0.0451549
8 3 100 16 0.0339899
9 3 100 16 0.0405714
10 3 100 16 0.0171355
11 3 100 16 0.0211684
12 3 100 16 0.0134914
13 3 100 16 0.0109854
14 3 100 16 0.00902138
15 3 100 16 0.0132285
16 3 100 16 0.0125396
1 4 100 16 0.0156985
2 4 100 16 0.0232154
3 4 100 16 0.101154
4 4 100 16 0.229091
5 4 100 16 0.162278
6 4 100 16 0.117498
7 4 100 16 0.0934756
8 4 100 16 0.0483999
9 4 100 16 0.0417277
10 4 100 16 0.0418756
11 4 100 16 0.0235875
12 4 100 16 0.0289458
13 4 100 16 0.0175402
14 4 100 16 0.0158544
15 4 100 16 0.0242042
16 4 100 16 0.0154554
1 5 100 16 0.00416445
2 5 100 16 0.0309801
3 5 100 16 0.0243944
4 5 100 16 0.0958719
5 5 100 16 0.198688
6 5 100 16 0.154904
7 5 100 16 0.141948
8 5 100 16 0.0906911
9 5 100 16 0.0713479
10 5 100 16 0.0378852
11 5 100 16 0.0277561
12 5 100 16 0.0268085
13 5 100 16 0.0243321
14 5 100 16 0.0198201
15 5 100 16 0.0246529
16 5 100 16 0.0257556
1 6 100 16 0.00473785
2 6 100 16 0.0256666
3 6 100 16 0.0350984
4 6 100 16 0.0344608
5 6 100 16 0.098713
6 6 100 16 0.169018
7 6 100 16 0.125959
8 6 100 16 0.115223
9 6 100 16 0.0881115
10 6 100 16 0.0802819
11 6 100 16 0.0533793
12 6 100 16 0.0511678
13 6 100 16 0.0287134
14 6 100 16 0.0232997
15 6 100 16 0.0331739
16 6 100 16 0.032996
1 7 100 16 0.00902879
2 7 100 16 0.0125061
3 7 100 16 0.0201049
4 7 100 16 0.0276287
5 7 100 16 0.0443135
6 7 100 16 0.112783
7 7 100 16 0.158588
8 7 100 16 0.134489
9 7 100 16 0.102042
10 7 100 16 0.0880652
11 7 100 16 0.0685294
12 7 100 16 0.0473682
13 7 100 16 0.0416369
14 7 100 16 0.0324965
15 7 100 16 0.0418277
16 7 100 16 0.0585929
1 8 100 16 0.00864105
2 8 100 16 0.00714516
3 8 100 16 0.0138366
4 8 100 16 0.0292394
5 8 100 16 0.0290757
6 8 100 16 0.0526296
7 8 100 16 0.0986838
8 8 100 16 0.144865
9 8 100 16 0.127099
10 8 100 16 0.114383
11 8 100 16 0.0846281
12 8 100 16 0.0779068
13 8 100 16 0.0692993
14 8 100 16 0.049061
15 8 100 16 0.0565123
16 8 100 16 0.0369949
1 9 100 16 0.0098247
2 9 100 16 0.0165265
3 9 100 16 0.00640049
4 9 100 16 0.0201833
5 9 100 16 0.0260505
6 9 100 16 0.034091
7 9 100 16 0.0449645
8 9 100 16 0.099852
9 9 100 16 0.131808
10 9 100 16 0.114547
11 9 100 16 0.100707
12 9 100 16 0.0852807
13 9 100 16 0.098906
14 9 100 16 0.0767592
15 9 100 16 0.0490698
16 9 100 16 0.0850299
1 10 100 16 4.80592e-06
2 10 100 16 0.00249987
3 10 100 16 0.0171967
4 10 100 16 0.0200976
5 10 100 16 0.027045
6 10 100 16 0.0319535
7 10 100 16 0.0357861
8 10 100 16 0.0545275
9 10 100 16 0.0968591
10 10 100 16 0.130906
11 10 100 16 0.125844
12 10 100 16 0.105558
13 10 100 16 0.0968376
14 10 100 16 0.06498
15 10 100 16 0.0962559
16 10 100 16 0.0936475
1 11 100 16 0.00846894
2 11 100 16 0.0078501
3 11 100 16 0.013306
4 11 100 16 0.0173416
5 11 100 16 0.0167875
6 11 100 16 0.0316812
7 11 100 16 0.0282016
8 11 100 16 0.0343865
9 11 100 16 0.0467997
10 11 100 16 0.109466
11 11 100 16 0.15715
12 11 100 16 0.142895
13 11 100 16 0.103632
14 11 100 16 0.0936608
15 11 100 16 0.0775552
16 11 100 16 0.110819
1 12 100 16 0.00551733
2 12 100 16 0.0130485
3 12 100 16 0.0161242
4 12 100 16 0.0199165
5 12 100 16 0.0141853
6 12 100 16 0.0196411
7 12 100 16 0.0422306
8 12 100 16 0.0418998
9 12 100 16 0.0568614
10 12 100 16 0.0750096
11 12 100 16 0.109865
12 12 100 16 0.156093
13 12 100 16 0.119129
14 12 100 16 0.100276
15 12 100 16 0.0982636
16 12 100 16 0.111939
1 13 100 16 0.00693374
2 13 100 16 0.0132307
3 13 100 16 0.00812721
4 13 100 16 0.0111563
5 13 100 16 0.0179446
6 13 100 16 0.0142802
7 13 100 16 0.0313419
8 13 100 16 0.0293418
9 13 100 16 0.0326613
10 13 100 16 0.0527968
11 13 100 16 0.0810396
12 13 100 16 0.144935
13 13 100 16 0.16262
14 13 100 16 0.168569
15 13 100 16 0.112539
16 13 100 16 0.112484
1 14 100 16 0.00266952
2 14 100 16 0.00796452
3 14 100 16 0.0134492
4 14 100 16 0.0224883
5 14 100 16 0.0149702
6 14 100 16 0.0243596
7 14 100 16 0.0238778
8 14 100 16 0.0265661
9 14 100 16 0.0336584
10 14 100 16 0.0439366
11 14 100 16 0.0451084
12 14 100 16 0.0625094
13 14 100 16 0.1752
14 14 100 16 0.192487
15 14 100 16 0.169574
16 14 100 16 0.141181
1 15 100 16 0.000626834
2 15 100 16 0.0053743
3 15 100 16 0.0194837
4 15 100 16 0.0208982
5 15 100 16 0.0355374
6 15 100 16 0.0103894
7 15 100 16 0.0236067
8 15 100 16 0.0389841
9 15 100 16 0.0310998
10 15 100 16 0.0333246
11 15 100 16 0.0536603
12 15 100 16 0.0567542
13 15 100 16 0.0882102
14 15 100 16 0.163132
15 15 100 16 0.213241
16 15 100 16 0.205677
1 16 100 16 9.43881e-07
2 16 100 16 0.00298948
3 16 100 16 0.000566983
4 16 100 16 0.0183028
5 16 100 16 0.0129464
6 16 100 16 0.0290188
7 16 100 16 0.038287
8 16 100 16 0.0362675
9 16 100 16 0.0436462
10 16 100 16 0.0539947
11 16 100 16 0.0604131
12 16 100 16 0.0512934
13 16 100 16 0.069313
14 16 100 16 0.0754732
15 16 100 16 0.2057
16 16 100 16 0.301786
1 17 100 16 4.03875e-07
2 17 100 16 4.17779e-05
3 17 100 16 0.00702436
4 17 100 16 0.0079411
5 17 100 16 0.0269504
6 17 100 16 0.0143394
7 17 100 16 0.0145409
8 17 100 16 0.0321953
9 17 100 16 0.02876
10 17 100 16 0.0511659
11 17 100 16 0.071856
12 17 100 16 0.0438136
13 17 100 16 0.0716366
14 17 100 16 0.133912
15 17 100 16 0.161847
16 17 100 16 0.333976
1 18 100 16 7.54838e-06
2 18 100 16 0.0231699
3 18 100 16 0.00572631
4 18 100 16 0.0244251
5 18 100 16 0.0403719
6 18 100 16 0.012662
7 18 100 16 0.0264625
8 18 100 16 0.0241897
9 18 100 16 0.0176799
10 18 100 16 0.0124463
11 18 100 16 0.0393695
12 18 100 16 0.0557631
13 18 100 16 0.0936192
14 18 100 16 0.121023
15 18 100 16 0.182154
16 18 100 16 0.32093
1 19 100 16 1.02625e-06
2 19 100 16 2.67378e-06
3 19 100 16 7.43518e-06
4 19 100 16 0.0430386
5 19 100 16 0.00504877
6 19 100 16 0.0220712
7 19 100 16 0.000638172
8 19 100 16 0.0664136
9 19 100 16 0.0205786
10 19 100 16 0.0620677
11 19 100 16 0.0705657
12 19 100 16 0.0742759
13 19 100 16 0.137772
14 19 100 16 0.0976792
15 19 100 16 0.207802
16 19 100 16 0.192038
1 20 100 16 3.66504e-06
2 20 100 16 0.000229575
3 20 100 16 4.59832e-06
4 20 100 16 3.47014e-05
5 20 100 16 0.0571554
6 20 100 16 0.00049649
7 20 100 16 0.000438227
8 20 100 16 0.0434423
9 20 100 16 0.0305685
10 20 100 16 0.0229845
11 20 100 16 0.0949234
12 20 100 16 0.132722
13 20 100 16 0.0927184
14 20 100 16 0.129793
15 20 100 16 0.128974
16 20 100 16 0.26551
1 21 100 16 1.1922e-05
2 21 100 16 1.14933e-07
3 21 100 16 3.41483e-06
4 21 100 16 0.00267646
5 21 100 16 5.27584e-06
6 21 100 16 5.17312e-05
7 21 100 16 0.000627055
8 21 100 16 0.0249929
9 21 100 16 0.0101768
10 21 100 16 0.0103594
11 21 100 16 0.0553437
12 21 100 16 0.0561403
13 21 100 16 0.0701408
14 21 100 16 0.127433
15 21 100 16 0.263149
16 21 100 16 0.378889
1 22 100 16 6.39757e-07
2 22 100 16 4.96705e-06
3 22 100 16 1.83607e-06
5 22 100 16 0.00189874
6 22 100 16 0.00183324
7 22 100 16 0.056118
8 22 100 16 9.71294e-07
9 22 100 16 0.0249671
10 22 100 16 0.118008
11 22 100 16 0.00646476
12 22 100 16 0.0941562
13 22 100 16 0.0425685
14 22 100 16 0.130519
15 22 100 16 0.141055
16 22 100 16 0.382403
4 23 100 16 0.0212332
5 23 100 16 1.79933e-05
6 23 100 16 5.30052e-07
7 23 100 16 7.49199e-07
8 23 100 16 0.0004663
9 23 100 16 0.000426604
10 23 100 16 7.26808e-05
11 23 100 16 0.271288
12 23 100 16 0.0784743
13 23 100 16 0.185881
14 23 100 16 0.000228491
15 23 100 16 0.00199293
16 23 100 16 0.439917
2 24 100 16 6.19486e-06
3 24 100 16 4.76069e-07
4 24 100 16 1.29052e-05
5 24 100 16 5.51033e-06
9 24 100 16 3.20824e-05
10 24 100 16 0.00081257
11 24 100 16 9.01913e-07
12 24 100 16 0.251078
13 24 100 16 0.246715
14 24 100 16 0.000408849
15 24 100 16 2.18509e-06
16 24 100 16 0.500925
5 25 100 16 0.000180851
6 25 100 16 0.000808792
7 25 100 16 0.000875489
9 25 100 16 2.97741e-05
10 25 100 16 0.939413
11 25 100 16 0.000128187
12 25 100 16 0.04035
13 25 100 16 0.000551748
16 25 100 16 0.0176624
1 26 100 16 3.26405e-05
5 26 100 16 0.882879
9 26 100 16 0.0560609
10 26 100 16 3.12047e-05
14 26 100 16 0.00023005
16 26 100 16 0.0607666
3 27 100 16 0.00353533
10 27 100 16 0.996465
3 28 100 16 0.093227
5 28 100 16 0.906773
3 31 100 16 0.961297
7 31 100 16 0.0387035
1 0 100 17 0.0520897
2 0 100 17 0.0545516
3 0 100 17 0.0552759
4 0 100 17 0.0638095
5 0 100 17 0.0732691
6 0 100 17 0.0764778
7 0 100 17 0.0563139
8 0 100 17 0.0606665
9 0 100 17 0.0658483
10 0 100 17 0.0622955
11 0 100 17 0.0655932
12 0 100 17 0.0632213
13 0 100 17 0.0553109
14 0 100 17 0.0612496
15 0 100 17 0.0819182
16 0 100 17 0.0506522
17 0 100 17 0.00145707
1 1 100 17 0.511423
2 1 100 17 0.16526
3 1 100 17 0.057453
4 1 100 17 0.0258889
5 1 100 17 0.0273854
6 1 100 17 0.0279949
7 1 100 17 0.0143489
8 1 100 17 0.0313614
9 1 100 17 0.0191081
10 1 100 17 0.0270793
11 1 100 17 0.0245449
12 1 100 17 0.021479
13 1 100 17 0.0184541
14 1 100 17 0.0189742
15 1 100 17 0.00314578
16 1 100 17 0.0021743
17 1 100 17 0.00392434
1 2 100 17 0.0190444
2 2 100 17 0.339754
3 2 100 17 0.211256
4 2 100 17 0.0863793
5 2 100 17 0.0563635
6 2 100 17 0.0346886
7 2 100 17 0.0463743
8 2 100 17 0.0297569
9 2 100 17 0.0379215
10 2 100 17 0.0214325
11 2 100 17 0.00865923
12 2 100 17 0.00906793
13 2 100 17 0.0111063
14 2 100 17 0.00594864
15 2 100 17 0.0291361
16 2 100 17 0.0293005
17 2 100 17 0.0238104
1 3 100 17 0.0153961
2 3 100 17 0.109585
3 3 100 17 0.25675
4 3 100 17 0.196742
5 3 100 17 0.106114
6 3 100 17 0.0782732
7 3 100 17 0.0618385
8 3 100 17 0.0281613
9 3 100 17 0.0297686
10 3 100 17 0.0225882
11 3 100 17 0.0168597
12 3 100 17 0.0214494
13 3 100 17 0.0138174
14 3 100 17 0.0106685
15 3 100 17 0.00301068
16 3 100 17 0.0164162
17 3 100 17 0.0125609
1 4 100 17 0.0102843
2 4 100 17 0.0268013
3 4 100 17 0.123191
4 4 100 17 0.216346
5 4 100 17 0.178757
6 4 100 17 0.0985977
7 4 100 17 0.0914469
8 4 100 17 0.0651936
9 4 100 17 0.0421497
10 4 100 17 0.0438032
11 4 100 17 0.0271262
12 4 100 17 0.0177058
13 4 100 17 0.0159883
14 4 100 17 0.019084
15 4 100 17 0.00649835
16 4 100 17 0.00735342
17 4 100 17 0.00967245
1 5 100 17 0.00665723
2 5 100 17 0.032914
3 5 100 17 0.0446166
4 5 100 17 0.114175
5 5 100 17 0.187768
6 5 100 17 0.145582
7 5 100 17 0.129971
8 5 100 17 0.092357
9 5 100 17 0.0601991
10 5 100 17 0.0448753
11 5 100 17 0.0441325
12 5 100 17 0.0266812
13 5 100 17 0.0240259
14 5 100 17 0.0182435
15 5 100 17 0.00692368
16 5 100 17 0.011071
17 5 100 17 0.00980706
1 6 100 17 0.00943521
2 6 100 17 0.0230205
3 6 100 17 0.0294224
4 6 100 17 0.0449547
5 6 100 17 0.103622
6 6 100 17 0.175488
7 6 100 17 0.130859
8 6 100 17 0.100908
9 6 100 17 0.0919042
10 6 100 17 0.06402
11 6 100 17 0.047681
12 6 100 17 0.0546419
13 6 100 17 0.0377395
14 6 100 17 0.0265754
15 6 100 17 0.0218225
16 6 100 17 0.0164802
17 6 100 17 0.0214261
1 7 100 17 0.00817633
2 7 100 17 0.00766855
3 7 100 17 0.0175618
4 7 100 17 0.0379687
5 7 100 17 0.0386055
6 7 100 17 0.0850367
7 7 100 17 0.156887
8 7 100 17 0.126302
9 7 100 17 0.0989145
10 7 100 17 0.0998252
11 7 100 17 0.0627332
12 7 100 17 0.062462
13 7 100 17 0.0553711
14 7 100 17 0.0368645
15 7 100 17 0.0358752
16 7 100 17 0.0346322
17 7 100 17 0.035116
1 8 100 17 0.00491394
2 8 100 17 0.0180359
3 8 100 17 0.0234161
4 8 100 17 0.0345377
5 8 100 17 0.0423801
6 8 100 17 0.0500216
7 8 100 17 0.0853102
8 8 100 17 0.14889
9 8 100 17 0.111057
10 8 100 17 0.0975588
11 8 100 17 0.0741337
12 8 100 17 0.05215
13 8 100 17 0.0476069
14 8 100 17 0.0756118
15 8 100 17 0.04244
16 8 100 17 0.0461522
17 8 100 17 0.0457837
1 9 100 17 0.00631681
2 9 100 17 0.0126087
3 9 100 17 0.0165277
4 9 100 17 0.0222168
5 9 100 17 0.023528
6 9 100 17 0.0374904
7 9 100 17 0.0540341
8 9 100 17 0.0838184
9 9 100 17 0.137958
10 9 100 17 0.112456
11 9 100 17 0.0900661
12 9 100 17 0.0988303
13 9 100 17 0.077442
14 9 100 17 0.0480855
15 9 100 17 0.0614559
16 9 100 17 0.0544638
17 9 100 17 0.0627015
1 10 100 17 0.00373971
2 10 100 17 0.00930192
3 10 100 17 0.0125076
4 10 100 17 0.022527
5 10 100 17 0.0138304
6 10 100 17 0.0186749
7 10 100 17 0.0300118
8 10 100 17 0.0540542
9 10 100 17 0.0994357
10 10 100 17 0.146853
11 10 100 17 0.124755
12 10 100 17 0.0918479
13 10 100 17 0.109243
14 10 100 17 0.0788217
15 10 100 17 0.04085
16 10 100 17 0.0719999
17 10 100 17 0.0715461
1 11 100 17 0.00456608
2 11 100 17 0.00327737
3 11 100 17 0.011968
4 11 100 17 0.0133121
5 11 100 17 0.0352109
6 11 100 17 0.0213354
7 11 100 17 0.0347256
8 11 100 17 0.0371979
9 11 100 17 0.0529647
10 11 100 17 0.101196
11 11 100 17 0.158469
12 11 100 17 0.11597
13 11 100 17 0.094403
14 11 100 17 0.106805
15 11 100 17 0.0861882
16 11 100 17 0.0511259
17 11 100 17 0.0712839
1 12 100 17 0.00549741
2 12 100 17 0.00716044
3 12 100 17 0.00749515
4 12 100 17 0.0122537
5 12 100 17 0.00825467
6 12 100 17 0.032732
7 12 100 17 0.0149274
8 12 100 17 0.0331459
9 12 100 17 0.0398082
10 12 100 17 0.0394482
11 12 100 17 0.108393
12 12 100 17 0.13384
13 12 100 17 0.142252
14 12 100 17 0.105894
15 12 100 17 0.104087
16 12 100 17 0.116694
17 12 100 17 0.088117
1 13 100 17 0.00396437
2 13 100 17 0.0167422
3 13 100 17 0.0221617
4 13 100 17 0.0171183
5 13 100 17 0.0156233
6 13 100 17 0.0103464
7 13 100 17 0.0294398
8 13 100 17 0.0215263
9 13 100 17 0.0181022
10 13 100 17 0.0456826
11 13 100 17 0.0542209
12 13 100 17 0.0977739
13 13 100 17 0.133837
14 13 100 17 0.135677
15 13 100 17 0.119119
16 13 100 17 0.110384
17 13 100 17 0.148281
1 14 100 17 0.00238203
2 14 100 17 0.0070129
3 14 100 17 0.0248173
4 14 100 17 0.0125149
5 14 100 17 0.0141399
6 14 100 17 0.0151925
7 14 100 17 0.0191812
8 14 100 17 0.0225088
9 14 100 17 0.0187573
10 14 100 17 0.0350902
11 14 100 17 0.0397852
12 14 100 17 0.0687546
13 14 100 17 0.130781
14 14 100 17 0.156588
15 14 100 17 0.134187
16 14 100 17 0.158752
17 14 100 17 0.139555
1 15 100 17 6.52065e-05
2 15 100 17 0.00471824
3 15 100 17 0.00826931
4 15 100 17 0.0249689
5 15 100 17 0.0162937
6 15 100 17 0.0138283
7 15 100 17 0.0150864
8 15 100 17 0.0142423
9 15 100 17 0.0308904
10 15 100 17 0.0120872
11 15 100 17 0.0437393
12 15 100 17 0.0514668
13 15 100 17 0.0748986
14 15 100 17 0.131857
15 15 100 17 0.193418
16 15 100 17 0.164436
17 15 100 17 0.199735
1 16 100 17 0.00389695
2 16 100 17 0.00689116
3 16 100 17 0.00389476
4 16 100 17 1.97152e-06
5 16 100 17 0.0106274
6 16 100 17 0.015923
7 16 100 17 0.0153815
8 16 100 17 0.0342629
9 16 100 17 0.0398792
10 16 100 17 0.0225312
11 16 100 17 0.0507946
12 16 100 17 0.0678042
13 16 100 17 0.0720618
14 16 100 17 0.0804239
15 16 100 17 0.128789
16 16 100 17 0.232575
17 16 100 17 0.214262
1 17 100 17 0.0109426
2 17 100 17 0.00487511
3 17 100 17 0.0155963
4 17 100 17 0.0149619
5 17 100 17 0.00113924
6 17 100 17 0.0102256
7 17 100 17 0.0202084
8 17 100 17 0.0245014
9 17 100 17 0.0351173
10 17 100 17 0.0451864
11 17 100 17 0.0309326
12 17 100 17 0.0565281
13 17 100 17 0.044872
14 17 100 17 0.0934725
15 17 100 17 0.112436
16 17 100 17 0.15936
17 17 100 17 0.319644
1 18 100 17 1.05055e-05
2 18 100 17 0.00903886
3 18 100 17 2.30983e-05
4 18 100 17 4.13597e-05
5 18 100 17 3.6237e-05
6 18 100 17 0.0351643
7 18 100 17 0.0273404
8 18 100 17 0.0207149
9 18 100 17 0.0384999
10 18 100 17 0.000160035
11 18 100 17 0.0440378
12 18 100 17 0.0453607
13 18 100 17 0.0532053
14 18 100 17 0.0800289
15 18 100 17 0.0816721
16 18 100 17 0.200529
17 18 100 17 0.364137
1 19 100 17 4.25335e-05
2 19 100 17 0.0161604
3 19 100 17 0.00276648
4 19 100 17 0.0243084
5 19 100 17 0.0155495
6 19 100 17 0.0608026
7 19 100 17 0.0295425
8 19 100 17 0.033243
9 19 100 17 0.0352027
10 19 100 17 0.0493177
11 19 100 17 0.0566685
12 19 100 17 0.0573835
13 19 100 17 0.0506508
14 19 100 17 0.0515593
15 19 100 17 0.152133
16 19 100 17 0.135079
17 19 100 17 0.22959
1 20 100 17 9.30669e-07
2 20 100 17 4.59244e-06
3 20 100 17 0.000116472
4 20 100 17 0.0705818
5 20 100 17 0.00359274
6 20 100 17 0.0298422
7 20 100 17 0.042441
8 20 100 17 0.0310099
9 20 100 17 0.00309323
10 20 100 17 0.00406504
11 20 100 17 0.0304928
12 20 100 17 0.103255
13 20 100 17 0.121235
14 20 100 17 0.0514551
15 20 100 17 0.0697679
16 20 100 17 0.160175
17 20 100 17 0.278871
1 21 100 17 5.66081e-07
2 21 100 17 0.000586645
3 21 100 17 2.59809e-05
4 21 100 17 7.45812e-06
5 21 100 17 0.0133259
6 21 100 17 0.000114741
7 21 100 17 0.010229
8 21 100 17 7.4584e-07
9 21 100 17 0.0306799
10 21 100 17 0.102408
11 21 100 17 0.00162326
12 21 100 17 0.150703
13 21 100 17 0.0619406
14 21 100 17 0.105848
15 21 100 17 0.113927
16 21 100 17 0.204941
17 21 100 17 0.203638
1 22 100 17 3.00249e-07
2 22 100 17 2.09033e-07
3 22 100 17 0.0749356
4 22 100 17 6.78731e-07
5 22 100 17 5.44826e-07
7 22 100 17 0.000132969
8 22 100 17 0.261919
9 22 100 17 0.0717112
10 22 100 17 0.000224575
11 22 100 17 7.45334e-06
12 22 100 17 0.0879608
13 22 100 17 0.113827
14 22 100 17 0.0703389
15 22 100 17 0.13862
16 22 100 17 3.11954e-06
17 22 100 17 0.180319
1 23 100 17 1.52831e-06
2 23 100 17 1.12509e-06
3 23 100 17 0.000113298
4 23 100 17 0.142303
5 23 100 17 1.15859e-06
9 23 100 17 0.000227627
10 23 100 17 0.14222
11 23 100 17 4.53646e-05
12 23 100 17 5.30318e-06
13 23 100 17 2.70662e-06
14 23 100 17 0.140318
15 23 100 17 2.45046e-06
16 23 100 17 0.29033
17 23 100 17 0.284429
2 24 100 17 0.000931023
4 24 100 17 0.475819
5 24 100 17 0.000193262
8 24 100 17 0.00730094
9 24 100 17 1.50102e-05
11 24 100 17 0.0339341
13 24 100 17 0.000454934
14 24 100 17 0.000260779
15 24 100 17 0.00222312
16 24 100 17 1.17795e-05
17 24 100 17 0.478856
1 25 100 17 2.78396e-06
2 25 100 17 0.000163606
3 25 100 17 5.31555e-06
4 25 100 17 0.00349496
5 25 100 17 0.208483
6 25 100 17 0.209605
7 25 100 17 0.209581
8 25 100 17 0.000357984
10 25 100 17 2.29708e-07
11 25 100 17 9.99064e-06
13 25 100 17 5.83914e-07
14 25 100 17 6.81357e-06
15 25 100 17 0.000178159
16 25 100 17 0.368109
17 25 100 17 4.49979e-07
2 26 100 17 0.000333416
3 26 100 17 0.000102593
5 26 100 17 0.00148537
6 26 100 17 0.0148553
7 26 100 17 0.000101703
8 26 100 17 0.059368
9 26 100 17 0.000155463
10 26 100 17 0.00251037
14 26 100 17 0.00332368
15 26 100 17 0.351835
16 26 100 17 0.0313487
17 26 100 17 0.53458
4 27 100 17 0.700683
14 27 100 17 0.299317
14 28 100 17 0.002879
15 28 100 17 0.997115
17 28 100 17 6.55328e-06
5 29 100 17 0.0686454
6 29 100 17 0.193471
7 29 100 17 0.0818825
8 29 100 17 0.653698
10 29 100 17 0.00101902
15 29 100 17 0.000168515
16 29 100 17 0.00110981
17 29 100 17 5.67939e-06
2 30 100 17 0.000662761
9 30 100 17 0.999337
5 31 100 17 1
5 32 100 17 0.00274581
6 32 100 17 0.359042
7 32 100 17 0.000478622
8 32 100 17 0.0238459
10 32 100 17 0.500698
15 32 100 17 0.00444556
16 32 100 17 0.1081
17 32 100 17 0.00064383
5 33 100 17 0.00299074
6 33 100 17 0.73975
7 33 100 17 0.000626866
8 33 100 17 0.00908997
10 33 100 17 0.0204988
15 33 100 17 0.00295372
16 33 100 17 0.0148213
17 33 100 17 0.209268
7 37 100 17 0.456894
16 37 100 17 0.543106
5 40 100 17 1
1 0 100 18 0.0492874
2 0 100 18 0.0513316
3 0 100 18 0.0434848
4 0 100 18 0.0543006
5 0 100 18 0.0568975
6 0 100 18 0.0667061
7 0 100 18 0.0533515
8 0 100 18 0.0624789
9 0 100 18 0.0552898
10 0 100 18 0.0727678
11 0 100 18 0.0570244
12 0 100 18 0.061983
13 0 100 18 0.061086
14 0 100 18 0.0523342
15 0 100 18 0.0691255
16 0 100 18 0.0741347
17 0 100 18 0.0562935
18 0 100 18 0.00212276
1 1 100 18 0.560229
2 1 100 18 0.188971
3 1 100 18 0.051293
4 1 100 18 0.0190649
5 1 100 18 0.0234105
6 1 100 18 0.0207062
7 1 100 18 0.013914
8 1 100 18 0.0140888
9 1 100 18 0.0116771
10 1 100 18 0.0141996
11 1 100 18 0.0164224
12 1 100 18 0.00868252
13 1 100 18 0.00780243
14 1 100 18 0.0110589
15 1 100 18 0.00773504
16 1 100 18 0.0120114
17 1 100 18 0.0123393
18 1 100 18 0.00639383
1 2 100 18 0.0292543
2 2 100 18 0.345651
3 2 100 18 0.261343
4 2 100 18 0.106982
5 2 100 18 0.061787
6 2 100 18 0.0240587
7 2 100 18 0.0289457
8 2 100 18 0.0200134
9 2 100 18 0.0202209
10 2 100 18 0.015578
11 2 100 18 0.0158876
12 2 100 18 0.0158695
13 2 100 18 0.00976011
14 2 100 18 0.0132698
15 2 100 18 0.00684426
16 2 100 18 0.0055548
17 2 100 18 0.00976138
18 2 100 18 0.00921831
1 3 100 18 0.0159406
2 3 100 18 0.081051
3 3 100 18 0.269552
4 3 100 18 0.189223
5 3 100 18 0.119543
6 3 100 18 0.0663531
7 3 100 18 0.0464635
8 3 100 18 0.035185
9 3 100 18 0.0297685
10 3 100 18 0.0286735
11 3 100 18 0.0247567
12 3 100 18 0.0154695
13 3 100 18 0.0250866
14 3 100 18 0.0163019
15 3 100 18 0.00956594
16 3 100 18 0.00549282
17 3 100 18 0.013475
18 3 100 18 0.00809834
1 4 100 18 0.016772
2 4 100 18 0.0323822
3 4 100 18 0.102631
4 4 100 18 0.241177
5 4 100 18 0.164968
6 4 100 18 0.112414
7 4 100 18 0.0850492
8 4 100 18 0.0634321
9 4 100 18 0.0464845
10 4 100 18 0.0232707
11 4 100 18 0.0152914
12 4 100 18 0.0161592
13 4 100 18 0.00863257
14 4 100 18 0.0128747
15 4 100 18 0.0109946
16 4 100 18 0.0236016
17 4 100 18 0.00369153
18 4 100 18 0.0201732
1 5 100 18 0.0163376
2 5 100 18 0.0294354
3 5 100 18 0.0433868
4 5 100 18 0.105557
5 5 100 18 0.220316
6 5 100 18 0.135804
7 5 100 18 0.122603
8 5 100 18 0.0696864
9 5 100 18 0.0565345
10 5 100 18 0.0384313
11 5 100 18 0.0335429
12 5 100 18 0.0381253
13 5 100 18 0.00883767
14 5 100 18 0.0217999
15 5 100 18 0.0176597
16 5 100 18 0.0117567
17 5 100 18 0.0167098
18 5 100 18 0.0134758
1 6 100 18 0.00189626
2 6 100 18 0.0217803
3 6 100 18 0.0221205
4 6 100 18 0.0500731
5 6 100 18 0.0925283
6 6 100 18 0.187661
7 6 100 18 0.126486
8 6 100 18 0.114357
9 6 100 18 0.0986833
10 6 100 18 0.065313
11 6 100 18 0.0487441
12 6 100 18 0.0444911
13 6 100 18 0.0464268
14 6 100 18 0.0140345
15 6 100 18 0.0187046
16 6 100 18 0.013922
17 6 100 18 0.0138599
18 6 100 18 0.0189179
1 7 100 18 0.00448924
2 7 100 18 0.00751137
3 7 100 18 0.0320914
4 7 100 18 0.0418388
5 7 100 18 0.0393948
6 7 100 18 0.0977241
7 7 100 18 0.173557
8 7 100 18 0.120769
9 7 100 18 0.113192
10 7 100 18 0.0777053
11 7 100 18 0.0533664
12 7 100 18 0.0568635
13 7 100 18 0.055148
14 7 100 18 0.0553061
15 7 100 18 0.0178046
16 7 100 18 0.0154943
17 7 100 18 0.0136656
18 7 100 18 0.0240788
1 8 100 18 0.006243
2 8 100 18 0.00191554
3 8 100 18 0.00249379
4 8 100 18 0.0210935
5 8 100 18 0.0359693
6 8 100 18 0.0492443
7 8 100 18 0.0971718
8 8 100 18 0.151171
9 8 100 18 0.123612
10 8 100 18 0.0944527
11 8 100 18 0.104937
12 8 100 18 0.0446862
13 8 100 18 0.0444014
14 8 100 18 0.0610176
15 8 100 18 0.0547482
16 8 100 18 0.0351706
17 8 100 18 0.0364971
18 8 100 18 0.0351747
1 9 100 18 0.00201045
2 9 100 18 0.00796179
3 9 100 18 0.00789327
4 9 100 18 0.0124714
5 9 100 18 0.0161461
6 9 100 18 0.0350634
7 9 100 18 0.0703498
8 9 100 18 0.095614
9 9 100 18 0.139077
10 9 100 18 0.115138
11 9 100 18 0.107614
12 9 100 18 0.0773638
13 9 100 18 0.0661318
14 9 100 18 0.0501187
15 9 100 18 0.0553754
16 9 100 18 0.0551998
17 9 100 18 0.0358398
18 9 100 18 0.0506314
1 10 100 18 0.00422094
2 10 100 18 0.00401909
3 10 100 18 0.0160465
4 10 100 18 0.0123442
5 10 100 18 0.0277483
6 10 100 18 0.0439613
7 10 100 18 0.0323511
8 10 100 18 0.0345935
9 10 100 18 0.0841463
10 10 100 18 0.131825
11 10 100 18 0.103033
12 10 100 18 0.100103
13 10 100 18 0.0964217
14 10 100 18 0.060159
15 10 100 18 0.0494837
16 10 100 18 0.0591038
17 10 100 18 0.082543
18 10 100 18 0.0578969
1 11 100 18 0.0017408
2 11 100 18 0.00578876
3 11 100 18 0.000261747
4 11 100 18 0.011807
5 11 100 18 0.00791037
6 11 100 18 0.0228488
7 11 100 18 0.0384649
8 11 100 18 0.041768
9 11 100 18 0.0492616
10 11 100 18 0.0926872
11 11 100 18 0.129315
12 11 100 18 0.108737
13 11 100 18 0.118439
14 11 100 18 0.0922827
15 11 100 18 0.0678051
16 11 100 18 0.0643799
17 11 100 18 0.0630385
18 11 100 18 0.0834637
1 12 100 18 6.78753e-06
2 12 100 18 0.0104403
3 12 100 18 0.00569279
4 12 100 18 0.0104391
5 12 100 18 0.0128915
6 12 100 18 0.0262814
7 12 100 18 0.0204502
8 12 100 18 0.0472211
9 12 100 18 0.0354164
10 12 100 18 0.0400691
11 12 100 18 0.10582
12 12 100 18 0.156
13 12 100 18 0.0872931
14 12 100 18 0.111689
15 12 100 18 0.0981445
16 12 100 18 0.0717494
17 12 100 18 0.0661754
18 12 100 18 0.0942197
1 13 100 18 0.00426135
2 13 100 18 0.00642679
3 13 100 18 0.0121595
4 13 100 18 0.0108778
5 13 100 18 0.0138492
6 13 100 18 0.0121749
7 13 100 18 0.0150305
8 13 100 18 0.0232045
9 13 100 18 0.036265
10 13 100 18 0.0402164
11 13 100 18 0.0453482
12 13 100 18 0.10932
13 13 100 18 0.140292
14 13 100 18 0.105863
15 13 100 18 0.131604
16 13 100 18 0.106386
17 13 100 18 0.0986249
18 13 100 18 0.0880961
1 14 100 18 4.84268e-05
2 14 100 18 0.0124687
3 14 100 18 0.00992049
4 14 100 18 0.00996835
5 14 100 18 0.0126073
6 14 100 18 0.0124344
7 14 100 18 0.0204784
8 14 100 18 0.0407854
9 14 100 18 0.0313051
10 14 100 18 0.039358
11 14 100 18 0.0407119
12 14 100 18 0.0560228
13 14 100 18 0.0983105
14 14 100 18 0.156247
15 14 100 18 0.113009
16 14 100 18 0.10394
17 14 100 18 0.118379
18 14 100 18 0.124005
1 15 100 18 1.09525e-07
2 15 100 18 0.00010924
3 15 100 18 0.0121817
4 15 100 18 0.00951577
5 15 100 18 0.00628944
6 15 100 18 0.0100959
7 15 100 18 0.0158777
8 15 100 18 0.0094983
9 15 100 18 0.0253724
10 15 100 18 0.0353068
11 15 100 18 0.0658713
12 15 100 18 0.0538846
13 15 100 18 0.0490996
14 15 100 18 0.123314
15 15 100 18 0.179069
16 15 100 18 0.138581
17 15 100 18 0.124347
18 15 100 18 0.141587
1 16 100 18 0.00333405
2 16 100 18 0.00377261
3 16 100 18 0.0126681
4 16 100 18 0.0195244
5 16 100 18 0.0101212
6 16 100 18 0.0100479
7 16 100 18 0.0147007
8 16 100 18 0.0100925
9 16 100 18 0.0335693
10 16 100 18 0.0190164
11 16 100 18 0.0531059
12 16 100 18 0.0504414
13 16 100 18 0.0771428
14 16 100 18 0.0601162
15 16 100 18 0.105219
16 16 100 18 0.171187
17 16 100 18 0.161295
18 16 100 18 0.184646
1 17 100 18 2.32025e-05
2 17 100 18 0.00926495
3 17 100 18 4.5994e-05
4 17 100 18 0.0190817
5 17 100 18 0.027783
6 17 100 18 0.0187001
7 17 100 18 0.000349051
8 17 100 18 0.0267612
9 17 100 18 6.4143e-06
10 17 100 18 0.0316279
11 17 100 18 0.0143084
12 17 100 18 0.0330714
13 17 100 18 0.049004
14 17 100 18 0.0961727
15 17 100 18 0.0951504
16 17 100 18 0.117938
17 17 100 18 0.231593
18 17 100 18 0.229119
1 18 100 18 4.43561e-07
2 18 100 18 0.00987906
3 18 100 18 0.0120212
4 18 100 18 0.00597364
5 18 100 18 0.017546
6 18 100 18 0.0284804
7 18 100 18 0.022693
8 18 100 18 0.018001
9 18 100 18 0.029597
10 18 100 18 0.0228999
11 18 100 18 0.0188753
12 18 100 18 0.00643823
13 18 100 18 0.0581021
14 18 100 18 0.0638888
15 18 100 18 0.106812
16 18 100 18 0.128245
17 18 100 18 0.148309
18 18 100 18 0.302237
1 19 100 18 1.6118e-06
2 19 100 18 0.0067107
3 19 100 18 0.0123157
4 19 100 18 0.0105783
5 19 100 18 1.86674e-05
6 19 100 18 0.000501575
7 19 100 18 0.0133695
8 19 100 18 0.042067
9 19 100 18 0.0423799
10 19 100 18 0.0493403
11 19 100 18 0.0114752
12 19 100 18 0.0211352
13 19 100 18 0.0887063
14 19 100 18 0.105624
15 19 100 18 0.0425953
16 19 100 18 0.125257
17 19 100 18 0.132365
18 19 100 18 0.295559
1 20 100 18 6.1258e-06
2 20 100 18 4.72924e-06
3 20 100 18 0.000835115
4 20 100 18 0.0299091
5 20 100 18 0.0377056
6 20 100 18 0.0289332
7 20 100 18 0.0304085
8 20 100 18 0.024092
9 20 100 18 0.0598984
10 20 100 18 0.0176817
11 20 100 18 0.0361575
12 20 100 18 0.0565746
13 20 100 18 0.0180188
14 20 100 18 0.0790515
15 20 100 18 0.0913953
16 20 100 18 0.0830011
17 20 100 18 0.167408
18 20 100 18 0.238918
1 21 100 18 3.03692e-06
2 21 100 18 0.0128422
3 21 100 18 8.68842e-05
4 21 100 18 0.0166125
5 21 100 18 0.0331423
6 21 100 18 0.016369
7 21 100 18 0.0488117
8 21 100 18 0.0493812
9 21 100 18 0.0465981
10 21 100 18 0.0413638
11 21 100 18 0.0921671
12 21 100 18 0.0664968
13 21 100 18 0.0535656
14 21 100 18 0.0196369
15 21 100 18 0.0699628
16 21 100 18 0.124745
17 21 100 18 0.120906
18 21 100 18 0.187309
1 22 100 18 4.2032e-05
2 22 100 18 9.70676e-06
3 22 100 18 0.0425394
4 22 100 18 0.0442577
5 22 100 18 0.0175379
6 22 100 18 0.0220324
7 22 100 18 0.0385246
8 22 100 18 0.0440362
9 22 100 18 0.048827
10 22 100 18 0.00578118
11 22 100 18 0.000352973
12 22 100 18 0.0530036
13 22 100 18 0.0156977
14 22 100 18 0.0425953
15 22 100 18 0.000958758
16 22 100 18 0.0040075
17 22 100 18 0.296895
18 22 100 18 0.322901
1 23 100 18 6.5188e-06
2 23 100 18 2.55219e-06
3 23 100 18 0.000469763
4 23 100 18 0.00110876
5 23 100 18 4.28592e-06
6 23 100 18 2.80271e-05
7 23 100 18 0.000119447
8 23 100 18 6.67554e-06
9 23 100 18 0.00660322
10 23 100 18 0.10447
11 23 100 18 0.0754346
12 23 100 18 0.168471
13 23 100 18 0.133362
14 23 100 18 0.0380067
15 23 100 18 0.108187
16 23 100 18 0.0754134
17 23 100 18 0.0409117
18 23 100 18 0.247394
1 24 100 18 1.12845e-05
2 24 100 18 2.02315e-05
3 24 100 18 0.000322177
4 24 100 18 0.000379241
5 24 100 18 5.9388e-06
6 24 100 18 0.000107295
7 24 100 18 8.61477e-05
8 24 100 18 0.000120685
9 24 100 18 1.90555e-05
10 24 100 18 0.164697
11 24 100 18 0.000272642
12 24 100 18 3.93691e-05
13 24 100 18 0.275587
14 24 100 18 0.357796
15 24 100 18 0.002083
16 24 100 18 0.017177
17 24 100 18 0.1812
18 24 100 18 7.59784e-05
2 25 100 18 0.186623
3 25 100 18 2.97691e-06
6 25 100 18 8.09551e-07
8 25 100 18 5.90424e-07
10 25 100 18 8.08151e-06
11 25 100 18 2.18967e-07
13 25 100 18 3.69803e-05
14 25 100 18 0.446712
15 25 100 18 0.366608
16 25 100 18 2.68801e-06
17 25 100 18 2.68179e-06
18 25 100 18 2.09056e-06
1 26 100 18 5.27434e-06
3 26 100 18 0.245547
4 26 100 18 0.000589108
5 26 100 18 0.0106701
9 26 100 18 0.000364328
12 26 100 18 1.5447e-05
13 26 100 18 8.46112e-06
14 26 100 18 3.35193e-06
15 26 100 18 0.250565
16 26 100 18 0.491904
17 26 100 18 0.00032662
3 27 100 18 0.000219103
4 27 100 18 0.00011019
6 27 100 18 1.68357e-06
10 27 100 18 1.27365e-05
11 27 100 18 0.994313
13 27 100 18 0.00129258
16 27 100 18 6.1219e-06
17 27 100 18 0.00403882
18 27 100 18 6.28646e-06
2 28 100 18 0.432084
3 28 100 18 0.240734
5 28 100 18 0.305017
7 28 100 18 0.00619237
13 28 100 18 0.00234232
16 28 100 18 0.00581717
17 28 100 18 0.00781326
2 29 100 18 4.38971e-05
3 29 100 18 0.000429814
5 29 100 18 5.73093e-06
8 29 100 18 1.80137e-05
10 29 100 18 1.59037e-05
13 29 100 18 7.85094e-06
14 29 100 18 0.998612
16 29 100 18 0.000370298
17 29 100 18 0.000165559
18 29 100 18 0.000331145
2 30 100 18 9.71077e-05
3 30 100 18 3.10168e-06
4 30 100 18 0.00041872
6 30 100 18 7.03713e-07
8 30 100 18 0.0126258
10 30 100 18 0.00682982
13 30 100 18 1.8251e-05
15 30 100 18 0.489852
16 30 100 18 0.489804
17 30 100 18 0.000348165
18 30 100 18 2.45613e-06
1 31 100 18 4.98193e-06
7 31 100 18 0.0022198
8 31 100 18 0.00196817
10 31 100 18 0.00340633
13 31 100 18 3.61752e-05
16 31 100 18 6.94933e-05
17 31 100 18 0.351492
18 31 100 18 0.640803
3 32 100 18 0.000304752
4 32 100 18 4.99013e-06
6 32 100 18 0.541458
7 32 100 18 6.51105e-06
16 32 100 18 4.51021e-06
17 32 100 18 0.451354
18 32 100 18 0.00686783
1 33 100 18 9.88103e-06
4 33 100 18 0.408055
5 33 100 18 0.000151222
6 33 100 18 3.15743e-06
10 33 100 18 0.000330318
11 33 100 18 0.000114426
12 33 100 18 0.576681
13 33 100 18 0.0146201
16 33 100 18 3.46698e-05
17 33 100 18 9.96626e-07
1 34 100 18 2.6191e-05
4 34 100 18 0.00239701
5 34 100 18 0.00154665
8 34 100 18 0.380125
11 34 100 18 0.000261672
12 34 100 18 0.000105779
13 34 100 18 0.615538
7 35 100 18 4.72847e-06
9 35 100 18 0.999995
4 36 100 18 5.24327e-06
5 36 100 18 0.905234
6 36 100 18 0.0945493
7 36 100 18 0.000203416
18 36 100 18 7.58939e-06
1 0 100 19 0.0469402
2 0 100 19 0.0468141
3 0 100 19 0.0468906
4 0 100 19 0.0497644
5 0 100 19 0.0506073
6 0 100 19 0.0653653
7 0 100 19 0.0477034
8 0 100 19 0.052694
9 0 100 19 0.053896
10 0 100 19 0.0554627
11 0 100 19 0.0578644
12 0 100 19 0.0583124
13 0 100 19 0.0550236
14 0 100 19 0.0617974
15 0 100 19 0.0520865
16 0 100 19 0.0614561
17 0 100 19 0.0710941
18 0 100 19 0.0636303
19 0 100 19 0.00259725
1 1 100 19 0.571482
2 1 100 19 0.16829
3 1 100 19 0.054973
4 1 100 19 0.0185098
5 1 100 19 0.0194714
6 1 100 19 0.0232025
7 1 100 19 0.0151028
8 1 100 19 0.018615
9 1 100 19 0.0164906
10 1 100 19 0.0173033
11 1 100 19 0.0101218
12 1 100 19 0.0058429
13 1 100 19 0.0136489
14 1 100 19 0.00579774
15 1 100 19 0.0106558
16 1 100 19 0.0115399
17 1 100 19 0.0127966
18 1 100 19 0.00323447
19 1 100 19 0.00292103
1 2 100 19 0.0333642
2 2 100 19 0.363029
3 2 100 19 0.229756
4 2 100 19 0.11749
5 2 100 19 0.0598568
6 2 100 19 0.041474
7 2 100 19 0.0292393
8 2 100 19 0.0226502
9 2 100 19 0.0159539
10 2 100 19 0.0142831
11 2 100 19 0.0143366
12 2 100 19 0.0200768
13 2 100 19 0.00415552
14 2 100 19 0.00538443
15 2 100 19 0.00454783
16 2 100 19 0.00540097
17 2 100 19 0.00462139
18 2 100 19 0.0053859
19 2 100 19 0.00899426
1 3 100 19 0.0108982
2 3 100 19 0.117885
3 3 100 19 0.279373
4 3 100 19 0.193804
5 3 100 19 0.116582
6 3 100 19 0.057772
7 3 100 19 0.066251
8 3 100 19 0.0395173
9 3 100 19 0.0284178
10 3 100 19 0.0231576
11 3 100 19 0.00851009
12 3 100 19 0.00564726
13 3 100 19 0.0134247
14 3 100 19 0.00794851
15 3 100 19 0.00862735
16 3 100 19 0.00245062
17 3 100 19 0.00609835
18 3 100 19 0.00579096
19 3 100 19 0.00784356
1 4 100 19 0.0162378
2 4 100 19 0.0289355
3 4 100 19 0.117652
4 4 100 19 0.225031
5 4 100 19 0.147882
6 4 100 19 0.114359
7 4 100 19 0.0777059
8 4 100 19 0.0509948
9 4 100 19 0.0576673
10 4 100 19 0.0374609
11 4 100 19 0.0265296
12 4 100 19 0.0184928
13 4 100 19 0.0140335
14 4 100 19 0.0138467
15 4 100 19 0.0139335
16 4 100 19 0.0115651
17 4 100 19 0.00946355
18 4 100 19 0.00595847
19 4 100 19 0.0122499
1 5 100 19 0.0124014
2 5 100 19 0.0375386
3 5 100 19 0.0294539
4 5 100 19 0.122837
5 5 100 19 0.212399
6 5 100 19 0.147203
7 5 100 19 0.119515
8 5 100 19 0.076409
9 5 100 19 0.0515177
10 5 100 19 0.0481313
11 5 100 19 0.0264993
12 5 100 19 0.0312485
13 5 100 19 0.0206552
14 5 100 19 0.017047
15 5 100 19 0.00740959
16 5 100 19 0.00443358
17 5 100 19 0.0186515
18 5 100 19 0.0124936
19 5 100 19 0.00415562
1 6 100 19 0.0102582
2 6 100 19 0.0184201
3 6 100 19 0.0352921
4 6 100 19 0.0512209
5 6 100 19 0.112255
6 6 100 19 0.170479
7 6 100 19 0.146936
8 6 100 19 0.109955
9 6 100 19 0.07953
10 6 100 19 0.0532769
11 6 100 19 0.0554499
12 6 100 19 0.0299535
13 6 100 19 0.0205772
14 6 100 19 0.0240642
15 6 100 19 0.0141237
16 6 100 19 0.0140901
17 6 100 19 0.0260512
18 6 100 19 0.0104574
19 6 100 19 0.0176088
1 7 100 19 0.00701193
2 7 100 19 0.0164267
3 7 100 19 0.0262179
4 7 100 19 0.0434211
5 7 100 19 0.0454865
6 7 100 19 0.089634
7 7 100 19 0.170496
8 7 100 19 0.147899
9 7 100 19 0.109545
10 7 100 19 0.0923318
11 7 100 19 0.0709973
12 7 100 19 0.0523824
13 7 100 19 0.0234813
14 7 100 19 0.0150612
15 7 100 19 0.0272816
16 7 100 19 0.0180489
17 7 100 19 0.00877218
18 7 100 19 0.0243245
19 7 100 19 0.0111809
1 8 100 19 0.00719411
2 8 100 19 0.00953963
3 8 100 19 0.0145118
4 8 100 19 0.0500259
5 8 100 19 0.0707612
6 8 100 19 0.0529062
7 8 100 19 0.105277
8 8 100 19 0.122922
9 8 100 19 0.113136
10 8 100 19 0.103846
11 8 100 19 0.0934695
12 8 100 19 0.0511916
13 8 100 19 0.0440335
14 8 100 19 0.0338991
15 8 100 19 0.0304515
16 8 100 19 0.0124385
17 8 100 19 0.00946165
18 8 100 19 0.0347626
19 8 100 19 0.0401724
1 9 100 19 0.00222936
2 9 100 19 0.00666833
3 9 100 19 0.00484897
4 9 100 19 0.0152646
5 9 100 19 0.0351668
6 9 100 19 0.0549242
7 9 100 19 0.0645932
8 9 100 19 0.121727
9 9 100 19 0.131368
10 9 100 19 0.111696
11 9 100 19 0.109244
12 9 100 19 0.0699987
13 9 100 19 0.0771894
14 9 100 19 0.061769
15 9 100 19 0.026935
16 9 100 19 0.0395143
17 9 100 19 0.0170931
18 9 100 19 0.0152684
19 9 100 19 0.0345015
1 10 100 19 0.00600815
2 10 100 19 0.012411
3 10 100 19 0.0144537
4 10 100 19 0.0082912
5 10 100 19 0.0191526
6 10 100 19 0.034922
7 10 100 19 0.0347215
8 10 100 19 0.0463531
9 10 100 19 0.116346
10 10 100 19 0.0755092
11 10 100 19 0.0931022
12 10 100 19 0.117939
13 10 100 19 0.0911415
14 10 100 19 0.0453209
15 10 100 19 0.0799629
16 10 100 19 0.0498089
17 10 100 19 0.0576673
18 10 100 19 0.0513477
19 10 100 19 0.0455411
1 11 100 19 0.00219939
2 11 100 19 0.00657975
3 11 100 19 0.00825713
4 11 100 19 0.00625882
5 11 100 19 0.00890056
6 11 100 19 0.011556
7 11 100 19 0.0385352
8 11 100 19 0.041593
9 11 100 19 0.0414514
10 11 100 19 0.112569
11 11 100 19 0.096981
12 11 100 19 0.115175
13 11 100 19 0.12442
14 11 100 19 0.0816042
15 11 100 19 0.0678419
16 11 100 19 0.0590407
17 11 100 19 0.0656538
18 11 100 19 0.0574971
19 11 100 19 0.0538853
1 12 100 19 0.00455126
2 12 100 19 0.0066725
3 12 100 19 0.00968025
4 12 100 19 0.00590684
5 12 100 19 0.00232411
6 12 100 19 0.00694509
7 12 100 19 0.0138918
8 12 100 19 0.0342153
9 12 100 19 0.051885
10 12 100 19 0.0547467
11 12 100 19 0.109897
12 12 100 19 0.112356
13 12 100 19 0.11403
14 12 100 19 0.114279
15 12 100 19 0.104569
16 12 100 19 0.0611255
17 12 100 19 0.0509763
18 12 100 19 0.0709453
19 12 100 19 0.0710018
1 13 100 19 0.00445501
2 13 100 19 0.00250449
3 13 100 19 0.011323
4 13 100 19 0.00213907
5 13 100 19 0.0132897
6 13 100 19 0.0149452
7 13 100 19 0.0146537
8 13 100 19 0.00938736
9 13 100 19 0.0378822
10 13 100 19 0.0469511
11 13 100 19 0.0512885
12 13 100 19 0.0948224
13 13 100 19 0.10142
14 13 100 19 0.0978782
15 13 100 19 0.103809
16 13 100 19 0.110969
17 13 100 19 0.105906
18 13 100 19 0.0761821
19 13 100 19 0.100195
1 14 100 19 1.08009e-06
2 14 100 19 0.00256743
3 14 100 19 0.00238254
4 14 100 19 0.0116912
5 14 100 19 0.0050315
6 14 100 19 0.00502231
7 14 100 19 0.014901
8 14 100 19 0.0438373
9 14 100 19 0.0187524
10 14 100 19 0.0448494
11 14 100 19 0.0618665
12 14 100 19 0.0682389
13 14 100 19 0.117685
14 14 100 19 0.0867324
15 14 100 19 0.110897
16 14 100 19 0.104761
17 14 100 19 0.0846582
18 14 100 19 0.113824
19 14 100 19 0.1023
1 15 100 19 3.06036e-07
2 15 100 19 1.45124e-05
3 15 100 19 0.00546695
4 15 100 19 0.00293942
5 15 100 19 0.0139893
6 15 100 19 0.0109108
7 15 100 19 0.00646759
8 15 100 19 0.0132583
9 15 100 19 0.0258013
10 15 100 19 0.0167415
11 15 100 19 0.0389494
12 15 100 19 0.0743322
13 15 100 19 0.076659
14 15 100 19 0.141384
15 15 100 19 0.10422
16 15 100 19 0.118891
17 15 100 19 0.126748
18 15 100 19 0.0846194
19 15 100 19 0.138607
1 16 100 19 1.79446e-06
2 16 100 19 2.07156e-05
3 16 100 19 0.00584507
4 16 100 19 0.0110029
5 16 100 19 0.0115663
6 16 100 19 0.0219719
7 16 100 19 0.0274262
8 16 100 19 0.0171604
9 16 100 19 0.0324602
10 16 100 19 0.044779
11 16 100 19 0.0439756
12 16 100 19 0.0389266
13 16 100 19 0.0710502
14 16 100 19 0.107251
15 16 100 19 0.133684
16 16 100 19 0.107839
17 16 100 19 0.10449
18 16 100 19 0.107971
19 16 100 19 0.112578
1 17 100 19 1.18971e-05
2 17 100 19 0.00401816
3 17 100 19 0.00368848
4 17 100 19 0.00360025
5 17 100 19 0.00664366
6 17 100 19 0.00711935
7 17 100 19 0.00464284
8 17 100 19 0.0279569
9 17 100 19 0.0109094
10 17 100 19 0.0565103
11 17 100 19 0.0399962
12 17 100 19 0.0259387
13 17 100 19 0.0307006
14 17 100 19 0.0847852
15 17 100 19 0.0923651
16 17 100 19 0.180007
17 17 100 19 0.122589
18 17 100 19 0.123084
19 17 100 19 0.175433
1 18 100 19 0.00510462
2 18 100 19 0.00887673
3 18 100 19 0.0109674
4 18 100 19 0.00127965
5 18 100 19 0.0150632
6 18 100 19 0.00604863
7 18 100 19 0.00567529
8 18 100 19 0.0152881
9 18 100 19 0.0206116
10 18 100 19 0.0355541
11 18 100 19 0.0405867
12 18 100 19 0.0396912
13 18 100 19 0.025323
14 18 100 19 0.0878801
15 18 100 19 0.10512
16 18 100 19 0.0875983
17 18 100 19 0.197794
18 18 100 19 0.144799
19 18 100 19 0.146738
1 19 100 19 3.57307e-06
2 19 100 19 0.00764262
3 19 100 19 0.0137381
4 19 100 19 0.0111566
5 19 100 19 0.0210755
6 19 100 19 0.0140987
7 19 100 19 0.00696306
8 19 100 19 0.027493
9 19 100 19 0.027991
10 19 100 19 0.0279585
11 19 100 19 0.0187399
12 19 100 19 0.0546792
13 19 100 19 0.0410207
14 19 100 19 0.0330222
15 19 100 19 0.076869
16 19 100 19 0.0919005
17 19 100 19 0.0595248
18 19 100 19 0.231698
19 19 100 19 0.234426
1 20 100 19 2.64684e-05
2 20 100 19 0.00871599
3 20 100 19 0.00867534
4 20 100 19 0.00871222
5 20 100 19 0.0259181
6 20 100 19 0.0147959
7 20 100 19 0.017413
8 20 100 19 0.0174471
10 20 100 19 0.0261379
11 20 100 19 0.00875515
12 20 100 19 0.0120137
13 20 100 19 0.06137
14 20 100 19 0.0343802
15 20 100 19 0.0525719
16 20 100 19 0.162231
17 20 100 19 0.0908132
18 20 100 19 0.119313
19 20 100 19 0.33071
1 21 100 19 4.6214e-05
2 21 100 19 7.72232e-06
3 21 100 19 0.0137609
4 21 100 19 0.00670734
5 21 100 19 7.26233e-05
6 21 100 19 1.51214e-05
7 21 100 19 0.00657923
8 21 100 19 0.0338244
9 21 100 19 0.0478173
10 21 100 19 0.0173685
11 21 100 19 0.0297777
12 21 100 19 0.0314001
13 21 100 19 0.0506582
14 21 100 19 0.111608
15 21 100 19 0.0547961
16 21 100 19 0.0857623
17 21 100 19 0.123297
18 21 100 19 0.151982
19 21 100 19 0.234519
1 22 100 19 4.78231e-05
2 22 100 19 6.09395e-05
3 22 100 19 3.51675e-05
4 22 100 19 0.00166664
5 22 100 19 0.0199803
6 22 100 19 0.0253259
7 22 100 19 0.0253583
8 22 100 19 0.00901174
9 22 100 19 0.0242447
10 22 100 19 0.000523658
11 22 100 19 0.0390445
12 22 100 19 0.000464905
13 22 100 19 0.000473704
14 22 100 19 0.0618965
15 22 100 19 0.118631
16 22 100 19 0.0733876
17 22 100 19 0.160398
18 22 100 19 0.190647
19 22 100 19 0.248802
1 23 100 19 7.37231e-06
2 23 100 19 0.0319429
3 23 100 19 0.032845
4 23 100 19 0.0619972
5 23 100 19 0.0279039
6 23 100 19 0.0130373
7 23 100 19 0.00921714
8 23 100 19 2.41371e-05
9 23 100 19 0.000875736
10 23 100 19 3.06242e-05
11 23 100 19 0.000115589
12 23 100 19 0.0952865
13 23 100 19 0.000492953
14 23 100 19 0.0609039
15 23 100 19 0.0813536
16 23 100 19 0.117813
17 23 100 19 0.0590989
18 23 100 19 0.125708
19 23 100 19 0.281347
1 24 100 19 0.00351393
2 24 100 19 6.38963e-06
3 24 100 19 3.02296e-06
4 24 100 19 2.4928e-05
5 24 100 19 7.54346e-05
6 24 100 19 4.78164e-05
7 24 100 19 0.000970384
8 24 100 19 0.000230118
9 24 100 19 0.0330032
10 24 100 19 0.0407108
11 24 100 19 0.0426911
12 24 100 19 0.0416311
13 24 100 19 0.0815482
14 24 100 19 0.10017
15 24 100 19 0.17394
16 24 100 19 0.161937
17 24 100 19 0.0549447
18 24 100 19 0.14284
19 24 100 19 0.121712
2 25 100 19 1.29365e-06
3 25 100 19 0.047893
6 25 100 19 0.105948
7 25 100 19 0.0560236
8 25 100 19 6.72823e-06
9 25 100 19 1.78729e-07
10 25 100 19 3.22163e-07
11 25 100 19 0.0755596
12 25 100 19 0.000290904
13 25 100 19 0.0529786
14 25 100 19 6.16907e-05
15 25 100 19 0.0519686
16 25 100 19 0.0816194
17 25 100 19 0.0631846
18 25 100 19 0.203218
19 25 100 19 0.261245
2 26 100 19 1.08963e-05
3 26 100 19 0.109661
4 26 100 19 0.000256741
5 26 100 19 3.77582e-07
7 26 100 19 9.13608e-07
8 26 100 19 3.76781e-07
9 26 100 19 0.0782392
10 26 100 19 7.88413e-06
11 26 100 19 6.8871e-06
12 26 100 19 0.107607
13 26 100 19 9.50469e-05
14 26 100 19 0.0280571
15 26 100 19 0.000285808
16 26 100 19 0.112362
17 26 100 19 0.229822
18 26 100 19 0.0302997
19 26 100 19 0.303286
2 27 100 19 6.78885e-05
4 27 100 19 0.00212652
5 27 100 19 0.0251608
6 27 100 19 2.99955e-06
7 27 100 19 0.000594434
8 27 100 19 3.77533e-06
9 27 100 19 4.10946e-06
11 27 100 19 5.79591e-05
12 27 100 19 2.83038e-05
15 27 100 19 0.00181655
16 27 100 19 6.76105e-05
17 27 100 19 0.313407
18 27 100 19 0.312778
19 27 100 19 0.343885
2 28 100 19 0.206057
5 28 100 19 1.18108e-05
6 28 100 19 0.0995153
9 28 100 19 4.02738e-06
13 28 100 19 0.100086
14 28 100 19 0.00628095
15 28 100 19 0.293953
16 28 100 19 2.92141e-06
17 28 100 19 5.67654e-07
19 28 100 19 0.294088
1 29 100 19 0.00114528
2 29 100 19 0.000323532
4 29 100 19 0.000436421
6 29 100 19 2.18507e-06
11 29 100 19 0.000281199
16 29 100 19 0.00311607
18 29 100 19 1.46211e-06
19 29 100 19 0.994694
1 0 100 20 0.0472596
2 0 100 20 0.0338721
3 0 100 20 0.0425347
4 0 100 20 0.0466817
5 0 100 20 0.0566756
6 0 100 20 0.0557213
7 0 100 20 0.0568243
8 0 100 20 0.0505284
9 0 100 20 0.0587162
10 0 100 20 0.0618957
11 0 100 20 0.0477926
12 0 100 20 0.051491
13 0 100 20 0.0470781
14 0 100 20 0.0502774
15 0 100 20 0.0531454
16 0 100 20 0.0501528
17 0 100 20 0.0654844
18 0 100 20 0.0713548
19 0 100 20 0.0504954
20 0 100 20 0.00201876
1 1 100 20 0.554429
2 1 100 20 0.174272
3 1 100 20 0.0416939
4 1 100 20 0.0255984
5 1 100 20 0.0328294
6 1 100 20 0.0295564
7 1 100 20 0.0131761
8 1 100 20 0.014075
9 1 100 20 0.0141427
10 1 100 20 0.013842
11 1 100 20 0.011717
12 1 100 20 0.0175059
13 1 100 20 0.0115833
14 1 100 20 0.0119736
15 1 100 20 0.0135092
16 1 100 20 0.00292025
17 1 100 20 0.00860939
18 1 100 20 0.00561392
19 1 100 20 0.0029451
20 1 100 20 7.81248e-06
1 2 100 20 0.0255377
2 2 100 20 0.373698
3 2 100 20 0.224011
4 2 100 20 0.0981109
5 2 100 20 0.0461465
6 2 100 20 0.0494036
7 2 100 20 0.0364307
8 2 100 20 0.0240319
9 2 100 20 0.0150812
10 2 100 20 0.0218448
11 2 100 20 0.0268676
12 2 100 20 0.0121869
13 2 100 20 0.013506
14 2 100 20 0.00395819
15 2 100 20 0.00395385
16 2 100 20 0.00773401
17 2 100 20 0.00601618
18 2 100 20 0.00574781
19 2 100 20 0.00383634
20 2 100 20 0.00189693
1 3 100 20 0.0157112
2 3 100 20 0.11036
3 3 100 20 0.252405
4 3 100 20 0.203459
5 3 100 20 0.109685
6 3 100 20 0.0699188
7 3 100 20 0.0336319
8 3 100 20 0.0438564
9 3 100 20 0.0344009
10 3 100 20 0.0337405
11 3 100 20 0.0199121
12 3 100 20 0.0145219
13 3 100 20 0.00849001
14 3 100 20 0.00846465
15 3 100 20 0.00961682
16 3 100 20 0.00231209
17 3 100 20 0.0103793
18 3 100 20 0.00980749
19 3 100 20 0.00750064
20 3 100 20 0.00182492
1 4 100 20 0.00930199
2 4 100 20 0.0505138
3 4 100 20 0.113417
4 4 100 20 0.190913
5 4 100 20 0.169717
6 4 100 20 0.126056
7 4 100 20 0.065041
