2 0.47422 0.495436 0.0184354 0.0039704 0.00310772 0.00188826 0.0012773 0.000793594 0.000390899 0.00048083 
3 0.549104 0.427052 0.014594 0.00308381 0.00241376 0.00146661 0.00099208 0.000616384 0.000303611 0.00037346 
4 0.623866 0.373314 0.0020008 0.00027335 0.000213957 0.00013 8.79383e-05 5.46365e-05 2.69122e-05 3.31036e-05 
5 0.545704 0.393646 0.0202018 0.00435113 0.00340574 0.0157667 0.00140102 0.000869693 0.000433232 0.0142207 
6 0.507307 0.474891 0.0122943 0.00183602 0.0014371 0.000873182 0.000590661 0.00036698 0.000180763 0.000222349 
7 0.266189 0.720566 0.0104334 0.00137216 0.000717792 0.000320663 0.00019638 0.000101566 6.03217e-05 4.29787e-05 
8 0.426503 0.532453 0.0231378 0.0147609 0.00156817 0.000700558 0.000429033 0.000221892 0.000131786 9.38961e-05 
9 0.358863 0.629838 0.00822727 0.00149889 0.000784085 0.000350279 0.000214517 0.000110946 6.58928e-05 4.6948e-05 
10 0.285398 0.692768 0.0170356 0.00234155 0.00122489 0.000547202 0.000335115 0.000173318 0.000102937 7.33417e-05 
11 0.504536 0.45847 0.00853113 0.0133229 0.00716783 0.000871988 0.00633383 0.000364879 0.000179724 0.000221071 
12 0.00178157 0.689206 0.102847 0.073719 0.0787915 0.0056583 0.0355741 2.21897e-07 0.00967915 0.00274379 
13 0.584253 0.390711 0.0181314 0.0023022 0.00180158 0.00109464 0.000740466 0.000460055 0.000226608 0.000278742 
14 0.228794 0.368362 0.402128 0.000240169 0.000186091 0.000113069 7.64853e-05 4.75207e-05 2.34071e-05 2.87923e-05 
15 0.203394 0.732277 0.0366602 0.00662888 0.00346764 0.0018739 0.0147025 0.000496593 0.000291413 0.000207629 
16 0.18568 0.811147 0.00183933 0.000950831 0.000214642 7.50256e-05 4.59469e-05 2.37633e-05 1.41135e-05 1.00557e-05 
17 0.228612 0.728679 0.0312281 0.00560298 0.00293099 0.00130938 0.000801883 0.000414726 0.000246314 0.000175496 
18 0.708169 0.290468 0.000865153 0.000165952 0.000129894 7.8924e-05 5.33878e-05 3.31701e-05 1.63385e-05 2.00974e-05 
19 0.110224 0.886733 0.00149692 0.000864895 0.000181009 4.40937e-05 0.000427788 1.39632e-05 8.29272e-06 5.90849e-06 
20 0.478692 0.508391 0.00784871 0.00168953 0.00132244 0.000803513 0.000543533 0.0003377 0.00016634 0.000204609 
21 0.988182 0.011224 0.000223927 0.000306632 2.57274e-05 1.47259e-05 9.96131e-06 6.189e-06 3.0485e-06 3.74985e-06 
22 0.148031 0.704599 0.110005 0.0196231 0.0086338 0.00366044 0.00269155 0.00126023 0.000586405 0.000908318 
23 0.188373 0.803694 0.00577446 0.00105291 0.000550789 0.000246057 0.000150689 7.79351e-05 4.62871e-05 3.29791e-05 
24 0.122906 0.515481 0.253508 0.0681611 0.0141275 0.0175405 0.00408976 0.00191489 0.000891032 0.00138017 
25 0.165695 0.833355 0.000580684 0.000123304 9.6513e-05 5.86415e-05 3.96678e-05 2.46458e-05 1.21397e-05 1.49326e-05 
26 0.249257 0.744076 0.00271165 0.0022983 0.00126814 0.000152476 0.000102801 6.38708e-05 3.14607e-05 3.86986e-05 
27 0.823611 0.171092 0.0033372 0.000653564 0.000511559 0.000310824 0.000210256 0.000130633 6.43455e-05 7.91489e-05 
28 0.74482 0.25023 0.00215784 0.0018805 0.000357365 0.00021673 0.000146606 9.10869e-05 4.48664e-05 5.51885e-05 
29 0.194094 0.787087 0.0137158 0.00249022 0.00130266 0.000581945 0.000356393 0.000184323 0.000109473 7.79983e-05 
30 0.466971 0.502252 0.0187174 0.00402066 0.00314706 0.00191216 0.00129347 0.00080364 0.000395847 0.000486917 
31 0.249282 0.711885 0.0220439 0.0125655 0.00210698 0.000940065 0.000575711 0.000297752 0.000176841 0.000125997 
32 0.305957 0.670343 0.0175577 0.00299777 0.00156817 0.000700558 0.000429033 0.000221892 0.000131786 9.38961e-05 
33 0.502712 0.495876 0.000888831 0.000174236 0.000136378 8.28637e-05 5.60528e-05 3.48259e-05 1.71541e-05 2.11006e-05 
34 0.513277 0.423431 0.0349507 0.00498328 0.0159211 0.00407428 0.00145978 0.000906965 0.000446742 0.00054952 
35 0.538788 0.392202 0.0291089 0.00429238 0.0033597 0.00204252 0.0154395 0.0138249 0.000422897 0.000519816 
36 0.65417 0.318414 0.0206147 0.0025954 0.00164648 0.0010004 0.000676717 0.000420447 0.000207099 0.000254744 
37 0.315442 0.664696 0.0145337 0.00260028 0.00136024 0.000607666 0.000372145 0.000192469 0.000114311 8.14457e-05 
38 0.346095 0.647387 0.00181264 0.000381398 0.00386414 0.000179834 0.000121648 7.55804e-05 3.72285e-05 4.57934e-05 
39 0.233268 0.73549 0.0227813 0.00412851 0.00215967 0.000964803 0.000590861 0.000305587 0.000181494 0.000129313 
40 0.504484 0.412668 0.0772412 0.00273637 0.00143141 0.000639463 0.000391617 0.000202541 0.000120293 8.57074e-05 
41 0.132453 0.534819 0.250926 0.0423965 0.0259154 0.0054235 0.00398621 0.00186641 0.000868474 0.00134523 
42 0.534079 0.409915 0.0384026 0.00287275 0.0022398 0.00136091 0.00107836 0.0072535 0.00245142 0.000346544 
43 0.57361 0.40144 0.0162085 0.00291406 0.0022809 0.00138588 0.000937471 0.000582455 0.000286898 0.000352903 
44 0.43344 0.542868 0.0225392 0.000406911 0.000292148 0.000177509 0.000120076 7.46035e-05 3.67473e-05 4.52014e-05 
45 0.585546 0.390172 0.014755 0.00317632 0.00248618 0.0015106 0.00102184 0.000634875 0.000312719 0.000384664 
46 0.708049 0.284582 0.00446015 0.000622081 0.00114977 0.000799309 0.000151432 8.87938e-05 4.37369e-05 5.37992e-05 
47 0.652519 0.329043 0.013259 0.00172741 0.00135118 0.000820981 0.000555349 0.000345041 0.000169956 0.000209057 
48 0.200348 0.75691 0.033728 0.0043986 0.00230096 0.00102792 0.000629516 0.000325579 0.000193368 0.000137773 
49 0.266233 0.691874 0.0315224 0.00506076 0.00264734 0.00118266 0.000724282 0.000374591 0.000222477 0.000158513 
50 0.495329 0.450602 0.0258043 0.00555473 0.00345302 0.00209806 0.00141923 0.000881771 0.000449825 0.0144076 
51 0.258227 0.698416 0.0362642 0.0034612 0.00181031 0.000808732 0.000495281 0.000256154 0.000152135 0.000108395 
52 0.214874 0.612423 0.0245159 0.139959 0.0068592 0.000608311 0.000372145 0.000192469 0.000114311 8.14457e-05 
53 0.191515 0.771854 0.0256663 0.0082059 0.00137554 0.000614456 0.000376303 0.00019462 0.000115589 8.23558e-05 
54 0.565671 0.384534 0.0166179 0.0035689 0.00306374 0.0126789 0.0123682 0.000713343 0.00035137 0.000432207 
55 0.844127 0.152276 0.00179424 0.00120051 0.000245702 0.000139484 9.43529e-05 5.86219e-05 2.88753e-05 3.55184e-05 
56 0.513085 0.436511 0.021699 0.0193652 0.00365616 0.00222148 0.00150271 0.00093364 0.000459881 0.000565682 
57 0.513087 0.436494 0.0217082 0.0193709 0.00365616 0.00222148 0.00150271 0.000933641 0.000459881 0.000565682 
58 0.231512 0.763563 0.00304257 0.000627731 0.000491339 0.000298538 0.000201945 0.000125469 6.18022e-05 7.60206e-05 
59 0.30043 0.653888 0.038712 0.00344209 0.00175859 0.000785626 0.00048113 0.000248836 0.000147788 0.000105298 
60 0.176323 0.658644 0.0339222 0.124613 0.00323952 0.00144721 0.000886292 0.000458381 0.000272241 0.000193969 
61 0.0382385 0.856684 0.0144675 0.0100927 0.070013 0.00363289 0.0023983 0.00219544 0.0014964 0.000780928 
62 0.282831 0.683894 0.000911427 0.00141057 0.0306461 0.000143927 0.000124022 0 2.20567e-07 3.80484e-05 
63 0.49847 0.467815 0.0204828 0.00441156 0.00345302 0.00209806 0.00141923 0.000881771 0.000434332 0.000534256 
64 0.520249 0.446498 0.0202018 0.00435112 0.00340572 0.00206932 0.00139978 0.000869692 0.000428382 0.000526937 
65 0.167292 0.568534 0.186325 0.033747 0.0286597 0.00620685 0.00456393 0.00213691 0.00099434 0.00154019 
66 0.20264 0.737798 0.0468717 0.00619281 0.00323951 0.00144721 0.000886292 0.000458381 0.000272241 0.000193969 
67 0.156259 0.597066 0.183047 0.028275 0.0120597 0.0159682 0.00361967 0.00169479 0.000788614 0.00122153 
68 0.172244 0.770303 0.00805591 0.0479414 0.000731208 0.000321601 0.000196954 0.000101862 6.04981e-05 4.31043e-05 
69 0.382841 0.581951 0.0259341 0.00452549 0.00236733 0.00105757 0.000647675 0.000334971 0.000198946 0.000141747 
70 0.87733 0.10989 0.0111191 0.000576085 0.000424988 0.000258223 0.000174674 0.000108526 5.34563e-05 6.57545e-05 
71 0.721417 0.26959 0.00546468 0.00117642 0.000920807 0.000559483 0.00037846 0.000235139 0.000115822 0.000142468 
72 0.431504 0.552022 0.010123 0.00211755 0.00165745 0.00100707 0.000681229 0.00042325 0.000208479 0.000256443 
73 0.662856 0.32506 0.00785017 0.0014117 0.00110497 0.00067138 0.000454152 0.000282167 0.000138986 0.000170962 
74 0.0242262 0.864187 0.0321498 0.029718 0.00926644 0.0279025 0.00454304 0.00479581 0.00103518 0.00217608 
75 0.182471 0.636837 0.137409 0.0227318 0.0100015 0.00424031 0.00311793 0.00145987 0.000679301 0.00105221 
76 0.179068 0.781305 0.0225448 0.00409263 0.0108347 0.000958271 0.000585723 0.00030293 0.000179916 0.000128189 
77 0.16477 0.570884 0.181597 0.0298324 0.0278723 0.0157963 0.00506063 0.00191489 0.000891032 0.00138017 
78 0.204557 0.780678 0.0111396 0.00176936 0.000925574 0.000413487 0.000253226 0.000130966 7.77833e-05 5.54198e-05 
79 0.221653 0.765679 0.00940908 0.00159004 0.000831766 0.00037158 0.000227561 0.000117692 6.98998e-05 4.9803e-05 
80 0.519574 0.432152 0.0207889 0.0185402 0.00350167 0.00212761 0.00143922 0.000894191 0.00044045 0.00054178 
81 0.63203 0.32102 0.0140203 0.0111979 0.0100649 0.00137166 0.000851536 0.000572389 0.00852466 0.000346494 
82 0.189485 0.724277 0.0493211 0.0170586 0.00344214 0.0145703 0.000920469 0.000458381 0.000272241 0.000193969 
83 0.0264998 0.86788 0.0529704 0.0165015 0.0155729 0.00734356 0.00724173 0.00240118 0.00175823 0.00183065 
84 0.00735463 0.804531 0.0557533 0.0366021 0.0407093 0.0361714 0.00710248 0.00410492 0.0056781 0.00199315 
85 0.222319 0.76843 0.00592467 0.000541451 0.00212677 0.00025735 0.000174079 0.000108156 5.32741e-05 6.55305e-05 
86 0.590059 0.359051 0.016951 0.00365094 0.00287095 0.0132142 0.00117766 0.000729742 0.000362063 0.0119338 
87 0.0072432 0.807492 0.0549085 0.0360475 0.0552437 0.0204721 0.00699486 0.00404273 0.00559207 0.00196295 
88 0.115411 0.674491 0.156786 0.0279989 0.012319 0.00522282 0.00384038 0.00179813 0.0008367 0.00129601 
89 0.864048 0.13451 0.000881117 0.000187173 0.000146504 8.90161e-05 6.02146e-05 3.74116e-05 1.84278e-05 2.26673e-05 
90 0.324541 0.629712 0.0373202 0.00487406 0.00177124 0.000791278 0.000484591 0.000250626 0.000148851 0.000106055 
91 0.212717 0.689344 0.0795515 0.0131087 0.00267276 0.00115776 0.000709034 0.000366705 0.000217793 0.000155176 
92 0.534514 0.446372 0.0116123 0.00250104 0.00195762 0.00118945 0.000804601 0.000499902 0.000246236 0.000302885 
93 0.625617 0.362204 0.00741557 0.00158816 0.00124309 0.000755302 0.000510921 0.000317438 0.00015636 0.000192332 
94 0.497896 0.472706 0.0214269 0.00388968 0.00203473 0.000908988 0.000556679 0.000287909 0.000170995 0.000121832 
95 0.203039 0.724133 0.0430637 0.00713107 0.00373034 0.00166648 0.00102058 0.00123803 0.0147548 0.000223387 
96 0.0847503 0.230737 0.384356 0.253769 0.0207093 0.0157644 0.00299257 0.00220494 0.00114158 0.00357539 
97 0.284738 0.64767 0.0314577 0.0178757 0.00671851 0.00986135 0.000821443 0.000424841 0.000252321 0.000179777 
98 0.0386901 0.885723 0.0106046 0.00723819 0.0502113 0.00260541 0.00171999 0.00157451 0.00107317 0.000560059 
99 0.62731 0.355516 0.0105578 0.00220578 0.00172651 0.00104903 0.000709613 0.000440886 0.000217166 0.000267128 
100 0.540549 0.443495 0.0097298 0.00207603 0.00162495 0.000987324 0.000667871 0.000414951 0.000204392 0.000251414 
101 0.122925 0.653332 0.16697 0.029817 0.0131189 0.00556197 0.00408975 0.00191489 0.000891032 0.00138017 
102 0.205279 0.787319 0.0054016 0.000976454 0.000510794 0.00022819 0.000139747 7.22759e-05 4.2926e-05 3.05844e-05 
103 0.0965149 0.319123 0.564029 0.0106786 0.00469839 0.00199196 0.0014647 0.000685797 0.000319114 0.000494294 
104 0.145596 0.588012 0.199137 0.0353216 0.0155408 0.00658879 0.00484478 0.00226841 0.00105553 0.00163497 
105 0.100291 0.876946 0.0107524 0.00910042 0.000919277 0.000746305 0.000225373 0.00022655 0.000173272 0.000619009 
106 0.104585 0.464495 0.393444 0.0200332 0.0084887 0.00359892 0.00264631 0.00123905 0.00057655 0.000893052 
107 0.797569 0.198944 0.00272085 0.000255743 0.000200175 0.000121627 8.22739e-05 5.11172e-05 2.51787e-05 3.09713e-05 
108 0.464129 0.528085 0.00570801 0.00101433 0.000530609 0.000237042 0.000145169 7.50797e-05 4.45913e-05 3.17709e-05 
109 0.317116 0.646447 0.0293203 0.00438776 0.00136024 0.000607666 0.000372145 0.000192469 0.000114311 8.14457e-05 
110 0.694625 0.296729 0.00555271 0.00103127 0.000807201 0.000490456 0.000331767 0.000206128 0.000101532 0.000124891 
111 0.192601 0.780223 0.0206153 0.00320171 0.00167485 0.000748215 0.000458219 0.000236986 0.000140751 0.000100284 
112 0.383673 0.592339 0.0174719 0.00318007 0.00166353 0.000743159 0.000455123 0.000235385 0.0001398 9.96059e-05 
113 0.242603 0.747232 0.00742475 0.00133708 0.00069944 0.000312465 0.000191359 9.89687e-05 5.87794e-05 4.18798e-05 
114 0.47421 0.508744 0.0111287 0.00197287 0.00154421 0.000938264 0.000634685 0.000394333 0.000194236 0.000238922 
115 0.290812 0.691068 0.0110097 0.00237039 0.00185536 0.00112732 0.000762569 0.000473788 0.000233373 0.000287063 
116 0.0411354 0.830676 0.0155636 0.0108573 0.075317 0.00396473 0.0176749 0.00236177 0.00160976 0.000840089 
117 0.130693 0.312344 0.430462 0.0805531 0.0212171 0.0106531 0.0071256 0.00299328 0.00169804 0.00226051 
118 0.022288 0.863907 0.0409258 0.0404712 0.00852513 0.012337 0.00417959 0.00441214 0.000952363 0.002002 
119 0.0366883 0.862494 0.013881 0.00968353 0.0671746 0.00348561 0.00230107 0.00210643 0.00143573 0.000749269 
120 0.021272 0.804851 0.0678788 0.0466916 0.0227783 0.0147601 0.0104506 0.00389705 0.00449759 0.00292256 
121 0.0323207 0.878864 0.0122285 0.00853073 0.0591776 0.00307066 0.00202714 0.00185567 0.00126481 0.00066007 
122 0.344765 0.632549 0.0137825 0.00296852 0.00232353 0.00141178 0.000954993 0.000593342 0.000292261 0.000359499 
123 0.010469 0.79409 0.0666156 0.0567457 0.0276844 0.0179393 0.0127015 0.00473641 0.0054663 0.00355204 
124 0.00848261 0.71438 0.0799184 0.0929578 0.0335653 0.0260253 0.0249453 0.00571621 0.00472726 0.00928211 
125 0.0704233 0.925802 0.00229356 0.000493985 0.000386653 0.000234931 0.000158918 9.87365e-05 4.86344e-05 5.98233e-05 
126 0.00958433 0.811475 0.0610019 0.0519503 0.0253449 0.0164233 0.0116281 0.00433615 0.00500436 0.00325187 
127 0.0606849 0.937126 0.000942747 0.000265938 0.000733368 9.6616e-05 6.52101e-05 4.05154e-05 1.99566e-05 2.45478e-05 
128 0.139944 0.829345 0.0194085 0.00796604 0.00166353 0.000743159 0.000455123 0.000235385 0.0001398 9.9606e-05 
129 0.0371929 0.959615 0.00131247 0.000586241 0.000408732 0.000331835 0.000100209 0.000100733 7.70433e-05 0.000275234 
130 0.0379552 0.906942 0.0203869 0.00860949 0.00812499 0.00383142 0.00614479 0.00613255 0.000917448 0.000955119 
131 0.203039 0.743287 0.0390611 0.00713107 0.00373034 0.00166648 0.00102058 0.000527833 0.00031349 0.000223359 
132 0.106987 0.472616 0.32763 0.0590723 0.0155592 0.00781228 0.00522544 0.00219508 0.00124523 0.00165771 
133 0.116565 0.303418 0.440163 0.0853569 0.0189263 0.00950212 0.0198681 0.00266969 0.00151447 0.00201613 
134 0.889779 0.104481 0.00208203 0.00156669 0.000318221 0.000213166 0.00105985 0.000410787 3.99897e-05 4.91898e-05 
135 0.127891 0.55738 0.215277 0.0585075 0.0265453 0.00578748 0.00425555 0.00199252 0.000927154 0.00143612 
136 0.226782 0.7252 0.027339 0.00495422 0.00259161 0.00155842 0.0108345 0.000366851 0.000217793 0.000155176 
137 0.614476 0.357761 0.0202013 0.00252131 0.00197316 0.00119889 0.000810986 0.000503869 0.00024819 0.000305289 
138 0.449322 0.481683 0.059843 0.00316056 0.00234545 0.0014251 0.000964003 0.000598939 0.000295018 0.000362891 
139 0.541926 0.348124 0.108206 0.000291944 0.00110618 0.000136107 9.09113e-05 5.64836e-05 2.7822e-05 3.42228e-05 
140 0.239379 0.750851 0.00712789 0.00128945 0.000674528 0.000301336 0.000184543 9.54437e-05 5.66859e-05 4.03882e-05 
141 0.104348 0.27571 0.50327 0.0811861 0.0184836 0.00732401 0.00489885 0.00205788 0.0011674 0.0015541 
142 0.204068 0.675263 0.100566 0.0151912 0.00245956 0.00108899 0.000666913 0.000344921 0.000204855 0.000145957 
143 0.234732 0.631783 0.100861 0.0171336 0.00753847 0.00319606 0.00235008 0.00110035 0.000512011 0.000793084 
144 0.298568 0.689571 0.00924791 0.00127548 0.000667216 0.000298069 0.000182543 9.44092e-05 5.60714e-05 3.99504e-05 
145 0.0994692 0.839601 0.00862707 0.00582586 0.040414 0.00209704 0.00138439 0.00126729 0.000863774 0.00045078 
146 0.275635 0.705665 0.00772315 0.0034227 0.00238633 0.00193738 0.000585059 0.000588115 0.000449808 0.00160692 
147 0.129782 0.866985 0.00235595 0.000427864 0.000223821 9.99887e-05 6.12347e-05 3.167e-05 1.88094e-05 1.34015e-05 
148 0.203796 0.263602 0.442138 0.0578563 0.0150573 0.00756027 0.00505688 0.00212427 0.00120506 0.00160423 
149 0.232803 0.747407 0.0144912 0.00258599 0.00135276 0.000604327 0.0003701 0.000191412 0.000113683 8.09982e-05 
150 0.259287 0.703016 0.0274366 0.00500692 0.00261918 0.00117008 0.000716577 0.000370606 0.00022011 0.000156826 
151 0.525016 0.464388 0.00480207 0.00379079 0.000809856 0.000466236 0.000315384 0.000195949 9.65183e-05 0.000118723 
152 0.192008 0.734092 0.0386786 0.0286371 0.00328274 0.0014665 0.000898109 0.000464493 0.000275871 0.000196556 
153 0.0946177 0.278039 0.622038 0.000903521 0.00394695 0.000210516 0.000119429 6.17677e-05 3.6685e-05 2.61377e-05 
154 0.319987 0.675151 0.00332617 0.000513838 0.000400351 0.000243254 0.000164548 0.000102234 5.03574e-05 6.19427e-05 
155 0.234512 0.729936 0.0286365 0.00348592 0.00170974 0.000763803 0.000467765 0.000241923 0.000143683 0.000102373 
156 0.200035 0.739864 0.0345886 0.00611235 0.00319756 0.0143898 0.00090029 0.000452428 0.000268706 0.00019145 
157 0.211055 0.780526 0.00716003 0.00061443 0.000321413 0.000143587 8.7935e-05 4.54791e-05 2.70109e-05 1.9245e-05 
158 0.00735463 0.819915 0.0557533 0.0366021 0.040709 0.020787 0.00710248 0.00410492 0.0056781 0.00199315 
159 0.145497 0.81872 0.026041 0.00475405 0.0024869 0.00111099 0.000680386 0.000351889 0.000208993 0.000148906 
160 0.00703017 0.811879 0.0692711 0.0349907 0.038913 0.01987 0.00678913 0.00392382 0.00542759 0.00190522 
161 0.180204 0.769874 0.0393233 0.00517198 0.00270552 0.00120865 0.0007402 0.000382824 0.000227366 0.000161996 
162 0.0371087 0.913016 0.0139086 0.0117088 0.0121689 0.00518259 0.00340597 0.00130239 0.0014063 0.000791549 
163 0.208008 0.509929 0.249344 0.0172294 0.00753848 0.00319606 0.00235008 0.00110035 0.000512011 0.000793084 
164 0.375231 0.621761 0.00184234 0.000388779 0.000304306 0.000184897 0.000125073 7.77082e-05 3.82765e-05 4.70825e-05 
165 0.679426 0.232498 0.0861096 0.000168186 0.00159739 8.40104e-05 5.07622e-05 3.15388e-05 1.5535e-05 1.9109e-05 
166 0.668285 0.214657 0.105853 0.00935304 0.000725567 0.00044041 0.000297913 0.000185095 9.11718e-05 0.000112147 
167 0.106967 0.194359 0.530804 0.132832 0.0156418 0.0119071 0.00226034 0.00166543 0.000862259 0.00270056 
168 0.267738 0.717737 0.0105718 0.0019289 0.00100903 0.000450769 0.000276058 0.000142774 8.47965e-05 6.04167e-05 
169 0.195086 0.77915 0.0197367 0.00294157 0.00153877 0.000687422 0.000420989 0.000217731 0.000129315 9.21355e-05 
170 0.0910097 0.373079 0.484161 0.0223889 0.0191163 0.004118 0.00302799 0.00141775 0.000659706 0.00102186 
171 0.0923313 0.244881 0.424406 0.194988 0.0194035 0.0147273 0.00279569 0.00205988 0.00106648 0.00334017 
172 0.177409 0.82054 0.00149938 0.000269097 0.000140768 6.2886e-05 3.85124e-05 1.99182e-05 1.18298e-05 8.42863e-06 
173 0.490175 0.434524 0.0727044 0.000866192 0.000677433 0.000411609 0.000278431 0.000172991 8.52096e-05 0.000104813 
174 0.118749 0.28192 0.480462 0.0784347 0.018671 0.00937473 0.00627053 0.00263409 0.00149427 0.00198925 
175 0.0931557 0.258442 0.574811 0.0469905 0.0122836 0.00616759 0.00412535 0.00173295 0.000983074 0.00130872 
176 0.168002 0.775166 0.0447769 0.00588313 0.00307753 0.00137484 0.000841978 0.000435462 0.000258629 0.000184271 
177 0.331017 0.652986 0.00996801 0.00201033 0.00157353 0.000956079 0.000646736 0.00040182 0.000197924 0.000243458 
178 0.103997 0.590221 0.25774 0.0252323 0.0111006 0.00470628 0.00346056 0.00162029 0.00075395 0.00116784 
179 0.10863 0.627198 0.180184 0.0534948 0.019273 0.00451279 0.00331485 0.00155207 0.000722205 0.00111867 
180 0.497212 0.499401 0.00226675 0.000373688 0.000292492 0.000177718 0.000120217 7.46912e-05 3.67905e-05 4.52546e-05 
181 0.179983 0.782443 0.0213388 0.00388971 0.0102991 0.000909032 0.000556679 0.000287909 0.000170995 0.000121832 
182 0.375042 0.621491 0.00210775 0.000453113 0.000354661 0.000215493 0.000145769 9.05671e-05 4.46104e-05 5.48736e-05 
183 0.189851 0.807355 0.00203485 0.000370591 0.00019386 8.66044e-05 5.3038e-05 2.74307e-05 1.62916e-05 1.16076e-05 
184 0.150759 0.434492 0.164811 0.226319 0.0150261 0.0034538 0.0025396 0.00118908 0.000553302 0.000857042 
185 0.181757 0.757652 0.00164493 0.00256925 0.0558196 0.000262153 0.000225898 0 4.01748e-07 6.93025e-05 
186 0.425093 0.539653 0.0256302 0.00320841 0.00251129 0.00152586 0.00103216 0.000641288 0.000315878 0.00038855 
187 0.23486 0.749144 0.0116706 0.00211054 0.00110405 0.000493218 0.000302055 0.00015622 9.27818e-05 6.61062e-05 
188 0.0411354 0.830676 0.0155636 0.015066 0.0862598 0.00390811 0.00257999 0.00236176 0.00160976 0.000840089 
189 0.367945 0.606503 0.0155235 0.0033435 0.00261703 0.00159011 0.00107562 0.00066829 0.000329178 0.00040491 
190 0.0810488 0.914872 0.00247869 0.000533835 0.000417845 0.000253883 0.000171738 0.000106702 5.25578e-05 6.46494e-05 
191 0.0253273 0.873168 0.0336085 0.0310688 0.00968765 0.0140193 0.00474954 0.0050138 0.00108223 0.002275 
192 0.0669049 0.880889 0.00814271 0.00490809 0.0340474 0.00176668 0.0011663 0.00106764 0.0007277 0.000379766 
193 0.00735463 0.819915 0.0557533 0.0366021 0.040709 0.020787 0.00710248 0.00410492 0.0056781 0.00199315 
194 0.14125 0.586698 0.206805 0.0342674 0.0150769 0.00639211 0.00470016 0.00220069 0.00102402 0.00158617 
195 0.119013 0.569485 0.295201 0.00864196 0.00372751 0.00158034 0.00116203 0.000544083 0.000253171 0.000392152 
196 0.0915262 0.630082 0.246247 0.0168824 0.00742761 0.00314906 0.00231552 0.00108416 0.000504481 0.000781421 
197 0.129387 0.840829 0.0216787 0.00395505 0.00206893 0.000924265 0.000566035 0.000292748 0.000173868 0.00012388 
198 0.151642 0.783178 0.0566495 0.00606176 0.00123101 0.000549938 0.000336791 0.000174185 0.000103452 7.37084e-05 
199 0.297595 0.588389 0.0169118 0.0901235 0.00569785 0.000569924 0.000349006 0.000180502 0.000107204 7.63818e-05 
200 0.535502 0.435305 0.0232898 0.00234199 0.00267383 0.000349733 0.000233297 0.000144949 7.13971e-05 8.78229e-05 
201 0.678046 0.310219 0.00717698 0.00151977 0.00118956 0.000722778 0.00048892 0.000303768 0.000149626 0.00018405 
202 0.512086 0.408098 0.0253223 0.0304464 0.00365752 0.00222148 0.00266841 0.0144737 0.000459972 0.000565682 
203 0.154424 0.564811 0.221042 0.0316729 0.0136507 0.00578745 0.00425555 0.00199252 0.000927155 0.00143612 
204 0.11702 0.637405 0.198244 0.0261511 0.0103077 0.00437012 0.00321338 0.00150456 0.000700096 0.00108442 
205 0.372404 0.624656 0.00183414 0.000368483 0.00028842 0.000175244 0.000118543 7.36515e-05 3.62783e-05 4.46246e-05 
206 0.148243 0.603183 0.169986 0.0428238 0.0233738 0.00497991 0.00366175 0.00171449 0.000797784 0.00123574 
207 0.111342 0.555161 0.278562 0.0305154 0.0118842 0.00503849 0.00370483 0.00173466 0.00080717 0.00125027 
208 0.726476 0.261887 0.0104466 0.000397019 0.000310384 0.00018859 0.000127571 7.92603e-05 3.90411e-05 4.8023e-05 
209 0.355161 0.606912 0.0312437 0.00327821 0.00169795 0.000758535 0.000464539 0.000240255 0.000142692 0.000101667 
210 0.594909 0.366191 0.0283617 0.00355956 0.00273206 0.00166001 0.0011229 0.000697665 0.000343647 0.000422708 
211 0.141556 0.303154 0.42182 0.0888676 0.0205992 0.0103398 0.00691603 0.00290525 0.00164809 0.00219402 
212 0.0695194 0.36026 0.535991 0.0184065 0.0103299 0.00220855 0.00162325 0.000760033 0.000353657 0.0005478 
213 0.183658 0.548552 0.204754 0.0375526 0.0126452 0.0051599 0.00379411 0.00177646 0.00082662 0.0012804 
214 0.41296 0.582112 0.00302988 0.000632733 0.000495255 0.000300917 0.000203554 0.000126469 6.22947e-05 7.66263e-05 
215 0.520054 0.42249 0.0333441 0.00392533 0.00306947 0.0142105 0.00126155 0.000783797 0.000386073 0.000474894 
216 0.123266 0.637348 0.192379 0.0246873 0.0108619 0.00460507 0.00338614 0.00158545 0.000737736 0.00114272 
217 0.546974 0.392093 0.0341717 0.0180614 0.00340572 0.00206932 0.00139978 0.000869693 0.000428382 0.000526937 
218 0.544166 0.42018 0.0279087 0.00258237 0.00202128 0.00122813 0.000830767 0.000516159 0.000254243 0.000312735 
219 0.141532 0.584856 0.219622 0.0283643 0.0124711 0.0052873 0.00388779 0.00182033 0.00084703 0.00131202 
220 0.00848261 0.729764 0.0799009 0.0775917 0.0335643 0.0260253 0.0249453 0.00571621 0.00472726 0.00928211 
221 0.288028 0.689622 0.0163226 0.00294157 0.00153877 0.000687422 0.000420989 0.000217731 0.000129315 9.21355e-05 
222 0.194211 0.754448 0.0373628 0.00682102 0.00356816 0.00159402 0.000976206 0.000504884 0.00029986 0.000213648 
223 0.125376 0.280625 0.472585 0.0820302 0.0181861 0.00913123 0.00610766 0.00256567 0.00145546 0.00193758 
224 0.0791734 0.203065 0.462859 0.211546 0.0193669 0.0147273 0.00279569 0.00205988 0.00106648 0.00334017 
225 0.375539 0.603168 0.0129363 0.00278625 0.00218086 0.00132509 0.000896353 0.000556908 0.000274315 0.000337425 
226 0.0671232 0.895535 0.00593729 0.0103488 0.0051685 0.00220121 0.00144662 0.000553167 0.000710507 0.0109757 
227 0.092915 0.321472 0.552415 0.0175921 0.00759515 0.00322009 0.00236775 0.00110862 0.00051586 0.000799047 
228 0.275839 0.539306 0.138122 0.0199889 0.00926153 0.00977989 0.00490064 0.00128214 0.000596604 0.000924115 
229 0.00848261 0.729764 0.0799009 0.0775917 0.0335643 0.0260253 0.0249453 0.00571621 0.00472726 0.00928211 
230 0.00545635 0.7268 0.0675972 0.0961531 0.0522998 0.01703 0.0144898 0.00366491 0.00845132 0.00805766 
231 0.245029 0.748041 0.00561323 0.000642967 0.000336342 0.000150256 9.20194e-05 4.75915e-05 2.82655e-05 2.01389e-05 
232 0.186125 0.764674 0.035806 0.00653681 0.00341948 0.00152761 0.000935531 0.000483847 0.000287366 0.000204746 
233 0.0368535 0.341219 0.404717 0.143199 0.0251788 0.0142981 0.0239108 0.00182737 0.00595076 0.00284536 
234 0.0807396 0.901619 0.00749368 0.00330362 0.00343336 0.00146223 0.00096097 0.000367461 0.000396777 0.00022333 
235 0.318808 0.678555 0.0016645 0.000324445 0.000253951 0.000154301 0.000104376 6.48494e-05 3.19427e-05 3.92915e-05 
236 0.386744 0.593238 0.0147802 0.00174774 0.00136603 0.000830003 0.000561452 0.000348833 0.000171824 0.000211354 
237 0.186507 0.800981 0.00916327 0.0016342 0.00085487 0.000381901 0.000233883 0.000120962 7.18415e-05 5.11864e-05 
238 0.066975 0.337372 0.593623 0.000991067 0.000518322 0.000231553 0.000141807 7.3341e-05 4.35586e-05 3.10351e-05 
239 0.0103104 0.79721 0.0656062 0.0558859 0.027265 0.0176675 0.012509 0.00466465 0.00538348 0.00349822 
240 0.068015 0.875005 0.00787086 0.00547008 0.037946 0.00196897 0.00129984 0.00118989 0.000811024 0.000423251 
241 0.175836 0.678247 0.111764 0.0179368 0.00789184 0.00334587 0.00246024 0.00115193 0.000536011 0.000830259 
242 0.109196 0.675433 0.147117 0.0305164 0.00935447 0.0132235 0.00291586 0.00136524 0.000635283 0.0102433 
243 0.356228 0.491827 0.147203 0.00232065 0.00120688 0.000539155 0.000330187 0.000170769 0.000101423 7.22631e-05 
244 0.233588 0.740655 0.0141094 0.00968987 0.000983128 0.000433022 0.00026519 0.000137153 8.14581e-05 5.80381e-05 
245 0.203292 0.755784 0.0250403 0.0114344 0.00221804 0.000990879 0.000606831 0.000313847 0.0001864 0.000132808 
246 0.285719 0.692722 0.0159842 0.00272052 0.00142314 0.000635766 0.000389354 0.00020137 0.000119597 8.5212e-05 
247 0.246014 0.726916 0.0197073 0.00359275 0.00187941 0.0008396 0.000514185 0.000265931 0.000157942 0.000112532 
248 0.124542 0.569495 0.209251 0.0562428 0.0142201 0.0178643 0.00414373 0.00194009 0.000902756 0.00139833 
249 0.0855279 0.272897 0.589096 0.0336436 0.00869769 0.00436711 0.00292105 0.00122706 0.00069609 0.000926669 
250 0.111591 0.844147 0.0123371 0.0103932 0.0108016 0.00460028 0.00302328 0.00115606 0.00124829 0.000702611 
251 0.126699 0.319041 0.431003 0.0701969 0.0184254 0.0093088 0.0191014 0.00278648 0.00147461 0.00196308 
252 0.0271386 0.389696 0.34815 0.165002 0.0290524 0.014906 0.0137966 0.00210851 0.00686626 0.00328311 
253 0.633423 0.3653 0.000792872 0.000301658 7.17094e-05 4.3458e-05 2.9397e-05 1.82645e-05 8.99649e-06 1.10662e-05 
254 0.145535 0.84557 0.00657587 0.00113137 0.000591833 0.000264393 0.000161919 8.37427e-05 4.97364e-05 3.54367e-05 
255 0.197152 0.736237 0.0524281 0.00692133 0.00362063 0.00161746 0.000990562 0.000512308 0.00030427 0.000216789 
256 0.228125 0.763358 0.00620441 0.00112866 0.000590414 0.000263759 0.00016153 8.35419e-05 4.96171e-05 3.53517e-05 
257 0.206163 0.723953 0.0403345 0.0219529 0.00378773 0.00169212 0.00103628 0.000535953 0.000318313 0.000226795 
258 0.189341 0.801929 0.00141862 0.000265787 0.0069881 2.7054e-05 2.33113e-05 0 0 7.15161e-06 
259 0.528809 0.458734 0.00143299 0.0027313 0.00700392 2.73348e-05 2.33687e-05 0 7.11442e-06 0.00123162 
260 0.130166 0.291059 0.465477 0.0723178 0.0189233 0.00950142 0.00635527 0.00266969 0.00151447 0.00201613 
261 0.112516 0.690584 0.139141 0.0354377 0.0108636 0.00460507 0.00338614 0.00158545 0.000737736 0.00114272 
262 0.14548 0.560329 0.214911 0.0365617 0.0140299 0.00594849 0.0180678 0.00224246 0.000952909 0.00147602 
263 0.343087 0.626054 0.025471 0.00262934 0.00137543 0.000614456 0.000376303 0.00019462 0.000115589 8.23558e-05 
264 0.192239 0.781357 0.019365 0.00343541 0.0017971 0.000802829 0.000491666 0.000254284 0.000151024 0.000107604 
265 0.178718 0.772222 0.0406737 0.00409262 0.00214089 0.000956414 0.000585724 0.00030293 0.000179916 0.000128189 
266 0.40738 0.544205 0.0197263 0.0251097 0.00178409 0.000797011 0.000488103 0.000252442 0.00014993 0.000106824 
267 0.178037 0.765183 0.0365271 0.00489011 0.0128094 0.00113392 0.000694414 0.000359144 0.000213303 0.000151976 
268 0.139252 0.849677 0.0086299 0.00119152 0.000623298 0.00027845 0.000170527 8.81949e-05 5.23806e-05 3.73207e-05 
269 0.00545635 0.711415 0.0682169 0.105508 0.0577101 0.01703 0.0144898 0.00366491 0.00845132 0.00805766 
270 0.0888233 0.219945 0.402614 0.237234 0.0283056 0.014168 0.00268952 0.00198165 0.00102598 0.00321332 
271 0.32955 0.647568 0.012797 0.00681121 0.00128215 0.000778662 0.000526723 0.000327255 0.000161195 0.00019828 
272 0.113892 0.854553 0.0248573 0.00326842 0.00170974 0.000763803 0.000467765 0.000241923 0.000143683 0.000102373 
273 0.13697 0.809576 0.0441792 0.00452573 0.00236733 0.00105757 0.000647675 0.000334971 0.000198946 0.000141747 
274 0.270463 0.660936 0.0324267 0.0137054 0.0200601 0.00117932 0.000601412 0.000311044 0.000184735 0.000131622 
275 0.184899 0.770267 0.0355602 0.00452549 0.00236733 0.00105757 0.000647675 0.000334971 0.000198946 0.000141747 
276 0.511639 0.460441 0.016969 0.00365094 0.00285768 0.00173633 0.00117453 0.000729742 0.000359447 0.000442143 
277 0.213262 0.772631 0.0102954 0.00186028 0.000973133 0.000434733 0.000266238 0.000137696 8.178e-05 5.82675e-05 
278 0.659047 0.289626 0.0461013 0.0031425 0.000815868 0.00049528 0.00033503 0.000208156 0.000102531 0.000126119 
279 0.182752 0.730133 0.0615938 0.00612187 0.0155108 0.00210096 0.000874782 0.000452428 0.000268706 0.00019145 
280 0.621338 0.35942 0.0117396 0.00250104 0.00195762 0.00118945 0.000804601 0.000499902 0.000246236 0.000302885 
281 0.150496 0.814774 0.0252748 0.00461422 0.00241375 0.00107831 0.000660375 0.000341539 0.000202847 0.000144526 
282 0.125152 0.218466 0.574911 0.0499342 0.0179515 0.00609268 0.00379266 0.0015932 0.000903794 0.00120317 
283 0.260417 0.70791 0.0258942 0.00282215 0.00147427 0.000658608 0.000403343 0.000208605 0.000123894 8.82735e-05 
284 0.341202 0.651697 0.00516791 0.000943188 0.000493392 0.000220416 0.000134986 6.98136e-05 4.14636e-05 2.95424e-05 
285 0.5931 0.375329 0.0244065 0.00238861 0.00186931 0.00113579 0.000768303 0.00047735 0.000235127 0.000289221 
286 0.148132 0.832064 0.0165747 0.00157758 0.00082342 0.000367851 0.000225278 0.000116512 6.91985e-05 4.93033e-05 
287 0.186841 0.719955 0.0822145 0.00537766 0.00279776 0.00124986 0.000765434 0.000395875 0.000235118 0.000167519 
288 0.272501 0.705378 0.0175289 0.00224134 0.00117239 0.00052375 0.000320753 0.00016589 9.85255e-05 7.01985e-05 
289 0.191459 0.736176 0.0632601 0.00444655 0.00232267 0.00103762 0.000635455 0.000328651 0.000195192 0.000139072 
290 0.129182 0.560109 0.254997 0.0300863 0.0124711 0.0052873 0.00388779 0.00182033 0.00084703 0.00131202 
291 0.113397 0.539643 0.238298 0.0721672 0.0135452 0.00525986 0.0141031 0.00164398 0.000762327 0.00118081 
292 0.213462 0.749607 0.0214537 0.0114627 0.00200165 0.000894208 0.000547628 0.000283227 0.000168214 0.000119851 
293 0.264835 0.731812 0.00245928 0.000435788 0.000227965 0.00010184 6.23687e-05 3.22565e-05 1.91577e-05 1.36497e-05 
294 0.0222721 0.870187 0.0601564 0.0148514 0.0140156 0.00660921 0.00651756 0.00216106 0.00158241 0.00164758 
295 0.0203132 0.866981 0.046861 0.0249046 0.0127419 0.00600837 0.00592505 0.0019646 0.00143885 0.0128611 
296 0.618291 0.348986 0.0252989 0.00285519 0.00178862 0.00108677 0.000735139 0.000456745 0.000224978 0.000276737 
297 0.169488 0.799788 0.0224096 0.00405733 0.00212244 0.000948169 0.000580674 0.000300319 0.000178365 0.000127083 
298 0.132664 0.86354 0.00295417 0.000411049 0.000215024 9.60589e-05 5.88281e-05 3.04253e-05 1.80702e-05 1.28748e-05 
299 0.169972 0.799698 0.0220867 0.00402266 0.0021043 0.000940065 0.000575711 0.000297752 0.000176841 0.000125997 
300 0.451374 0.529414 0.0123084 0.00230168 0.00180158 0.00109464 0.000740466 0.000460055 0.000226608 0.000278742 
301 0.118833 0.25454 0.509726 0.0794613 0.0172887 0.00868031 0.00580605 0.00243897 0.00138359 0.0018419 
302 0.233731 0.75907 0.00565825 0.000751838 0.000393295 0.000175699 0.000107601 5.56501e-05 3.30517e-05 2.3549e-05 
303 0.496815 0.495282 0.0051597 0.0017861 0.000375038 0.000227844 0.000154124 9.5758e-05 4.71673e-05 5.80187e-05 
304 0.194491 0.529774 0.271066 0.00228373 0.00118939 0.000531341 0.000325402 0.000168295 9.99534e-05 7.12159e-05 
305 0.214497 0.74447 0.030073 0.0053483 0.00279776 0.00124986 0.000765434 0.000395875 0.000235118 0.000167519 
306 0.321568 0.663419 0.0113631 0.00121698 0.000952559 0.000578776 0.000391511 0.000243247 0.000119816 0.000147381 
307 0.591271 0.403823 0.00306754 0.00061319 0.000479957 0.000291623 0.000197267 0.000122563 6.03705e-05 7.42595e-05 
308 0.0729325 0.92339 0.00267949 0.000487216 0.000254868 0.000113859 6.97289e-05 3.60631e-05 2.14186e-05 1.52605e-05 
309 0.20071 0.773109 0.0209678 0.00254406 0.00133083 0.000594527 0.000364098 0.000188308 0.00011184 7.96848e-05 
310 0.247136 0.706735 0.038021 0.00395812 0.00206893 0.000924265 0.000566035 0.000292748 0.000173868 0.00012388 
311 0.117069 0.35703 0.457207 0.0451851 0.0108553 0.00545042 0.00364566 0.00153145 0.000868763 0.00115654 
312 0.10536 0.361354 0.348633 0.139501 0.0286294 0.00723231 0.0047029 0.00197557 0.0011207 0.00149194 
313 0.684434 0.309091 0.00266226 0.00118894 0.000828937 0.000672984 0.000203231 0.000204293 0.000156249 0.000558195 
314 0.220242 0.772049 0.00568677 0.000986689 0.000516148 0.000230582 0.000141212 7.30335e-05 4.3376e-05 3.0905e-05 
315 0.299016 0.665245 0.0282038 0.00367756 0.00192346 0.000859278 0.000526236 0.000272164 0.000161643 0.000115169 
316 0.230694 0.76129 0.00632094 0.000827154 0.000432694 0.0001933 0.00011838 6.12249e-05 3.63626e-05 2.5908e-05 
317 0.0835719 0.230081 0.466765 0.173838 0.0204213 0.0155454 0.002951 0.00217432 0.00112573 0.00352573 
318 0.173838 0.807808 0.0144804 0.00189021 0.000988766 0.000441717 0.000270515 0.000139908 8.30938e-05 5.92035e-05 
319 0.271834 0.702857 0.0200957 0.00254407 0.00133083 0.000594528 0.000364098 0.000188308 0.00011184 7.96848e-05 
320 0.164662 0.533622 0.295403 0.00310729 0.00159872 0.000714205 0.000437391 0.000226214 0.000134353 9.57252e-05 
321 0.569655 0.408432 0.0133303 0.00286155 0.0022398 0.00136091 0.000920579 0.00057196 0.000281729 0.000346544 
322 0.492636 0.463779 0.038551 0.00236525 0.00104461 0.000634708 0.000429346 0.000266754 0.000131395 0.000161624 
323 0.131647 0.63465 0.164868 0.0422235 0.0129511 0.00549066 0.00403732 0.00189034 0.000879608 0.00136248 
324 0.112023 0.249934 0.503138 0.0828088 0.030898 0.00913123 0.00610766 0.00256567 0.00145546 0.00193758 
325 0.130078 0.265249 0.426597 0.111384 0.0311203 0.00955262 0.0198181 0.00266977 0.00151447 0.00201613 
326 0.201678 0.700428 0.0852929 0.00618869 0.00319744 0.00142841 0.000874782 0.000452428 0.000268706 0.00019145 
327 0.217645 0.492728 0.244237 0.0430473 0.00148938 0.000379267 0.00023227 0.000120127 7.1346e-05 5.08334e-05 
328 0.138305 0.852242 0.00690137 0.00124511 0.00065133 0.000290973 0.000178196 9.21613e-05 5.47364e-05 3.89992e-05 
329 0.287767 0.615973 0.0804597 0.0122478 0.00177164 0.000791278 0.000484591 0.000250626 0.000148851 0.000106055 
330 0.477187 0.512613 0.00798443 0.000738688 0.000578181 0.000351304 0.000237638 0.000147645 7.27254e-05 8.94568e-05 
331 0.178795 0.809791 0.00647843 0.00118262 0.00313108 0.000276353 0.000169242 8.75301e-05 5.19858e-05 3.70394e-05 
332 0.748627 0.233763 0.0154483 0.000724277 0.000562484 0.000341766 0.000231186 0.000143637 7.07509e-05 8.7028e-05 
333 0.193993 0.708151 0.0612592 0.0179313 0.0155311 0.00139226 0.000852635 0.000440974 0.000261903 0.000186604 
334 0.849762 0.141158 0.00566522 0.00113847 0.000891103 0.000541435 0.000366252 0.000227554 0.000112086 0.000137872 
335 0.0363341 0.88152 0.0099777 0.00695717 0.0579313 0.00254296 0.0016532 0.00151336 0.0010315 0.00053831 
336 0.128743 0.292362 0.454008 0.0796254 0.0209004 0.0104941 0.00701925 0.00294861 0.00167269 0.00222677 
337 0.150593 0.788906 0.049664 0.00528821 0.00276632 0.00123582 0.000756834 0.000391427 0.000232476 0.000165637 
338 0.135581 0.290702 0.441284 0.0896985 0.0197449 0.00990289 0.0066238 0.00278249 0.00157846 0.00210132 
339 0.12626 0.617703 0.197749 0.0306121 0.0134687 0.00571029 0.00419881 0.00196595 0.000914793 0.00141698 
340 0.207102 0.738794 0.0426224 0.00560298 0.00293098 0.00130938 0.000801883 0.000414726 0.000246314 0.000175496 
341 0.121754 0.535825 0.236255 0.0621849 0.0303202 0.00549068 0.00403732 0.00189034 0.000879608 0.00136248 
342 0.189437 0.755468 0.0459475 0.00477785 0.00217879 0.000973341 0.00059609 0.000308292 0.0001831 0.000130457 
343 0.208008 0.776685 0.0119701 0.00162886 0.000851912 0.00038058 0.000233073 0.000120543 7.15929e-05 5.10093e-05 
344 0.170294 0.510175 0.255379 0.0394426 0.0120257 0.00509847 0.00374894 0.00175531 0.000816779 0.00126516 
345 0.450778 0.530086 0.0164574 0.00130736 0.000683896 0.000305521 0.000187106 9.67694e-05 5.74732e-05 4.09491e-05 
346 0.20056 0.577031 0.207513 0.0116253 0.00163048 0.000728395 0.000446081 0.000230708 0.000137022 9.7627e-05 
347 0.576982 0.408561 0.00907488 0.00179453 0.00140462 0.000853449 0.000577312 0.000358687 0.000176678 0.000217324 
348 0.110641 0.225457 0.567434 0.0616117 0.0160957 0.00808166 0.00540563 0.00227077 0.00128817 0.00171487 
349 0.246118 0.731252 0.0166769 0.00290525 0.00151977 0.000678936 0.000415791 0.000215043 0.000127718 9.0998e-05 
350 0.494968 0.489438 0.00995622 0.00187948 0.00147111 0.000893849 0.000604641 0.000375666 0.000185041 0.000227612 
351 0.123098 0.64055 0.184919 0.0270133 0.0118842 0.00503849 0.00370483 0.00173466 0.00080717 0.00125027 
352 0.344301 0.642712 0.00772322 0.00361507 0.00095342 0.000308954 0.000189208 9.78567e-05 5.8119e-05 4.14092e-05 
353 0 0.678053 0.0794286 0.167582 0.0205525 0.0397678 0.007307 0.00730939 0 0 
354 0.0343281 0.918079 0.020321 0.00854755 0.00806653 0.00380386 0.00375111 0.00124378 0.000910738 0.000948248 
355 0.344025 0.403681 0.248856 0.0021044 0.000665413 0.000297264 0.000182049 9.4154e-05 5.59199e-05 3.98424e-05 
356 0.14817 0.848952 0.00206511 0.000271022 0.000212131 0.000128891 8.71878e-05 5.41702e-05 2.66825e-05 3.28211e-05 
357 0.11771 0.66784 0.16302 0.0270107 0.0118842 0.00503849 0.00370483 0.00173466 0.00080717 0.00125027 
358 0.824619 0.165249 0.00701861 0.00103801 0.000812476 0.000493662 0.000333936 0.000207476 0.000102196 0.000125707 
359 0.11839 0.497872 0.327663 0.0301284 0.0126269 0.00535339 0.00393639 0.00184308 0.000857618 0.00132842 
360 0.202541 0.791885 0.00405923 0.000738855 0.000386503 0.000172665 0.000105743 5.46891e-05 3.24809e-05 2.31424e-05 
361 0.0232167 0.853516 0.0477852 0.0417235 0.00888038 0.012851 0.00435374 0.00459598 0.000992044 0.00208541 
362 0.141238 0.551181 0.259104 0.0208069 0.0140949 0.00783448 0.00283703 0.00132835 0.000618103 0.000957416 
363 0.0817206 0.897895 0.00280724 0.00195787 0.0135817 0.000704741 0.000465244 0.000425891 0.000290285 0.000151491 
364 0.560939 0.371768 0.0250661 0.00362104 0.023856 0.00185811 0.0114725 0.000677192 0.00033268 0.000409217 
365 0.548495 0.396161 0.0185537 0.0125702 0.00688835 0.00670116 0.00896427 0.000793721 0.000390899 0.00048083 
366 0.143591 0.251551 0.46542 0.0849445 0.0323651 0.00957288 0.00635527 0.00266969 0.00151447 0.00201613 
367 0.521382 0.425888 0.022782 0.0201754 0.00382693 0.00232401 0.00157207 0.000976732 0.000481106 0.000591791 
368 0.588921 0.386017 0.015722 0.00311404 0.00243743 0.00148099 0.00100181 0.000622427 0.000306587 0.000377122 
369 0.110587 0.25559 0.504661 0.0831629 0.0249432 0.00914441 0.00602936 0.00253278 0.0014368 0.00191274 
370 0.317036 0.342868 0.266481 0.0420514 0.0186902 0.00555768 0.00370307 0.00155557 0.000882444 0.00117475 
371 0.129622 0.541857 0.261706 0.0411543 0.0125064 0.0052873 0.00388779 0.00182033 0.00084703 0.00131201 
372 0.355965 0.620982 0.01679 0.00305617 0.00159872 0.000714205 0.000437391 0.000226214 0.000134353 9.57252e-05 
373 0.403347 0.57009 0.0217273 0.00161235 0.00126202 0.000766805 0.000518702 0.000322272 0.000158741 0.000195261 
374 0.119249 0.628174 0.197927 0.0287032 0.0126269 0.00535339 0.00393639 0.00184308 0.000857618 0.00132842 
375 0.163033 0.675641 0.151173 0.00495534 0.00259161 0.00115776 0.000709034 0.000366705 0.000217793 0.000155176 
376 0.682526 0.275828 0.0197741 0.00565635 0.0133529 0.00111897 0.000756921 0.000470278 0.000231644 0.000284936 
377 0.573082 0.40208 0.0159585 0.00144711 0.00117033 0.00519175 0.000464563 0.00028858 0.000142145 0.000174847 
378 0.215918 0.558339 0.0284896 0.152073 0.0424591 0.00120866 0.0007402 0.000382824 0.000227366 0.000161997 
379 0.25762 0.587445 0.132499 0.0194253 0.00150125 0.000670656 0.000410721 0.000212421 0.000126161 8.98883e-05 
380 0.730393 0.258348 0.00707987 0.00139312 0.00109043 0.000662546 0.000448177 0.000278454 0.000137158 0.000168712 
381 0.214332 0.692424 0.0567837 0.0069335 0.0253656 0.00252253 0.000801883 0.000414726 0.000246314 0.000175496 
382 0.00848261 0.71438 0.0799009 0.0775917 0.0375019 0.0374723 0.0249453 0.00571621 0.00472726 0.00928211 
383 0.605506 0.339103 0.0301985 0.0208255 0.00180842 0.0010004 0.000676717 0.000420447 0.000207099 0.000254744 
384 0.536106 0.395482 0.0197978 0.0319199 0.0118638 0.00188826 0.0012773 0.000793594 0.000390899 0.00048083 
385 0.270338 0.720074 0.00700243 0.0012618 0.000660061 0.000294873 0.000180585 9.33967e-05 5.54701e-05 3.95219e-05 
386 0.113774 0.261662 0.449184 0.137913 0.0173157 0.00868031 0.00580605 0.00243897 0.00138359 0.0018419 
387 0.205919 0.734398 0.0512642 0.00412475 0.00214089 0.000956414 0.000585723 0.00030293 0.000179916 0.000128189 
388 0.129812 0.77914 0.06804 0.0120837 0.0053166 0.00225406 0.00165743 0.000776034 0.000361102 0.000559333 
389 0.091405 0.32804 0.484627 0.0681069 0.0128471 0.0064505 0.00431459 0.00181245 0.00102817 0.00136875 
390 0.15669 0.802147 0.0327026 0.00412851 0.00215967 0.000964803 0.000590861 0.000305587 0.000181494 0.000129313 
391 0.355786 0.470828 0.13813 0.018651 0.00808124 0.00342617 0.00251929 0.00117957 0.000548875 0.000850186 
392 0.00503999 0.0778453 0.00800848 0.0284305 0.87694 0.00035106 0.000231674 0.000220616 0.00285711 7.54369e-05 
393 0.444378 0.542421 0.0005102 0.0049516 0.0076828 2.68499e-05 2.19877e-05 0 0 6.74555e-06 
394 0.884116 0.081643 0.0267867 0.00382106 0.00215143 0.000598114 0.000436769 0.000204503 9.51586e-05 0.000147397 
395 0.481324 0.493029 0.0192644 0.0010392 0.000812476 0.000493662 0.000333936 0.000207598 0.00337004 0.000125708 
396 0.182112 0.784018 0.026673 0.00351232 0.00183733 0.000820803 0.000502673 0.000259977 0.000154406 0.000110013 
397 0.135346 0.279917 0.468174 0.0781291 0.0197661 0.0115208 0.00361766 0.00151967 0.00086208 0.00114764 
398 0.0830056 0.875171 0.0179436 0.00777612 0.0080785 0.00344054 0.00226111 0.000864614 0.000933592 0.000525482 
399 0.726466 0.269772 0.00229793 0.000487914 0.000381901 0.000232044 0.000156965 9.75231e-05 4.80367e-05 5.90882e-05 
400 0.230333 0.742523 0.0213691 0.00281828 0.00147427 0.000658608 0.000403343 0.000208605 0.000123894 8.82735e-05 
401 0.222522 0.704242 0.0537063 0.0138531 0.00283003 0.00126423 0.000774232 0.000400425 0.00023782 0.000169445 
402 0.42868 0.555737 0.0114962 0.00199428 0.00104323 0.000466049 0.000285416 0.000147614 8.7671e-05 6.24648e-05 
403 0.117784 0.251075 0.502918 0.0912414 0.0170772 0.00857445 0.00573524 0.00240923 0.00136671 0.00181944 
404 0.164451 0.574484 0.203951 0.0311676 0.0126269 0.00535339 0.00393639 0.00184308 0.000857618 0.00132842 
405 0.584968 0.381772 0.0213526 0.00193678 0.00151596 0.00184865 0.00579308 0.000387119 0.000190682 0.000234551 
406 0.477797 0.508077 0.00858685 0.0018467 0.00144545 0.000878259 0.000594095 0.000369114 0.000181813 0.000223642 
407 0.115223 0.288261 0.424871 0.109897 0.0398446 0.00951594 0.00627053 0.00263409 0.00149427 0.00198925 
408 0.902444 0.0908846 0.00473532 0.000645594 0.000505321 0.000307034 0.000207692 0.00012904 6.35608e-05 7.81837e-05 
409 0.178674 0.70513 0.10331 0.0063014 0.0032827 0.0014665 0.000898109 0.000464493 0.000275871 0.000196556 
410 0.169207 0.811214 0.0155438 0.00196926 0.00103014 0.000460199 0.000281833 0.000145761 8.65705e-05 6.16807e-05 
411 0.120322 0.238062 0.473554 0.0929753 0.0291793 0.0263214 0.01385 0.00246946 0.00140088 0.00186492 
412 0.120508 0.290706 0.472646 0.0740207 0.019449 0.00976534 0.0065318 0.00274384 0.00155653 0.00207213 
413 0.208265 0.335847 0.411436 0.0190326 0.00834839 0.00353943 0.00260257 0.00121857 0.000575116 0.00913466 
414 0.188746 0.761355 0.0363155 0.00662888 0.00346764 0.00154912 0.000948707 0.000490662 0.000291413 0.000207629 
415 0.221386 0.208979 0.379177 0.152982 0.0167578 0.012719 0.00241446 0.00177899 0.000921049 0.00288469 
416 0.148667 0.816989 0.0265662 0.00379557 0.00198551 0.000886997 0.000543211 0.000280943 0.000166858 0.000118885 
417 0.700864 0.286151 0.00789042 0.00169857 0.00132951 0.00080781 0.00054644 0.000339506 0.00016723 0.000205703 
418 0.611234 0.364783 0.0170283 0.00231848 0.00181473 0.00110263 0.000745871 0.000463413 0.000228262 0.000280777 
419 0.110569 0.455369 0.374905 0.0304688 0.0182389 0.00443871 0.00297086 0.001391 0.000647259 0.00100258 
420 0.55502 0.426838 0.0110325 0.00237039 0.00185536 0.00112732 0.000762569 0.000473788 0.000233373 0.000287063 
421 0.195727 0.638207 0.102669 0.0376305 0.0113744 0.00228986 0.0113545 0.000370634 0.00022011 0.000156826 
422 0.114459 0.642153 0.190719 0.0276615 0.0121705 0.0051599 0.00379411 0.00177646 0.00082662 0.0012804 
423 0.414248 0.539619 0.0295846 0.00269181 0.00210693 0.00129434 0.0093255 0.000538906 0.000265016 0.000325986 
424 0.235244 0.711577 0.0439036 0.00452627 0.00236733 0.00105757 0.000647675 0.000334971 0.000198946 0.000141747 
425 0.525777 0.420228 0.0180341 0.0160202 0.00306614 0.0140031 0.00124615 0.000774238 0.000381365 0.000469102 
426 0.204276 0.746278 0.0378498 0.00610919 0.00273559 0.00122208 0.000748424 0.000387077 0.000229893 0.000163796 
427 0.153036 0.56139 0.228016 0.0302455 0.0132915 0.00563515 0.00414356 0.00194009 0.000902756 0.00139833 
428 0.18183 0.795065 0.0168425 0.00305617 0.00159872 0.000714205 0.000437391 0.000226214 0.000134353 9.57252e-05 
429 0.20517 0.744731 0.0407358 0.00456945 0.00239032 0.00106784 0.000653963 0.000338223 0.000200877 0.000143123 
430 0.550268 0.406889 0.0184342 0.0039704 0.00310772 0.00188826 0.0012773 0.000793594 0.000390956 0.0129808 
431 0.00545635 0.711415 0.0675972 0.0961531 0.0522998 0.01703 0.0144898 0.00366491 0.00856169 0.0233319 
432 0.232002 0.721675 0.0371381 0.00448239 0.00234479 0.0010475 0.000641507 0.000331781 0.000197051 0.000140397 
433 0.216582 0.720071 0.0539954 0.00460344 0.00236733 0.00105757 0.000647675 0.000334971 0.000198946 0.000141747 
434 0.298025 0.64652 0.0472786 0.00399127 0.00208646 0.000932098 0.000570832 0.000295229 0.000175342 0.000124929 
435 0.540417 0.435716 0.0145262 0.00311404 0.00243743 0.00148099 0.00100181 0.000622427 0.000306587 0.000377122 
436 0.603248 0.351108 0.0152036 0.0135753 0.00257154 0.00155732 0.00105649 0.0109607 0.000322432 0.000396561 
437 0.77143 0.220514 0.00610798 0.00064957 0.000508421 0.000308917 0.000208966 0.000129831 6.39508e-05 7.86634e-05 
438 0.621117 0.349669 0.0204741 0.00291406 0.0022809 0.00138588 0.000937471 0.000582455 0.000286898 0.000352903 
439 0.594594 0.384986 0.0124146 0.00266918 0.00208922 0.00126942 0.000858691 0.000533509 0.000262789 0.000323247 
440 0.217613 0.707665 0.0390054 0.00567049 0.00395414 0.024314 0.00093123 0.000419723 0.000249281 0.000177611 
441 0.445626 0.514721 0.0329244 0.00225526 0.00175083 0.00106381 0.000719608 0.000447095 0.000220225 0.00027089 
442 0.189936 0.767347 0.0327746 0.00485207 0.00253817 0.00113389 0.000694414 0.000359144 0.000213303 0.000151976 
443 0.322246 0.667293 0.00792296 0.00123855 0.000647902 0.000289441 0.000177258 9.16762e-05 5.44483e-05 3.87939e-05 
444 0.132798 0.547922 0.263944 0.0290622 0.0127868 0.00542116 0.00398621 0.00186641 0.000868474 0.00134523 
445 0.0407165 0.876675 0.0154517 0.02351 0.0164941 0.00684348 0.0164606 0.00143742 0.00154302 0.000868506 
446 0.115166 0.712868 0.129437 0.0234867 0.00926748 0.0039291 0.00288909 0.00135272 0.000629444 0.000974984 
447 0.196586 0.510247 0.289073 0.00200256 0.00104323 0.000466049 0.000285416 0.000147614 8.7671e-05 6.24648e-05 
448 0.245509 0.679769 0.0447334 0.0249496 0.00251262 0.00112232 0.000687329 0.000355479 0.000211126 0.000150425 
449 0.138498 0.570063 0.231119 0.0330087 0.0132915 0.00563515 0.00414356 0.00194008 0.000902756 0.00139833 
450 0.619792 0.360116 0.0162504 0.00138973 0.000959914 0.000583245 0.000394534 0.000245126 0.000120741 0.000148519 
451 0.110587 0.303051 0.427935 0.106697 0.0182885 0.0202418 0.00731699 0.00253278 0.0014368 0.00191274 
452 0.137156 0.570542 0.214453 0.0332741 0.0291326 0.00620687 0.00456393 0.0021369 0.00099434 0.00154019 
453 0.137631 0.583552 0.201326 0.0474035 0.0146456 0.00620683 0.00456393 0.00213691 0.00099434 0.00154019 
454 0.235761 0.648032 0.10309 0.00328984 0.00170787 0.00721405 0.00044352 0.000229191 0.000136121 9.69847e-05 
455 0.16881 0.800922 0.0235243 0.00329126 0.0017217 0.000769144 0.000471036 0.000243615 0.000144688 0.000103089 
456 0.266598 0.679146 0.0447827 0.00463207 0.00241375 0.00107831 0.000660375 0.000341539 0.000202847 0.000144526 
457 0.216901 0.759492 0.017345 0.00305617 0.00159872 0.000714205 0.000437391 0.000226214 0.000134353 9.57252e-05 
458 0.355032 0.639859 0.00330431 0.000601576 0.000470867 0.000286099 0.000193531 0.000120242 5.92271e-05 7.2853e-05 
459 0.505818 0.427732 0.0223792 0.00474078 0.00569018 0.0301255 0.00152553 0.000947575 0.000466745 0.000574125 
460 0.527122 0.420947 0.0357114 0.00659693 0.00376694 0.0022888 0.00154825 0.000961933 0.000473817 0.000582824 
461 0.498848 0.457107 0.0190107 0.0168926 0.00318741 0.00193667 0.00131005 0.000813943 0.000400922 0.000493159 
462 0.229931 0.760186 0.00721855 0.00130014 0.000680118 0.000303833 0.000186072 9.62347e-05 5.71556e-05 4.07229e-05 
463 0.456752 0.537942 0.00339317 0.000637815 0.000499232 0.000303334 0.000205189 0.000127485 6.2795e-05 7.72418e-05 
464 0.111164 0.220968 0.404118 0.190444 0.0336866 0.0297881 0.00300584 0.00217432 0.00112573 0.00352573 
465 0.1235 0.418862 0.369013 0.0581692 0.0141334 0.00703105 0.0047029 0.00197557 0.0011207 0.00149194 
466 0.116565 0.279396 0.47755 0.0855084 0.0189233 0.00950142 0.00635527 0.00266969 0.00151447 0.00201613 
467 0.448086 0.538489 0.0113285 0.00102315 0.000535223 0.000239103 0.000146431 7.57326e-05 4.4979e-05 3.20471e-05 
468 0.730364 0.260061 0.00717604 0.00117077 0.000612445 0.000273601 0.000167558 8.66592e-05 5.14685e-05 3.66709e-05 
469 0.101702 0.259843 0.563664 0.0484205 0.0121768 0.00611396 0.00408948 0.00171789 0.000974526 0.00129734 
470 0.0198214 0.524794 0.283744 0.120507 0.0212181 0.0108864 0.0100761 0.00153992 0.00501468 0.00239778 
471 0.742217 0.180265 0.0734274 0.00102812 0.0022856 0.000303961 0.000205602 0.000127742 6.29214e-05 7.73972e-05 
472 0.16117 0.50951 0.270682 0.0470307 0.00565455 0.00239258 0.00175928 0.000823723 0.000383293 0.000593705 
473 0.182837 0.57544 0.225403 0.0104411 0.00293099 0.00130938 0.000801883 0.000414726 0.000246314 0.000175496 
474 0.134724 0.307369 0.438131 0.0818261 0.0175478 0.00878881 0.00587862 0.00246946 0.00140088 0.00186492 
475 0.173864 0.665822 0.148659 0.0057048 0.0029663 0.00132515 0.000811545 0.000419723 0.000249281 0.000177611 
476 0.463624 0.491514 0.0355554 0.0031402 0.00241376 0.00146661 0.00099208 0.000616384 0.000303611 0.00037346 
477 0.304793 0.679026 0.0110306 0.00171693 0.00134388 0.000816543 0.000552348 0.000343176 0.000169037 0.000207927 
478 0.506367 0.467001 0.0168101 0.00327456 0.00256307 0.00155732 0.00105345 0.000654511 0.000322391 0.000396561 
479 0.56845 0.394688 0.0266182 0.00341543 0.00267331 0.00162431 0.00109876 0.000682662 0.000336257 0.000413617 
480 0.544163 0.374477 0.0193015 0.0280309 0.0164775 0.00191216 0.00129347 0.00080364 0.000396168 0.0131448 
481 0.33456 0.652768 0.00771026 0.00165433 0.00129488 0.000786773 0.00053221 0.000330664 0.000162875 0.000200346 
482 0.177248 0.774815 0.0395499 0.00409262 0.00214089 0.000956414 0.000585723 0.00030293 0.000179916 0.000128189 
483 0.477293 0.42932 0.0840452 0.00311477 0.00243743 0.00148099 0.00100181 0.000622427 0.000306587 0.000377122 
484 0.201074 0.780607 0.0133729 0.00241359 0.00126258 0.000564039 0.000345427 0.000178651 0.000106104 7.55984e-05 
485 0.564709 0.409737 0.0155246 0.0033435 0.00261703 0.00159011 0.00107562 0.00066829 0.000329178 0.00040491 
486 0.633934 0.335807 0.0212705 0.00299653 0.00234545 0.0014251 0.000964003 0.000598939 0.000295018 0.000362891 
487 0.230766 0.74608 0.01685 0.00307615 0.00160917 0.000718873 0.00044025 0.000227693 0.000135231 9.63509e-05 
488 0.199986 0.779529 0.016832 0.0017828 0.000932586 0.00041662 0.000255145 0.000131958 7.83725e-05 5.58397e-05 
489 0.143721 0.826993 0.0221419 0.0034863 0.00182372 0.000814723 0.00049895 0.000258052 0.000153262 0.000109198 
490 0.498528 0.437141 0.0427186 0.0145563 0.00276245 0.00167845 0.00113538 0.000705417 0.000347466 0.000427405 
491 0.118161 0.260199 0.493421 0.072978 0.032812 0.00970079 0.00644234 0.00270626 0.00153521 0.00204375 
492 0.165733 0.525672 0.253978 0.0289917 0.0124711 0.0052873 0.00388779 0.00182033 0.00084703 0.00131202 
493 0.213782 0.755349 0.0244393 0.00313767 0.00164135 0.000733251 0.000449055 0.000232246 0.000137936 9.82779e-05 
494 0.11501 0.274873 0.496262 0.0734209 0.018671 0.00937473 0.00627053 0.00263409 0.00149427 0.00198925 
495 0.143247 0.819823 0.0209597 0.00382643 0.00214655 0.00887938 0.00054763 0.000283227 0.000168214 0.000119851 
496 0.106062 0.29832 0.478548 0.0796003 0.0175651 0.00857445 0.00573524 0.00240923 0.00136671 0.00181944 
497 0.186647 0.544747 0.191794 0.054573 0.0113665 0.00437012 0.00321338 0.00150456 0.000700096 0.00108442 
498 0.131062 0.221984 0.565701 0.0523716 0.0133365 0.00669624 0.00447895 0.00188149 0.00106734 0.00142089 
499 0.259854 0.726208 0.00694466 0.00311271 0.000594537 0.000378235 0.00259154 0.000150445 7.41041e-05 9.11526e-05 
500 0.223544 0.603729 0.0838351 0.0732541 0.0130533 0.00115156 0.000701648 0.000362885 0.000215524 0.000153559 
501 0.278335 0.681818 0.0226149 0.0050279 0.0100322 0.00096482 0.000590861 0.000305587 0.000181494 0.000129313 
502 0.189251 0.769567 0.0325706 0.00420224 0.00219824 0.000982032 0.000601412 0.000311044 0.000184735 0.000131622 
503 0.242104 0.685169 0.0291648 0.0148832 0.00444706 0.0227189 0.000740326 0.000382824 0.000227366 0.000161996 
504 0.2504 0.747278 0.00180067 0.000254268 0.000133011 5.94206e-05 3.63902e-05 1.88206e-05 1.11779e-05 7.96417e-06 
505 0.0250897 0.953455 0.00296918 0.00205914 0.0142843 0.000741194 0.000489309 0.00044792 0.000305299 0.000159327 
506 0.174342 0.817337 0.00605698 0.00110481 0.000577941 0.000258187 0.000158118 8.17769e-05 4.85689e-05 3.46049e-05 
507 0.372682 0.619 0.00602204 0.000765379 0.000599079 0.000364001 0.000246227 0.000152982 7.5354e-05 9.26901e-05 
508 0.508816 0.432686 0.0196877 0.0304419 0.0032833 0.00198764 0.00134453 0.000835363 0.000411473 0.000506137 
509 0.128048 0.275263 0.458094 0.0764702 0.0403248 0.00941236 0.00627053 0.00263409 0.00149427 0.00198925 
510 0.142793 0.588899 0.178865 0.039018 0.0246068 0.00535343 0.00393639 0.0062075 0.0089932 0.00132842 
511 0.560661 0.363742 0.0729193 0.000893795 0.000698365 0.000424327 0.000287035 0.000178336 8.78425e-05 0.000108052 
512 0.219323 0.715227 0.0392574 0.0124458 0.00972488 0.00218717 0.000898109 0.000464493 0.000275871 0.000196556 
513 0.133729 0.521338 0.283645 0.0371509 0.0117471 0.0049799 0.00366175 0.00171449 0.000797784 0.00123574 
514 0.538522 0.401647 0.0334418 0.00429349 0.00336803 0.0155465 0.00138087 0.00085794 0.000422593 0.000519816 
515 0.640365 0.347391 0.00752735 0.000514726 0.00201039 0.00180255 0.000176317 0.000101418 4.99552e-05 6.1448e-05 
516 0.0603952 0.859681 0.0122053 0.00754296 0.0523255 0.00271511 0.00179242 0.0016408 0.00111836 0.000583641 
517 0.189481 0.763907 0.0339215 0.00619277 0.00323951 0.0014472 0.000886292 0.000458381 0.000272241 0.000193969 
518 0.143339 0.593263 0.189815 0.0314508 0.0139721 0.0194308 0.004314 0.00201981 0.000939855 0.0014558 
519 0.188073 0.673388 0.127453 0.00540983 0.00282992 0.00126422 0.000774232 0.000400425 0.00023782 0.000169445 
520 0.455177 0.505102 0.0259926 0.0102152 0.00176938 0.00077456 0.000474354 0.000245331 0.000145707 0.000103815 
521 0.158202 0.424613 0.287658 0.0997245 0.0216052 0.00329544 0.00242239 0.0011342 0.000527765 0.000817486 
522 0.302285 0.682965 0.0107645 0.00194484 0.00101737 0.000454494 0.00027834 0.000143954 8.54973e-05 6.0916e-05 
523 0.152739 0.548142 0.23344 0.0307667 0.0219177 0.00522283 0.00384038 0.00179813 0.0008367 0.00129601 
524 0.0861157 0.193873 0.421764 0.273548 0.0114297 0.0057163 0.0038235 0.00160615 0.000911142 0.00121296 
525 0.132326 0.722732 0.110246 0.0182215 0.0080171 0.00339898 0.00249929 0.00117021 0.000544519 0.000843438 
526 0.134554 0.274807 0.458248 0.0931476 0.0183173 0.00901417 0.00602936 0.00253278 0.0014368 0.00191274 
527 0.558443 0.369215 0.0442675 0.00627352 0.00344814 0.0146812 0.00189551 0.000846501 0.000416959 0.000512885 
528 0.199855 0.744513 0.0316752 0.0179348 0.00300247 0.00134131 0.000821441 0.000424841 0.000252321 0.000179777 
529 0.230484 0.741605 0.0203163 0.00370591 0.0019386 0.000866044 0.00053038 0.000274307 0.000162916 0.000116076 
530 0.254924 0.689997 0.0454895 0.00484087 0.00236733 0.00105757 0.000647675 0.000334971 0.000198946 0.000141747 
531 0.260177 0.669347 0.0678202 0.00133221 0.000660061 0.000294873 0.000180585 9.33967e-05 5.54701e-05 3.95219e-05 
532 0.234534 0.715549 0.0283301 0.00517199 0.00270552 0.00124361 0.0116878 0.000389258 0.000227366 0.000161997 
533 0.247581 0.668129 0.0626088 0.0159478 0.00291963 0.00124986 0.000765434 0.000395875 0.000235118 0.000167519 
534 0.261913 0.710377 0.0157487 0.00892831 0.00152357 0.000670656 0.000410721 0.000212421 0.000126161 8.98883e-05 
535 0.143592 0.332508 0.405399 0.0775217 0.0189233 0.00950142 0.00635527 0.00266969 0.00151447 0.00201613 
536 0.158312 0.824796 0.00964484 0.00542522 0.000908633 0.000405858 0.000248554 0.00012855 7.63482e-05 5.43974e-05 
537 0.318078 0.638357 0.030555 0.00311689 0.00163065 0.00735071 0.00044611 0.000230708 0.000137022 9.7627e-05 
538 0.209537 0.719158 0.0431252 0.0198627 0.0056545 0.00118266 0.000724282 0.000374591 0.000222477 0.000158513 
539 0.149069 0.588618 0.205499 0.0298569 0.0131189 0.00556197 0.00408975 0.00191489 0.000891032 0.00138017 
540 0.26822 0.708961 0.0144597 0.00621206 0.00107046 0.000478207 0.000292862 0.000151465 8.9958e-05 6.40943e-05 
541 0.133432 0.534356 0.241496 0.0524016 0.0133359 0.0172072 0.00384038 0.00179813 0.0008367 0.00129601 
542 0.177898 0.503936 0.270991 0.0248568 0.0108619 0.00460507 0.00338614 0.00158545 0.000737736 0.00114272 
543 0.585496 0.367895 0.0155272 0.00352355 0.0129632 0.00159016 0.00130092 0.0109686 0.000329879 0.00040491 
544 0.55199 0.380805 0.0184317 0.0162 0.00333427 0.0138681 0.0137264 0.000783797 0.000386073 0.000474894 
545 0.140563 0.681585 0.136218 0.0218658 0.00962052 0.00407878 0.00299915 0.00140425 0.000653423 0.00101213 
546 0.251461 0.741326 0.00525259 0.000956607 0.000500412 0.000223552 0.000136907 7.08069e-05 4.20536e-05 2.99628e-05 
547 0.124523 0.635635 0.182321 0.0302093 0.0132915 0.00563515 0.00414356 0.00194009 0.000902756 0.00139833 
548 0.186585 0.770011 0.0323179 0.00540978 0.00282992 0.00126422 0.000774232 0.000400425 0.00023782 0.000169445 
549 0.163549 0.752224 0.0645353 0.0103419 0.00455025 0.00192915 0.00141852 0.000664173 0.000309051 0.000478708 
550 0.501542 0.441693 0.0189096 0.00407221 0.00339743 0.0273565 0.00132123 0.000813943 0.000400922 0.000493159 
551 0.660136 0.324116 0.0101443 0.00186842 0.00146246 0.000888591 0.000601084 0.000373456 0.000183952 0.000226273 
552 0.226063 0.701957 0.0593729 0.00619403 0.00319744 0.00142841 0.000874782 0.000452428 0.000268706 0.00019145 
553 0.166173 0.590787 0.171419 0.0434071 0.0140068 0.00571029 0.00419881 0.00196595 0.000914793 0.00141698 
554 0.546573 0.392777 0.0202677 0.0179816 0.00340794 0.00206932 0.00139978 0.000869692 0.000429507 0.0142244 
555 0.535657 0.402285 0.0312754 0.0074473 0.0197848 0.00139039 0.000937471 0.000582455 0.000286898 0.000352903 
556 0.0265935 0.860117 0.0567105 0.017733 0.016735 0.00789159 0.00778216 0.00258037 0.00188944 0.00196726 
557 0.0672088 0.869232 0.00904003 0.00607272 0.0421264 0.00218589 0.00144305 0.00132098 0.000900374 0.00046988 
558 0.0969464 0.847327 0.0109922 0.00491083 0.00342387 0.00277972 0.000839433 0.000902696 0.0295257 0.00235186 
559 0.0378728 0.92425 0.010557 0.00889418 0.00924367 0.00393678 0.00258723 0.000989318 0.00106824 0.000601273 
560 0.158541 0.831302 0.00617048 0.001329 0.00104024 0.000632052 0.000427549 0.000265638 0.000130845 0.000160947 
561 0.0123402 0.655505 0.112999 0.081416 0.0359894 0.0646111 0.0143863 0.00934007 0.00684205 0.00657125 
562 0.271214 0.708721 0.0147368 0.00260028 0.00136024 0.000607666 0.000372145 0.000192469 0.000114311 8.14457e-05 
563 0.272915 0.705844 0.0170838 0.00202867 0.00106122 0.000474084 0.000290337 0.000150159 8.91825e-05 6.35417e-05 
564 0.259081 0.717104 0.0174692 0.00309639 0.00161975 0.000723602 0.000443146 0.000229191 0.000136121 9.69847e-05 
565 0.589955 0.38677 0.0131639 0.00576352 0.00178893 0.0010004 0.000676717 0.000420447 0.000207099 0.000254744 
566 0.571297 0.383004 0.0196631 0.00423509 0.0033149 0.00201414 0.00136246 0.000846501 0.000679192 0.013584 
567 0.442006 0.453098 0.0840058 0.00349543 0.00264487 0.00160703 0.00112614 0.00863251 0.00297478 0.000409217 
568 0.155122 0.604524 0.173212 0.041196 0.012627 0.00535339 0.00393639 0.00184308 0.000857618 0.00132842 
569 0.157032 0.606967 0.176116 0.0314508 0.0138377 0.00586673 0.00431385 0.00201981 0.000939855 0.0014558 
570 0.272227 0.585043 0.133747 0.00282331 0.00512782 0.000458296 0.000280659 0.000145154 8.62098e-05 6.14237e-05 
571 0.242496 0.681946 0.0694147 0.00299778 0.00156817 0.000700558 0.000429033 0.000221892 0.000131786 9.38961e-05 
572 0.204377 0.772405 0.0169141 0.00307615 0.00160917 0.000718873 0.00044025 0.000227693 0.000135231 9.63509e-05 
573 0.333266 0.611333 0.0314439 0.00573964 0.00300247 0.00134558 0.0130119 0.000425268 0.000252321 0.000179777 
574 0.323282 0.6164 0.0517833 0.00416507 0.00217879 0.000973341 0.00059609 0.000308292 0.0001831 0.000130457 
575 0.570691 0.394871 0.0248148 0.00320841 0.00251129 0.00152586 0.00103216 0.000641288 0.000315878 0.00038855 
576 0.137225 0.555129 0.20959 0.0491407 0.0334737 0.00620683 0.00456393 0.0021369 0.00099434 0.00154019 
577 0.595029 0.371942 0.0142528 0.00305594 0.0120042 0.0014525 0.000982541 0.000610457 0.000300692 0.000369869 
578 0.196543 0.516993 0.27827 0.00400922 0.00208646 0.000932098 0.000570832 0.000295229 0.000175342 0.00012493 
579 0.179344 0.428872 0.375543 0.0026138 0.0122735 0.00060177 0.000368078 0.000190366 0.000113062 8.05556e-05 
580 0.119262 0.651644 0.164056 0.0436395 0.010414 0.00441517 0.0032465 0.00152007 0.000707314 0.0010956 
581 0.505654 0.44266 0.0233857 0.00460336 0.00370124 0.0163857 0.00167922 0.000920109 0.000453216 0.000557484 
582 0.359154 0.619541 0.0121252 0.00219947 0.00582321 0.000513962 0.000314758 0.00016279 9.66839e-05 6.88864e-05 
583 0.0247468 0.855766 0.0390598 0.0168215 0.0291418 0.00736024 0.0209206 0.00259457 0.00175823 0.00183065 
584 0.677115 0.159458 0.161815 0.000549872 0.000415749 0.00025261 0.000170877 0.000106166 5.22942e-05 6.43251e-05 
585 0.268006 0.697181 0.0274506 0.00359278 0.00187941 0.0008396 0.000514185 0.000265931 0.000157942 0.000112532 
586 0.712836 0.25833 0.0106841 0.0142049 0.00154422 0.000938264 0.000634685 0.000394333 0.000194236 0.000238922 
587 0.177876 0.740303 0.0712226 0.005172 0.00270552 0.00120865 0.0007402 0.000382824 0.000227366 0.000161997 
588 0.449998 0.529766 0.0153398 0.00238909 0.00124976 0.000558313 0.00034192 0.000176837 0.000105027 7.48309e-05 
589 0.0665801 0.924461 0.00368356 0.00164489 0.00114683 0.00093107 0.000281169 0.000282638 0.00021617 0.000772259 
590 0.0126295 0.377173 0.154605 0.282146 0.0712998 0.100953 0.00119305 0 0 0 
591 0.0385395 0.381513 0.344932 0.165002 0.0290524 0.014906 0.0137966 0.00210851 0.00686626 0.00328311 
592 0.307115 0.669919 0.0180948 0.00237702 0.00124345 0.000555493 0.000340193 0.000175944 0.000104497 7.44529e-05 
593 0.184304 0.75673 0.0393928 0.014534 0.00253763 0.00111099 0.000680386 0.000351889 0.000208993 0.000148906 
594 0.148858 0.443929 0.365533 0.0219119 0.00962052 0.00407878 0.00299915 0.00140425 0.000653423 0.00101213 
595 0.180809 0.565509 0.108491 0.128435 0.0143041 0.00108899 0.000666913 0.00034492 0.000204855 0.000145957 
596 0.151265 0.261279 0.467886 0.0801846 0.0181877 0.00913123 0.00610766 0.00256567 0.00145546 0.00193758 
597 0.190693 0.710684 0.0746664 0.00578499 0.0151524 0.00134134 0.000821442 0.000424841 0.000252321 0.000179777 
598 0.0650565 0.914162 0.00416516 0.00513452 0.00870571 0.00119048 0.000782185 0.000299096 0.000322958 0.00018178 
599 0.012709 0.660169 0.111287 0.0801824 0.0354441 0.0636321 0.0141684 0.00919855 0.00673838 0.00647169 
600 0.088825 0.195291 0.377178 0.29701 0.0186172 0.014168 0.00268952 0.00198165 0.00102598 0.00321332 
601 0.535231 0.441643 0.0140523 0.00302507 0.00236779 0.00143867 0.000973184 0.000604643 0.000297828 0.000366347 
602 0.584916 0.391285 0.0144582 0.00311404 0.00243743 0.00148099 0.00100181 0.000622427 0.000306587 0.000377122 
603 0.189756 0.751331 0.0340456 0.00608031 0.015652 0.00139225 0.000852635 0.000440974 0.000261903 0.000186604 
604 0.363518 0.617804 0.015105 0.00174431 0.000911862 0.000407361 0.000249475 0.000129026 7.66309e-05 5.45988e-05 
605 0.138198 0.308887 0.438674 0.0732614 0.0189233 0.00950142 0.00635527 0.00266969 0.00151447 0.00201613 
606 0.0889892 0.890861 0.00245122 0.00170614 0.0118355 0.000614132 0.000405446 0.00275207 0.000252963 0.000132014 
607 0.141445 0.588455 0.190951 0.04945 0.0154909 0.00571029 0.00419881 0.00196595 0.000914793 0.00141698 
608 0.130631 0.444715 0.302949 0.0975275 0.0120699 0.00486672 0.00357853 0.00167553 0.000779653 0.00120765 
609 0.147089 0.531662 0.232753 0.0318888 0.0143678 0.0194992 0.00437377 0.00204787 0.00112 0.0151978 
610 0.092603 0.366651 0.48586 0.0365174 0.00893974 0.00379001 0.00278682 0.00130484 0.000607163 0.000940471 
611 0.139299 0.27001 0.467641 0.082735 0.018839 0.00925138 0.00618803 0.00259943 0.00147461 0.00196308 
612 0.115565 0.575787 0.208796 0.0660537 0.0140802 0.0127153 0.00346093 0.00162029 0.00075395 0.00116784 
613 0.386302 0.602028 0.00960798 0.000758048 0.000510509 0.000310186 0.000209824 0.000130365 6.42134e-05 7.89864e-05 
614 0.142559 0.381394 0.000748919 0.0159959 0.458695 1.28527e-05 0.000590709 0 0 3.37474e-06 
615 0.00735463 0.804531 0.0557533 0.0366021 0.040709 0.020787 0.00710248 0.00747934 0.0176875 0.00199395 
616 0.164386 0.796972 0.0308644 0.00379557 0.00198551 0.000886997 0.000543211 0.000280943 0.000166858 0.000118885 
617 0.111959 0.370485 0.489347 0.0148185 0.00651713 0.00276304 0.00203168 0.000951267 0.000442641 0.000685634 
618 0.130694 0.282041 0.445563 0.0957558 0.0212171 0.0106531 0.00712561 0.00299328 0.00169804 0.00226051 
619 0.179517 0.553932 0.208264 0.0306121 0.0134687 0.00571029 0.00419881 0.00196595 0.000914792 0.00141698 
620 0.252393 0.713772 0.0247362 0.0044401 0.00232267 0.00103762 0.000635455 0.000328651 0.000195192 0.000139072 
621 0.0911694 0.24557 0.424279 0.18908 0.0222777 0.0169587 0.00321928 0.00237198 0.00122807 0.00384625 
622 0.12501 0.254839 0.497695 0.0830715 0.0181861 0.00913123 0.00610766 0.00256567 0.00145546 0.00193758 
623 0.0830403 0.266836 0.35571 0.243824 0.0288822 0.0133274 0.00252943 0.0018637 0.000964909 0.00302205 
624 0.248837 0.728678 0.0167095 0.00281827 0.00147427 0.000658608 0.000403343 0.000208605 0.000123894 8.82735e-05 
625 0.181356 0.722968 0.0651556 0.0253757 0.00256465 0.0011457 0.000701648 0.000362885 0.000215524 0.000153559 
626 0.635789 0.349541 0.00892997 0.00191345 0.0014977 0.000910003 0.000615568 0.000382455 0.000188385 0.000231725 
627 0.549084 0.421311 0.0179866 0.00387356 0.00303192 0.0018422 0.00124615 0.000774238 0.000381365 0.000469102 
628 0.135196 0.561897 0.240456 0.0327987 0.0144308 0.00611817 0.00449873 0.00210638 0.000980135 0.00151819 
629 0.214562 0.643259 0.0468542 0.0892282 0.00303998 0.00135787 0.000831583 0.000430086 0.000255436 0.000181996 
630 0.131172 0.504294 0.309762 0.0288265 0.0126269 0.00535339 0.00393639 0.00184308 0.000857618 0.00132842 
631 0.0835815 0.237287 0.417476 0.185514 0.0238707 0.0409316 0.00451379 0.00217432 0.00112573 0.00352573 
632 0.575576 0.381133 0.0248687 0.00306715 0.010015 0.00311931 0.000964003 0.000598939 0.000295018 0.000362891 
633 0.696406 0.300931 0.0017187 0.000314799 0.0002464 0.000149713 0.000101273 6.29213e-05 3.0993e-05 3.81233e-05 
634 0.434695 0.528364 0.0123353 0.00264759 0.0187378 0.00125884 0.000851536 0.000529063 0.000260599 0.000320553 
635 0.170119 0.506183 0.207851 0.0804434 0.0220848 0.00535342 0.00393639 0.00184308 0.000857618 0.00132842 
636 0.147732 0.468046 0.296037 0.0661039 0.0107463 0.00455608 0.00335012 0.00156858 0.000729888 0.00113057 
637 0.582368 0.404577 0.00796006 0.00169857 0.00132951 0.00080781 0.00054644 0.000339506 0.00016723 0.000205703 
638 0.176614 0.802514 0.0164274 0.0021689 0.00113457 0.000506855 0.000310406 0.000160539 9.53472e-05 6.7934e-05 
639 0.159142 0.615801 0.174392 0.028752 0.011668 0.004118 0.00302799 0.00141775 0.000659706 0.00102186 
640 0.116564 0.251564 0.428136 0.122028 0.0191466 0.0304196 0.0259358 0.00267426 0.00151447 0.00201613 
641 0.17163 0.774036 0.0450601 0.00452553 0.00236733 0.00105757 0.000647675 0.000334971 0.000198946 0.000141747 
642 0.148537 0.68242 0.121083 0.0204994 0.0179476 0.00382386 0.0028117 0.00131649 0.000612584 0.000948868 
643 0.266716 0.714329 0.0137978 0.00251685 0.00131659 0.000588169 0.000360204 0.000186294 0.000110644 7.88325e-05 
644 0.149655 0.835318 0.0109405 0.00199428 0.00104323 0.000466049 0.000285416 0.000147614 8.7671e-05 6.24647e-05 
645 0.185237 0.5358 0.260596 0.0137514 0.00230096 0.00102792 0.000629516 0.000325579 0.000193368 0.000137773 
646 0.216001 0.663907 0.0913316 0.0151046 0.00664576 0.00281758 0.00207178 0.000970042 0.000451378 0.000699166 
647 0.255944 0.69433 0.0394658 0.00500696 0.00261918 0.00117008 0.000716577 0.000370606 0.00022011 0.000156826 
648 0.168027 0.75346 0.0623917 0.0120738 0.00201811 0.000901538 0.000552116 0.000285549 0.000169593 0.000120833 
649 0.239772 0.524876 0.185587 0.0307203 0.00926833 0.0039291 0.00288909 0.00135272 0.000629444 0.000974984 
650 0.639584 0.340357 0.00863929 0.00399704 0.00516231 0.000883399 0.000597569 0.000371272 0.000182877 0.00022495 
651 0.583369 0.397334 0.0131897 0.0020361 0.0015937 0.000968336 0.000655027 0.000406971 0.000200461 0.00024658 
652 0.217507 0.704984 0.0647236 0.0066121 0.00307753 0.00137484 0.000841977 0.000435462 0.000258629 0.000184271 
653 0.116565 0.265067 0.505544 0.0718447 0.0189233 0.00950142 0.00635527 0.00266969 0.00151447 0.00201613 
654 0.00197053 0.686566 0.0985833 0.0815376 0.0871482 0.00547334 0.0249807 2.45431e-07 0.0107057 0.00303479 
655 0.00692828 0.801375 0.0815007 0.0344802 0.0383491 0.019582 0.00669074 0.00386695 0.00534893 0.00187761 
656 0.166756 0.769451 0.0404049 0.00860655 0.011935 0.00126434 0.000774232 0.000400425 0.00023782 0.000169445 
657 0.133292 0.609975 0.181285 0.046212 0.0142284 0.00603199 0.00443536 0.00207671 0.00096633 0.00149681 
658 0.14888 0.51586 0.255021 0.0532811 0.01312 0.00556197 0.00408975 0.00191489 0.000891032 0.00138017 
659 8.72467e-07 0.397201 0.290612 0.213214 0.0207401 0.0120853 0.0113839 0.0372647 0.0174976 0 
660 0.201075 0.753583 0.0347431 0.00517276 0.00270552 0.00120865 0.0007402 0.000382824 0.000227366 0.000161996 
661 0.185618 0.259541 0.455419 0.0633204 0.0166706 0.0083703 0.00559869 0.00235187 0.00133417 0.00177612 
662 0.145293 0.549549 0.220737 0.0555916 0.0140303 0.00594822 0.00437376 0.00204787 0.000952909 0.00147602 
663 0.120273 0.531412 0.298011 0.0264456 0.011611 0.00492266 0.00361967 0.00169479 0.000788614 0.00122153 
664 0.122978 0.323049 0.411686 0.103881 0.0177451 0.00890006 0.00595304 0.00250072 0.00141861 0.00188853 
665 0.23101 0.730583 0.0304365 0.00388967 0.00203473 0.000908988 0.000556679 0.000287909 0.000170995 0.000121832 
666 0.22765 0.71081 0.0511699 0.00506076 0.00264734 0.00118266 0.000724282 0.000374591 0.000222477 0.000158513 
667 0.670376 0.282419 0.041497 0.00190554 0.00148873 0.000904554 0.000611882 0.000380165 0.000187257 0.000230338 
668 0.14778 0.581342 0.195222 0.0323371 0.0283114 0.00603226 0.00443536 0.00207671 0.00096633 0.00149681 
669 0.210819 0.737157 0.0408088 0.00547342 0.00286282 0.00127893 0.000783235 0.000405081 0.000240585 0.000171415 
670 0.181074 0.718233 0.0362396 0.0318765 0.0291578 0.00158402 0.000898109 0.000464493 0.000275871 0.000196556 
671 0.717649 0.259442 0.0161374 0.0023303 0.00173859 0.00105637 0.000714575 0.000443969 0.000218685 0.000268996 
672 0.466492 0.48485 0.0254116 0.00378133 0.00356345 0.0130707 0.00124516 0.000755804 0.000372285 0.000457933 
673 0.613322 0.372053 0.00888517 0.00191345 0.0014977 0.000910003 0.000615568 0.000382455 0.000188385 0.000231725 
674 0.143772 0.334216 0.410009 0.076527 0.0167151 0.00808167 0.00540563 0.00227077 0.00128817 0.00171487 
675 0.188234 0.542788 0.214082 0.0235186 0.0205051 0.00437012 0.00321338 0.00150456 0.000700096 0.00108442 
676 0.218103 0.754185 0.0201771 0.00367696 0.00192346 0.000859278 0.000526236 0.000272164 0.000161643 0.000115169 
677 0.343864 0.638729 0.00988019 0.00180341 0.00477457 0.000421408 0.000258077 0.000133475 7.92734e-05 5.64815e-05 
678 0.215214 0.741052 0.031828 0.0058105 0.00303954 0.00135787 0.000831583 0.000430086 0.000255436 0.000181996 
679 0.183118 0.309195 0.465367 0.0186365 0.0147854 0.00387981 0.00247961 0.001161 0.000540232 0.000836797 
680 0.193762 0.789549 0.0121609 0.00220963 0.00115588 0.000516373 0.000316236 0.000163554 9.71378e-05 6.92098e-05 
681 0.225364 0.725431 0.0412693 0.00596064 0.000984833 0.00043995 0.000269433 0.000139348 8.27614e-05 5.89667e-05 
682 0.198243 0.767919 0.025378 0.00412851 0.00215967 0.000964803 0.000590861 0.000305588 0.000181494 0.000129313 
683 0.142183 0.62328 0.196623 0.0238888 0.00682618 0.00289373 0.00212778 0.00099626 0.000463577 0.000718062 
684 0.124995 0.281454 0.472335 0.080883 0.0191355 0.00913123 0.00610766 0.00256567 0.00145546 0.00193758 
685 0.191165 0.717139 0.0656351 0.019475 0.00328422 0.0014665 0.000898109 0.000464493 0.000275871 0.000196556 
686 0.924829 0.0248428 0.0384911 0.00673277 0.00177257 0.000890006 0.000595304 0.000250072 0.000141862 0.00145467 
687 0.0269965 0.857802 0.0426135 0.0186053 0.0315363 0.00801129 0.00790007 0.00261947 0.00191807 0.00199707 
688 0.132441 0.850539 0.014272 0.0013409 0.000701432 0.000313355 0.000191904 9.92506e-05 5.89469e-05 4.19991e-05 
689 0.147947 0.545044 0.250964 0.0294347 0.0129507 0.00549066 0.00403732 0.00189034 0.000879608 0.00136248 
690 0.173672 0.636812 0.147045 0.0225133 0.00971303 0.004118 0.00302799 0.00141775 0.000659706 0.00102186 
691 0.207388 0.776555 0.000436539 0.00068081 0.0147913 6.94663e-05 5.98594e-05 0 1.06457e-07 1.83641e-05 
692 0.0880467 0.207017 0.548462 0.114874 0.0281098 0.00581245 0.00388669 0.0016327 0.000926202 0.00123301 
693 0.1316 0.229755 0.504665 0.0952494 0.0166249 0.0132566 0.00447895 0.00188149 0.00106734 0.00142089 
694 0.424737 0.550855 0.0176519 0.00225271 0.00176325 0.00107135 0.000724711 0.000450266 0.000221787 0.000272811 
695 0.144316 0.579474 0.194822 0.0347865 0.0153054 0.00648896 0.00481831 0.0172811 0.00109708 0.0016102 
696 0.145269 0.518294 0.234256 0.0585552 0.028825 0.00594991 0.00437376 0.00204787 0.000952909 0.00147602 
697 0.219003 0.726334 0.0337649 0.00500692 0.00270145 0.0117261 0.0007166 0.000370606 0.00022011 0.000156826 
698 0.226557 0.757859 0.011372 0.00205524 0.00107512 0.000480295 0.000294141 0.000152127 9.03509e-05 6.43741e-05 
699 0.201053 0.723223 0.0490632 0.00929072 0.00290776 0.0128619 0.000783267 0.000405081 0.000240585 0.000171415 
700 0.275585 0.707381 0.012398 0.00226274 0.00118367 0.000528786 0.000323837 0.000167485 9.94728e-05 7.08735e-05 
701 0.188244 0.535525 0.205543 0.0302193 0.0264493 0.00563516 0.00414356 0.00194009 0.000902756 0.00139833 
702 0.208019 0.663027 0.0515204 0.0575438 0.0165433 0.00148649 0.000910246 0.00047077 0.000279599 0.000199212 
703 0.205763 0.758399 0.026096 0.00475405 0.0024869 0.00111099 0.000680386 0.000351889 0.000208993 0.000148906 
704 0.186152 0.671463 0.131424 0.00534931 0.00279776 0.00124986 0.000765434 0.000395875 0.000235118 0.000167519 
705 0.140561 0.542307 0.251177 0.0415314 0.0118881 0.00503849 0.00370483 0.00173466 0.00080717 0.00125027 
706 0.137167 0.620307 0.178695 0.0391154 0.012032 0.00509847 0.00374894 0.00175531 0.000816779 0.00126516 
707 0.235977 0.637648 0.119629 0.00329395 0.0017217 0.000769144 0.000471036 0.000243615 0.000144688 0.000103089 
708 0.20608 0.48654 0.251159 0.0350411 0.0103077 0.00437012 0.00321338 0.00150456 0.000700096 0.00108442 
709 0.139829 0.530697 0.266389 0.0350354 0.0136507 0.00578745 0.00425555 0.00199252 0.000927155 0.00143612 
710 0.194803 0.728408 0.0536941 0.0172857 0.0028965 0.00129397 0.000792449 0.000409847 0.000243416 0.000173432 
711 0.331076 0.662896 0.00366481 0.000788169 0.000616918 0.00037484 0.000253559 0.000157537 7.75978e-05 9.54502e-05 
712 0.131712 0.628978 0.178593 0.0318876 0.0140299 0.00594822 0.00437376 0.00204787 0.000952909 0.00147602 
713 0.18138 0.787272 0.0250446 0.00307615 0.00160917 0.000718873 0.00044025 0.000227693 0.000135231 9.63509e-05 
714 0.134307 0.844918 0.0119659 0.00659483 0.00110406 0.000493218 0.000302055 0.00015622 9.27818e-05 6.61062e-05 
715 0.220282 0.73501 0.0288657 0.00379557 0.00198551 0.000887025 0.00860647 0.00028217 0.000166858 0.000118885 
716 0.168686 0.775704 0.0446502 0.0053483 0.00279776 0.00124986 0.000765434 0.000395875 0.000235118 0.000167519 
717 0.124523 0.632255 0.185702 0.0302093 0.0132915 0.00563515 0.00414356 0.00194009 0.000902756 0.00139833 
718 0.216812 0.737467 0.0276303 0.0132965 0.00239032 0.00106784 0.000653963 0.000338223 0.000200877 0.000143123 
719 0.199759 0.754279 0.0362202 0.00475418 0.0024869 0.00111099 0.000680386 0.000351889 0.000208993 0.000148906 
720 0.123226 0.294504 0.429657 0.108828 0.020467 0.0100444 0.00671843 0.00282224 0.00160101 0.00213134 
721 0.188536 0.777301 0.0248887 0.00452549 0.00236733 0.00105757 0.000647675 0.000334971 0.000198946 0.000141747 
722 0.194384 0.785718 0.015548 0.00145038 0.00113524 0.000689774 0.000466595 0.000289897 0.000142794 0.000175646 
723 0.0380726 0.863202 0.0384647 0.0215696 0.0133016 0.0053172 0.00349896 0.0142112 0.0015503 0.000812109 
724 0.287307 0.67484 0.0275923 0.00500692 0.00261918 0.00117008 0.000716577 0.000370606 0.00022011 0.000156826 
725 0.0502332 0.909493 0.01128 0.00943873 0.0098096 0.0041778 0.00274563 0.00104989 0.00113365 0.000638086 
726 0.20606 0.758157 0.0260408 0.00475405 0.0024869 0.00111099 0.000680386 0.000351889 0.000208993 0.000148906 
727 0.044418 0.895896 0.0166352 0.0140151 0.0145658 0.0062034 0.00407684 0.00155893 0.00168329 0.00094746 
728 0.11501 0.248196 0.378807 0.0712681 0.127534 0.0467971 0.00627079 0.00263409 0.00149427 0.00198925 
729 0.137233 0.572321 0.226197 0.0284856 0.0136371 0.0137795 0.00459897 0.00171449 0.000797784 0.00123574 
730 0.61541 0.353034 0.0138051 0.0119584 0.00227931 0.00137328 0.000928948 0.00057716 0.00028429 0.000349695 
731 0.504148 0.43857 0.0194389 0.0168804 0.00319215 0.0147503 0.00131219 0.000813943 0.000400922 0.000493159 
732 0.155546 0.47767 0.316751 0.0287043 0.0114625 0.00396548 0.00291584 0.00136524 0.000635273 0.000984011 
733 0.273531 0.671072 0.024852 0.0273175 0.00160919 0.000718873 0.00044025 0.000227693 0.000135231 9.63509e-05 
734 0.145952 0.555663 0.209891 0.031888 0.0140299 0.00639923 0.0317005 0.00204792 0.000952909 0.00147602 
735 0.524838 0.430032 0.0194807 0.0172927 0.00327129 0.00198764 0.00134453 0.000835362 0.000411473 0.000506137 
736 0.434548 0.542026 0.0187891 0.00226275 0.00118367 0.000528786 0.000323838 0.000167485 9.94728e-05 7.08735e-05 
737 0.133289 0.45845 0.351405 0.032721 0.011746 0.0049799 0.00366175 0.00171449 0.000797784 0.00123574 
738 0.181109 0.703555 0.075279 0.0333841 0.00332707 0.00148632 0.000910246 0.00047077 0.000279599 0.000199212 
739 0.115175 0.341819 0.406258 0.0829806 0.018671 0.0127443 0.0162343 0.00263411 0.00149427 0.00198925 
740 0.221138 0.515951 0.18326 0.028705 0.0237376 0.0168564 0.00632263 0.00184308 0.000857618 0.00132842 
741 0.154322 0.585344 0.201909 0.0307503 0.0134687 0.00571029 0.00419881 0.00196595 0.000914792 0.00141698 
742 0.505818 0.457951 0.0220109 0.00474078 0.00371071 0.00225463 0.00152514 0.000947575 0.000466745 0.000574125 
743 0.536643 0.41704 0.0199291 0.00429233 0.00336581 0.0155474 0.00138221 0.00085794 0.000422593 0.000519816 
744 0.145324 0.595639 0.188267 0.0347541 0.0241675 0.00476719 0.00349901 0.00163829 0.000762327 0.00118081 
745 0.200009 0.732213 0.0533825 0.00702504 0.00367467 0.00164161 0.00100535 0.000519955 0.000308811 0.000220025 
746 0.119103 0.244555 0.52565 0.0696583 0.0147914 0.0168545 0.00475356 0.00199552 0.00113202 0.00150701 
747 0.227359 0.738981 0.0211468 0.00315576 0.00777955 0.000700613 0.000429033 0.000221892 0.000131786 9.3896e-05 
748 0.0781528 0.29149 0.414529 0.173014 0.0191355 0.014536 0.00275938 0.00203313 0.00105263 0.00329679 
749 0.0276534 0.275493 0.544053 0.107292 0.0188841 0.00968892 0.00896777 0.00137053 0.00446307 0.00213402 
750 0.431759 0.546765 0.0131186 0.00278625 0.00218086 0.00132509 0.000896353 0.000556908 0.000274315 0.000337425 
751 0.125447 0.299445 0.425478 0.0900378 0.0214451 0.0148903 0.0157326 0.00373866 0.00162421 0.00216223 
752 0.176157 0.786478 0.0214052 0.0119446 0.00200165 0.000894208 0.000547628 0.000283227 0.000168214 0.000119851 
753 0.170642 0.766783 0.037708 0.00815663 0.0135757 0.00139227 0.000852636 0.000440974 0.000261903 0.000186604 
754 0.0253273 0.873168 0.0336085 0.0310688 0.00968765 0.0140193 0.00474954 0.0050138 0.00108223 0.002275 
755 0.0836162 0.89332 0.00948075 0.00423559 0.00295309 0.00239751 0.000724011 0.000727792 0.000556638 0.00198857 
756 0.155507 0.613759 0.16274 0.0417203 0.0127868 0.00542116 0.00398621 0.00186641 0.000868474 0.00134523 
757 0.80599 0.180368 0.0082894 0.00178445 0.00139673 0.000848654 0.000574069 0.000356672 0.000175685 0.000216103 
758 0.119806 0.662107 0.162751 0.0290621 0.0127868 0.00542116 0.00398621 0.00186641 0.000868474 0.00134523 
759 0.00188485 0.685498 0.108992 0.0779926 0.0833591 0.00523537 0.0238946 2.3476e-07 0.0102403 0.00290285 
760 0.151624 0.44884 0.178784 0.178806 0.0299618 0.0051317 0.00338614 0.00158545 0.000737736 0.00114272 
761 0.203039 0.728135 0.0390611 0.00723225 0.0187807 0.00166648 0.00102058 0.000527833 0.00031349 0.000223359 
762 0.222995 0.75642 0.0162404 0.00212005 0.00110902 0.00049544 0.000303415 0.000156923 9.31998e-05 6.6404e-05 
763 0.0805104 0.77922 0.0989495 0.0178977 0.0152259 0.0032944 0.00242239 0.0011342 0.000527765 0.000817486 
764 0.0463209 0.945638 0.00457112 0.00259522 0.00043629 0.000194668 0.000119218 6.16583e-05 3.66201e-05 2.60915e-05 
765 0.00200085 0.681302 0.100541 0.0827921 0.0884889 0.00555755 0.025365 2.49207e-07 0.0108704 0.00308148 
766 0.175753 0.780997 0.0340646 0.00448239 0.00234479 0.0010475 0.000641507 0.000331781 0.000197051 0.000140397 
767 0.132704 0.289166 0.449683 0.081793 0.0215435 0.010817 0.00723523 0.00303934 0.00172416 0.00229529 
768 0.192689 0.759439 0.0348392 0.00636014 0.00332706 0.00148632 0.000910246 0.00047077 0.000279599 0.000199212 
769 0.244776 0.705384 0.0419971 0.00382835 0.00200165 0.000894208 0.000547628 0.000283227 0.000168214 0.000119851 
770 0.197026 0.786191 0.0125709 0.00205524 0.00107512 0.000480295 0.000294141 0.000152127 9.03508e-05 6.43741e-05 
771 0.0923313 0.202993 0.367954 0.293385 0.0193466 0.0147273 0.00279569 0.00205988 0.00106648 0.00334017 
772 0.0259413 0.390286 0.34442 0.157723 0.0277707 0.0142484 0.0131879 0.0020155 0.0212692 0.00313828 
773 0.158685 0.788959 0.0286399 0.0197654 0.00196963 0.000879901 0.000538866 0.000278696 0.000165523 0.000117933 
774 0.142768 0.639102 0.210414 0.00376522 0.00196962 0.000879901 0.000538866 0.000278696 0.000165523 0.000117933 
775 9.76084e-07 0.380008 0.297744 0.240341 0.0236118 0.0137587 0.0125812 0.022985 0.0089695 0 
776 0.118731 0.862059 0.00043519 0.000728563 0.0178981 6.94663e-05 5.98594e-05 0 1.06457e-07 1.83641e-05 
777 0.265374 0.591778 0.0771964 0.0555359 0.0083018 0.000809647 0.000491666 0.000254285 0.000151024 0.000107604 
778 0.118835 0.244099 0.533985 0.0656415 0.017288 0.00868031 0.00580605 0.00243897 0.00138359 0.0018419 
779 0.256266 0.616377 0.0984045 0.0152059 0.00668977 0.00283624 0.0020855 0.000976467 0.000454367 0.000703796 
780 0.168737 0.814735 0.0130209 0.00171146 0.000895282 0.000399955 0.000244939 0.00012668 7.52376e-05 5.36061e-05 
781 0.31148 0.616774 0.0562697 0.00387938 0.00729426 0.00321895 0.00053038 0.000274307 0.000162916 0.000116076 
782 0.380102 0.584574 0.0278473 0.00364845 0.00190855 0.000852617 0.000522157 0.000270054 0.00016039 0.000114277 
783 0.650098 0.291273 0.0537513 0.002253 0.00102735 0.000624217 0.000422249 0.000262345 0.000129223 0.000158952 
784 0.232008 0.680762 0.0480554 0.0192566 0.00351376 0.0145687 0.000898188 0.000464493 0.000275871 0.000196556 
785 0.193134 0.686934 0.0895742 0.0159438 0.00701496 0.00297411 0.00218688 0.00102393 0.000476454 0.000738008 
786 0.121845 0.287502 0.471723 0.0799986 0.0182705 0.00890006 0.00595304 0.00250072 0.00141861 0.00188853 
787 0.431768 0.550671 0.0127858 0.00232995 0.00121883 0.000544493 0.000333456 0.00017246 0.000102427 7.29786e-05 
788 0.236291 0.735443 0.0221225 0.00299796 0.00156817 0.000700558 0.000429033 0.000221892 0.000131786 9.38961e-05 
789 0.18116 0.802835 0.0116798 0.00211054 0.00110405 0.000493218 0.000302055 0.00015622 9.27818e-05 6.61062e-05 
790 0.156617 0.674548 0.133096 0.0204778 0.00742761 0.00314906 0.00231552 0.00108417 0.000504481 0.000781421 
791 0.290169 0.695802 0.0102171 0.00186028 0.000973133 0.000434733 0.000266238 0.000137696 8.178e-05 5.82675e-05 
792 0.521382 0.425888 0.0380727 0.00488666 0.00382489 0.00232401 0.00157207 0.000976732 0.000481106 0.000591791 
793 0.551046 0.4172 0.020927 0.00360946 0.0028252 0.0017166 0.00116118 0.000721449 0.000355363 0.000437118 
794 0.237209 0.673631 0.0533114 0.0298268 0.00300301 0.00134131 0.000821442 0.000424841 0.000252321 0.000179777 
795 0.482977 0.496372 0.00918612 0.0077053 0.00148604 0.000888591 0.000601084 0.000373456 0.000183952 0.000226273 
796 0.521382 0.425888 0.0226882 0.00488665 0.00382489 0.00232401 0.00158469 0.0163487 0.000481106 0.000591791 
797 0.131121 0.280639 0.431581 0.11699 0.0226667 0.00732402 0.00489885 0.00205788 0.0011674 0.0015541 
798 0.205341 0.747171 0.0346289 0.00627534 0.0032827 0.0014665 0.000898109 0.000464493 0.000275871 0.000196556 
799 0.0824271 0.211335 0.382253 0.278444 0.0205655 0.0153325 0.00291058 0.00214453 0.00111031 0.00347743 
800 0.6143 0.34405 0.0315846 0.00165981 0.00641405 0.000778662 0.000526723 0.000327255 0.000161195 0.00019828 
801 0.130318 0.85854 0.00810842 0.00148003 0.000774222 0.000345873 0.000211818 0.00010955 6.5064e-05 4.63575e-05 
802 0.023562 0.946752 0.00383152 0.0057151 0.0175225 0.000905036 0.000597472 0.000546933 0.000372786 0.000194547 
803 0.0738975 0.911118 0.0109148 0.00198587 0.00103883 0.000464083 0.000284212 0.000146991 8.73011e-05 6.22012e-05 
804 0.022899 0.884185 0.031531 0.0280896 0.00875869 0.012675 0.0042941 0.00453303 0.000978455 0.00205685 
805 0.00735159 0.752462 0.0692475 0.0672462 0.0337391 0.0312385 0.0216192 0.00495405 0.00409696 0.00804449 
806 0.0258227 0.87848 0.0407579 0.017219 0.01625 0.00766285 0.00755659 0.00250558 0.00183467 0.00191024 
807 0.0462024 0.950822 0.00122334 0.000546528 0.000381043 0.000309356 9.34207e-05 9.39087e-05 7.18242e-05 0.000256589 
808 0.132704 0.301764 0.437085 0.0817923 0.0215435 0.010817 0.00723523 0.00303934 0.00172416 0.00229529 
809 0.0366448 0.914114 0.0137241 0.0115624 0.0120168 0.00511781 0.0033634 0.00128611 0.00138872 0.000781655 
810 0.019687 0.901427 0.0261666 0.024124 0.00752217 0.0108855 0.00368788 0.00389307 0.00084032 0.00176647 
811 0.148895 0.811744 0.0286448 0.00522945 0.00273559 0.00122208 0.000748424 0.000387077 0.000229893 0.000163796 
812 0.0339309 0.885544 0.0342963 0.0144891 0.0136738 0.00644801 0.00635859 0.00210835 0.00154381 0.0016074 
813 0.00713509 0.825291 0.054089 0.0355095 0.0394938 0.0201665 0.00689046 0.00398239 0.0055086 0.00193366 
814 0.0253273 0.873168 0.0336085 0.0310688 0.00968765 0.0140193 0.00474954 0.0050138 0.00108223 0.002275 
815 0.0224889 0.942153 0.00486827 0.00339612 0.0235589 0.00122244 0.000807012 0.000738749 0.000503527 0.000262777 
816 0.0228701 0.923879 0.0226799 0.00958152 0.00904232 0.004264 0.00420488 0.00139423 0.00102091 0.00106296 
817 0.149069 0.668184 0.12265 0.0310332 0.00957714 0.00411068 0.0123339 0.00139152 0.000647259 0.00100258 
818 0.183143 0.689421 0.109144 0.00495463 0.00219824 0.00104845 0.00784762 0.00192699 0.000184735 0.000131622 
819 0.0116395 0.724673 0.066573 0.0946962 0.0515073 0.016772 0.0142703 0.00360938 0.00832327 0.00793557 
820 0.0197813 0.751517 0.0629824 0.0627188 0.0736087 0 1.3311e-07 0.0146958 0 0.0146957 
821 0.0780656 0.900185 0.000589523 0.000922294 0.0200378 9.41061e-05 8.10916e-05 0 1.44217e-07 2.48778e-05 
822 0.0271386 0.392914 0.344932 0.165002 0.0290524 0.014906 0.0137966 0.00210851 0.00686626 0.00328311 
823 0.14125 0.601616 0.191887 0.0342673 0.0150769 0.00639211 0.00470016 0.00220069 0.00102402 0.00158617 
824 0.0591868 0.865588 0.0108135 0.0136485 0.0299643 0.0124528 0.000985861 0.00645738 0.000593543 0.000309754 
825 0.043755 0.897444 0.016393 0.0138059 0.0143484 0.00611082 0.00401599 0.00153566 0.00165817 0.000933319 
826 0.129902 0.852993 0.000387559 0.000612203 0.0159739 6.18563e-05 5.33017e-05 0 0 1.63523e-05 
827 0.641216 0.103945 0.162619 0.0729599 0.00859842 0.00654545 0.00124253 0.000915501 0.00047399 0.00148452 
828 0.211014 0.77445 0.00883073 0.00190199 0.00148873 0.000904554 0.000611882 0.000380165 0.000187257 0.000230338 
829 0.00197053 0.686573 0.0985757 0.0815376 0.0871482 0.00547334 0.0249807 2.45431e-07 0.0107057 0.00303479 
830 0.0315172 0.913457 0.0234358 0.00990091 0.00934373 0.00440614 0.00434504 0.00144071 0.00105494 0.00109839 
831 0.0904145 0.894032 0.0044112 0.00362743 0.00376996 0.00160559 0.00105518 0.000403487 0.000435676 0.000245225 
832 0.0222456 0.974286 0.00142573 0.000636931 0.000444073 0.000360527 0.000108874 0.000109442 8.37049e-05 0.000299033 
833 0.0526718 0.9328 0.00597213 0.00266809 0.00186021 0.00151024 0.00045607 0.000458452 0.000350638 0.00125264 
834 0.139589 0.82351 0.0268545 0.00490261 0.00256461 0.0011457 0.000701648 0.000362885 0.000215524 0.000153559 
835 0.14125 0.601616 0.191887 0.0342673 0.0150769 0.00639211 0.00470016 0.00220069 0.00102402 0.00158617 
836 0.0477269 0.944036 0.00338599 0.00151271 0.00105467 0.000856252 0.000258575 0.000259926 0.000198799 0.000710203 
837 0.0445299 0.921502 0.00947369 0.0079741 0.00828742 0.00352952 0.00231958 0.000886975 0.000957736 0.000539072 
838 0.0361932 0.956182 0.00313414 0.0014002 0.000976227 0.000792563 0.000239342 0.000240592 0.000184012 0.000657378 
839 0.072929 0.921739 0.00396552 0.000455713 0.000356697 0.00021673 0.000146606 9.10869e-05 4.48665e-05 5.51885e-05 
840 0.505818 0.457951 0.0220109 0.00474078 0.00371071 0.00225463 0.00152514 0.000947575 0.000466745 0.000574125 
841 0.020962 0.901354 0.0330863 0.0139778 0.0131912 0.00622043 0.00613417 0.00203394 0.00148932 0.00155066 
842 0.0386995 0.864209 0.0321473 0.029718 0.00926644 0.0134097 0.00454303 0.00479581 0.00103518 0.00217608 
843 0.16334 0.826503 0.00617043 0.001329 0.00104024 0.000632052 0.000427549 0.000265638 0.000130845 0.000160947 
844 0.0100072 0.803174 0.0636766 0.0542422 0.0264631 0.0171478 0.0121411 0.00452745 0.00522514 0.00339533 
845 0.171803 0.76996 0.0458723 0.00603399 0.00315645 0.0014101 0.000863567 0.000446628 0.000265261 0.000188996 
846 0.119802 0.314396 0.437807 0.0858769 0.019449 0.00976534 0.0065318 0.00274384 0.00155653 0.00207213 
847 0.257872 0.730347 0.000319334 0.000499576 0.0108538 5.09742e-05 4.39246e-05 0 0 1.34755e-05 
848 0.206163 0.739338 0.039662 0.00724078 0.00378773 0.00169212 0.00103628 0.000535953 0.000318313 0.000226795 
849 0.00907318 0.768268 0.0844612 0.0757283 0.0239932 0.0155474 0.0110079 0.00410489 0.00473746 0.00307843 
850 0.0132968 0.937427 0.0209873 0.00886648 0.00836752 0.00394579 0.00389108 0.00129019 0.00094472 0.00098363 
851 0.213962 0.764157 0.000425768 0.000673329 0.017554 0.00315134 5.85661e-05 0 1.04157e-07 1.79673e-05 
852 0.0352806 0.841546 0.0266154 0.00962992 0.0772363 0.00335564 0.00221142 0.00202436 0.00137979 0.000720076 
853 0.00641127 0.795752 0.0603903 0.0586449 0.0253683 0.0196703 0.018854 0.00432039 0.00357293 0.00701555 
854 0.110456 0.861739 0.0158267 0.00286984 0.00759877 0.000670659 0.000410721 0.000212421 0.000126161 8.98883e-05 
855 0.0209818 0.895277 0.027727 0.0256318 0.00799231 0.0115659 0.00391837 0.00413639 0.00089284 0.00187687 
856 0.372416 0.600909 0.0162058 0.00349046 0.00273206 0.00166001 0.0011229 0.000697665 0.000343647 0.000422708 
857 0.191437 0.757956 0.036829 0.00672358 0.00351718 0.00157125 0.00096226 0.000497671 0.000295576 0.000210595 
858 0.187062 0.729144 0.0712265 0.00615398 0.00319744 0.00142841 0.000874782 0.000452428 0.000268706 0.00019145 
859 0.0333059 0.958706 0.00328339 0.00146687 0.00102271 0.000830305 0.00025074 0.000252049 0.000192775 0.000688681 
860 0.0237283 0.934619 0.0181074 0.00737956 0.00696427 0.00328408 0.00323854 0.00107382 0.000786289 0.000818674 
861 0.037361 0.956687 0.00244674 0.00109306 0.000762087 0.000618711 0.000186841 0.000187817 0.000143649 0.000513179 
862 0.0204801 0.903622 0.0323252 0.0136564 0.0128879 0.00607743 0.00599316 0.00198718 0.00145509 0.00151502 
863 0.0258227 0.87848 0.0407579 0.017219 0.01625 0.00766285 0.00755659 0.00250558 0.00183467 0.00191024 
864 0.111338 0.685979 0.151253 0.0270107 0.0118842 0.00503849 0.00370483 0.00173466 0.00080717 0.00125027 
865 0.0072432 0.822644 0.0549085 0.0360475 0.0400922 0.0204721 0.00699486 0.00404273 0.00559207 0.00196295 
866 0.0329457 0.92256 0.0125686 0.0103932 0.0108016 0.00460028 0.00302328 0.00115606 0.00124829 0.000702611 
867 0.109036 0.867134 0.0174006 0.00313767 0.00164135 0.000733251 0.000449055 0.000232246 0.000137936 9.82779e-05 
868 0.0390878 0.895055 0.0146657 0.024631 0.013827 0.005459 0.00358762 0.00137185 0.0014813 0.000833765 
869 0.0352589 0.867852 0.0133402 0.00930625 0.0645574 0.00334981 0.00221142 0.00202436 0.00137979 0.000720076 
870 0.020895 0.895364 0.027727 0.0256318 0.00799231 0.0115659 0.00391837 0.00413639 0.00089284 0.00187687 
871 0.373852 0.600862 0.0153618 0.00330867 0.00258977 0.00157355 0.00106442 0.000661329 0.000325749 0.000400692 
872 0.197067 0.750837 0.0379122 0.00692133 0.00362063 0.00161746 0.000990562 0.000512308 0.00030427 0.000216789 
873 0.0279647 0.969116 0.00120039 0.000536151 0.000373809 0.000303482 9.16469e-05 9.21256e-05 7.04605e-05 0.000251718 
874 0.152908 0.828826 0.00835787 0.00442153 0.000834295 0.000506937 0.00369858 0.000213051 0.000104939 0.000129082 
875 0.0217091 0.891287 0.0288073 0.0266304 0.0083037 0.0120165 0.00407103 0.00429754 0.000927626 0.00195 
876 0.216114 0.709203 0.0393917 0.0069376 0.0254055 0.00130979 0.000801883 0.000414726 0.000246314 0.000175496 
877 0.02572 0.879947 0.0401786 0.016973 0.0160178 0.00755338 0.00744864 0.00246978 0.00180846 0.00188295 
878 0.0116248 0.675475 0.106449 0.0766962 0.0339031 0.0608655 0.0135524 0.00879862 0.0064454 0.00619031 
879 0.15906 0.831032 0.00601933 0.00129646 0.00101477 0.000616574 0.000417079 0.000259133 0.00012764 0.000157006 
880 0.0262025 0.876693 0.0413573 0.0174722 0.0164889 0.00777554 0.00766771 0.00254242 0.00186165 0.00193833 
881 0.0315229 0.926119 0.0118057 0.00994618 0.010337 0.00440242 0.00289324 0.00110633 0.0011946 0.000672391 
882 0.0109311 0.948559 0.0172534 0.00728901 0.00687882 0.00324378 0.0031988 0.00106064 0.000776641 0.000808629 
883 0.14125 0.601608 0.191895 0.0342673 0.0150769 0.00639211 0.00470016 0.00220069 0.00102402 0.00158617 
884 0.191148 0.782137 0.000611392 0.00123034 0.0246673 9.65826e-05 8.32256e-05 0 1.48012e-07 2.55325e-05 
885 0 0.693204 0.0794285 0.137279 0.0207241 0.0547477 0.00730703 0.00730939 0 0 
886 0.00848261 0.729764 0.0799009 0.0775917 0.0335643 0.0260253 0.0249453 0.00571621 0.00472726 0.00928211 
887 0.0265935 0.874853 0.0419745 0.017733 0.016735 0.00789159 0.00778216 0.00258037 0.00188944 0.00196726 
888 0.0205973 0.922646 0.0080198 0.00542864 0.0376585 0.00195406 0.00129 0.00118088 0.00080488 0.000420045 
889 0.132704 0.301764 0.437085 0.0817923 0.0215435 0.010817 0.00723523 0.00303934 0.00172416 0.00229529 
890 0.0657338 0.814627 0.0892808 0.0159438 0.00701496 0.00297411 0.00218688 0.00102393 0.000476454 0.000738008 
891 0.231059 0.746243 0.00977093 0.00829096 0.00207706 0.0010004 0.000676717 0.000420447 0.000207099 0.000254744 
892 0.0193665 0.961323 0.00538199 0.00453429 0.00471246 0.00200698 0.00131898 0.000504358 0.000544595 0.000306531 
893 0.00835408 0.733859 0.0786903 0.0764161 0.0330557 0.025631 0.0245673 0.0056296 0.00465564 0.00914147 
894 0.00667149 0.868783 0.0424511 0.0361615 0.017642 0.0114319 0.00809408 0.0030183 0.00348343 0.00226355 
895 0.0983044 0.29433 0.52206 0.0543612 0.0142891 0.00717454 0.00479888 0.00201589 0.00114358 0.00152238 
896 0.139813 0.24509 0.50523 0.0699653 0.0184254 0.00925138 0.00618802 0.00259943 0.00147461 0.00196307 
897 0.0269965 0.872957 0.0426105 0.0180016 0.0169886 0.00801116 0.00790007 0.00261947 0.00191807 0.00199707 
898 0.00735463 0.819915 0.0557533 0.0366021 0.040709 0.020787 0.00710248 0.00410492 0.0056781 0.00199315 
899 0.0101565 0.800236 0.064627 0.0550518 0.026858 0.0174038 0.0123223 0.00459502 0.00530313 0.00344601 
900 0.0534685 0.91622 0.00845555 0.00711535 0.00739493 0.00314942 0.00206978 0.000791455 0.000854596 0.000481018 
901 0.0181999 0.822225 0.0587513 0.0355191 0.0330761 0.0168895 0.00577076 0.00333525 0.00461345 0.00161944 
902 0.0376043 0.846774 0.0601667 0.0244271 0.0119171 0.0077222 0.00546752 0.00203885 0.00235304 0.00152902 
903 0.0361267 0.878119 0.0365233 0.01543 0.0145617 0.00686671 0.00677149 0.00224526 0.00164406 0.00171177 
904 0.0242261 0.878683 0.0321473 0.029718 0.00926644 0.0134097 0.00454304 0.00479581 0.00103518 0.00217608 
