0 1 1 100 0.0210075
1 1 1 100 0.978992
0 2 1 100 0.0112569
1 2 1 100 0.988743
0 3 1 100 0.0119125
1 3 1 100 0.988087
0 4 1 100 0.0124305
1 4 1 100 0.98757
0 5 1 100 0.166638
1 5 1 100 0.833362
0 6 1 100 0.333467
1 6 1 100 0.666533
0 7 1 100 0.132407
1 7 1 100 0.867593
0 8 1 100 0.124954
1 8 1 100 0.875046
0 9 1 100 2.07689e-06
1 9 1 100 0.999998
0 1 2 100 0.044742
1 1 2 100 0.93149
2 1 2 100 0.0237682
0 2 2 100 0.0453584
1 2 2 100 0.21596
2 2 2 100 0.738681
0 3 2 100 0.0563551
1 3 2 100 0.144203
2 3 2 100 0.799442
0 4 2 100 0.17748
1 4 2 100 0.198073
2 4 2 100 0.624447
0 5 2 100 0.193624
1 5 2 100 0.294178
2 5 2 100 0.512198
0 6 2 100 0.164325
1 6 2 100 0.377985
2 6 2 100 0.45769
0 7 2 100 0.137457
1 7 2 100 0.27826
2 7 2 100 0.584283
0 8 2 100 0.157875
1 8 2 100 0.536809
2 8 2 100 0.305317
0 9 2 100 0.190392
1 9 2 100 0.227546
2 9 2 100 0.582063
0 10 2 100 0.12116
1 10 2 100 0.547166
2 10 2 100 0.331673
0 11 2 100 0.0560256
1 11 2 100 0.582811
2 11 2 100 0.361163
0 12 2 100 0.20687
1 12 2 100 0.586481
2 12 2 100 0.206649
0 13 2 100 0.185185
1 13 2 100 0.666791
2 13 2 100 0.148024
0 14 2 100 0.0869588
1 14 2 100 0.739128
2 14 2 100 0.173913
0 15 2 100 0.128057
1 15 2 100 0.152793
2 15 2 100 0.71915
0 16 2 100 0.0420808
1 16 2 100 0.157894
2 16 2 100 0.800025
0 17 2 100 0.0624996
1 17 2 100 0.0625
2 17 2 100 0.875
0 18 2 100 0.00011047
1 18 2 100 0.50004
2 18 2 100 0.49985
0 1 3 100 0.0560092
1 1 3 100 0.867047
2 1 3 100 0.0360352
3 1 3 100 0.0409089
0 2 3 100 0.0791685
1 2 3 100 0.187151
2 2 3 100 0.56079
3 2 3 100 0.17289
0 3 3 100 0.0778221
1 3 3 100 0.0551215
2 3 3 100 0.234256
3 3 3 100 0.6328
0 4 3 100 0.0626925
1 4 3 100 0.12205
2 4 3 100 0.219507
3 4 3 100 0.59575
0 5 3 100 0.119441
1 5 3 100 0.0787898
2 5 3 100 0.182905
3 5 3 100 0.618864
0 6 3 100 0.196082
1 6 3 100 0.118115
2 6 3 100 0.188774
3 6 3 100 0.49703
0 7 3 100 0.184083
1 7 3 100 0.173597
2 7 3 100 0.15454
3 7 3 100 0.487781
0 8 3 100 0.149208
1 8 3 100 0.137238
2 8 3 100 0.186697
3 8 3 100 0.526857
0 9 3 100 0.133019
1 9 3 100 0.309705
2 9 3 100 0.188596
3 9 3 100 0.368681
0 10 3 100 0.121671
1 10 3 100 0.243736
2 10 3 100 0.253406
3 10 3 100 0.381187
0 11 3 100 0.2261
1 11 3 100 0.228558
2 11 3 100 0.18111
3 11 3 100 0.364233
0 12 3 100 0.125126
1 12 3 100 3.38397e-06
2 12 3 100 0.328944
3 12 3 100 0.545927
0 13 3 100 0.375
1 13 3 100 0.0957538
2 13 3 100 0.279246
3 13 3 100 0.25
0 14 3 100 0.372841
1 14 3 100 0.127159
2 14 3 100 0.124999
3 14 3 100 0.375
0 15 3 100 0.199609
1 15 3 100 0.272435
2 15 3 100 0.30932
3 15 3 100 0.218636
0 16 3 100 0.196738
1 16 3 100 0.40412
2 16 3 100 0.199142
3 16 3 100 0.2
0 17 3 100 0.200529
1 17 3 100 0.576205
2 17 3 100 0.023236
3 17 3 100 0.20003
0 18 3 100 0.248814
1 18 3 100 0.000809161
2 18 3 100 0.500135
3 18 3 100 0.250242
0 19 3 100 0.333357
2 19 3 100 0.342655
3 19 3 100 0.323988
0 20 3 100 0.987729
1 20 3 100 0.0122708
3 21 3 100 1
0 1 4 100 0.0494811
1 1 4 100 0.866452
2 1 4 100 0.0276793
3 1 4 100 0.0265839
4 1 4 100 0.0298037
0 2 4 100 0.09854
1 2 4 100 0.17416
2 2 4 100 0.550139
3 2 4 100 0.101262
4 2 4 100 0.0758986
0 3 4 100 0.124535
1 3 4 100 0.0802639
2 3 4 100 0.216944
3 3 4 100 0.408811
4 3 4 100 0.169446
0 4 4 100 0.101055
1 4 4 100 0.0832359
2 4 4 100 0.1093
3 4 4 100 0.22347
4 4 4 100 0.482939
0 5 4 100 0.143159
1 5 4 100 0.0892299
2 5 4 100 0.105082
3 5 4 100 0.196873
4 5 4 100 0.465657
0 6 4 100 0.151905
1 6 4 100 0.0787531
2 6 4 100 0.141946
3 6 4 100 0.203027
4 6 4 100 0.424369
0 7 4 100 0.151988
1 7 4 100 0.12009
2 7 4 100 0.12551
3 7 4 100 0.223388
4 7 4 100 0.379023
0 8 4 100 0.0942086
1 8 4 100 0.119885
2 8 4 100 0.103473
3 8 4 100 0.265993
4 8 4 100 0.416441
0 9 4 100 0.148047
1 9 4 100 0.121951
2 9 4 100 0.048923
3 9 4 100 0.107023
4 9 4 100 0.574057
0 10 4 100 0.141246
1 10 4 100 0.0981925
2 10 4 100 0.0580972
3 10 4 100 0.147094
4 10 4 100 0.55537
0 11 4 100 0.264475
2 11 4 100 0.0751409
3 11 4 100 0.157927
4 11 4 100 0.502457
0 12 4 100 0.0396361
1 12 4 100 0.230636
2 12 4 100 0.0768836
3 12 4 100 0.0768861
4 12 4 100 0.575958
0 13 4 100 0.300128
1 13 4 100 0.134802
2 13 4 100 0.0714238
3 13 4 100 0.136504
4 13 4 100 0.357143
0 14 4 100 0.282712
1 14 4 100 0.181846
2 14 4 100 0.181827
3 14 4 100 0.172101
4 14 4 100 0.181514
0 15 4 100 0.00287163
1 15 4 100 0.499741
2 15 4 100 0.125157
3 15 4 100 0.122228
4 15 4 100 0.250002
0 16 4 100 0.167212
1 16 4 100 0.499652
2 16 4 100 0.000434642
3 16 4 100 0.166667
4 16 4 100 0.166035
0 17 4 100 3.51904e-06
1 17 4 100 0.75
3 17 4 100 0.249997
0 18 4 100 0.000586614
1 18 4 100 0.333333
2 18 4 100 0.66608
1 19 4 100 0.500002
3 19 4 100 0.499998
0 20 4 100 2.07162e-05
4 20 4 100 0.999979
1 21 4 100 1
1 22 4 100 1
0 23 4 100 0.000342403
4 23 4 100 0.999658
4 24 4 100 1
4 25 4 100 1
4 26 4 100 1
4 27 4 100 1
0 1 5 100 0.0575725
1 1 5 100 0.828094
2 1 5 100 0.0288633
3 1 5 100 0.0291448
4 1 5 100 0.027219
5 1 5 100 0.029107
0 2 5 100 0.0971907
1 2 5 100 0.184384
2 2 5 100 0.47559
3 2 5 100 0.118835
4 2 5 100 0.0699692
5 2 5 100 0.0540306
0 3 5 100 0.134474
1 3 5 100 0.0747942
2 3 5 100 0.179607
3 3 5 100 0.342965
4 3 5 100 0.153749
5 3 5 100 0.114411
0 4 5 100 0.120558
1 4 5 100 0.0524922
2 4 5 100 0.0933082
3 4 5 100 0.188247
4 4 5 100 0.33819
5 4 5 100 0.207204
0 5 5 100 0.12078
1 5 5 100 0.0426688
2 5 5 100 0.0713433
3 5 5 100 0.139787
4 5 5 100 0.190625
5 5 5 100 0.434796
0 6 5 100 0.135631
1 6 5 100 0.0362607
2 6 5 100 0.0770563
3 6 5 100 0.164815
4 6 5 100 0.187553
5 6 5 100 0.398683
0 7 5 100 0.151303
1 7 5 100 0.0459156
2 7 5 100 0.0802855
3 7 5 100 0.165791
4 7 5 100 0.197714
5 7 5 100 0.358991
0 8 5 100 0.0962345
1 8 5 100 0.0530551
2 8 5 100 0.116799
3 8 5 100 0.150595
4 8 5 100 0.19492
5 8 5 100 0.388397
0 9 5 100 0.176963
1 9 5 100 0.0187153
2 9 5 100 0.131915
3 9 5 100 0.0845471
4 9 5 100 0.209753
5 9 5 100 0.378107
0 10 5 100 0.136988
1 10 5 100 0.0256417
2 10 5 100 0.179507
3 10 5 100 0.0780224
4 10 5 100 0.20975
5 10 5 100 0.370091
0 11 5 100 0.173019
1 11 5 100 0.0624388
2 11 5 100 0.123634
3 11 5 100 0.252673
4 11 5 100 0.10425
5 11 5 100 0.283986
0 12 5 100 0.216514
2 12 5 100 0.102897
3 12 5 100 0.0352915
4 12 5 100 0.303548
5 12 5 100 0.34175
0 13 5 100 0.181382
1 13 5 100 0.0526316
2 13 5 100 0.104857
3 13 5 100 0.10556
4 13 5 100 0.0814793
5 13 5 100 0.47409
0 14 5 100 1.97123e-06
1 14 5 100 0.111111
2 14 5 100 0.222222
3 14 5 100 0.111161
4 14 5 100 0.333282
5 14 5 100 0.222222
0 15 5 100 3.53348e-05
1 15 5 100 0.2
3 15 5 100 0.399965
4 15 5 100 0.4
0 16 5 100 0.2
1 16 5 100 0.2
2 16 5 100 0.00153306
5 16 5 100 0.598467
0 17 5 100 0.666667
5 17 5 100 0.333333
4 18 5 100 0.5
5 18 5 100 0.5
0 19 5 100 0.00134896
4 19 5 100 0.498668
5 19 5 100 0.499983
0 20 5 100 0.000236022
4 20 5 100 0.499999
5 20 5 100 0.499765
5 21 5 100 1
0 1 6 100 0.088156
1 1 6 100 0.812365
2 1 6 100 0.0325517
3 1 6 100 0.0144548
4 1 6 100 0.015924
5 1 6 100 0.0154482
6 1 6 100 0.0211001
0 2 6 100 0.0906768
1 2 6 100 0.225247
2 2 6 100 0.413726
3 2 6 100 0.143686
4 2 6 100 0.0382027
5 2 6 100 0.045129
6 2 6 100 0.0433318
0 3 6 100 0.14591
1 3 6 100 0.0794806
2 3 6 100 0.224471
3 3 6 100 0.258932
4 3 6 100 0.140535
5 3 6 100 0.0697242
6 3 6 100 0.0809479
0 4 6 100 0.127391
1 4 6 100 0.0520166
2 4 6 100 0.115228
3 4 6 100 0.17076
4 4 6 100 0.23199
5 4 6 100 0.161482
6 4 6 100 0.141132
0 5 6 100 0.148755
1 5 6 100 0.0360666
2 5 6 100 0.0654788
3 5 6 100 0.131675
4 5 6 100 0.180976
5 5 6 100 0.221955
6 5 6 100 0.215094
0 6 6 100 0.158935
1 6 6 100 0.029927
2 6 6 100 0.0548722
3 6 6 100 0.0942606
4 6 6 100 0.150336
5 6 6 100 0.210767
6 6 6 100 0.300903
0 7 6 100 0.15541
1 7 6 100 0.0382332
2 7 6 100 0.0661242
3 7 6 100 0.115662
4 7 6 100 0.140825
5 7 6 100 0.205189
6 7 6 100 0.278557
0 8 6 100 0.154374
1 8 6 100 0.0534524
2 8 6 100 0.0519382
3 8 6 100 0.114976
4 8 6 100 0.123895
5 8 6 100 0.212275
6 8 6 100 0.289089
0 9 6 100 0.133905
1 9 6 100 0.0339412
2 9 6 100 0.048229
3 9 6 100 0.0857995
4 9 6 100 0.144556
5 9 6 100 0.184531
6 9 6 100 0.369037
0 10 6 100 0.1439
1 10 6 100 0.0304257
2 10 6 100 0.0608258
3 10 6 100 0.141987
4 10 6 100 0.115903
5 10 6 100 0.116942
6 10 6 100 0.390015
0 11 6 100 0.0992761
1 11 6 100 0.058183
2 11 6 100 0.0806252
3 11 6 100 0.128717
4 11 6 100 0.109399
5 11 6 100 0.152096
6 11 6 100 0.371703
0 12 6 100 0.167574
1 12 6 100 0.0854186
2 12 6 100 0.0638324
3 12 6 100 0.0637542
4 12 6 100 0.10385
5 12 6 100 0.160761
6 12 6 100 0.354811
0 13 6 100 0.331557
1 13 6 100 0.0745609
2 13 6 100 0.0370557
3 13 6 100 0.0372784
4 13 6 100 0.0365163
5 13 6 100 0.0739475
6 13 6 100 0.409084
0 14 6 100 0.191604
1 14 6 100 0.0909156
2 14 6 100 0.0451786
3 14 6 100 0.000211563
4 14 6 100 0.0459826
5 14 6 100 0.163002
6 14 6 100 0.463106
0 15 6 100 0.212457
1 15 6 100 0.142939
3 15 6 100 0.216999
4 15 6 100 0.0714476
5 15 6 100 0.142772
6 15 6 100 0.213386
0 16 6 100 0.204313
2 16 6 100 0.1
3 16 6 100 0.100276
4 16 6 100 0.0999999
5 16 6 100 0.298517
6 16 6 100 0.196895
0 17 6 100 0.327459
3 17 6 100 0.228097
5 17 6 100 0.332947
6 17 6 100 0.111498
0 18 6 100 0.125002
1 18 6 100 1.30797e-06
3 18 6 100 0.000945922
4 18 6 100 0.124402
5 18 6 100 0.374282
6 18 6 100 0.375366
0 19 6 100 0.000172417
3 19 6 100 0.166845
5 19 6 100 0.499214
6 19 6 100 0.333768
0 20 6 100 0.0134151
3 20 6 100 0.236749
4 20 6 100 7.67654e-05
5 20 6 100 0.745714
6 20 6 100 0.00404573
0 21 6 100 0.000480314
3 21 6 100 0.000656712
5 21 6 100 0.998863
0 22 6 100 2.14477e-05
3 22 6 100 0.504095
5 22 6 100 0.495884
0 23 6 100 1
3 24 6 100 0.984415
5 24 6 100 0.0155853
0 25 6 100 1
0 26 6 100 1
3 27 6 100 0.991989
5 27 6 100 0.00801128
0 1 7 100 0.062543
1 1 7 100 0.838118
2 1 7 100 0.0317247
3 1 7 100 0.0162777
4 1 7 100 0.0111964
5 1 7 100 0.0207873
6 1 7 100 0.00688489
7 1 7 100 0.0124675
0 2 7 100 0.0899275
1 2 7 100 0.349192
2 2 7 100 0.343532
3 2 7 100 0.101632
4 2 7 100 0.0264107
5 2 7 100 0.0318546
6 2 7 100 0.0294338
7 2 7 100 0.0280164
0 3 7 100 0.148923
1 3 7 100 0.0639581
2 3 7 100 0.320278
3 3 7 100 0.213674
4 3 7 100 0.100188
5 3 7 100 0.0484955
6 3 7 100 0.0416042
7 3 7 100 0.0628785
0 4 7 100 0.0999962
1 4 7 100 0.0570238
2 4 7 100 0.072361
3 4 7 100 0.302659
4 4 7 100 0.173945
5 4 7 100 0.151282
6 4 7 100 0.0634178
7 4 7 100 0.0793151
0 5 7 100 0.131162
1 5 7 100 0.0343541
2 5 7 100 0.0449252
3 5 7 100 0.0800998
4 5 7 100 0.133531
5 5 7 100 0.287301
6 5 7 100 0.180505
7 5 7 100 0.108122
0 6 7 100 0.143088
1 6 7 100 0.0327988
2 6 7 100 0.0322493
3 6 7 100 0.0732451
4 6 7 100 0.0932445
5 6 7 100 0.130025
6 6 7 100 0.329091
7 6 7 100 0.166258
0 7 7 100 0.134348
1 7 7 100 0.0401096
2 7 7 100 0.0516226
3 7 7 100 0.0866242
4 7 7 100 0.101257
5 7 7 100 0.135776
6 7 7 100 0.186776
7 7 7 100 0.263487
0 8 7 100 0.162527
1 8 7 100 0.037105
2 8 7 100 0.0348934
3 8 7 100 0.113129
4 8 7 100 0.0981271
5 8 7 100 0.119085
6 8 7 100 0.140365
7 8 7 100 0.294769
0 9 7 100 0.11814
1 9 7 100 0.0297098
2 9 7 100 0.0428477
3 9 7 100 0.0705653
4 9 7 100 0.153569
5 9 7 100 0.15966
6 9 7 100 0.150077
7 9 7 100 0.275432
0 10 7 100 0.157408
1 10 7 100 0.0272038
2 10 7 100 0.0270182
3 10 7 100 0.0676886
4 10 7 100 0.0993962
5 10 7 100 0.128435
6 10 7 100 0.238474
7 10 7 100 0.254376
0 11 7 100 0.146022
1 11 7 100 0.0259371
2 11 7 100 0.013301
3 11 7 100 0.0579656
4 11 7 100 0.101898
5 11 7 100 0.111288
6 11 7 100 0.188098
7 11 7 100 0.35549
0 12 7 100 0.134651
1 12 7 100 0.0198927
2 12 7 100 0.0342576
3 12 7 100 0.0372999
4 12 7 100 0.0731352
5 12 7 100 0.168255
6 12 7 100 0.13869
7 12 7 100 0.393819
0 13 7 100 0.150025
1 13 7 100 0.0473425
2 13 7 100 0.0354695
3 13 7 100 0.0178858
4 13 7 100 0.0719051
5 13 7 100 0.142793
6 13 7 100 0.195918
7 13 7 100 0.338661
0 14 7 100 0.251305
1 14 7 100 0.0323209
2 14 7 100 0.0324699
3 14 7 100 0.0323654
4 14 7 100 0.0322585
5 14 7 100 0.0955445
6 14 7 100 0.104494
7 14 7 100 0.419242
0 15 7 100 0.14996
1 15 7 100 0.18355
2 15 7 100 0.0474225
3 15 7 100 0.0476569
5 15 7 100 0.142753
6 15 7 100 0.0479464
7 15 7 100 0.380712
0 16 7 100 0.158065
1 16 7 100 0.236795
2 16 7 100 7.98842e-06
3 16 7 100 0.0661845
4 16 7 100 0.101103
5 16 7 100 0.0628397
6 16 7 100 0.0625001
7 16 7 100 0.312505
0 17 7 100 0.182546
1 17 7 100 0.454543
5 17 7 100 0.0901866
7 17 7 100 0.272725
0 18 7 100 0.228611
1 18 7 100 0.21566
2 18 7 100 0.111111
3 18 7 100 0.00017353
4 18 7 100 0.111111
6 18 7 100 0.111111
7 18 7 100 0.222222
0 19 7 100 0.222226
1 19 7 100 0.222414
3 19 7 100 0.111111
5 19 7 100 0.110918
7 19 7 100 0.33333
0 20 7 100 0.166699
1 20 7 100 0.333333
3 20 7 100 0.166667
4 20 7 100 0.159649
6 20 7 100 0.166634
7 20 7 100 0.00701769
0 21 7 100 0.21553
1 21 7 100 0.333336
4 21 7 100 0.18122
5 21 7 100 0.166549
7 21 7 100 0.103365
1 22 7 100 0.4
4 22 7 100 0.199688
7 22 7 100 0.400312
0 23 7 100 0.250001
1 23 7 100 0.250001
4 23 7 100 0.178075
7 23 7 100 0.321923
0 24 7 100 0.0453634
3 24 7 100 6.20858e-06
7 24 7 100 0.95463
0 25 7 100 0.000247168
6 25 7 100 0.999753
4 26 7 100 0.966269
7 26 7 100 0.0337314
1 27 7 100 5.22142e-05
4 27 7 100 0.999948
0 28 7 100 0.000586383
5 28 7 100 0.999414
4 29 7 100 0.995461
7 29 7 100 0.00453928
4 30 7 100 0.997981
7 30 7 100 0.00201883
4 31 7 100 0.999716
7 31 7 100 0.000283928
0 32 7 100 0.197339
5 32 7 100 0.802661
0 33 7 100 4.22141e-05
5 33 7 100 0.999958
0 34 7 100 1.70767e-05
2 34 7 100 0.999983
0 35 7 100 0.000441194
4 35 7 100 0.999559
0 36 7 100 0.000129633
5 36 7 100 0.99987
0 37 7 100 0.000113911
5 37 7 100 0.999886
0 38 7 100 1.56285e-05
5 38 7 100 0.999984
0 39 7 100 0.00010036
5 39 7 100 0.9999
0 1 8 100 0.0961418
1 1 8 100 0.795891
2 1 8 100 0.0330745
3 1 8 100 0.0145843
4 1 8 100 0.0121096
5 1 8 100 0.00761692
6 1 8 100 0.0152497
7 1 8 100 0.0118513
8 1 8 100 0.013481
0 2 8 100 0.0987124
1 2 8 100 0.237573
2 2 8 100 0.386509
3 2 8 100 0.122982
4 2 8 100 0.0249475
5 2 8 100 0.0337297
6 2 8 100 0.027266
7 2 8 100 0.0294206
8 2 8 100 0.0388607
0 3 8 100 0.163249
1 3 8 100 0.073016
2 3 8 100 0.210424
3 3 8 100 0.241113
4 3 8 100 0.129668
5 3 8 100 0.0305772
6 3 8 100 0.0425059
7 3 8 100 0.0536846
8 3 8 100 0.0557623
0 4 8 100 0.123145
1 4 8 100 0.0607471
2 4 8 100 0.100753
3 4 8 100 0.17692
4 4 8 100 0.202978
5 4 8 100 0.12854
6 4 8 100 0.0575977
7 4 8 100 0.0581082
8 4 8 100 0.0912111
0 5 8 100 0.174149
1 5 8 100 0.0488212
2 5 8 100 0.0550673
3 5 8 100 0.108972
4 5 8 100 0.136632
5 5 8 100 0.17193
6 5 8 100 0.133303
7 5 8 100 0.0716413
8 5 8 100 0.0994839
0 6 8 100 0.173199
1 6 8 100 0.0404169
2 6 8 100 0.0422885
3 6 8 100 0.070216
4 6 8 100 0.104017
5 6 8 100 0.124364
6 6 8 100 0.184833
7 6 8 100 0.145134
8 6 8 100 0.115531
0 7 8 100 0.163003
1 7 8 100 0.0270813
2 7 8 100 0.0433517
3 7 8 100 0.0728633
4 7 8 100 0.0942534
5 7 8 100 0.112908
6 7 8 100 0.146375
7 7 8 100 0.146103
8 7 8 100 0.194061
0 8 8 100 0.190978
1 8 8 100 0.028509
2 8 8 100 0.0279204
3 8 8 100 0.0515018
4 8 8 100 0.102539
5 8 8 100 0.130508
6 8 8 100 0.133263
7 8 8 100 0.130646
8 8 8 100 0.204134
0 9 8 100 0.156823
1 9 8 100 0.0331872
2 9 8 100 0.0290848
3 9 8 100 0.0506507
4 9 8 100 0.0826497
5 9 8 100 0.118428
6 9 8 100 0.172332
7 9 8 100 0.170422
8 9 8 100 0.186422
0 10 8 100 0.146749
1 10 8 100 0.0220106
2 10 8 100 0.0354725
3 10 8 100 0.0475463
4 10 8 100 0.078567
5 10 8 100 0.11827
6 10 8 100 0.117317
7 10 8 100 0.183728
8 10 8 100 0.250339
0 11 8 100 0.134969
1 11 8 100 0.0153841
2 11 8 100 0.0280954
3 11 8 100 0.0493005
4 11 8 100 0.0830295
5 11 8 100 0.0900141
6 11 8 100 0.142354
7 11 8 100 0.178628
8 11 8 100 0.278225
0 12 8 100 0.141339
1 12 8 100 0.0323453
2 12 8 100 0.0172423
3 12 8 100 0.0605262
4 12 8 100 0.0584111
5 12 8 100 0.0684027
6 12 8 100 0.109463
7 12 8 100 0.203504
8 12 8 100 0.308767
0 13 8 100 0.0935923
1 13 8 100 0.0373609
2 13 8 100 0.056455
3 13 8 100 0.0784706
4 13 8 100 0.0835757
5 13 8 100 0.082961
6 13 8 100 0.0695495
7 13 8 100 0.20346
8 13 8 100 0.294575
0 14 8 100 0.146739
1 14 8 100 0.0727012
2 14 8 100 0.0365246
3 14 8 100 0.0679691
4 14 8 100 0.0691301
5 14 8 100 0.0727791
6 14 8 100 0.0599375
7 14 8 100 0.184426
8 14 8 100 0.289794
0 15 8 100 0.197667
1 15 8 100 0.0571428
2 15 8 100 0.0285904
3 15 8 100 0.116924
4 15 8 100 0.0853666
5 15 8 100 0.028581
6 15 8 100 0.0286328
7 15 8 100 0.114235
8 15 8 100 0.34286
0 16 8 100 0.184999
1 16 8 100 0.0812104
2 16 8 100 0.0555484
3 16 8 100 0.0434783
4 16 8 100 3.61765e-05
5 16 8 100 0.173961
6 16 8 100 0.0435128
7 16 8 100 0.16846
8 16 8 100 0.248794
0 17 8 100 0.312513
1 17 8 100 0.0625001
2 17 8 100 0.125
5 17 8 100 0.124988
6 17 8 100 0.124661
7 17 8 100 0.0628368
8 17 8 100 0.1875
0 18 8 100 0.111009
1 18 8 100 0.142856
2 18 8 100 0.0714287
3 18 8 100 0.0714283
5 18 8 100 0.14284
7 18 8 100 0.103295
8 18 8 100 0.357142
0 19 8 100 0.113631
5 19 8 100 0.222214
6 19 8 100 0.304324
7 19 8 100 0.111111
8 19 8 100 0.248721
0 20 8 100 0.385668
2 20 8 100 0.110613
3 20 8 100 0.0572242
4 20 8 100 0.002049
5 20 8 100 0.111111
6 20 8 100 0.111111
7 20 8 100 0.111111
8 20 8 100 0.111111
0 21 8 100 0.111111
1 21 8 100 0.111411
2 21 8 100 0.111111
5 21 8 100 0.222226
7 21 8 100 0.111111
8 21 8 100 0.33303
0 22 8 100 0.267545
1 22 8 100 0.0181129
2 22 8 100 0.142857
3 22 8 100 9.56153e-05
5 22 8 100 0.145399
6 22 8 100 2.88706e-06
7 22 8 100 0.262301
8 22 8 100 0.163686
0 23 8 100 0.16669
2 23 8 100 0.166597
3 23 8 100 7.0024e-05
4 23 8 100 0.000904511
5 23 8 100 0.329518
6 23 8 100 0.00380855
7 23 8 100 0.0195009
8 23 8 100 0.312911
0 24 8 100 1.61364e-05
5 24 8 100 0.249998
8 24 8 100 0.749986
0 25 8 100 0.5
5 25 8 100 0.5
0 26 8 100 0.0196189
2 26 8 100 0.499993
7 26 8 100 0.480388
2 27 8 100 1
0 28 8 100 0.999971
5 28 8 100 2.87475e-05
0 29 8 100 1
6 30 8 100 1
0 31 8 100 2.12193e-05
7 31 8 100 0.999979
0 32 8 100 0.999976
7 32 8 100 2.37991e-05
1 33 8 100 1
0 34 8 100 0.00119607
7 34 8 100 0.998804
0 35 8 100 0.000442107
7 35 8 100 0.999558
1 36 8 100 1
1 37 8 100 1
0 1 9 100 0.0975914
1 1 9 100 0.78244
2 1 9 100 0.0439542
3 1 9 100 0.0153179
4 1 9 100 0.00742445
5 1 9 100 0.00537943
6 1 9 100 0.014788
7 1 9 100 0.0116375
8 1 9 100 0.0157493
9 1 9 100 0.0057176
0 2 9 100 0.117566
1 2 9 100 0.214348
2 2 9 100 0.386089
3 2 9 100 0.118109
4 2 9 100 0.0314857
5 2 9 100 0.0282281
6 2 9 100 0.0263391
7 2 9 100 0.0295915
8 2 9 100 0.0252657
9 2 9 100 0.0229781
0 3 9 100 0.168425
1 3 9 100 0.064662
2 3 9 100 0.204989
3 3 9 100 0.22314
4 3 9 100 0.117187
5 3 9 100 0.0437756
6 3 9 100 0.0472176
7 3 9 100 0.0366656
8 3 9 100 0.0418307
9 3 9 100 0.0521078
0 4 9 100 0.149724
1 4 9 100 0.0410534
2 4 9 100 0.104093
3 4 9 100 0.168356
4 4 9 100 0.179089
5 4 9 100 0.112236
6 4 9 100 0.0626424
7 4 9 100 0.0552194
8 4 9 100 0.0547403
9 4 9 100 0.0728476
0 5 9 100 0.167314
1 5 9 100 0.0339093
2 5 9 100 0.0572495
3 5 9 100 0.108841
4 5 9 100 0.141684
5 5 9 100 0.150526
6 5 9 100 0.119167
7 5 9 100 0.0620467
8 5 9 100 0.0534156
9 5 9 100 0.105846
0 6 9 100 0.173794
1 6 9 100 0.0304739
2 6 9 100 0.0451174
3 6 9 100 0.0607918
4 6 9 100 0.117158
5 6 9 100 0.12271
6 6 9 100 0.145409
7 6 9 100 0.134961
8 6 9 100 0.0785871
9 6 9 100 0.0909986
0 7 9 100 0.179941
1 7 9 100 0.02807
2 7 9 100 0.0305965
3 7 9 100 0.0603324
4 7 9 100 0.076417
5 7 9 100 0.118325
6 7 9 100 0.117064
7 7 9 100 0.137043
8 7 9 100 0.151504
9 7 9 100 0.100707
0 8 9 100 0.179795
1 8 9 100 0.0209185
2 8 9 100 0.0200724
3 8 9 100 0.0506897
4 8 9 100 0.0632896
5 8 9 100 0.10057
6 8 9 100 0.117139
7 8 9 100 0.124371
8 8 9 100 0.143186
9 8 9 100 0.179968
0 9 9 100 0.167245
1 9 9 100 0.0266613
2 9 9 100 0.0165704
3 9 9 100 0.0401509
4 9 9 100 0.0758478
5 9 9 100 0.086184
6 9 9 100 0.105653
7 9 9 100 0.14383
8 9 9 100 0.136551
9 9 9 100 0.201307
0 10 9 100 0.170122
1 10 9 100 0.0212364
2 10 9 100 0.0202919
3 10 9 100 0.0486464
4 10 9 100 0.0566097
5 10 9 100 0.0753498
6 10 9 100 0.110042
7 10 9 100 0.154168
8 10 9 100 0.140283
9 10 9 100 0.203249
0 11 9 100 0.157308
1 11 9 100 0.0254645
2 11 9 100 0.022848
3 11 9 100 0.03739
4 11 9 100 0.0737148
5 11 9 100 0.0793129
6 11 9 100 0.0838657
7 11 9 100 0.139177
8 11 9 100 0.161007
9 11 9 100 0.219912
0 12 9 100 0.132222
1 12 9 100 0.0286175
2 12 9 100 0.0144095
3 12 9 100 0.0436547
4 12 9 100 0.0386979
5 12 9 100 0.0869449
6 12 9 100 0.0663768
7 12 9 100 0.133595
8 12 9 100 0.175506
9 12 9 100 0.279976
0 13 9 100 0.144858
1 13 9 100 0.0327364
2 13 9 100 0.0190933
3 13 9 100 0.0192597
4 13 9 100 0.0615171
5 13 9 100 0.0698313
6 13 9 100 0.117034
7 13 9 100 0.0811378
8 13 9 100 0.183607
9 13 9 100 0.270925
0 14 9 100 0.175804
1 14 9 100 0.0363178
2 14 9 100 0.0275162
3 14 9 100 0.0180214
4 14 9 100 0.018037
5 14 9 100 0.0930003
6 14 9 100 0.0933743
7 14 9 100 0.101488
8 14 9 100 0.152887
9 14 9 100 0.283553
0 15 9 100 0.152759
1 15 9 100 8.40325e-06
2 15 9 100 0.0780477
3 15 9 100 0.0300363
4 15 9 100 0.0227448
5 15 9 100 0.0875173
6 15 9 100 0.0353407
7 15 9 100 0.158379
8 15 9 100 0.153786
9 15 9 100 0.28138
0 16 9 100 0.219914
1 16 9 100 0.0625001
2 16 9 100 0.0321968
3 16 9 100 2.03167e-06
4 16 9 100 9.3278e-06
5 16 9 100 0.0312687
6 16 9 100 0.187513
7 16 9 100 0.120955
8 16 9 100 0.0656499
9 16 9 100 0.279991
0 17 9 100 0.159751
1 17 9 100 0.124132
2 17 9 100 0.0695389
3 17 9 100 9.07961e-07
4 17 9 100 0.0840525
5 17 9 100 0.0625001
6 17 9 100 0.125
8 17 9 100 0.125463
9 17 9 100 0.249562
0 18 9 100 0.3765
1 18 9 100 0.111111
3 18 9 100 0.0639814
4 18 9 100 0.000103416
5 18 9 100 0.042838
6 18 9 100 0.00346951
7 18 9 100 0.0720703
8 18 9 100 5.96878e-05
9 18 9 100 0.329867
0 19 9 100 0.232936
2 19 9 100 6.12277e-06
3 19 9 100 3.88139e-06
5 19 9 100 0.234209
7 19 9 100 0.250001
8 19 9 100 0.000300336
9 19 9 100 0.282545
0 20 9 100 0.00517667
6 20 9 100 0.0376737
7 20 9 100 0.331084
9 20 9 100 0.626066
6 21 9 100 0.499998
7 21 9 100 0.500002
0 1 10 100 0.115267
1 1 10 100 0.75946
2 1 10 100 0.0506948
3 1 10 100 0.019589
4 1 10 100 0.0126382
5 1 10 100 0.0102685
6 1 10 100 0.00598074
7 1 10 100 0.00432437
8 1 10 100 0.00341763
9 1 10 100 0.0106201
10 1 10 100 0.00773944
0 2 10 100 0.101196
1 2 10 100 0.249085
2 2 10 100 0.355866
3 2 10 100 0.13668
4 2 10 100 0.0408965
5 2 10 100 0.0218159
6 2 10 100 0.0198074
7 2 10 100 0.0173517
8 2 10 100 0.0152447
9 2 10 100 0.0173204
10 2 10 100 0.0247363
0 3 10 100 0.144702
1 3 10 100 0.0671633
2 3 10 100 0.213371
3 3 10 100 0.232443
4 3 10 100 0.139412
5 3 10 100 0.0395852
6 3 10 100 0.0272834
7 3 10 100 0.0285882
8 3 10 100 0.035417
9 3 10 100 0.0288671
10 3 10 100 0.0431673
0 4 10 100 0.141665
1 4 10 100 0.0380956
2 4 10 100 0.10809
3 4 10 100 0.178283
4 4 10 100 0.194037
5 4 10 100 0.123627
6 4 10 100 0.0468939
7 4 10 100 0.0417563
8 4 10 100 0.0328869
9 4 10 100 0.0374822
10 4 10 100 0.0571828
0 5 10 100 0.156256
1 5 10 100 0.0351099
2 5 10 100 0.0502299
3 5 10 100 0.116276
4 5 10 100 0.136019
5 5 10 100 0.165072
6 5 10 100 0.125995
7 5 10 100 0.0545223
8 5 10 100 0.0441914
9 5 10 100 0.0519868
10 5 10 100 0.0643413
0 6 10 100 0.15698
1 6 10 100 0.0293353
2 6 10 100 0.0437825
3 6 10 100 0.0698324
4 6 10 100 0.099499
5 6 10 100 0.142141
6 6 10 100 0.149029
7 6 10 100 0.119742
8 6 10 100 0.0592683
9 6 10 100 0.0548482
10 6 10 100 0.0755416
0 7 10 100 0.157646
1 7 10 100 0.024571
2 7 10 100 0.0268609
3 7 10 100 0.0518172
4 7 10 100 0.0768831
5 7 10 100 0.101708
6 7 10 100 0.140908
7 7 10 100 0.144938
8 7 10 100 0.116594
9 7 10 100 0.0725799
10 7 10 100 0.0854939
0 8 10 100 0.14537
1 8 10 100 0.0251956
2 8 10 100 0.0221896
3 8 10 100 0.0437876
4 8 10 100 0.0560759
5 8 10 100 0.0923
6 8 10 100 0.0992156
7 8 10 100 0.126748
8 8 10 100 0.13587
9 8 10 100 0.151877
10 8 10 100 0.10137
0 9 10 100 0.124687
1 9 10 100 0.0183329
2 9 10 100 0.0196712
3 9 10 100 0.0402189
4 9 10 100 0.0591501
5 9 10 100 0.0712752
6 9 10 100 0.103325
7 9 10 100 0.127203
8 9 10 100 0.122274
9 9 10 100 0.145483
10 9 10 100 0.168379
0 10 10 100 0.153072
1 10 10 100 0.0163203
2 10 10 100 0.0148774
3 10 10 100 0.0361965
4 10 10 100 0.0453868
5 10 10 100 0.0511975
6 10 10 100 0.113955
7 10 10 100 0.102702
8 10 10 100 0.136431
9 10 10 100 0.138366
10 10 10 100 0.191495
0 11 10 100 0.144507
1 11 10 100 0.0158469
2 11 10 100 0.00809311
3 11 10 100 0.0212616
4 11 10 100 0.0576547
5 11 10 100 0.0557619
6 11 10 100 0.0826318
7 11 10 100 0.128298
8 11 10 100 0.136177
9 11 10 100 0.15857
10 11 10 100 0.191198
0 12 10 100 0.157991
1 12 10 100 0.0104585
2 12 10 100 0.0222662
3 12 10 100 0.0223823
4 12 10 100 0.0300442
5 12 10 100 0.0506695
6 12 10 100 0.0543493
7 12 10 100 0.0808861
8 12 10 100 0.121219
9 12 10 100 0.174244
10 12 10 100 0.27549
0 13 10 100 0.158085
1 13 10 100 0.0182766
2 13 10 100 0.012326
3 13 10 100 0.0179892
4 13 10 100 0.0435487
5 13 10 100 0.0248773
6 13 10 100 0.0632314
7 13 10 100 0.0676913
8 13 10 100 0.103671
9 13 10 100 0.18786
10 13 10 100 0.302444
0 14 10 100 0.167812
1 14 10 100 0.0190123
2 14 10 100 0.013966
3 14 10 100 0.0232127
4 14 10 100 0.0347412
5 14 10 100 0.0617162
6 14 10 100 0.0140254
7 14 10 100 0.0790091
8 14 10 100 0.0787494
9 14 10 100 0.184671
10 14 10 100 0.323085
0 15 10 100 0.164025
1 15 10 100 0.0165357
2 15 10 100 0.0546311
3 15 10 100 0.0166772
4 15 10 100 0.0677354
5 15 10 100 0.0514642
6 15 10 100 0.040996
7 15 10 100 0.0775019
8 15 10 100 0.0897536
9 15 10 100 0.156276
10 15 10 100 0.264404
0 16 10 100 0.08466
1 16 10 100 0.0547944
2 16 10 100 0.0684999
3 16 10 100 2.42111e-06
4 16 10 100 0.0273946
5 16 10 100 0.041456
6 16 10 100 0.0274115
7 16 10 100 0.0684616
8 16 10 100 0.0669236
9 16 10 100 0.245864
10 16 10 100 0.314532
0 17 10 100 0.11333
1 17 10 100 0.0889164
2 17 10 100 0.0293199
3 17 10 100 1.68041e-06
4 17 10 100 0.000521117
5 17 10 100 0.0854096
7 17 10 100 0.0549201
8 17 10 100 0.228087
9 17 10 100 0.0850647
10 17 10 100 0.31443
0 18 10 100 0.107871
1 18 10 100 0.0526336
2 18 10 100 0.104105
5 18 10 100 0.0527182
6 18 10 100 0.0523949
8 18 10 100 0.156877
9 18 10 100 0.210245
10 18 10 100 0.263156
0 19 10 100 0.192063
1 19 10 100 0.0714287
2 19 10 100 0.214286
5 19 10 100 2.71272e-05
6 19 10 100 0.0713504
8 19 10 100 0.142859
9 19 10 100 0.0222985
10 19 10 100 0.285687
0 20 10 100 0.260158
2 20 10 100 0.0909693
3 20 10 100 0.00235158
4 20 10 100 0.0909089
5 20 10 100 0.0909479
6 20 10 100 0.00235158
9 20 10 100 0.0909092
10 20 10 100 0.371404
0 21 10 100 0.285711
3 21 10 100 0.142857
4 21 10 100 2.51015e-05
5 21 10 100 0.142857
6 21 10 100 3.56503e-06
7 21 10 100 0.142586
8 21 10 100 0.143102
10 21 10 100 0.142857
0 22 10 100 0.319711
3 22 10 100 0.0106136
4 22 10 100 0.00301351
5 22 10 100 0.166667
6 22 10 100 0.168041
8 22 10 100 0.166662
10 22 10 100 0.165292
0 23 10 100 0.333333
4 23 10 100 0.333333
7 23 10 100 0.333333
0 24 10 100 2.66666e-05
7 24 10 100 0.0013015
8 24 10 100 0.333334
9 24 10 100 0.333334
10 24 10 100 0.332004
9 25 10 100 0.500002
10 25 10 100 0.499998
10 26 10 100 1
0 27 10 100 0.963885
5 27 10 100 0.0361154
0 28 10 100 1
5 29 10 100 0.0218989
7 29 10 100 0.978101
0 30 10 100 0.000201731
2 30 10 100 0.000283873
6 30 10 100 0.999514
0 31 10 100 0.999643
6 31 10 100 0.000356706
2 32 10 100 0.999982
3 32 10 100 1.81701e-05
2 33 10 100 1
0 1 11 100 0.119923
1 1 11 100 0.774532
2 1 11 100 0.0332438
3 1 11 100 0.0155674
4 1 11 100 0.0075485
5 1 11 100 0.0105752
6 1 11 100 0.00461026
7 1 11 100 0.00772796
8 1 11 100 0.00784494
9 1 11 100 0.0043479
10 1 11 100 0.00325062
11 1 11 100 0.0108283
0 2 11 100 0.114799
1 2 11 100 0.238038
2 2 11 100 0.389046
3 2 11 100 0.106351
4 2 11 100 0.0392692
5 2 11 100 0.0273136
6 2 11 100 0.0191585
7 2 11 100 0.00852593
8 2 11 100 0.0175086
9 2 11 100 0.01289
10 2 11 100 0.0116242
11 2 11 100 0.0154758
0 3 11 100 0.156825
1 3 11 100 0.0514159
2 3 11 100 0.232806
3 3 11 100 0.255765
4 3 11 100 0.114832
5 3 11 100 0.0419882
6 3 11 100 0.0299013
7 3 11 100 0.0174428
8 3 11 100 0.0222143
9 3 11 100 0.02537
10 3 11 100 0.0250962
11 3 11 100 0.0263436
0 4 11 100 0.164913
1 4 11 100 0.0444217
2 4 11 100 0.0948845
3 4 11 100 0.194982
4 4 11 100 0.191381
5 4 11 100 0.107249
6 4 11 100 0.0332785
7 4 11 100 0.0270755
8 4 11 100 0.0366617
9 4 11 100 0.0346148
10 4 11 100 0.0274635
11 4 11 100 0.043075
0 5 11 100 0.153202
1 5 11 100 0.0354153
2 5 11 100 0.04965
3 5 11 100 0.109026
4 5 11 100 0.137948
5 5 11 100 0.178982
6 5 11 100 0.108416
7 5 11 100 0.0418253
8 5 11 100 0.0381509
9 5 11 100 0.0482258
10 5 11 100 0.0403976
11 5 11 100 0.0587605
0 6 11 100 0.168878
1 6 11 100 0.0238739
2 6 11 100 0.0382014
3 6 11 100 0.0721837
4 6 11 100 0.102858
5 6 11 100 0.137231
6 6 11 100 0.151834
7 6 11 100 0.106754
8 6 11 100 0.0514516
9 6 11 100 0.0476081
10 6 11 100 0.0355032
11 6 11 100 0.0636226
0 7 11 100 0.158699
1 7 11 100 0.0268082
2 7 11 100 0.0262252
3 7 11 100 0.0370608
4 7 11 100 0.0876999
5 7 11 100 0.0977014
6 7 11 100 0.112616
7 7 11 100 0.148179
8 7 11 100 0.118326
9 7 11 100 0.0640156
10 7 11 100 0.0487745
11 7 11 100 0.0738942
0 8 11 100 0.160575
1 8 11 100 0.0187389
2 8 11 100 0.0278806
3 8 11 100 0.0281903
4 8 11 100 0.0559517
5 8 11 100 0.091991
6 8 11 100 0.112869
7 8 11 100 0.110765
8 8 11 100 0.147938
9 8 11 100 0.109517
10 8 11 100 0.0696708
11 8 11 100 0.0659124
0 9 11 100 0.164376
1 9 11 100 0.015181
2 9 11 100 0.014866
3 9 11 100 0.0243024
4 9 11 100 0.0394071
5 9 11 100 0.0582967
6 9 11 100 0.0935044
7 9 11 100 0.111942
8 9 11 100 0.12531
9 9 11 100 0.143935
10 9 11 100 0.117828
11 9 11 100 0.0910515
0 10 11 100 0.160384
1 10 11 100 0.0235766
2 10 11 100 0.0208779
3 10 11 100 0.0231092
4 10 11 100 0.0432668
5 10 11 100 0.0455794
6 10 11 100 0.0609805
7 10 11 100 0.106245
8 10 11 100 0.103415
9 10 11 100 0.113412
10 10 11 100 0.129558
11 10 11 100 0.169594
0 11 11 100 0.144098
1 11 11 100 0.0152528
2 11 11 100 0.0229678
3 11 11 100 0.0276157
4 11 11 100 0.0293456
5 11 11 100 0.0444174
6 11 11 100 0.0857239
7 11 11 100 0.0817224
8 11 11 100 0.104664
9 11 11 100 0.127809
10 11 11 100 0.133223
11 11 11 100 0.183161
0 12 11 100 0.138199
1 12 11 100 0.02072
2 12 11 100 0.028247
3 12 11 100 0.0319693
4 12 11 100 0.030528
5 12 11 100 0.0432386
6 12 11 100 0.0861135
7 12 11 100 0.0787603
8 12 11 100 0.102773
9 12 11 100 0.142373
10 12 11 100 0.131629
11 12 11 100 0.165449
0 13 11 100 0.15607
1 13 11 100 0.0197866
2 13 11 100 0.0153551
3 13 11 100 0.0370032
4 13 11 100 0.029476
5 13 11 100 0.0498135
6 13 11 100 0.0486779
7 13 11 100 0.0899965
8 13 11 100 0.0900845
9 13 11 100 0.141423
10 13 11 100 0.136374
11 13 11 100 0.18594
0 14 11 100 0.152468
1 14 11 100 0.0130926
2 14 11 100 0.00624694
3 14 11 100 0.0255711
4 14 11 100 0.0344389
5 14 11 100 0.0548526
6 14 11 100 0.0588265
7 14 11 100 0.0558085
8 14 11 100 0.0940433
9 14 11 100 0.138216
10 14 11 100 0.167248
11 14 11 100 0.199188
0 15 11 100 0.17397
1 15 11 100 0.0194951
2 15 11 100 0.00575926
3 15 11 100 0.0251341
4 15 11 100 0.0402361
5 15 11 100 0.0101051
6 15 11 100 0.0540064
7 15 11 100 0.0865582
8 15 11 100 0.0662448
9 15 11 100 0.0930764
10 15 11 100 0.210981
11 15 11 100 0.214433
0 16 11 100 0.172992
1 16 11 100 0.0263285
2 16 11 100 0.0164865
3 16 11 100 0.0344546
4 16 11 100 0.0245496
5 16 11 100 0.00925888
6 16 11 100 0.0356213
7 16 11 100 0.0732097
8 16 11 100 0.0657553
9 16 11 100 0.106818
10 16 11 100 0.167442
11 16 11 100 0.267084
0 17 11 100 0.169272
1 17 11 100 0.0512537
2 17 11 100 0.000489534
3 17 11 100 0.044633
4 17 11 100 0.026317
5 17 11 100 0.0416957
6 17 11 100 0.0542423
7 17 11 100 0.0884355
8 17 11 100 0.0526406
9 17 11 100 0.0607326
10 17 11 100 0.162992
11 17 11 100 0.247295
0 18 11 100 0.17057
1 18 11 100 0.0831601
2 18 11 100 0.020907
3 18 11 100 0.0416677
4 18 11 100 0.047242
5 18 11 100 0.0417305
6 18 11 100 0.0486243
7 18 11 100 0.0625677
8 18 11 100 0.0414671
9 18 11 100 0.0624738
10 18 11 100 0.166311
11 18 11 100 0.21328
0 19 11 100 0.155895
1 19 11 100 0.0734279
2 19 11 100 0.0371543
3 19 11 100 0.0370352
4 19 11 100 0.0805117
6 19 11 100 0.0740761
7 19 11 100 0.0374918
8 19 11 100 0.0370371
9 19 11 100 0.0973413
10 19 11 100 0.184845
11 19 11 100 0.185185
0 20 11 100 0.0901407
1 20 11 100 0.0905096
2 20 11 100 0.0454558
3 20 11 100 0.0454546
4 20 11 100 0.0461852
5 20 11 100 0.00130775
6 20 11 100 0.0454546
8 20 11 100 0.135588
9 20 11 100 0.0453204
10 20 11 100 0.0909457
11 20 11 100 0.363637
0 21 11 100 0.0799882
1 21 11 100 0.0833336
2 21 11 100 0.0833014
3 21 11 100 0.158227
4 21 11 100 0.00538188
5 21 11 100 0.0825693
7 21 11 100 0.167392
8 21 11 100 0.090196
9 21 11 100 0.0829406
10 21 11 100 0.0833336
11 21 11 100 0.0833361
0 22 11 100 0.25
1 22 11 100 5.43477e-05
2 22 11 100 0.125059
3 22 11 100 1.05254e-05
4 22 11 100 2.04913e-06
7 22 11 100 0.249887
9 22 11 100 5.30198e-05
10 22 11 100 0.124998
11 22 11 100 0.249937
0 23 11 100 0.285805
1 23 11 100 8.26742e-05
2 23 11 100 0.000298969
5 23 11 100 9.46049e-06
6 23 11 100 0.142766
7 23 11 100 0.285317
8 23 11 100 0.142856
9 23 11 100 8.32163e-06
11 23 11 100 0.142857
0 24 11 100 0.33333
1 24 11 100 0.000959703
5 24 11 100 7.75085e-06
7 24 11 100 0.168155
9 24 11 100 0.16517
10 24 11 100 1.16074e-05
11 24 11 100 0.332365
0 25 11 100 1.82582e-05
1 25 11 100 0.000247896
2 25 11 100 0.255991
7 25 11 100 0.243743
11 25 11 100 0.5
0 26 11 100 0.468852
1 26 11 100 0.0113142
2 26 11 100 0.500403
5 26 11 100 0.0194309
1 27 11 100 0.00879912
2 27 11 100 0.977586
5 27 11 100 0.00594676
7 27 11 100 0.00766848
0 28 11 100 0.000188726
1 28 11 100 0.00453793
2 28 11 100 0.990827
7 28 11 100 0.00444671
0 29 11 100 0.0110258
1 29 11 100 0.00319114
2 29 11 100 0.00148668
5 29 11 100 0.984269
8 29 11 100 2.68142e-05
0 30 11 100 0.00122927
5 30 11 100 0.998655
7 30 11 100 0.000115552
0 31 11 100 0.000192447
1 31 11 100 0.00311747
2 31 11 100 0.994821
7 31 11 100 0.00186878
1 32 11 100 0.00402215
2 32 11 100 0.918334
5 32 11 100 0.0763829
7 32 11 100 0.00126142
0 33 11 100 0.00117365
5 33 11 100 0.998771
7 33 11 100 5.52465e-05
0 34 11 100 0.00253682
1 34 11 100 0.00031736
2 34 11 100 1.40865e-05
5 34 11 100 0.997132
1 35 11 100 0.000111754
2 35 11 100 0.0112418
5 35 11 100 0.988646
0 36 11 100 2.73485e-05
5 36 11 100 0.999973
0 37 11 100 8.19953e-05
5 37 11 100 0.00109367
8 37 11 100 0.998824
0 38 11 100 4.48848e-05
2 38 11 100 0.999955
3 39 11 100 1
4 40 11 100 1
0 41 11 100 0.000263698
6 41 11 100 0.998754
9 41 11 100 0.000982722
0 42 11 100 0.997958
5 42 11 100 0.000176663
11 42 11 100 0.00186543
0 43 11 100 1
11 44 11 100 1
11 45 11 100 1
0 46 11 100 0.996943
4 46 11 100 6.87717e-05
6 46 11 100 0.00288292
7 46 11 100 7.40583e-05
9 46 11 100 3.15208e-05
0 47 11 100 5.31201e-05
9 47 11 100 4.40199e-05
10 47 11 100 0.999903
0 48 11 100 0.00927052
10 48 11 100 0.99073
0 1 12 100 0.117347
1 1 12 100 0.786635
2 1 12 100 0.0229105
3 1 12 100 0.0163573
4 1 12 100 0.00805684
5 1 12 100 0.00891698
6 1 12 100 0.00681568
7 1 12 100 0.00525487
8 1 12 100 0.00882478
9 1 12 100 0.00864078
10 1 12 100 0.00341214
11 1 12 100 0.00290203
12 1 12 100 0.00392642
0 2 12 100 0.13581
1 2 12 100 0.218641
2 2 12 100 0.398225
3 2 12 100 0.111135
4 2 12 100 0.0210205
5 2 12 100 0.0204593
6 2 12 100 0.0268028
7 2 12 100 0.00982343
8 2 12 100 0.0107113
9 2 12 100 0.00911145
10 2 12 100 0.0125352
11 2 12 100 0.0159692
12 2 12 100 0.00975583
0 3 12 100 0.140586
1 3 12 100 0.0571921
2 3 12 100 0.240413
3 3 12 100 0.26963
4 3 12 100 0.10574
5 3 12 100 0.0428558
6 3 12 100 0.0270782
7 3 12 100 0.0157827
8 3 12 100 0.016227
9 3 12 100 0.0151461
10 3 12 100 0.0187966
11 3 12 100 0.014849
12 3 12 100 0.0357037
0 4 12 100 0.180685
1 4 12 100 0.0382712
2 4 12 100 0.0892373
3 4 12 100 0.184347
4 4 12 100 0.227624
5 4 12 100 0.0877686
6 4 12 100 0.0540659
7 4 12 100 0.039074
8 4 12 100 0.0235225
9 4 12 100 0.0170598
10 4 12 100 0.0162037
11 4 12 100 0.0163917
12 4 12 100 0.0257499
0 5 12 100 0.181033
1 5 12 100 0.0428556
2 5 12 100 0.0487398
3 5 12 100 0.0958093
4 5 12 100 0.162862
5 5 12 100 0.172306
6 5 12 100 0.0923317
7 5 12 100 0.0579862
8 5 12 100 0.0314715
9 5 12 100 0.0305104
10 5 12 100 0.0269845
11 5 12 100 0.0284352
12 5 12 100 0.0286738
0 6 12 100 0.149813
1 6 12 100 0.0406215
2 6 12 100 0.0270035
3 6 12 100 0.0716078
4 6 12 100 0.109614
5 6 12 100 0.168871
6 6 12 100 0.145057
7 6 12 100 0.0898401
8 6 12 100 0.0563486
9 6 12 100 0.0359155
10 6 12 100 0.0343912
11 6 12 100 0.0237421
12 6 12 100 0.0471746
0 7 12 100 0.142039
1 7 12 100 0.0129765
2 7 12 100 0.0304671
3 7 12 100 0.0544491
4 7 12 100 0.0757873
5 7 12 100 0.121391
6 7 12 100 0.125586
7 7 12 100 0.153993
8 7 12 100 0.0916744
9 7 12 100 0.0534638
10 7 12 100 0.0496727
11 7 12 100 0.0405673
12 7 12 100 0.0479322
0 8 12 100 0.136673
1 8 12 100 0.0195282
2 8 12 100 0.0231094
3 8 12 100 0.0433664
4 8 12 100 0.0487651
5 8 12 100 0.0987151
6 8 12 100 0.0905286
7 8 12 100 0.119924
8 8 12 100 0.143571
9 8 12 100 0.0972465
10 8 12 100 0.0577863
11 8 12 100 0.0567198
12 8 12 100 0.0640664
0 9 12 100 0.163647
1 9 12 100 0.0175912
2 9 12 100 0.00755469
3 9 12 100 0.0256639
4 9 12 100 0.0428609
5 9 12 100 0.0449771
6 9 12 100 0.0984528
7 9 12 100 0.0881087
8 9 12 100 0.121188
9 9 12 100 0.143484
10 9 12 100 0.100086
11 9 12 100 0.0758989
12 9 12 100 0.0704855
0 10 12 100 0.157553
1 10 12 100 0.0104624
2 10 12 100 0.00515426
3 10 12 100 0.014891
4 10 12 100 0.0378026
5 10 12 100 0.0476703
6 10 12 100 0.0674393
7 10 12 100 0.091927
8 10 12 100 0.109099
9 10 12 100 0.114734
10 10 12 100 0.142939
11 10 12 100 0.104997
12 10 12 100 0.0953318
0 11 12 100 0.158265
1 11 12 100 0.0112851
2 11 12 100 0.00772052
3 11 12 100 0.0168414
4 11 12 100 0.0169018
5 11 12 100 0.0379393
6 11 12 100 0.0453407
7 11 12 100 0.0815263
8 11 12 100 0.10136
9 11 12 100 0.109318
10 11 12 100 0.120787
11 11 12 100 0.143605
12 11 12 100 0.14911
0 12 12 100 0.129702
1 12 12 100 0.0171814
2 12 12 100 0.00819083
3 12 12 100 0.022256
4 12 12 100 0.0144169
5 12 12 100 0.034594
6 12 12 100 0.0560557
7 12 12 100 0.0545699
8 12 12 100 0.106636
9 12 12 100 0.0940112
10 12 12 100 0.119712
11 12 12 100 0.162664
12 12 12 100 0.18001
0 13 12 100 0.165089
1 13 12 100 0.0141176
2 13 12 100 7.63632e-05
3 13 12 100 0.0135023
4 13 12 100 0.0224418
5 13 12 100 0.0257875
6 13 12 100 0.0549163
7 13 12 100 0.0745519
8 13 12 100 0.0740301
9 13 12 100 0.113303
10 13 12 100 0.129002
11 13 12 100 0.130893
12 13 12 100 0.182289
0 14 12 100 0.16355
1 14 12 100 0.0159767
2 14 12 100 0.00280445
3 14 12 100 0.00793336
4 14 12 100 0.0258771
5 14 12 100 0.0329614
6 14 12 100 0.0249435
7 14 12 100 0.0736453
8 14 12 100 0.0693287
9 14 12 100 0.103026
10 14 12 100 0.113266
11 14 12 100 0.178185
12 14 12 100 0.188503
0 15 12 100 0.131482
1 15 12 100 0.0074716
2 15 12 100 0.000708695
3 15 12 100 0.0198206
4 15 12 100 0.0195451
5 15 12 100 0.0415778
6 15 12 100 0.0352969
7 15 12 100 0.0260805
8 15 12 100 0.0868491
9 15 12 100 0.103898
10 15 12 100 0.108116
11 15 12 100 0.155573
12 15 12 100 0.263581
0 16 12 100 0.177009
1 16 12 100 0.0108754
2 16 12 100 0.00547665
3 16 12 100 0.0163348
4 16 12 100 0.0163156
5 16 12 100 0.0340338
6 16 12 100 0.0109061
7 16 12 100 0.0557374
8 16 12 100 0.07334
9 16 12 100 0.153795
10 16 12 100 0.111844
11 16 12 100 0.153959
12 16 12 100 0.180373
0 17 12 100 0.200961
1 17 12 100 0.00817346
2 17 12 100 0.00790933
3 17 12 100 0.0270332
4 17 12 100 0.00909714
5 17 12 100 0.0180742
6 17 12 100 0.0369248
7 17 12 100 0.0285545
8 17 12 100 0.0725818
9 17 12 100 0.171754
10 17 12 100 0.0824518
11 17 12 100 0.141948
12 17 12 100 0.194537
0 18 12 100 0.162653
2 18 12 100 1.10963e-06
3 18 12 100 1.64532e-05
4 18 12 100 0.0455836
5 18 12 100 0.0150771
6 18 12 100 0.0298487
7 18 12 100 0.044871
8 18 12 100 0.0447762
9 18 12 100 0.134953
10 18 12 100 0.149733
11 18 12 100 0.10268
12 18 12 100 0.269807
0 19 12 100 0.175479
1 19 12 100 0.0294627
5 19 12 100 0.0294512
6 19 12 100 0.0294134
7 19 12 100 0.0878971
8 19 12 100 0.176468
9 19 12 100 0.0573437
10 19 12 100 0.176358
11 19 12 100 0.0895548
12 19 12 100 0.148572
0 20 12 100 0.153769
1 20 12 100 0.0500017
5 20 12 100 0.0499998
7 20 12 100 0.0500069
8 20 12 100 0.0995857
9 20 12 100 0.05
10 20 12 100 0.0462326
11 20 12 100 0.149993
12 20 12 100 0.350412
0 21 12 100 0.098395
1 21 12 100 1.76055e-05
2 21 12 100 0.0909092
5 21 12 100 5.31596e-05
8 21 12 100 0.272711
9 21 12 100 0.0909092
10 21 12 100 0.0909092
11 21 12 100 0.173701
12 21 12 100 0.182395
0 22 12 100 0.281863
1 22 12 100 0.000148513
3 22 12 100 0.0830802
8 22 12 100 0.156939
9 22 12 100 0.116317
10 22 12 100 0.140911
11 22 12 100 5.71144e-06
12 22 12 100 0.220735
0 23 12 100 1.74952e-05
8 23 12 100 0.00132796
9 23 12 100 0.25
10 23 12 100 0.5
12 23 12 100 0.248655
4 24 12 100 0.00382883
6 24 12 100 0.00144048
7 24 12 100 0.000447808
9 24 12 100 0.329202
10 24 12 100 0.665081
0 1 13 100 0.109852
1 1 13 100 0.776017
2 1 13 100 0.0321867
3 1 13 100 0.0129631
4 1 13 100 0.0157681
5 1 13 100 0.011244
6 1 13 100 0.00349836
7 1 13 100 0.00691371
8 1 13 100 0.00800698
9 1 13 100 0.00668389
10 1 13 100 0.00375433
11 1 13 100 0.00689626
12 1 13 100 0.00072338
13 1 13 100 0.00549237
0 2 13 100 0.123318
1 2 13 100 0.225441
2 2 13 100 0.387197
3 2 13 100 0.0940562
4 2 13 100 0.0360509
5 2 13 100 0.0335821
6 2 13 100 0.0259346
7 2 13 100 0.0062916
8 2 13 100 0.0159965
9 2 13 100 0.00912179
10 2 13 100 0.0131786
11 2 13 100 0.00923695
12 2 13 100 0.00953943
13 2 13 100 0.0110548
0 3 13 100 0.159988
1 3 13 100 0.0557183
2 3 13 100 0.219771
3 3 13 100 0.266668
4 3 13 100 0.0976452
5 3 13 100 0.0542691
6 3 13 100 0.0284434
7 3 13 100 0.0153396
8 3 13 100 0.01982
9 3 13 100 0.0164576
10 3 13 100 0.0166153
11 3 13 100 0.010509
12 3 13 100 0.0183741
13 3 13 100 0.0203801
0 4 13 100 0.14812
1 4 13 100 0.0314983
2 4 13 100 0.0871705
3 4 13 100 0.192329
4 4 13 100 0.212744
5 4 13 100 0.0894075
6 4 13 100 0.0552657
7 4 13 100 0.0268908
8 4 13 100 0.026371
9 4 13 100 0.0210739
10 4 13 100 0.0249561
11 4 13 100 0.0239979
12 4 13 100 0.0234
13 4 13 100 0.036775
0 5 13 100 0.173569
1 5 13 100 0.0346504
2 5 13 100 0.0700313
3 5 13 100 0.104032
4 5 13 100 0.15118
5 5 13 100 0.174376
6 5 13 100 0.0885372
7 5 13 100 0.0492699
8 5 13 100 0.0297829
9 5 13 100 0.0214614
10 5 13 100 0.0233577
11 5 13 100 0.0244874
12 5 13 100 0.0208504
13 5 13 100 0.034414
0 6 13 100 0.181061
1 6 13 100 0.0318592
2 6 13 100 0.0477475
3 6 13 100 0.0647519
4 6 13 100 0.100149
5 6 13 100 0.136635
6 6 13 100 0.149532
7 6 13 100 0.085206
8 6 13 100 0.0500363
9 6 13 100 0.0251076
10 6 13 100 0.0326607
11 6 13 100 0.029648
12 6 13 100 0.0234629
13 6 13 100 0.0421428
0 7 13 100 0.189044
1 7 13 100 0.0156079
2 7 13 100 0.0447867
3 7 13 100 0.0574279
4 7 13 100 0.0782304
5 7 13 100 0.113225
6 7 13 100 0.112065
7 7 13 100 0.136276
8 7 13 100 0.087786
9 7 13 100 0.041956
10 7 13 100 0.0273685
11 7 13 100 0.0406365
12 7 13 100 0.0166677
13 7 13 100 0.0389232
0 8 13 100 0.148098
1 8 13 100 0.0282281
2 8 13 100 0.0232795
3 8 13 100 0.0430512
4 8 13 100 0.0465093
5 8 13 100 0.0744303
6 8 13 100 0.110869
7 8 13 100 0.100682
8 8 13 100 0.153141
9 8 13 100 0.0831921
10 8 13 100 0.0511272
11 8 13 100 0.0406711
12 8 13 100 0.043457
13 8 13 100 0.0532629
0 9 13 100 0.168531
1 9 13 100 0.022659
2 9 13 100 0.0176871
3 9 13 100 0.0408643
4 9 13 100 0.0332115
5 9 13 100 0.0392492
6 9 13 100 0.0908205
7 9 13 100 0.0935773
8 9 13 100 0.103281
9 9 13 100 0.129234
10 9 13 100 0.0952823
11 9 13 100 0.0554297
12 9 13 100 0.0553006
13 9 13 100 0.0548726
0 10 13 100 0.163752
1 10 13 100 0.0265081
2 10 13 100 0.0197721
3 10 13 100 0.0173731
4 10 13 100 0.0328849
5 10 13 100 0.0398583
6 10 13 100 0.0582755
7 10 13 100 0.0765855
8 10 13 100 0.0997254
9 10 13 100 0.104809
10 10 13 100 0.102025
11 10 13 100 0.112052
12 10 13 100 0.0651177
13 10 13 100 0.0812619
0 11 13 100 0.162614
1 11 13 100 0.0167602
2 11 13 100 0.0230557
3 11 13 100 0.0105593
4 11 13 100 0.0263481
5 11 13 100 0.0367218
6 11 13 100 0.0591085
7 11 13 100 0.0485334
8 11 13 100 0.0988327
9 11 13 100 0.104487
10 11 13 100 0.108127
11 11 13 100 0.107686
12 11 13 100 0.109701
13 11 13 100 0.0874641
0 12 13 100 0.156788
1 12 13 100 0.0123669
2 12 13 100 0.0180404
3 12 13 100 0.0147144
4 12 13 100 0.0239058
5 12 13 100 0.0341505
6 12 13 100 0.0487273
7 12 13 100 0.0466418
8 12 13 100 0.0637976
9 12 13 100 0.102973
10 12 13 100 0.109833
11 12 13 100 0.104724
12 12 13 100 0.12627
13 12 13 100 0.137068
0 13 13 100 0.155585
1 13 13 100 0.0127694
2 13 13 100 0.0134744
3 13 13 100 0.0109554
4 13 13 100 0.0145433
5 13 13 100 0.0280184
6 13 13 100 0.0330857
7 13 13 100 0.0606025
8 13 13 100 0.0738939
9 13 13 100 0.0900513
10 13 13 100 0.112374
11 13 13 100 0.13583
12 13 13 100 0.107588
13 13 13 100 0.151228
0 14 13 100 0.165596
1 14 13 100 0.00642643
2 14 13 100 0.0078748
3 14 13 100 0.0217956
4 14 13 100 0.0421339
5 14 13 100 0.00975766
6 14 13 100 0.0378787
7 14 13 100 0.0390809
8 14 13 100 0.0850919
9 14 13 100 0.0788487
10 14 13 100 0.0727911
11 14 13 100 0.140476
12 14 13 100 0.133979
13 14 13 100 0.158269
0 15 13 100 0.158546
1 15 13 100 0.0051878
2 15 13 100 0.0123613
3 15 13 100 0.0103763
4 15 13 100 0.0271222
5 15 13 100 0.0351817
6 15 13 100 0.0295423
7 15 13 100 0.0538346
8 15 13 100 0.0614458
9 15 13 100 0.0684794
10 15 13 100 0.101093
11 15 13 100 0.112525
12 15 13 100 0.150968
13 15 13 100 0.173336
0 16 13 100 0.160882
1 16 13 100 0.0122355
2 16 13 100 0.0113668
3 16 13 100 0.00743988
4 16 13 100 0.0111899
5 16 13 100 0.0104842
6 16 13 100 0.0521902
7 16 13 100 0.0539259
8 16 13 100 0.0535863
9 16 13 100 0.0709491
10 16 13 100 0.089839
11 16 13 100 0.097922
12 16 13 100 0.16864
13 16 13 100 0.199349
0 17 13 100 0.111835
1 17 13 100 0.014111
2 17 13 100 0.0105776
3 17 13 100 0.0286682
4 17 13 100 0.0141986
5 17 13 100 0.0173119
6 17 13 100 0.0331428
7 17 13 100 0.0361597
8 17 13 100 0.0869715
9 17 13 100 0.0609978
10 17 13 100 0.0987123
11 17 13 100 0.0953817
12 17 13 100 0.109099
13 17 13 100 0.282832
0 18 13 100 0.201665
1 18 13 100 0.0184336
2 18 13 100 0.0171038
3 18 13 100 0.00854348
4 18 13 100 0.017014
5 18 13 100 0.0255711
6 18 13 100 0.00923056
7 18 13 100 0.0596264
8 18 13 100 0.0469695
9 18 13 100 0.0954701
10 18 13 100 0.0882078
11 18 13 100 0.103065
12 18 13 100 0.0866056
13 18 13 100 0.222493
0 19 13 100 0.151607
1 19 13 100 0.00052624
2 19 13 100 0.0126587
3 19 13 100 0.0474729
4 19 13 100 0.0126601
5 19 13 100 0.0157736
6 19 13 100 0.0253228
7 19 13 100 0.0244888
8 19 13 100 0.124585
9 19 13 100 0.0287766
10 19 13 100 0.076671
11 19 13 100 0.0632672
12 19 13 100 0.176252
13 19 13 100 0.239938
0 20 13 100 0.132946
1 20 13 100 6.29141e-07
2 20 13 100 0.000816203
3 20 13 100 0.0361107
4 20 13 100 0.0377454
5 20 13 100 5.74094e-05
6 20 13 100 0.0746428
8 20 13 100 0.06738
9 20 13 100 0.132468
10 20 13 100 0.0767299
11 20 13 100 0.113926
12 20 13 100 0.11219
13 20 13 100 0.214987
0 21 13 100 0.27518
1 21 13 100 1.74409e-05
2 21 13 100 2.60791e-06
3 21 13 100 0.0352393
5 21 13 100 2.59786e-06
7 21 13 100 0.044782
8 21 13 100 0.0722704
9 21 13 100 0.10714
10 21 13 100 0.108213
11 21 13 100 0.142849
12 21 13 100 0.0357143
13 21 13 100 0.178591
0 22 13 100 0.000324333
1 22 13 100 0.00137509
3 22 13 100 0.0666667
5 22 13 100 2.02423e-05
7 22 13 100 0.0666669
8 22 13 100 0.0666665
9 22 13 100 0.133338
10 22 13 100 0.323844
11 22 13 100 0.13138
12 22 13 100 0.142502
13 22 13 100 0.0672158
0 23 13 100 0.123651
4 23 13 100 0.111111
7 23 13 100 0.0993473
9 23 13 100 3.05595e-05
10 23 13 100 0.222066
11 23 13 100 0.332954
13 23 13 100 0.11084
0 24 13 100 0.000776306
5 24 13 100 0.142857
7 24 13 100 0.142856
8 24 13 100 0.142814
11 24 13 100 0.285715
12 24 13 100 0.142857
13 24 13 100 0.142124
0 25 13 100 0.000255329
5 25 13 100 0.0045537
6 25 13 100 0.199745
7 25 13 100 0.00033387
8 25 13 100 0.195446
11 25 13 100 0.199655
12 25 13 100 0.200011
13 25 13 100 0.2
0 26 13 100 1.02204e-05
4 26 13 100 0.249976
5 26 13 100 0.253292
8 26 13 100 0.240802
10 26 13 100 1.38278e-05
13 26 13 100 0.255907
0 27 13 100 1.7892e-05
4 27 13 100 0.333333
6 27 13 100 0.333333
8 27 13 100 0.32892
9 27 13 100 0.00211816
13 27 13 100 0.00227688
0 28 13 100 0.499972
4 28 13 100 0.496894
11 28 13 100 0.00111488
13 28 13 100 0.00201865
0 29 13 100 9.7819e-06
8 29 13 100 0.500002
12 29 13 100 0.499989
5 30 13 100 0.0119352
8 30 13 100 0.985157
13 30 13 100 0.00290791
0 31 13 100 2.20235e-05
8 31 13 100 0.99442
9 31 13 100 0.00374275
13 31 13 100 0.00181569
8 32 13 100 1
5 33 13 100 0.975237
8 33 13 100 0.0234401
13 33 13 100 0.00132298
0 34 13 100 0.0128842
8 34 13 100 0.0235742
9 34 13 100 0.96343
13 34 13 100 0.000111853
5 35 13 100 0.999158
8 35 13 100 0.000496117
13 35 13 100 0.000345981
0 36 13 100 0.00632276
8 36 13 100 0.00398238
9 36 13 100 0.989635
13 36 13 100 6.0291e-05
5 37 13 100 0.999866
8 37 13 100 5.78307e-05
13 37 13 100 7.58178e-05
5 38 13 100 0.99982
8 38 13 100 7.0892e-05
13 38 13 100 0.000109637
0 39 13 100 0.0345098
8 39 13 100 0.0108823
9 39 13 100 0.954179
13 39 13 100 0.000429102
0 40 13 100 0.997667
13 40 13 100 0.00233258
5 41 13 100 0.996446
8 41 13 100 0.000977624
13 41 13 100 0.00257656
0 1 14 100 0.108662
1 1 14 100 0.761147
2 1 14 100 0.038294
3 1 14 100 0.0201163
4 1 14 100 0.00999463
5 1 14 100 0.011689
6 1 14 100 0.00502129
7 1 14 100 0.003771
8 1 14 100 0.00753808
9 1 14 100 0.00627448
10 1 14 100 0.00244665
11 1 14 100 0.00387235
12 1 14 100 0.00250591
13 1 14 100 0.00985423
14 1 14 100 0.00881388
0 2 14 100 0.131554
1 2 14 100 0.200801
2 2 14 100 0.384738
3 2 14 100 0.119175
4 2 14 100 0.0321457
5 2 14 100 0.0290962
6 2 14 100 0.0204597
7 2 14 100 0.0127691
8 2 14 100 0.0101587
9 2 14 100 0.0132252
10 2 14 100 0.0102294
11 2 14 100 0.00635519
12 2 14 100 0.00971243
13 2 14 100 0.0065515
14 2 14 100 0.013029
0 3 14 100 0.160849
1 3 14 100 0.067464
2 3 14 100 0.212473
3 3 14 100 0.245957
4 3 14 100 0.117608
5 3 14 100 0.0433634
6 3 14 100 0.0336932
7 3 14 100 0.015583
8 3 14 100 0.0159105
9 3 14 100 0.0119823
10 3 14 100 0.0139219
11 3 14 100 0.00893834
12 3 14 100 0.0143832
13 3 14 100 0.0166655
14 3 14 100 0.0212082
0 4 14 100 0.131761
1 4 14 100 0.0464468
2 4 14 100 0.119791
3 4 14 100 0.170437
4 4 14 100 0.19923
5 4 14 100 0.114355
6 4 14 100 0.0424999
7 4 14 100 0.0366149
8 4 14 100 0.0333819
9 4 14 100 0.0114731
10 4 14 100 0.0221452
11 4 14 100 0.010642
12 4 14 100 0.00967484
13 4 14 100 0.023643
14 4 14 100 0.0279049
0 5 14 100 0.147988
1 5 14 100 0.0388403
2 5 14 100 0.0636224
3 5 14 100 0.103854
4 5 14 100 0.135097
5 5 14 100 0.195204
6 5 14 100 0.113287
7 5 14 100 0.0358546
8 5 14 100 0.0390685
9 5 14 100 0.0256535
10 5 14 100 0.0192567
11 5 14 100 0.0153295
12 5 14 100 0.0108331
13 5 14 100 0.0229121
14 5 14 100 0.0331996
0 6 14 100 0.173009
1 6 14 100 0.0230986
2 6 14 100 0.0293863
3 6 14 100 0.0700193
4 6 14 100 0.0928009
5 6 14 100 0.120591
6 6 14 100 0.189077
7 6 14 100 0.0873501
8 6 14 100 0.0606464
9 6 14 100 0.0292183
10 6 14 100 0.0254513
11 6 14 100 0.0230303
12 6 14 100 0.0167705
13 6 14 100 0.0246175
14 6 14 100 0.0349335
0 7 14 100 0.139458
1 7 14 100 0.013959
2 7 14 100 0.0270022
3 7 14 100 0.0495931
4 7 14 100 0.0707557
5 7 14 100 0.107472
6 7 14 100 0.127406
7 7 14 100 0.137365
8 7 14 100 0.100914
9 7 14 100 0.050472
10 7 14 100 0.0331828
11 7 14 100 0.0470874
12 7 14 100 0.0187732
13 7 14 100 0.0219917
14 7 14 100 0.0545671
0 8 14 100 0.159706
1 8 14 100 0.0167822
2 8 14 100 0.00910384
3 8 14 100 0.0306898
4 8 14 100 0.0363366
5 8 14 100 0.0767067
6 8 14 100 0.0988007
7 8 14 100 0.139444
8 8 14 100 0.122969
9 8 14 100 0.098647
10 8 14 100 0.0494894
11 8 14 100 0.0378825
12 8 14 100 0.0489676
13 8 14 100 0.0270754
14 8 14 100 0.0473984
0 9 14 100 0.152888
1 9 14 100 0.0116529
2 9 14 100 0.00798206
3 9 14 100 0.0167293
4 9 14 100 0.0392126
5 9 14 100 0.063715
6 9 14 100 0.0692715
7 9 14 100 0.0958749
8 9 14 100 0.117128
9 9 14 100 0.119728
10 9 14 100 0.109016
11 9 14 100 0.0475726
12 9 14 100 0.0435041
13 9 14 100 0.0413709
14 9 14 100 0.0643548
0 10 14 100 0.158805
1 10 14 100 0.0132714
2 10 14 100 0.0145526
3 10 14 100 0.0173163
4 10 14 100 0.0292583
5 10 14 100 0.0431417
6 10 14 100 0.0490897
7 10 14 100 0.0702642
8 10 14 100 0.0955617
9 10 14 100 0.117514
10 10 14 100 0.122238
11 10 14 100 0.0900865
12 10 14 100 0.0534123
13 10 14 100 0.0563077
14 10 14 100 0.0691814
0 11 14 100 0.15081
1 11 14 100 0.0126174
2 11 14 100 0.0110192
3 11 14 100 0.021416
4 11 14 100 0.0184079
5 11 14 100 0.0233432
6 11 14 100 0.0434736
7 11 14 100 0.0507714
8 11 14 100 0.0723468
9 11 14 100 0.109536
10 11 14 100 0.106969
11 11 14 100 0.146164
12 11 14 100 0.109951
13 11 14 100 0.0552423
14 11 14 100 0.0679316
0 12 14 100 0.153817
1 12 14 100 0.00822009
2 12 14 100 0.00865901
3 12 14 100 0.0113069
4 12 14 100 0.0216371
5 12 14 100 0.0386028
6 12 14 100 0.0221799
7 12 14 100 0.042064
8 12 14 100 0.0561215
9 12 14 100 0.0788465
10 12 14 100 0.100425
11 12 14 100 0.121229
12 12 14 100 0.130914
13 12 14 100 0.118974
14 12 14 100 0.0870038
0 13 14 100 0.14019
1 13 14 100 0.00621744
2 13 14 100 0.00986114
3 13 14 100 0.0183091
4 13 14 100 0.0176769
5 13 14 100 0.0180694
6 13 14 100 0.030994
7 13 14 100 0.0319827
8 13 14 100 0.0443479
9 13 14 100 0.0754141
10 13 14 100 0.0920448
11 13 14 100 0.109335
12 13 14 100 0.109133
13 13 14 100 0.129206
14 13 14 100 0.167219
0 14 14 100 0.148895
1 14 14 100 0.011423
2 14 14 100 0.00384144
3 14 14 100 0.01327
4 14 14 100 0.020327
5 14 14 100 0.0281824
6 14 14 100 0.0263239
7 14 14 100 0.0349548
8 14 14 100 0.0288072
9 14 14 100 0.0607982
10 14 14 100 0.0788645
11 14 14 100 0.0988585
12 14 14 100 0.108482
13 14 14 100 0.147484
14 14 14 100 0.189487
0 15 14 100 0.171257
1 15 14 100 0.00471599
2 15 14 100 0.00242222
3 15 14 100 0.0128009
4 15 14 100 0.0135034
5 15 14 100 0.0119347
6 15 14 100 0.0388406
7 15 14 100 0.0200783
8 15 14 100 0.0514254
9 15 14 100 0.0490163
10 15 14 100 0.0658544
11 15 14 100 0.10766
12 15 14 100 0.135957
13 15 14 100 0.151611
14 15 14 100 0.162922
0 16 14 100 0.171958
1 16 14 100 0.00318678
2 16 14 100 0.006962
3 16 14 100 0.0068401
4 16 14 100 0.0191567
5 16 14 100 0.0130818
6 16 14 100 0.0295528
7 16 14 100 0.0355459
8 16 14 100 0.0513255
9 16 14 100 0.0605059
10 16 14 100 0.0688459
11 16 14 100 0.0696883
12 16 14 100 0.137409
13 16 14 100 0.122156
14 16 14 100 0.203785
0 17 14 100 0.130531
1 17 14 100 0.00713604
2 17 14 100 0.0248234
3 17 14 100 0.0130515
4 17 14 100 0.00920586
5 17 14 100 0.0260176
6 17 14 100 0.0221471
7 17 14 100 0.0137915
8 17 14 100 0.0295894
9 17 14 100 0.061315
10 17 14 100 0.0837723
11 17 14 100 0.0733152
12 17 14 100 0.0795093
13 17 14 100 0.180047
14 17 14 100 0.245748
0 18 14 100 0.162933
1 18 14 100 5.39166e-05
2 18 14 100 0.0180515
3 18 14 100 0.0239278
4 18 14 100 0.00602887
5 18 14 100 0.0363009
6 18 14 100 0.0297341
7 18 14 100 0.0527888
8 18 14 100 0.0300176
9 18 14 100 0.0662646
10 18 14 100 0.0461528
11 18 14 100 0.102337
12 18 14 100 0.120037
13 18 14 100 0.0842212
14 18 14 100 0.22115
0 19 14 100 0.194913
1 19 14 100 0.000320572
2 19 14 100 0.0180206
3 19 14 100 7.2105e-05
4 19 14 100 0.033646
5 19 14 100 0.0180247
6 19 14 100 0.0241063
7 19 14 100 0.0108134
8 19 14 100 0.013345
9 19 14 100 0.053566
10 19 14 100 0.0821386
11 19 14 100 0.0976274
12 19 14 100 0.0768268
13 19 14 100 0.12497
14 19 14 100 0.25161
0 20 14 100 0.166429
1 20 14 100 6.7659e-06
2 20 14 100 1.72325e-06
3 20 14 100 3.69607e-05
4 20 14 100 6.42918e-05
5 20 14 100 0.0147799
6 20 14 100 0.0143035
7 20 14 100 0.00492809
8 20 14 100 0.0294396
9 20 14 100 0.0739538
10 20 14 100 0.0735253
11 20 14 100 0.162645
12 20 14 100 0.117562
13 20 14 100 0.0657714
14 20 14 100 0.276553
0 21 14 100 0.0842115
4 21 14 100 5.62856e-05
5 21 14 100 0.0270266
6 21 14 100 0.026467
8 21 14 100 0.000262912
9 21 14 100 0.0265578
10 21 14 100 0.271049
11 21 14 100 0.135658
12 21 14 100 0.159792
13 21 14 100 0.108284
14 21 14 100 0.160636
0 22 14 100 0.205102
1 22 14 100 0.0464169
5 22 14 100 0.000237016
6 22 14 100 0.0126763
9 22 14 100 0.0526552
10 22 14 100 0.247332
11 22 14 100 0.109623
12 22 14 100 0.0526463
13 22 14 100 0.16194
14 22 14 100 0.111371
0 23 14 100 0.0936304
1 23 14 100 0.0909017
3 23 14 100 2.01559e-06
5 23 14 100 0.0881304
10 23 14 100 7.60278e-05
11 23 14 100 0.363635
12 23 14 100 0.181825
13 23 14 100 0.0909086
14 23 14 100 0.0908906
0 24 14 100 0.000694052
3 24 14 100 5.48579e-05
7 24 14 100 0.166667
10 24 14 100 3.34585e-05
12 24 14 100 0.499306
13 24 14 100 0.333189
14 24 14 100 5.64616e-05
0 25 14 100 0.22423
1 25 14 100 0.115586
6 25 14 100 4.45938e-05
10 25 14 100 0.000211727
11 25 14 100 0.158864
12 25 14 100 3.44178e-06
13 25 14 100 0.333335
14 25 14 100 0.167725
0 26 14 100 0.200017
4 26 14 100 7.9742e-05
11 26 14 100 0.399898
14 26 14 100 0.400005
11 27 14 100 0.499999
13 27 14 100 0.500001
0 28 14 100 0.000146478
9 28 14 100 6.95896e-05
12 28 14 100 1.0388e-05
14 28 14 100 0.999774
0 1 15 100 0.118075
1 1 15 100 0.75685
2 1 15 100 0.0374133
3 1 15 100 0.00841948
4 1 15 100 0.0107464
5 1 15 100 0.00829272
6 1 15 100 0.00783508
7 1 15 100 0.00719312
8 1 15 100 0.0100881
9 1 15 100 0.00758437
10 1 15 100 0.00547622
11 1 15 100 0.0054702
12 1 15 100 0.00689518
13 1 15 100 0.00295119
14 1 15 100 0.00509895
15 1 15 100 0.00161035
0 2 15 100 0.13999
1 2 15 100 0.200512
2 2 15 100 0.401869
3 2 15 100 0.108273
4 2 15 100 0.0288773
5 2 15 100 0.0192986
6 2 15 100 0.0209728
7 2 15 100 0.0126332
8 2 15 100 0.0113988
9 2 15 100 0.00418679
10 2 15 100 0.0131681
11 2 15 100 0.00788036
12 2 15 100 0.012258
13 2 15 100 0.00522463
14 2 15 100 0.00962423
15 2 15 100 0.00383311
0 3 15 100 0.099112
1 3 15 100 0.0575537
2 3 15 100 0.232238
3 3 15 100 0.293869
4 3 15 100 0.101552
5 3 15 100 0.0412076
6 3 15 100 0.032258
7 3 15 100 0.0359589
8 3 15 100 0.0247479
9 3 15 100 0.00928273
10 3 15 100 0.0110851
11 3 15 100 0.00691188
12 3 15 100 0.00670544
13 3 15 100 0.0150961
14 3 15 100 0.017787
15 3 15 100 0.0146352
0 4 15 100 0.151718
1 4 15 100 0.0475725
2 4 15 100 0.0851183
3 4 15 100 0.162839
4 4 15 100 0.222155
5 4 15 100 0.0982743
6 4 15 100 0.0415794
7 4 15 100 0.0335362
8 4 15 100 0.0287171
9 4 15 100 0.0252754
10 4 15 100 0.0232772
11 4 15 100 0.00861857
12 4 15 100 0.016356
13 4 15 100 0.00840289
14 4 15 100 0.0230451
15 4 15 100 0.0235151
0 5 15 100 0.164431
1 5 15 100 0.0437328
2 5 15 100 0.0465991
3 5 15 100 0.0869436
4 5 15 100 0.150512
5 5 15 100 0.19251
6 5 15 100 0.0952141
7 5 15 100 0.0321047
8 5 15 100 0.0359587
9 5 15 100 0.0262223
10 5 15 100 0.0205173
11 5 15 100 0.021
12 5 15 100 0.0139601
13 5 15 100 0.0211292
14 5 15 100 0.0125169
15 5 15 100 0.0366479
0 6 15 100 0.178485
1 6 15 100 0.0252384
2 6 15 100 0.043403
3 6 15 100 0.046615
4 6 15 100 0.0951667
5 6 15 100 0.133759
6 6 15 100 0.168495
7 6 15 100 0.0925396
8 6 15 100 0.03791
9 6 15 100 0.0356131
10 6 15 100 0.0287803
11 6 15 100 0.0142684
12 6 15 100 0.0274048
13 6 15 100 0.0145696
14 6 15 100 0.0292967
15 6 15 100 0.0284556
0 7 15 100 0.145793
1 7 15 100 0.0290483
2 7 15 100 0.0358016
3 7 15 100 0.0494561
4 7 15 100 0.0511721
5 7 15 100 0.100539
6 7 15 100 0.11005
7 7 15 100 0.15631
8 7 15 100 0.10264
9 7 15 100 0.0356538
10 7 15 100 0.0369339
11 7 15 100 0.0331725
12 7 15 100 0.0222318
13 7 15 100 0.0287577
14 7 15 100 0.0192802
15 7 15 100 0.04316
0 8 15 100 0.164492
1 8 15 100 0.0283245
2 8 15 100 0.0328281
3 8 15 100 0.0261075
4 8 15 100 0.0374814
5 8 15 100 0.0833898
6 8 15 100 0.0904554
7 8 15 100 0.110142
8 8 15 100 0.122168
9 8 15 100 0.118246
10 8 15 100 0.0358882
11 8 15 100 0.0442413
12 8 15 100 0.0332184
13 8 15 100 0.0206471
14 8 15 100 0.0244397
15 8 15 100 0.0279301
0 9 15 100 0.150836
1 9 15 100 0.0127051
2 9 15 100 0.0204201
3 9 15 100 0.0337847
4 9 15 100 0.0361894
5 9 15 100 0.0720914
6 9 15 100 0.0615668
7 9 15 100 0.0859533
8 9 15 100 0.101138
9 9 15 100 0.139621
10 9 15 100 0.101493
11 9 15 100 0.0580465
12 9 15 100 0.042873
13 9 15 100 0.0285155
14 9 15 100 0.0217517
15 9 15 100 0.0330151
0 10 15 100 0.159781
1 10 15 100 0.0180485
2 10 15 100 0.0163695
3 10 15 100 0.0202
4 10 15 100 0.0313951
5 10 15 100 0.0388729
6 10 15 100 0.0562033
7 10 15 100 0.0771083
8 10 15 100 0.0832689
9 10 15 100 0.098622
10 10 15 100 0.120411
11 10 15 100 0.104131
12 10 15 100 0.0568388
13 10 15 100 0.0462044
14 10 15 100 0.0429372
15 10 15 100 0.0296086
0 11 15 100 0.152561
1 11 15 100 0.0182446
2 11 15 100 0.0105038
3 11 15 100 0.0152131
4 11 15 100 0.0179039
5 11 15 100 0.0257816
6 11 15 100 0.0367303
7 11 15 100 0.0572115
8 11 15 100 0.0753402
9 11 15 100 0.0961554
10 11 15 100 0.099888
11 11 15 100 0.138555
12 11 15 100 0.100052
13 11 15 100 0.0470562
14 11 15 100 0.0398992
15 11 15 100 0.0689045
0 12 15 100 0.163236
1 12 15 100 0.00426322
2 12 15 100 0.0134331
3 12 15 100 0.00868608
4 12 15 100 0.0191046
5 12 15 100 0.0191469
6 12 15 100 0.048923
7 12 15 100 0.0390926
8 12 15 100 0.0512301
9 12 15 100 0.0740097
10 12 15 100 0.0894546
11 12 15 100 0.125609
12 12 15 100 0.115017
13 12 15 100 0.0977746
14 12 15 100 0.0539244
15 12 15 100 0.0770953
0 13 15 100 0.149971
1 13 15 100 0.00776889
2 13 15 100 0.00617322
3 13 15 100 0.0129194
4 13 15 100 0.0190303
5 13 15 100 0.0227394
6 13 15 100 0.0427942
7 13 15 100 0.0241457
8 13 15 100 0.0392413
9 13 15 100 0.0699991
10 13 15 100 0.067425
11 13 15 100 0.105183
12 13 15 100 0.114064
13 13 15 100 0.115394
14 13 15 100 0.120309
15 13 15 100 0.0828431
0 14 15 100 0.128129
1 14 15 100 0.00340762
2 14 15 100 0.00171799
3 14 15 100 0.0153011
4 14 15 100 0.01011
5 14 15 100 0.0256007
6 14 15 100 0.0475889
7 14 15 100 0.0346938
8 14 15 100 0.0478849
9 14 15 100 0.0486024
10 14 15 100 0.0618668
11 14 15 100 0.0819697
12 14 15 100 0.0969266
13 14 15 100 0.129909
14 14 15 100 0.117913
15 14 15 100 0.148378
0 15 15 100 0.173827
1 15 15 100 0.00598685
2 15 15 100 0.00402496
3 15 15 100 0.00209278
4 15 15 100 0.00811065
5 15 15 100 0.0210673
6 15 15 100 0.0137851
7 15 15 100 0.0435698
8 15 15 100 0.0363816
9 15 15 100 0.0558482
10 15 15 100 0.0597016
11 15 15 100 0.0656849
12 15 15 100 0.105492
13 15 15 100 0.109453
14 15 15 100 0.137103
15 15 15 100 0.157872
0 16 15 100 0.146702
1 16 15 100 0.010709
2 16 15 100 0.00258378
3 16 15 100 0.00956724
4 16 15 100 0.0180428
5 16 15 100 0.0155818
6 16 15 100 0.0102661
7 16 15 100 0.0308048
8 16 15 100 0.0350806
9 16 15 100 0.0540153
10 16 15 100 0.0894716
11 16 15 100 0.080434
12 16 15 100 0.0571433
13 16 15 100 0.101787
14 16 15 100 0.119819
15 16 15 100 0.217991
0 17 15 100 0.14808
1 17 15 100 0.0108415
2 17 15 100 0.00360717
3 17 15 100 0.0161361
4 17 15 100 0.0167731
5 17 15 100 0.0105435
6 17 15 100 0.00392946
7 17 15 100 0.0311905
8 17 15 100 0.0263139
9 17 15 100 0.0271512
10 17 15 100 0.0966824
11 17 15 100 0.0937798
12 17 15 100 0.0845693
13 17 15 100 0.0904334
14 17 15 100 0.136478
15 17 15 100 0.20349
0 18 15 100 0.189832
1 18 15 100 0.00462553
2 18 15 100 4.94492e-05
3 18 15 100 0.00467716
4 18 15 100 0.0279594
5 18 15 100 0.0233241
6 18 15 100 0.00479016
7 18 15 100 0.0320298
8 18 15 100 0.0237659
9 18 15 100 0.0229534
10 18 15 100 0.0510937
11 18 15 100 0.117122
12 18 15 100 0.106793
13 18 15 100 0.0792963
14 18 15 100 0.160858
15 18 15 100 0.150829
0 19 15 100 0.201572
1 19 15 100 0.0128144
2 19 15 100 0.00640926
4 19 15 100 0.0171655
5 19 15 100 0.0256663
6 19 15 100 0.0128152
7 19 15 100 0.00576136
8 19 15 100 0.0520064
9 19 15 100 0.0193676
10 19 15 100 0.0259729
11 19 15 100 0.064382
12 19 15 100 0.0705326
13 19 15 100 0.202916
14 19 15 100 0.107702
15 19 15 100 0.174917
0 20 15 100 0.120483
2 20 15 100 1.84512e-07
3 20 15 100 5.34571e-06
4 20 15 100 0.00917496
5 20 15 100 0.0183432
6 20 15 100 0.0183757
7 20 15 100 0.0183593
8 20 15 100 0.0290888
9 20 15 100 0.0367483
10 20 15 100 0.0584406
11 20 15 100 0.054699
12 20 15 100 0.0707832
13 20 15 100 0.0910754
14 20 15 100 0.264378
15 20 15 100 0.210045
0 21 15 100 0.168159
1 21 15 100 1.27371e-05
2 21 15 100 0.0131642
4 21 15 100 4.54436e-05
5 21 15 100 9.02924e-06
6 21 15 100 0.0014264
7 21 15 100 0.0156373
8 21 15 100 0.0370204
9 21 15 100 0.088185
10 21 15 100 0.0287017
11 21 15 100 0.106436
12 21 15 100 0.024191
13 21 15 100 0.109924
14 21 15 100 0.144658
15 21 15 100 0.262429
0 22 15 100 0.0836867
1 22 15 100 2.15353e-07
2 22 15 100 7.34007e-05
3 22 15 100 0.0370362
4 22 15 100 1.56136e-06
5 22 15 100 2.13371e-05
6 22 15 100 0.0370371
8 22 15 100 0.0185195
9 22 15 100 0.0370481
10 22 15 100 0.103328
11 22 15 100 0.0550128
12 22 15 100 0.0528287
13 22 15 100 0.0932992
14 22 15 100 0.149661
15 22 15 100 0.332447
0 23 15 100 0.051364
2 23 15 100 5.78595e-06
3 23 15 100 0.000142992
6 23 15 100 0.0322581
7 23 15 100 4.79798e-05
8 23 15 100 4.59872e-06
9 23 15 100 0.0322588
10 23 15 100 0.12494
11 23 15 100 0.0626529
12 23 15 100 0.0967743
13 23 15 100 0.128865
14 23 15 100 0.19406
15 23 15 100 0.276626
0 24 15 100 0.174056
4 24 15 100 5.90198e-05
7 24 15 100 5.32945e-05
8 24 15 100 7.64374e-05
9 24 15 100 0.00487903
10 24 15 100 0.176471
12 24 15 100 0.117697
14 24 15 100 0.0591391
15 24 15 100 0.46757
0 25 15 100 0.286379
1 25 15 100 0.142857
7 25 15 100 0.0171845
10 25 15 100 0.142857
11 25 15 100 0.28505
12 25 15 100 0.125672
0 26 15 100 0.154613
2 26 15 100 0.142749
7 26 15 100 0.123917
10 26 15 100 0.143603
11 26 15 100 0.142858
12 26 15 100 0.142953
13 26 15 100 0.142858
15 26 15 100 0.00645016
0 27 15 100 0.160935
3 27 15 100 0.166667
6 27 15 100 0.166667
10 27 15 100 0.166665
11 27 15 100 0.00572957
12 27 15 100 0.166669
13 27 15 100 0.166669
0 28 15 100 1
11 29 15 100 0.5
15 29 15 100 0.5
13 30 15 100 0.499999
14 30 15 100 0.500001
0 31 15 100 0.499667
7 31 15 100 0.000332394
14 31 15 100 0.5
0 32 15 100 0.000160045
7 32 15 100 0.00747036
10 32 15 100 6.74761e-06
15 32 15 100 0.992363
0 33 15 100 0.0528722
14 33 15 100 0.00163562
15 33 15 100 0.945492
0 34 15 100 1
15 35 15 100 1
0 1 16 100 0.129848
1 1 16 100 0.767172
2 1 16 100 0.0333368
3 1 16 100 0.0128875
4 1 16 100 0.00844259
5 1 16 100 0.00843169
6 1 16 100 0.00290356
7 1 16 100 0.0092708
8 1 16 100 0.00845488
9 1 16 100 0.00178819
10 1 16 100 5.18179e-05
11 1 16 100 0.00427157
12 1 16 100 0.00443278
13 1 16 100 0.00284024
14 1 16 100 0.00153817
15 1 16 100 2.32466e-06
16 1 16 100 0.00432672
0 2 16 100 0.106908
1 2 16 100 0.24482
2 2 16 100 0.382058
3 2 16 100 0.11807
4 2 16 100 0.0276775
5 2 16 100 0.0309496
6 2 16 100 0.0186087
7 2 16 100 0.00676468
8 2 16 100 0.0160956
9 2 16 100 0.00441944
10 2 16 100 0.00817163
11 2 16 100 0.00738746
12 2 16 100 0.0044062
13 2 16 100 0.00866413
14 2 16 100 0.00534076
15 2 16 100 0.00140308
16 2 16 100 0.00825447
0 3 16 100 0.119929
1 3 16 100 0.0567847
2 3 16 100 0.226715
3 3 16 100 0.271326
4 3 16 100 0.119017
5 3 16 100 0.0358164
6 3 16 100 0.0343195
7 3 16 100 0.0319964
8 3 16 100 0.00850437
9 3 16 100 0.0212839
10 3 16 100 0.0104386
11 3 16 100 0.0101025
12 3 16 100 0.00888816
13 3 16 100 0.0108761
14 3 16 100 0.0109138
15 3 16 100 0.0123775
16 3 16 100 0.0107108
0 4 16 100 0.132224
1 4 16 100 0.0353766
2 4 16 100 0.094549
3 4 16 100 0.178968
4 4 16 100 0.231422
5 4 16 100 0.10823
6 4 16 100 0.0471917
7 4 16 100 0.0422942
8 4 16 100 0.0251667
9 4 16 100 0.0157506
10 4 16 100 0.0207853
11 4 16 100 0.0131023
12 4 16 100 0.00834584
13 4 16 100 0.00278742
14 4 16 100 0.0117301
15 4 16 100 0.0136614
16 4 16 100 0.0184155
0 5 16 100 0.161468
1 5 16 100 0.0271391
2 5 16 100 0.0448814
3 5 16 100 0.106325
4 5 16 100 0.152454
5 5 16 100 0.21249
6 5 16 100 0.107932
7 5 16 100 0.0467245
8 5 16 100 0.0279251
9 5 16 100 0.017416
10 5 16 100 0.0126002
11 5 16 100 0.00965448
12 5 16 100 0.013354
13 5 16 100 0.015275
14 5 16 100 0.00218712
15 5 16 100 0.0225621
16 5 16 100 0.0196114
0 6 16 100 0.1618
1 6 16 100 0.0279509
2 6 16 100 0.0308197
3 6 16 100 0.0547398
4 6 16 100 0.105311
5 6 16 100 0.143903
6 6 16 100 0.15443
7 6 16 100 0.110419
8 6 16 100 0.0591464
9 6 16 100 0.0322845
10 6 16 100 0.0212463
11 6 16 100 0.0148221
12 6 16 100 0.0127426
13 6 16 100 0.0125783
14 6 16 100 0.0127355
15 6 16 100 0.0167209
16 6 16 100 0.02835
0 7 16 100 0.152773
1 7 16 100 0.0133174
2 7 16 100 0.0253825
3 7 16 100 0.0312598
4 7 16 100 0.0538529
5 7 16 100 0.108282
6 7 16 100 0.122812
7 7 16 100 0.164511
8 7 16 100 0.0974606
9 7 16 100 0.0610027
10 7 16 100 0.0319486
11 7 16 100 0.020895
12 7 16 100 0.0214093
13 7 16 100 0.0172704
14 7 16 100 0.029669
15 7 16 100 0.0186411
16 7 16 100 0.0295129
0 8 16 100 0.155398
1 8 16 100 0.0159247
2 8 16 100 0.0178153
3 8 16 100 0.0347121
4 8 16 100 0.0448857
5 8 16 100 0.0652447
6 8 16 100 0.0921153
7 8 16 100 0.117149
8 8 16 100 0.130766
9 8 16 100 0.097233
10 8 16 100 0.0604382
11 8 16 100 0.0288151
12 8 16 100 0.0296205
13 8 16 100 0.0182975
14 8 16 100 0.0281443
15 8 16 100 0.0248332
16 8 16 100 0.038607
0 9 16 100 0.166077
1 9 16 100 0.0209276
2 9 16 100 0.0112135
3 9 16 100 0.0226247
4 9 16 100 0.0434223
5 9 16 100 0.033557
6 9 16 100 0.0707161
7 9 16 100 0.0835028
8 9 16 100 0.123839
9 9 16 100 0.109199
10 9 16 100 0.0936336
11 9 16 100 0.0674361
12 9 16 100 0.0328919
13 9 16 100 0.0263922
14 9 16 100 0.0197093
15 9 16 100 0.0218979
16 9 16 100 0.0529608
0 10 16 100 0.152861
1 10 16 100 0.0149969
2 10 16 100 0.00827085
3 10 16 100 0.0195472
4 10 16 100 0.0151891
5 10 16 100 0.039211
6 10 16 100 0.0481806
7 10 16 100 0.0613294
8 10 16 100 0.0987276
9 10 16 100 0.0950492
10 10 16 100 0.131138
11 10 16 100 0.101224
12 10 16 100 0.0558529
13 10 16 100 0.0414951
14 10 16 100 0.0320678
15 10 16 100 0.036567
16 10 16 100 0.0482924
0 11 16 100 0.140148
1 11 16 100 0.00874979
2 11 16 100 0.0129074
3 11 16 100 0.0141771
4 11 16 100 0.010057
5 11 16 100 0.0231341
6 11 16 100 0.0431835
7 11 16 100 0.0432175
8 11 16 100 0.074118
9 11 16 100 0.0915388
10 11 16 100 0.103432
11 11 16 100 0.113699
12 11 16 100 0.104625
13 11 16 100 0.0552615
14 11 16 100 0.0403789
15 11 16 100 0.0459946
16 11 16 100 0.0753774
0 12 16 100 0.145991
1 12 16 100 0.0120495
2 12 16 100 0.0102666
3 12 16 100 0.0191716
4 12 16 100 0.0152319
5 12 16 100 0.0167739
6 12 16 100 0.0388432
7 12 16 100 0.0391001
8 12 16 100 0.0491954
9 12 16 100 0.0879
10 12 16 100 0.0869923
11 12 16 100 0.105323
12 12 16 100 0.122374
13 12 16 100 0.088616
14 12 16 100 0.0580315
15 12 16 100 0.0514326
16 12 16 100 0.0527067
0 13 16 100 0.152301
1 13 16 100 0.00662615
2 13 16 100 0.00758243
3 13 16 100 0.00490665
4 13 16 100 0.0104822
5 13 16 100 0.0171488
6 13 16 100 0.0262902
7 13 16 100 0.0334145
8 13 16 100 0.0402344
9 13 16 100 0.0742549
10 13 16 100 0.0822788
11 13 16 100 0.0942479
12 13 16 100 0.11172
13 13 16 100 0.115366
14 13 16 100 0.0916984
15 13 16 100 0.0568665
16 13 16 100 0.0745816
0 14 16 100 0.162771
1 14 16 100 0.0129649
2 14 16 100 0.00812195
3 14 16 100 0.0033054
4 14 16 100 0.0060491
5 14 16 100 0.0146771
6 14 16 100 0.0177439
7 14 16 100 0.0209853
8 14 16 100 0.0324727
9 14 16 100 0.047033
10 14 16 100 0.0613456
11 14 16 100 0.0777446
12 14 16 100 0.102783
13 14 16 100 0.116216
14 14 16 100 0.132773
15 14 16 100 0.0857139
16 14 16 100 0.0972993
0 15 16 100 0.162955
1 15 16 100 0.0100368
2 15 16 100 0.00523175
3 15 16 100 0.00658872
4 15 16 100 0.00391178
5 15 16 100 0.0156956
6 15 16 100 0.0123015
7 15 16 100 0.0210352
8 15 16 100 0.0231231
9 15 16 100 0.025554
10 15 16 100 0.0493565
11 15 16 100 0.0719494
12 15 16 100 0.100901
13 15 16 100 0.110091
14 15 16 100 0.109114
15 15 16 100 0.125597
16 15 16 100 0.146558
0 16 16 100 0.140097
1 16 16 100 0.00207618
2 16 16 100 0.00839312
3 16 16 100 0.00682348
4 16 16 100 0.0108103
5 16 16 100 0.0117326
6 16 16 100 0.0147085
7 16 16 100 0.0234134
8 16 16 100 0.0399165
9 16 16 100 0.0347785
10 16 16 100 0.0486879
11 16 16 100 0.0644675
12 16 16 100 0.0717334
13 16 16 100 0.0966206
14 16 16 100 0.126533
15 16 16 100 0.111114
16 16 16 100 0.188093
0 17 16 100 0.163155
1 17 16 100 0.0175779
2 17 16 100 0.003572
3 17 16 100 0.010712
4 17 16 100 8.57181e-05
5 17 16 100 0.0107777
6 17 16 100 0.0160535
7 17 16 100 0.0216414
8 17 16 100 0.0291438
9 17 16 100 0.0354177
10 17 16 100 0.0492215
11 17 16 100 0.0537283
12 17 16 100 0.0971908
13 17 16 100 0.100028
14 17 16 100 0.0921766
15 17 16 100 0.136446
16 17 16 100 0.163073
0 18 16 100 0.207415
1 18 16 100 0.01058
2 18 16 100 0.00704408
3 18 16 100 0.00353771
4 18 16 100 0.00355955
5 18 16 100 0.00353509
6 18 16 100 0.00352967
7 18 16 100 0.018486
8 18 16 100 0.0353884
9 18 16 100 0.0459311
10 18 16 100 0.0596258
11 18 16 100 0.066316
12 18 16 100 0.084517
13 18 16 100 0.0669248
14 18 16 100 0.122089
15 18 16 100 0.0972302
16 18 16 100 0.16429
0 19 16 100 0.161757
1 19 16 100 0.004903
2 19 16 100 0.00955893
3 19 16 100 0.00495112
4 19 16 100 0.0141336
5 19 16 100 0.0145013
6 19 16 100 0.00486062
7 19 16 100 0.0177634
8 19 16 100 0.0150024
9 19 16 100 0.0385843
10 19 16 100 0.0584061
11 19 16 100 0.0636295
12 19 16 100 0.106366
13 19 16 100 0.0703684
14 19 16 100 0.120505
15 19 16 100 0.16993
16 19 16 100 0.124779
0 20 16 100 0.13103
1 20 16 100 0.0064539
2 20 16 100 0.00604246
3 20 16 100 0.00015234
4 20 16 100 0.00670482
5 20 16 100 0.0193741
6 20 16 100 0.0128888
7 20 16 100 2.26613e-05
8 20 16 100 0.0324387
9 20 16 100 0.046465
10 20 16 100 0.0497441
11 20 16 100 0.0822036
12 20 16 100 0.0838308
13 20 16 100 0.103663
14 20 16 100 0.0919625
15 20 16 100 0.109333
16 20 16 100 0.21769
0 21 16 100 0.125982
1 21 16 100 3.70154e-05
2 21 16 100 0.00984129
3 21 16 100 2.25272e-05
4 21 16 100 0.00988335
5 21 16 100 0.0173842
6 21 16 100 0.0221768
7 21 16 100 0.0110639
8 21 16 100 0.0298809
9 21 16 100 0.0366397
10 21 16 100 0.0273361
11 21 16 100 0.0652232
12 21 16 100 0.0501362
13 21 16 100 0.107989
14 21 16 100 0.15461
15 21 16 100 0.137024
16 21 16 100 0.19477
0 22 16 100 0.195994
1 22 16 100 0.0161987
2 22 16 100 0.000105868
3 22 16 100 1.05934e-06
4 22 16 100 0.0161294
5 22 16 100 7.37117e-06
6 22 16 100 0.0161332
7 22 16 100 0.0166473
8 22 16 100 1.19986e-06
9 22 16 100 0.0972525
10 22 16 100 1.40154e-05
11 22 16 100 0.0484685
12 22 16 100 0.0167512
13 22 16 100 0.113136
14 22 16 100 0.109901
15 22 16 100 0.128158
16 22 16 100 0.225102
0 23 16 100 0.157585
2 23 16 100 1.23139e-05
3 23 16 100 0.025
4 23 16 100 2.53399e-06
5 23 16 100 2.62237e-07
6 23 16 100 0.0500451
7 23 16 100 0.0490608
8 23 16 100 0.000104895
9 23 16 100 0.081126
10 23 16 100 0.0935664
11 23 16 100 0.0246107
12 23 16 100 0.0220882
13 23 16 100 0.0748852
14 23 16 100 0.174773
15 23 16 100 0.10128
16 23 16 100 0.145859
0 24 16 100 0.0326064
2 24 16 100 2.78798e-06
3 24 16 100 0.031752
4 24 16 100 0.000191245
6 24 16 100 5.85904e-05
7 24 16 100 0.0305556
8 24 16 100 0.062498
9 24 16 100 1.88294e-06
10 24 16 100 0.0312501
11 24 16 100 0.0625267
12 24 16 100 0.0624922
13 24 16 100 0.062472
14 24 16 100 0.250029
15 24 16 100 0.0625018
16 24 16 100 0.311061
0 25 16 100 0.25281
4 25 16 100 0.0668589
5 25 16 100 1.13495e-06
6 25 16 100 0.000244946
7 25 16 100 1.38831e-05
12 25 16 100 0.0135451
13 25 16 100 0.133333
14 25 16 100 0.199996
15 25 16 100 0.0670831
16 25 16 100 0.266114
0 26 16 100 0.0920902
4 26 16 100 0.0912118
6 26 16 100 5.80398e-06
8 26 16 100 1.05233e-06
10 26 16 100 0.0909088
13 26 16 100 0.272671
14 26 16 100 0.0909089
15 26 16 100 0.090909
16 26 16 100 0.271293
0 27 16 100 0.142185
4 27 16 100 0.142857
12 27 16 100 0.143533
13 27 16 100 0.142857
15 27 16 100 0.142857
16 27 16 100 0.28571
0 28 16 100 0.249156
4 28 16 100 0.499977
6 28 16 100 1.75048e-05
12 28 16 100 2.18992e-05
13 28 16 100 0.000844409
16 28 16 100 0.249983
0 29 16 100 0.00117603
3 29 16 100 0.0323883
13 29 16 100 6.61305e-06
14 29 16 100 0.966429
0 1 17 100 0.145868
1 1 17 100 0.7523
2 1 17 100 0.0295538
3 1 17 100 0.00992079
4 1 17 100 0.0173529
5 1 17 100 0.0121142
6 1 17 100 0.00831203
7 1 17 100 0.0101765
8 1 17 100 0.00175763
9 1 17 100 0.00179547
10 1 17 100 0.000330526
12 1 17 100 2.85992e-06
13 1 17 100 2.2532e-05
14 1 17 100 0.00521754
15 1 17 100 1.72417e-05
16 1 17 100 5.41733e-07
17 1 17 100 0.00525773
0 2 17 100 0.127871
1 2 17 100 0.238723
2 2 17 100 0.392245
3 2 17 100 0.123812
4 2 17 100 0.0211902
5 2 17 100 0.0224756
6 2 17 100 0.0191945
7 2 17 100 0.00847924
8 2 17 100 0.0119139
9 2 17 100 0.00823137
10 2 17 100 0.00174461
11 2 17 100 8.24072e-05
12 2 17 100 0.00693818
13 2 17 100 0.00517899
14 2 17 100 0.00350617
15 2 17 100 0.00203053
16 2 17 100 0.00294802
17 2 17 100 0.00343528
0 3 17 100 0.153058
1 3 17 100 0.0544656
2 3 17 100 0.233197
3 3 17 100 0.291464
4 3 17 100 0.116661
5 3 17 100 0.0362102
6 3 17 100 0.0247899
7 3 17 100 0.0163766
8 3 17 100 0.00960132
9 3 17 100 0.0102674
10 3 17 100 0.0140483
11 3 17 100 0.0100441
12 3 17 100 0.00478875
13 3 17 100 0.00182112
14 3 17 100 0.0053126
15 3 17 100 0.010016
16 3 17 100 0.00441895
17 3 17 100 0.00345902
0 4 17 100 0.129705
1 4 17 100 0.0279941
2 4 17 100 0.0903023
3 4 17 100 0.208911
4 4 17 100 0.212704
5 4 17 100 0.130263
6 4 17 100 0.0411002
7 4 17 100 0.039803
8 4 17 100 0.0283555
9 4 17 100 0.0205647
10 4 17 100 0.00532323
11 4 17 100 0.010601
12 4 17 100 0.00699437
13 4 17 100 0.00524065
14 4 17 100 0.0104033
15 4 17 100 0.00499408
16 4 17 100 0.00699504
17 4 17 100 0.0197463
0 5 17 100 0.155184
1 5 17 100 0.0185354
2 5 17 100 0.0459804
3 5 17 100 0.0936499
4 5 17 100 0.180659
5 5 17 100 0.199989
6 5 17 100 0.107588
7 5 17 100 0.0443103
8 5 17 100 0.0302861
9 5 17 100 0.0193086
10 5 17 100 0.0138058
11 5 17 100 0.0176374
12 5 17 100 0.0187408
13 5 17 100 0.0106233
14 5 17 100 0.0105103
15 5 17 100 0.00850461
16 5 17 100 0.00900737
17 5 17 100 0.0156808
0 6 17 100 0.176463
1 6 17 100 0.0159805
2 6 17 100 0.0349994
3 6 17 100 0.0375382
4 6 17 100 0.104607
5 6 17 100 0.14459
6 6 17 100 0.181904
7 6 17 100 0.101179
8 6 17 100 0.048057
9 6 17 100 0.0280104
10 6 17 100 0.0233725
11 6 17 100 0.0204293
12 6 17 100 0.0162995
13 6 17 100 0.0157665
14 6 17 100 0.0124795
15 6 17 100 0.00542746
16 6 17 100 0.0108525
17 6 17 100 0.0220449
0 7 17 100 0.159874
1 7 17 100 0.00865877
2 7 17 100 0.0271727
3 7 17 100 0.0487511
4 7 17 100 0.0601138
5 7 17 100 0.104601
6 7 17 100 0.143015
7 7 17 100 0.156999
8 7 17 100 0.0912141
9 7 17 100 0.0402342
10 7 17 100 0.0394166
11 7 17 100 0.0211298
12 7 17 100 0.0231234
13 7 17 100 0.011132
14 7 17 100 0.010416
15 7 17 100 0.010187
16 7 17 100 0.0227922
17 7 17 100 0.0211695
0 8 17 100 0.159971
1 8 17 100 0.00691311
2 8 17 100 0.0222925
3 8 17 100 0.0376224
4 8 17 100 0.0385958
5 8 17 100 0.0739954
6 8 17 100 0.0883725
7 8 17 100 0.118545
8 8 17 100 0.137788
9 8 17 100 0.091427
10 8 17 100 0.048675
11 8 17 100 0.0472346
12 8 17 100 0.022132
13 8 17 100 0.0104509
14 8 17 100 0.0201826
15 8 17 100 0.0190609
16 8 17 100 0.0238356
17 8 17 100 0.0329062
0 9 17 100 0.153301
1 9 17 100 0.0161021
2 9 17 100 0.0141273
3 9 17 100 0.0198326
4 9 17 100 0.0413603
5 9 17 100 0.0346508
6 9 17 100 0.0642045
7 9 17 100 0.0838933
8 9 17 100 0.120315
9 9 17 100 0.137708
10 9 17 100 0.0990088
11 9 17 100 0.0559579
12 9 17 100 0.0323746
13 9 17 100 0.0202953
14 9 17 100 0.0312368
15 9 17 100 0.0151893
16 9 17 100 0.0245099
17 9 17 100 0.0359327
0 10 17 100 0.187414
1 10 17 100 0.0144112
2 10 17 100 0.0177653
3 10 17 100 0.0129506
4 10 17 100 0.0265444
5 10 17 100 0.0230874
6 10 17 100 0.0517087
7 10 17 100 0.0701186
8 10 17 100 0.0932222
9 10 17 100 0.0979113
10 10 17 100 0.108565
11 10 17 100 0.100705
12 10 17 100 0.0663031
13 10 17 100 0.0231187
14 10 17 100 0.0241711
15 10 17 100 0.0248398
16 10 17 100 0.0162909
17 10 17 100 0.0408726
0 11 17 100 0.168395
1 11 17 100 0.00741604
2 11 17 100 0.0151455
3 11 17 100 0.0102023
4 11 17 100 0.0233768
5 11 17 100 0.0288877
6 11 17 100 0.0364889
7 11 17 100 0.0500293
8 11 17 100 0.072605
9 11 17 100 0.0722691
10 11 17 100 0.0829176
11 11 17 100 0.137259
12 11 17 100 0.0927901
13 11 17 100 0.0502205
14 11 17 100 0.0349405
15 11 17 100 0.0320243
16 11 17 100 0.0406748
17 11 17 100 0.0443575
0 12 17 100 0.13137
1 12 17 100 0.00904105
2 12 17 100 0.0052329
3 12 17 100 0.0151114
4 12 17 100 0.0194608
5 12 17 100 0.0235067
6 12 17 100 0.035814
7 12 17 100 0.040711
8 12 17 100 0.0467314
9 12 17 100 0.0630501
10 12 17 100 0.104519
11 12 17 100 0.0801357
12 12 17 100 0.146863
13 12 17 100 0.0892861
14 12 17 100 0.0582715
15 12 17 100 0.0410852
16 12 17 100 0.0388902
17 12 17 100 0.0509203
0 13 17 100 0.168364
1 13 17 100 0.0127569
2 13 17 100 0.00694849
3 13 17 100 0.00561811
4 13 17 100 0.0108584
5 13 17 100 0.0090963
6 13 17 100 0.0217617
7 13 17 100 0.036652
8 13 17 100 0.0340569
9 13 17 100 0.0549911
10 13 17 100 0.0606433
11 13 17 100 0.0997473
12 13 17 100 0.0963238
13 13 17 100 0.128578
14 13 17 100 0.0943868
15 13 17 100 0.0657455
16 13 17 100 0.0397257
17 13 17 100 0.053746
0 14 17 100 0.159357
1 14 17 100 0.00743751
2 14 17 100 0.00744702
3 14 17 100 0.00344186
4 14 17 100 0.010688
5 14 17 100 0.0111957
6 14 17 100 0.0165262
7 14 17 100 0.0149437
8 14 17 100 0.0366471
9 14 17 100 0.0413945
10 14 17 100 0.044568
11 14 17 100 0.0860583
12 14 17 100 0.098109
13 14 17 100 0.10155
14 14 17 100 0.130438
15 14 17 100 0.104954
16 14 17 100 0.0567639
17 14 17 100 0.0684809
0 15 17 100 0.134474
1 15 17 100 0.00629411
2 15 17 100 0.00391194
3 15 17 100 0.00584097
4 15 17 100 0.0057935
5 15 17 100 0.00762797
6 15 17 100 0.0217914
7 15 17 100 0.0211889
8 15 17 100 0.0321314
9 15 17 100 0.0340231
10 15 17 100 0.0378235
11 15 17 100 0.0649455
12 15 17 100 0.096354
13 15 17 100 0.122051
14 15 17 100 0.0883299
15 15 17 100 0.137435
16 15 17 100 0.0901358
17 15 17 100 0.0898474
0 16 17 100 0.148179
1 16 17 100 0.0107707
2 16 17 100 0.00633058
3 16 17 100 0.00211725
4 16 17 100 0.00633514
5 16 17 100 0.00845817
6 16 17 100 0.0167867
7 16 17 100 0.00644783
8 16 17 100 0.0190263
9 16 17 100 0.037895
10 16 17 100 0.0468396
11 16 17 100 0.0482973
12 16 17 100 0.060806
13 16 17 100 0.0933777
14 16 17 100 0.124151
15 16 17 100 0.0937882
16 16 17 100 0.143454
17 16 17 100 0.12694
0 17 17 100 0.166822
1 17 17 100 0.0100199
2 17 17 100 0.00025591
3 17 17 100 0.00504661
4 17 17 100 0.0102949
5 17 17 100 0.00499309
6 17 17 100 0.0167847
7 17 17 100 0.0115063
8 17 17 100 0.0238495
9 17 17 100 0.026263
10 17 17 100 0.0416984
11 17 17 100 0.0575481
12 17 17 100 0.0619246
13 17 17 100 0.0679362
14 17 17 100 0.101154
15 17 17 100 0.102024
16 17 17 100 0.128128
17 17 17 100 0.163752
0 18 17 100 0.181477
1 18 17 100 0.00315602
2 18 17 100 0.00561245
3 18 17 100 0.00625405
4 18 17 100 0.0031581
5 18 17 100 0.0127478
6 18 17 100 0.00331564
7 18 17 100 0.00330501
8 18 17 100 0.0308618
9 18 17 100 0.0191938
10 18 17 100 0.0587477
11 18 17 100 0.0502241
12 18 17 100 0.0895455
13 18 17 100 0.053499
14 18 17 100 0.104586
15 18 17 100 0.0996349
16 18 17 100 0.109573
17 18 17 100 0.165108
0 19 17 100 0.126462
1 19 17 100 0.00397082
2 19 17 100 9.8223e-07
3 19 17 100 0.00397496
4 19 17 100 0.00399101
5 19 17 100 0.0039574
6 19 17 100 0.0225432
7 19 17 100 0.00787569
8 19 17 100 0.015924
9 19 17 100 0.0362497
10 19 17 100 0.0354423
11 19 17 100 0.0424064
12 19 17 100 0.0823752
13 19 17 100 0.0894104
14 19 17 100 0.102721
15 19 17 100 0.133558
16 19 17 100 0.115149
17 19 17 100 0.173987
0 20 17 100 0.175807
1 20 17 100 0.00550861
2 20 17 100 0.0057698
3 20 17 100 0.0055866
4 20 17 100 0.00542243
5 20 17 100 0.0160847
6 20 17 100 0.00625951
7 20 17 100 0.0119105
8 20 17 100 0.0215019
9 20 17 100 0.0295726
10 20 17 100 0.0390898
11 20 17 100 0.0499016
12 20 17 100 0.0296805
13 20 17 100 0.0988109
14 20 17 100 0.0726776
15 20 17 100 0.0984249
16 20 17 100 0.147918
17 20 17 100 0.180073
0 21 17 100 0.160181
1 21 17 100 3.97234e-05
2 21 17 100 0.015622
3 21 17 100 1.22621e-06
4 21 17 100 0.00775249
5 21 17 100 0.0158934
6 21 17 100 0.0303076
7 21 17 100 0.0312968
8 21 17 100 0.0246855
9 21 17 100 0.0152294
10 21 17 100 0.023698
11 21 17 100 0.0563701
12 21 17 100 0.107352
13 21 17 100 0.0860897
14 21 17 100 0.0850541
15 21 17 100 0.117788
16 21 17 100 0.0837796
17 21 17 100 0.13886
0 22 17 100 0.177353
1 22 17 100 0.00991092
2 22 17 100 0.010996
3 22 17 100 1.55589e-07
5 22 17 100 5.87127e-06
6 22 17 100 0.000238164
7 22 17 100 0.000973622
8 22 17 100 0.0219947
9 22 17 100 0.0659034
10 22 17 100 0.0330044
11 22 17 100 0.0115163
12 22 17 100 0.0856381
13 22 17 100 0.13095
14 22 17 100 0.0763346
15 22 17 100 0.0997508
16 22 17 100 0.0876489
17 22 17 100 0.187781
0 23 17 100 0.169775
1 23 17 100 0.00101393
2 23 17 100 0.0158402
3 23 17 100 5.28364e-07
4 23 17 100 6.88529e-07
6 23 17 100 0.0169578
7 23 17 100 0.0169492
8 23 17 100 0.00343204
9 23 17 100 0.0508475
10 23 17 100 0.0647844
11 23 17 100 0.016961
12 23 17 100 0.0479238
13 23 17 100 0.0649756
14 23 17 100 0.15794
15 23 17 100 0.169157
16 23 17 100 0.0343063
17 23 17 100 0.169135
0 24 17 100 0.0728984
1 24 17 100 4.80637e-06
2 24 17 100 5.95155e-07
3 24 17 100 3.21602e-07
4 24 17 100 3.23256e-07
6 24 17 100 0.0243809
7 24 17 100 1.91796e-05
8 24 17 100 0.0706031
9 24 17 100 3.91732e-05
10 24 17 100 0.0488656
11 24 17 100 0.0983137
12 24 17 100 0.0243902
13 24 17 100 0.0929269
14 24 17 100 0.105936
15 24 17 100 0.0865282
16 24 17 100 0.107786
17 24 17 100 0.267307
0 25 17 100 0.212212
1 25 17 100 1.72922e-05
5 25 17 100 2.0927e-06
6 25 17 100 0.00014884
8 25 17 100 0.000111023
9 25 17 100 0.0357143
10 25 17 100 4.63209e-07
11 25 17 100 1.76233e-05
12 25 17 100 0.0357213
13 25 17 100 0.0714791
14 25 17 100 0.146325
15 25 17 100 0.0718115
16 25 17 100 0.10543
17 25 17 100 0.32101
0 26 17 100 0.25999
3 26 17 100 1.15829e-06
5 26 17 100 7.6681e-05
8 26 17 100 0.000863666
9 26 17 100 7.04572e-06
10 26 17 100 0.00292167
11 26 17 100 0.105375
12 26 17 100 0.105263
13 26 17 100 0.159404
14 26 17 100 0.0528157
15 26 17 100 0.0526317
16 26 17 100 0.156642
17 26 17 100 0.104009
0 27 17 100 0.167667
8 27 17 100 6.61789e-05
11 27 17 100 0.0785078
13 27 17 100 0.215054
14 27 17 100 0.0769229
15 27 17 100 0.307626
16 27 17 100 0.000311058
17 27 17 100 0.153845
0 28 17 100 0.374501
3 28 17 100 3.74753e-06
6 28 17 100 0.000310291
7 28 17 100 0.000161145
8 28 17 100 0.125
10 28 17 100 2.44122e-05
12 28 17 100 0.125
15 28 17 100 1.84622e-06
16 28 17 100 0.249997
17 28 17 100 0.125
6 29 17 100 0.198862
9 29 17 100 0.00113817
12 29 17 100 0.2
13 29 17 100 0.2
16 29 17 100 0.4
0 30 17 100 7.38593e-05
6 30 17 100 0.333333
11 30 17 100 0.000102269
12 30 17 100 0.333333
17 30 17 100 0.333157
12 31 17 100 0.333333
15 31 17 100 2.37341e-05
17 31 17 100 0.666643
0 32 17 100 0.49559
12 32 17 100 0.5
17 32 17 100 0.00441013
0 33 17 100 0.500838
8 33 17 100 0.0242749
17 33 17 100 0.474887
0 34 17 100 1.60122e-05
15 34 17 100 0.999984
0 35 17 100 0.00272299
16 35 17 100 0.997277
15 36 17 100 1
0 37 17 100 0.000646569
15 37 17 100 0.999353
15 38 17 100 1
15 39 17 100 1
0 1 18 100 0.133043
1 1 18 100 0.774686
2 1 18 100 0.0296698
3 1 18 100 0.00746094
4 1 18 100 0.011272
5 1 18 100 0.0078988
6 1 18 100 0.0100403
7 1 18 100 0.00881944
8 1 18 100 0.00201683
9 1 18 100 0.00189191
10 1 18 100 7.3836e-05
11 1 18 100 0.00361843
12 1 18 100 1.4897e-06
13 1 18 100 0.00189059
14 1 18 100 1.73885e-05
15 1 18 100 0.0019308
16 1 18 100 0.00377593
17 1 18 100 0.00189085
18 1 18 100 2.23763e-06
0 2 18 100 0.122739
1 2 18 100 0.228276
2 2 18 100 0.396946
3 2 18 100 0.0986816
4 2 18 100 0.0224102
5 2 18 100 0.0248774
6 2 18 100 0.022173
7 2 18 100 0.0152642
8 2 18 100 0.00755969
9 2 18 100 0.00939112
10 2 18 100 0.00959586
11 2 18 100 0.00570361
12 2 18 100 0.00594674
13 2 18 100 0.00576515
14 2 18 100 0.00372058
15 2 18 100 0.00379615
16 2 18 100 0.00379982
17 2 18 100 0.00384149
18 2 18 100 0.00951192
0 3 18 100 0.141136
1 3 18 100 0.0706515
2 3 18 100 0.205324
3 3 18 100 0.273208
4 3 18 100 0.109649
5 3 18 100 0.0436997
6 3 18 100 0.0287465
7 3 18 100 0.0246028
8 3 18 100 0.0230671
9 3 18 100 0.00753488
10 3 18 100 0.00837769
11 3 18 100 0.0110249
12 3 18 100 0.00960356
13 3 18 100 0.00586311
14 3 18 100 0.00380089
15 3 18 100 0.0113754
16 3 18 100 0.0075838
17 3 18 100 0.00208971
18 3 18 100 0.0126611
0 4 18 100 0.14796
1 4 18 100 0.0402322
2 4 18 100 0.0934449
3 4 18 100 0.14948
4 4 18 100 0.234179
5 4 18 100 0.110991
6 4 18 100 0.0528739
7 4 18 100 0.040501
8 4 18 100 0.0129815
9 4 18 100 0.0207483
10 4 18 100 0.0081044
11 4 18 100 0.0206403
12 4 18 100 0.00968659
13 4 18 100 0.0112117
14 4 18 100 0.00248955
15 4 18 100 0.0112728
16 4 18 100 0.00977441
17 4 18 100 0.00975808
18 4 18 100 0.01367
0 5 18 100 0.137727
1 5 18 100 0.0321989
2 5 18 100 0.0537104
3 5 18 100 0.108786
4 5 18 100 0.126573
5 5 18 100 0.206982
6 5 18 100 0.109704
7 5 18 100 0.0436097
8 5 18 100 0.0207249
9 5 18 100 0.0316156
10 5 18 100 0.0284088
11 5 18 100 0.016971
12 5 18 100 0.0159912
13 5 18 100 0.0146866
14 5 18 100 0.00391289
15 5 18 100 0.00505806
16 5 18 100 0.0112732
17 5 18 100 0.0113869
18 5 18 100 0.0206798
0 6 18 100 0.161734
1 6 18 100 0.0257814
2 6 18 100 0.0364412
3 6 18 100 0.0613569
4 6 18 100 0.10499
5 6 18 100 0.110008
6 6 18 100 0.189912
7 6 18 100 0.0693622
8 6 18 100 0.0448396
9 6 18 100 0.0358349
10 6 18 100 0.0378909
11 6 18 100 0.0229751
12 6 18 100 0.0194575
13 6 18 100 0.0142008
14 6 18 100 0.00396523
15 6 18 100 0.011312
16 6 18 100 0.0155663
17 6 18 100 0.00770862
18 6 18 100 0.0266633
0 7 18 100 0.158859
1 7 18 100 0.0193783
2 7 18 100 0.0317228
3 7 18 100 0.0386397
4 7 18 100 0.0818341
5 7 18 100 0.0785402
6 7 18 100 0.110798
7 7 18 100 0.153261
8 7 18 100 0.0696263
9 7 18 100 0.0723849
10 7 18 100 0.0250882
11 7 18 100 0.0305846
12 7 18 100 0.0229583
13 7 18 100 0.0187518
14 7 18 100 0.0145305
15 7 18 100 0.00856754
16 7 18 100 0.0216318
17 7 18 100 0.00766694
18 7 18 100 0.0351767
0 8 18 100 0.152063
1 8 18 100 0.0116811
2 8 18 100 0.0244664
3 8 18 100 0.0454618
4 8 18 100 0.0431896
5 8 18 100 0.0867866
6 8 18 100 0.0882672
7 8 18 100 0.0958931
8 8 18 100 0.124937
9 8 18 100 0.0879458
10 8 18 100 0.0370378
11 8 18 100 0.0361115
12 8 18 100 0.022995
13 8 18 100 0.0288431
14 8 18 100 0.0198041
15 8 18 100 0.0131399
16 8 18 100 0.0172482
17 8 18 100 0.0339703
18 8 18 100 0.0301578
0 9 18 100 0.15173
1 9 18 100 0.0187445
2 9 18 100 0.0226094
3 9 18 100 0.0355539
4 9 18 100 0.0253753
5 9 18 100 0.0434279
6 9 18 100 0.0705068
7 9 18 100 0.0926146
8 9 18 100 0.0654339
9 9 18 100 0.132764
10 9 18 100 0.0873992
11 9 18 100 0.0549433
12 9 18 100 0.0510809
13 9 18 100 0.02968
14 9 18 100 0.0194239
15 9 18 100 0.0215943
16 9 18 100 0.024607
17 9 18 100 0.0230364
18 9 18 100 0.029474
0 10 18 100 0.191487
1 10 18 100 0.00761502
2 10 18 100 0.0191712
3 10 18 100 0.0312008
4 10 18 100 0.0263297
5 10 18 100 0.0254897
6 10 18 100 0.0499903
7 10 18 100 0.071543
8 10 18 100 0.0830175
9 10 18 100 0.0660094
10 10 18 100 0.1015
11 10 18 100 0.093613
12 10 18 100 0.0445735
13 10 18 100 0.0463172
14 10 18 100 0.0352572
15 10 18 100 0.0231198
16 10 18 100 0.0251969
17 10 18 100 0.0306876
18 10 18 100 0.0278811
0 11 18 100 0.146793
1 11 18 100 0.0135139
2 11 18 100 0.00775703
3 11 18 100 0.0269912
4 11 18 100 0.0195955
5 11 18 100 0.0360598
6 11 18 100 0.0286957
7 11 18 100 0.0501539
8 11 18 100 0.0729788
9 11 18 100 0.0983678
10 11 18 100 0.046616
11 11 18 100 0.113859
12 11 18 100 0.0870663
13 11 18 100 0.0658201
14 11 18 100 0.0402196
15 11 18 100 0.0462214
16 11 18 100 0.0406069
17 11 18 100 0.0273095
18 11 18 100 0.0313745
0 12 18 100 0.146041
1 12 18 100 0.0126255
2 12 18 100 0.00374176
3 12 18 100 0.0116389
4 12 18 100 0.019328
5 12 18 100 0.0244853
6 12 18 100 0.0268225
7 12 18 100 0.0288336
8 12 18 100 0.0564652
9 12 18 100 0.0862185
10 12 18 100 0.0712804
11 12 18 100 0.074929
12 12 18 100 0.121261
13 12 18 100 0.101722
14 12 18 100 0.0621492
15 12 18 100 0.0471985
16 12 18 100 0.0532461
17 12 18 100 0.0245476
18 12 18 100 0.0274661
0 13 18 100 0.132657
1 13 18 100 0.00539276
2 13 18 100 0.00637387
3 13 18 100 0.0121725
4 13 18 100 0.00984972
5 13 18 100 0.0183002
6 13 18 100 0.0271098
7 13 18 100 0.0217496
8 13 18 100 0.0616609
9 13 18 100 0.065262
10 13 18 100 0.0587132
11 13 18 100 0.0703511
12 13 18 100 0.0798747
13 13 18 100 0.11426
14 13 18 100 0.112244
15 13 18 100 0.0669324
16 13 18 100 0.0565319
17 13 18 100 0.0443296
18 13 18 100 0.0362342
0 14 18 100 0.159011
1 14 18 100 0.008288
2 14 18 100 0.00414166
3 14 18 100 0.0102556
4 14 18 100 0.00665676
5 14 18 100 0.0122383
6 14 18 100 0.0184839
7 14 18 100 0.0239873
8 14 18 100 0.0365959
9 14 18 100 0.0547888
10 14 18 100 0.0598103
11 14 18 100 0.0633492
12 14 18 100 0.07609
13 14 18 100 0.0734941
14 14 18 100 0.10922
15 14 18 100 0.0974175
16 14 18 100 0.0639244
17 14 18 100 0.0542656
18 14 18 100 0.067982
0 15 18 100 0.164665
1 15 18 100 0.00637587
2 15 18 100 0.00780111
3 15 18 100 0.0106134
4 15 18 100 0.0127481
5 15 18 100 0.00827761
6 15 18 100 0.0080072
7 15 18 100 0.0153203
8 15 18 100 0.0269484
9 15 18 100 0.0273241
10 15 18 100 0.0456549
11 15 18 100 0.0749276
12 15 18 100 0.0726841
13 15 18 100 0.0766067
14 15 18 100 0.0798629
15 15 18 100 0.126782
16 15 18 100 0.085355
17 15 18 100 0.0572284
18 15 18 100 0.0928176
0 16 18 100 0.164446
1 16 18 100 0.00456687
2 16 18 100 0.00876419
3 16 18 100 0.00706941
4 16 18 100 0.0137723
5 16 18 100 0.0111335
6 16 18 100 0.0111787
7 16 18 100 0.0116486
8 16 18 100 0.0142257
9 16 18 100 0.0313421
10 16 18 100 0.0430897
11 16 18 100 0.0367679
12 16 18 100 0.0914061
13 16 18 100 0.0640019
14 16 18 100 0.0659081
15 16 18 100 0.067992
16 16 18 100 0.136812
17 16 18 100 0.121186
18 16 18 100 0.0946884
0 17 18 100 0.17164
1 17 18 100 0.00254488
2 17 18 100 0.00253747
3 17 18 100 0.00785026
4 17 18 100 0.00781105
5 17 18 100 0.0101268
6 17 18 100 0.0144312
7 17 18 100 0.022152
8 17 18 100 0.0177144
9 17 18 100 0.0126971
10 17 18 100 0.0316567
11 17 18 100 0.0532093
12 17 18 100 0.0534557
13 17 18 100 0.0884363
14 17 18 100 0.0800702
15 17 18 100 0.0686681
16 17 18 100 0.0859386
17 17 18 100 0.136345
18 17 18 100 0.132715
0 18 18 100 0.162016
1 18 18 100 0.00293193
2 18 18 100 7.1619e-05
3 18 18 100 0.00908704
4 18 18 100 0.00571889
5 18 18 100 0.0154518
6 18 18 100 0.00372829
7 18 18 100 0.0117611
8 18 18 100 0.0292134
9 18 18 100 0.015201
10 18 18 100 0.0386651
11 18 18 100 0.0336358
12 18 18 100 0.043839
13 18 18 100 0.0675788
14 18 18 100 0.0884864
15 18 18 100 0.113399
16 18 18 100 0.106484
17 18 18 100 0.0876107
18 18 18 100 0.165121
0 19 18 100 0.154723
1 19 18 100 0.00363158
2 19 18 100 0.00370878
3 19 18 100 0.00391437
4 19 18 100 0.00378796
5 19 18 100 0.0102526
6 19 18 100 0.00414015
7 19 18 100 0.00739446
8 19 18 100 0.0282872
9 19 18 100 0.0148822
10 19 18 100 0.0186156
11 19 18 100 0.05211
12 19 18 100 0.060858
13 19 18 100 0.0624848
14 19 18 100 0.102663
15 19 18 100 0.113168
16 19 18 100 0.113869
17 19 18 100 0.136036
18 19 18 100 0.105473
0 20 18 100 0.124676
1 20 18 100 2.23093e-05
2 20 18 100 8.88563e-06
3 20 18 100 4.13083e-07
4 20 18 100 3.21508e-06
5 20 18 100 0.00938113
6 20 18 100 0.0132079
7 20 18 100 4.3864e-06
8 20 18 100 0.0273928
9 20 18 100 0.0274161
10 20 18 100 0.0137034
11 20 18 100 0.0221057
12 20 18 100 0.0640021
13 20 18 100 0.0964877
14 20 18 100 0.0820573
15 20 18 100 0.116771
16 20 18 100 0.153611
17 20 18 100 0.0993234
18 20 18 100 0.149825
0 21 18 100 0.135215
1 21 18 100 1.49727e-05
2 21 18 100 0.00043646
3 21 18 100 1.45191e-06
4 21 18 100 4.11022e-06
5 21 18 100 4.2543e-06
6 21 18 100 0.00591874
7 21 18 100 0.018129
8 21 18 100 0.0118847
9 21 18 100 0.0226834
10 21 18 100 0.0178853
11 21 18 100 0.0236697
12 21 18 100 0.0532551
13 21 18 100 0.0830882
14 21 18 100 0.0820044
15 21 18 100 0.0992358
16 21 18 100 0.111576
17 21 18 100 0.149105
18 21 18 100 0.185888
0 22 18 100 0.152417
2 22 18 100 0.00871474
3 22 18 100 1.72887e-05
4 22 18 100 1.15333e-05
5 22 18 100 2.10219e-05
6 22 18 100 0.0182357
7 22 18 100 9.25581e-07
8 22 18 100 0.000545428
9 22 18 100 0.0204126
10 22 18 100 0.0176729
11 22 18 100 0.0496436
12 22 18 100 0.0272284
13 22 18 100 0.0525951
14 22 18 100 0.0642841
15 22 18 100 0.101921
16 22 18 100 0.118388
17 22 18 100 0.141424
18 22 18 100 0.226467
0 23 18 100 0.187141
1 23 18 100 0.00126587
2 23 18 100 0.0126878
3 23 18 100 4.07177e-06
4 23 18 100 3.32346e-07
5 23 18 100 3.71522e-07
6 23 18 100 0.0133346
7 23 18 100 0.0109459
8 23 18 100 0.0120607
9 23 18 100 1.37614e-07
10 23 18 100 0.0399857
11 23 18 100 0.0133647
12 23 18 100 0.0400651
13 23 18 100 0.0157704
14 23 18 100 0.0926742
15 23 18 100 0.0673255
16 23 18 100 0.132671
17 23 18 100 0.15495
18 23 18 100 0.205752
0 24 18 100 0.117551
2 24 18 100 0.000745673
3 24 18 100 0.00176213
4 24 18 100 1.92473e-06
6 24 18 100 0.0196079
7 24 18 100 0.00147319
8 24 18 100 7.58812e-05
9 24 18 100 2.24225e-07
10 24 18 100 0.00102437
11 24 18 100 0.058899
12 24 18 100 0.0198786
13 24 18 100 0.0341526
14 24 18 100 0.0980354
15 24 18 100 0.0392151
16 24 18 100 0.176269
17 24 18 100 0.154807
18 24 18 100 0.276501
0 25 18 100 0.148308
2 25 18 100 4.88424e-06
3 25 18 100 2.86349e-05
4 25 18 100 7.09982e-07
7 25 18 100 0.000169745
9 25 18 100 9.7688e-07
10 25 18 100 0.0357144
11 25 18 100 4.09283e-06
12 25 18 100 0.0715347
13 25 18 100 0.0366221
14 25 18 100 0.24459
15 25 18 100 0.000614538
16 25 18 100 0.107811
17 25 18 100 0.176092
18 25 18 100 0.178504
0 26 18 100 0.167089
1 26 18 100 4.54298e-06
3 26 18 100 0.0555556
4 26 18 100 1.62772e-06
7 26 18 100 5.00438e-06
11 26 18 100 2.04678e-06
12 26 18 100 0.0154652
13 26 18 100 5.42452e-05
14 26 18 100 0.0394863
15 26 18 100 0.277761
16 26 18 100 0.111111
17 26 18 100 0.166798
18 26 18 100 0.166667
0 27 18 100 0.147261
1 27 18 100 3.62683e-05
7 27 18 100 0.000117195
12 27 18 100 0.0714251
15 27 18 100 0.142858
16 27 18 100 0.285713
17 27 18 100 0.209725
18 27 18 100 0.142864
0 28 18 100 0.271994
1 28 18 100 6.98718e-06
5 28 18 100 5.92327e-05
12 28 18 100 0.0908986
13 28 18 100 0.0909092
15 28 18 100 0.0916488
16 28 18 100 0.182961
17 28 18 100 0.0909085
18 28 18 100 0.180614
2 29 18 100 0.000325693
9 29 18 100 0.00249873
10 29 18 100 1.95672e-05
14 29 18 100 0.166666
15 29 18 100 0.166667
16 29 18 100 0.663823
0 30 18 100 5.06784e-06
16 30 18 100 0.999995
0 1 19 100 0.1537
1 1 19 100 0.747409
2 1 19 100 0.021968
3 1 19 100 0.0159495
4 1 19 100 0.0235608
5 1 19 100 0.0110607
6 1 19 100 0.00465184
7 1 19 100 2.19514e-06
8 1 19 100 0.00220797
9 1 19 100 0.000193734
10 1 19 100 4.84997e-07
11 1 19 100 0.00220824
12 1 19 100 1.07493e-05
13 1 19 100 2.17578e-05
14 1 19 100 0.0022089
15 1 19 100 0.00624333
16 1 19 100 2.97713e-07
17 1 19 100 0.00222634
18 1 19 100 0.00415545
19 1 19 100 0.00222112
0 2 19 100 0.105846
1 2 19 100 0.206719
2 2 19 100 0.398337
3 2 19 100 0.100174
4 2 19 100 0.0558058
5 2 19 100 0.0273358
6 2 19 100 0.0197674
7 2 19 100 0.0110995
8 2 19 100 0.00894042
9 2 19 100 0.0109935
10 2 19 100 0.00220872
11 2 19 100 0.00574924
12 2 19 100 0.00222119
13 2 19 100 0.0091948
14 2 19 100 0.00220925
15 2 19 100 0.00225336
16 2 19 100 0.00654496
17 2 19 100 0.00472675
18 2 19 100 0.00845097
19 2 19 100 0.0114218
0 3 19 100 0.132712
1 3 19 100 0.056451
2 3 19 100 0.243662
3 3 19 100 0.279921
4 3 19 100 0.0925009
5 3 19 100 0.0511656
6 3 19 100 0.0266546
7 3 19 100 0.0221616
8 3 19 100 0.0226931
9 3 19 100 0.00851925
10 3 19 100 0.00934899
11 3 19 100 0.00499204
12 3 19 100 0.00857675
13 3 19 100 0.00291602
14 3 19 100 0.00653251
15 3 19 100 0.000192433
16 3 19 100 0.00184191
17 3 19 100 0.00247337
18 3 19 100 0.00647143
19 3 19 100 0.0202137
0 4 19 100 0.161935
1 4 19 100 0.059113
2 4 19 100 0.103893
3 4 19 100 0.214063
4 4 19 100 0.189217
5 4 19 100 0.101662
6 4 19 100 0.0263555
7 4 19 100 0.0289535
8 4 19 100 0.0271951
9 4 19 100 0.0154361
10 4 19 100 0.00483227
11 4 19 100 0.0155906
12 4 19 100 0.0107835
13 4 19 100 0.00670501
14 4 19 100 4.66705e-06
15 4 19 100 7.23546e-06
16 4 19 100 0.00222517
17 4 19 100 0.000835194
18 4 19 100 0.000664722
19 4 19 100 0.0305278
0 5 19 100 0.148275
1 5 19 100 0.0311937
2 5 19 100 0.0577118
3 5 19 100 0.127317
4 5 19 100 0.141105
5 5 19 100 0.177747
6 5 19 100 0.106547
7 5 19 100 0.0404475
8 5 19 100 0.0401473
9 5 19 100 0.0258235
10 5 19 100 0.0308877
11 5 19 100 0.0179582
12 5 19 100 0.00451268
13 5 19 100 0.00716059
14 5 19 100 0.00411688
15 5 19 100 0.00224286
16 5 19 100 0.00210362
17 5 19 100 0.00391181
18 5 19 100 0.00875837
19 5 19 100 0.0220308
0 6 19 100 0.152462
1 6 19 100 0.0309417
2 6 19 100 0.045278
3 6 19 100 0.0698985
4 6 19 100 0.0955925
5 6 19 100 0.145902
6 6 19 100 0.168615
7 6 19 100 0.0855451
8 6 19 100 0.0572016
9 6 19 100 0.0448526
10 6 19 100 0.0265545
11 6 19 100 0.0227026
12 6 19 100 0.00953709
13 6 19 100 0.00250441
14 6 19 100 0.0076304
15 6 19 100 0.00452931
16 6 19 100 0.00347491
17 6 19 100 0.00448984
18 6 19 100 0.0113936
19 6 19 100 0.0108948
0 7 19 100 0.176488
1 7 19 100 0.0306754
2 7 19 100 0.0182427
3 7 19 100 0.0295961
4 7 19 100 0.0757301
5 7 19 100 0.0869837
6 7 19 100 0.117801
7 7 19 100 0.176726
8 7 19 100 0.0891439
9 7 19 100 0.0707677
10 7 19 100 0.0335368
11 7 19 100 0.0252433
12 7 19 100 0.0184211
